
/* Species #37 : (Size 16) (AF 93.2501) (Age 5)  */


/* Organism #0 Fitness: 83 Error: 0 */
/* ##------$ WINNER 0 SPECIES #37 $------## */
genomestart 0
trait 1 0.1 0 0 0 0 0 0 0 
trait 2 0.2 0 0 0 0 0 0 0 
trait 3 0.3 0 0 0 0 0 0 0 
trait 4 0 0 0 0 0 0 0 0 
trait 5 0.5 0 0 0 0 0 0 0 
trait 6 0.378347 0 0 0.742295 0 0.359265 0 0.227462 
trait 7 0.7 0 0 0 0 0 0 0 
trait 8 0.8 0 0 0 0 0 0 0 
node 1 3 1 3
node 2 5 1 1
node 3 4 1 1
node 4 6 1 1
node 5 3 1 1
node 6 3 1 1
node 7 8 1 1
node 8 1 0 2
node 14 1 0 0
node 19 1 0 0
node 23 2 0 0
node 27 3 0 0
node 47 1 0 0
node 53 1 0 0
node 64 1 0 0
node 81 1 0 0
node 88 1 0 0
gene 7 1 8 0.484431 0 1 0.484431 1
gene 6 2 8 -2.09043 0 2 -2.09043 1
gene 4 3 8 -0.535984 0 3 -0.535984 1
gene 5 4 8 0.650228 0 4 0.650228 1
gene 5 5 8 -0.514811 0 5 -0.514811 1
gene 3 6 8 4.29276 0 6 4.29276 1
gene 7 7 8 -1.1367 0 7 -1.1367 1
gene 5 5 14 -8 0 18 -8 1
gene 5 14 8 -0.341983 0 19 -0.341983 1
gene 5 1 14 -3.31287 0 22 -3.31287 1
gene 7 3 14 1.5076 0 24 1.5076 1
gene 4 4 14 -5.92589 0 39 -5.92589 1
gene 4 3 19 6.7088 0 47 6.7088 0
gene 4 19 8 0.804496 0 48 0.804496 1
gene 4 6 14 -2.26928 0 50 -2.26928 1
gene 4 19 23 -2.44415 0 63 -2.44415 1
gene 4 23 8 0.769859 0 64 0.769859 1
gene 2 23 14 -1.30474 0 70 -1.30474 1
gene 4 23 27 7.47634 0 79 7.47634 1
gene 4 27 8 1.66583 0 80 1.66583 1
gene 7 1 19 -1.54225 0 83 -1.54225 1
gene 4 5 27 5.23744 0 92 5.23744 0
gene 2 2 19 -3.32082 0 108 -3.32082 1
gene 8 6 23 -0.192782 0 115 -0.192782 1
gene 4 2 23 -2.93567 0 124 -2.93567 0
gene 8 4 19 -0.527733 0 153 -0.527733 1
gene 4 5 47 -1.35253 0 181 -1.35253 0
gene 4 47 27 4.1807 0 182 4.1807 1
gene 7 27 14 1.51197 0 193 1.51197 1
gene 7 4 27 1.98316 0 212 1.98316 1
gene 1 2 27 -2.67196 0 222 -2.67196 1
gene 4 2 53 -3.48148 0 226 -3.48148 1
gene 4 53 23 -3.55476 0 227 -3.55476 1
gene 2 53 27 -3.78021 0 238 -3.78021 0
gene 4 5 64 0.173497 0 277 0.173497 1
gene 4 64 47 -1.64703 0 278 -1.64703 1
gene 2 53 81 2.11432 0 347 2.11432 1
gene 2 81 27 -1.24398 0 348 -1.24398 1
gene 6 3 27 3.70051 0 354 3.70051 1
gene 4 3 88 1.4924 0 372 1.4924 1
gene 4 88 19 6.75233 0 373 6.75233 1
genomeend 0

/* Organism #1 Fitness: 148 Error: 0 */
/* ##------$ WINNER 1 SPECIES #37 $------## */
genomestart 1
trait 1 0.1 0 0 0 0 0 0 0 
trait 2 0.2 0 0 0 0 0 0 0 
trait 3 0.3 0 0 0 0 0 0 0 
trait 4 0 0 0 0 0 0 0 0 
trait 5 0.5 0 0 0 0 0 0 0 
trait 6 0.378347 0 0 0.742295 0 0.359265 0 0.227462 
trait 7 0.7 0 0 0 0 0 0 0 
trait 8 0.8 0 0 0 0 0 0 0 
node 1 3 1 3
node 2 5 1 1
node 3 4 1 1
node 4 6 1 1
node 5 3 1 1
node 6 3 1 1
node 7 8 1 1
node 8 1 0 2
node 14 1 0 0
node 19 1 0 0
node 23 2 0 0
node 27 3 0 0
node 47 1 0 0
node 53 1 0 0
node 64 1 0 0
node 81 1 0 0
node 88 1 0 0
node 95 1 0 0
gene 7 1 8 0.484431 0 1 0.484431 1
gene 6 2 8 -2.09043 0 2 -2.09043 1
gene 4 3 8 -0.535984 0 3 -0.535984 1
gene 5 4 8 0.650228 0 4 0.650228 1
gene 5 5 8 -0.514811 0 5 -0.514811 1
gene 3 6 8 4.29276 0 6 4.29276 1
gene 7 7 8 -1.1367 0 7 -1.1367 1
gene 5 5 14 -8 0 18 -8 1
gene 5 14 8 -0.341983 0 19 -0.341983 1
gene 5 1 14 -3.31287 0 22 -3.31287 1
gene 7 3 14 1.5076 0 24 1.5076 1
gene 4 4 14 -5.92589 0 39 -5.92589 1
gene 4 3 19 6.7088 0 47 6.7088 0
gene 4 19 8 0.804496 0 48 0.804496 1
gene 4 6 14 -2.26928 0 50 -2.26928 1
gene 4 19 23 -2.44415 0 63 -2.44415 1
gene 4 23 8 0.769859 0 64 0.769859 1
gene 2 23 14 -1.30474 0 70 -1.30474 1
gene 4 23 27 7.47634 0 79 7.47634 1
gene 4 27 8 1.66583 0 80 1.66583 1
gene 7 1 19 -1.54225 0 83 -1.54225 1
gene 4 5 27 5.23744 0 92 5.23744 0
gene 2 2 19 -3.32082 0 108 -3.32082 1
gene 8 6 23 -0.192782 0 115 -0.192782 1
gene 4 2 23 -2.93567 0 124 -2.93567 0
gene 8 4 19 -0.527733 0 153 -0.527733 1
gene 4 5 47 -1.35253 0 181 -1.35253 0
gene 4 47 27 4.1807 0 182 4.1807 1
gene 7 27 14 1.51197 0 193 1.51197 1
gene 7 4 27 1.98316 0 212 1.98316 1
gene 1 2 27 -2.67196 0 222 -2.67196 1
gene 4 2 53 -3.48148 0 226 -3.48148 1
gene 4 53 23 -3.55476 0 227 -3.55476 1
gene 2 53 27 -3.78021 0 238 -3.78021 0
gene 4 5 64 0.173497 0 277 0.173497 0
gene 4 64 47 -1.64703 0 278 -1.64703 1
gene 2 53 81 2.11432 0 347 2.11432 1
gene 2 81 27 -1.24398 0 348 -1.24398 1
gene 6 3 27 3.70051 0 354 3.70051 1
gene 4 3 88 1.4924 0 372 1.4924 1
gene 4 88 19 6.75233 0 373 6.75233 1
gene 4 5 95 1 0 397 0 1
gene 4 95 64 0.173497 0 398 0 1
genomeend 1

/* Organism #2 Fitness: 169 Error: 0 */
/* ##------$ WINNER 2 SPECIES #37 $------## */
genomestart 2
trait 1 0.1 0 0 0 0 0 0 0 
trait 2 0.2 0 0 0 0 0 0 0 
trait 3 0.3 0 0 0 0 0 0 0 
trait 4 0 0 0 0 0 0 0 0 
trait 5 0.5 0 0 0 0 0 0 0 
trait 6 0.378347 0 0 0.742295 0 0.359265 0 0.227462 
trait 7 0.7 0 0 0 0 0 0 0 
trait 8 0.8 0 0 0 0 0 0 0 
node 1 3 1 3
node 2 5 1 1
node 3 4 1 1
node 4 6 1 1
node 5 3 1 1
node 6 3 1 1
node 7 8 1 1
node 8 1 0 2
node 14 1 0 0
node 19 1 0 0
node 23 2 0 0
node 27 3 0 0
node 47 1 0 0
node 53 1 0 0
node 64 1 0 0
node 81 1 0 0
node 88 1 0 0
gene 7 1 8 0.484431 0 1 0.484431 1
gene 6 2 8 -2.09043 0 2 -2.09043 1
gene 4 3 8 -0.535984 0 3 -0.535984 1
gene 5 4 8 0.650228 0 4 0.650228 1
gene 5 5 8 -0.514811 0 5 -0.514811 1
gene 3 6 8 4.29276 0 6 4.29276 1
gene 7 7 8 -1.1367 0 7 -1.1367 1
gene 5 5 14 -8 0 18 -8 1
gene 5 14 8 -0.341983 0 19 -0.341983 1
gene 5 1 14 -3.31287 0 22 -3.31287 1
gene 7 3 14 1.5076 0 24 1.5076 1
gene 4 4 14 -5.92589 0 39 -5.92589 1
gene 4 3 19 6.7088 0 47 6.7088 0
gene 4 19 8 0.804496 0 48 0.804496 1
gene 4 6 14 -2.26928 0 50 -2.26928 1
gene 4 19 23 -2.44415 0 63 -2.44415 1
gene 4 23 8 0.769859 0 64 0.769859 1
gene 2 23 14 -1.30474 0 70 -1.30474 1
gene 4 23 27 7.47634 0 79 7.47634 1
gene 4 27 8 1.66583 0 80 1.66583 1
gene 7 1 19 -1.54225 0 83 -1.54225 1
gene 4 5 27 5.23744 0 92 5.23744 0
gene 2 2 19 -3.32082 0 108 -3.32082 1
gene 8 6 23 -0.192782 0 115 -0.192782 1
gene 4 2 23 -2.93567 0 124 -2.93567 0
gene 8 4 19 -0.527733 0 153 -0.527733 1
gene 4 5 47 -1.35253 0 181 -1.35253 0
gene 4 47 27 4.1807 0 182 4.1807 1
gene 7 27 14 1.51197 0 193 1.51197 1
gene 7 4 27 1.98316 0 212 1.98316 1
gene 1 2 27 -2.67196 0 222 -2.67196 1
gene 4 2 53 -3.48148 0 226 -3.48148 1
gene 4 53 23 -3.55476 0 227 -3.55476 1
gene 2 53 27 -3.78021 0 238 -3.78021 0
gene 4 5 64 0.173497 0 277 0.173497 1
gene 4 64 47 -1.64703 0 278 -1.64703 1
gene 2 53 81 2.11432 0 347 2.11432 1
gene 2 81 27 -1.24398 0 348 -1.24398 1
gene 6 3 27 3.70051 0 354 3.70051 1
gene 4 3 88 1.4924 0 372 1.4924 1
gene 4 88 19 6.75233 0 373 6.75233 1
gene 6 53 64 0.663328 0 399 0.663328 1
genomeend 2

/* Organism #3 Fitness: 61 Error: 0 */
/* ##------$ WINNER 3 SPECIES #37 $------## */
genomestart 3
trait 1 0.1 0 0 0 0 0 0 0 
trait 2 0.2 0 0 0 0 0 0 0 
trait 3 0.3 0 0 0 0 0 0 0 
trait 4 0 0 0 0 0 0 0 0 
trait 5 0.5 0 0 0 0 0 0 0 
trait 6 0.378347 0 0 0.742295 0 0.359265 0 0.227462 
trait 7 0.7 0 0 0 0 0 0 0 
trait 8 0.8 0 0 0 0 0 0 0 
node 1 3 1 3
node 2 5 1 1
node 3 4 1 1
node 4 6 1 1
node 5 3 1 1
node 6 3 1 1
node 7 8 1 1
node 8 1 0 2
node 14 1 0 0
node 19 1 0 0
node 23 2 0 0
node 27 3 0 0
node 47 1 0 0
node 53 1 0 0
node 64 1 0 0
node 81 1 0 0
node 88 1 0 0
gene 7 1 8 2.24509 0 1 2.24509 1
gene 6 2 8 0.315681 0 2 0.315681 1
gene 4 3 8 -2.48501 0 3 -2.48501 1
gene 5 4 8 -2.14629 0 4 -2.14629 1
gene 5 5 8 -0.514811 0 5 -0.514811 1
gene 3 6 8 4.29276 0 6 4.29276 1
gene 7 7 8 -0.801516 0 7 -0.801516 1
gene 5 5 14 -8 0 18 -8 1
gene 5 14 8 -0.75483 0 19 -0.75483 1
gene 5 1 14 -1.36075 0 22 -1.36075 1
gene 7 3 14 -2.05834 0 24 -2.05834 1
gene 4 4 14 1.83551 0 39 1.83551 1
gene 4 3 19 6.6864 0 47 6.6864 0
gene 4 19 8 1.45552 0 48 1.45552 1
gene 4 6 14 -3.67696 0 50 -3.67696 1
gene 4 19 23 0.468187 0 63 0.468187 1
gene 4 23 8 2.85875 0 64 2.85875 1
gene 2 23 14 0.760403 0 70 0.760403 1
gene 4 23 27 8 0 79 8 1
gene 4 27 8 3.57879 0 80 3.57879 1
gene 7 1 19 -0.0387483 0 83 -0.0387483 1
gene 4 5 27 5.23744 0 92 5.23744 0
gene 2 2 19 -3.32082 0 108 -3.32082 1
gene 8 6 23 -1.90299 0 115 -1.90299 1
gene 4 2 23 -2.18264 0 124 -2.18264 0
gene 8 4 19 -0.527733 0 153 -0.527733 1
gene 4 5 47 -2.46435 0 181 -2.46435 0
gene 4 47 27 4.11235 0 182 4.11235 1
gene 7 27 14 0.994264 0 193 0.994264 1
gene 7 4 27 3.18265 0 212 3.18265 1
gene 1 2 27 -2.95073 0 222 -2.95073 1
gene 4 2 53 2.49279 0 226 2.49279 1
gene 4 53 23 -3.30713 0 227 -3.30713 1
gene 2 53 27 -4.27254 0 238 -4.27254 1
gene 4 5 64 0.546672 0 277 0.546672 1
gene 4 64 47 -0.61649 0 278 -0.61649 1
gene 2 53 81 4.29929 0 347 4.29929 1
gene 2 81 27 -1.24398 0 348 -1.24398 1
gene 6 3 27 1.26434 0 354 1.26434 1
gene 4 3 88 -0.898964 0 372 -0.898964 1
gene 4 88 19 6.75233 0 373 6.75233 1
genomeend 3

/* Organism #4 Fitness: 153 Error: 0 */
/* ##------$ WINNER 4 SPECIES #37 $------## */
genomestart 4
trait 1 0.1 0 0 0 0 0 0 0 
trait 2 0.2 0 0 0 0 0 0 0 
trait 3 0.3 0 0 0 0 0 0 0 
trait 4 0 0 0 0 0 0 0 0 
trait 5 0.5 0 0 0 0 0 0 0 
trait 6 0.378347 0 0 0.742295 0 0.359265 0 0.227462 
trait 7 0.7 0 0 0 0 0 0 0 
trait 8 0.8 0 0 0 0 0 0 0 
node 1 3 1 3
node 2 5 1 1
node 3 4 1 1
node 4 6 1 1
node 5 3 1 1
node 6 3 1 1
node 7 8 1 1
node 8 1 0 2
node 14 1 0 0
node 19 1 0 0
node 23 2 0 0
node 27 3 0 0
node 47 1 0 0
node 53 1 0 0
node 64 1 0 0
node 81 1 0 0
node 88 1 0 0
gene 7 1 8 0.484431 0 1 0.484431 1
gene 6 2 8 -2.09043 0 2 -2.09043 1
gene 4 3 8 -0.535984 0 3 -0.535984 1
gene 5 4 8 0.650228 0 4 0.650228 1
gene 5 5 8 -0.514811 0 5 -0.514811 1
gene 3 6 8 4.29276 0 6 4.29276 1
gene 7 7 8 -1.1367 0 7 -1.1367 1
gene 5 5 14 -8 0 18 -8 1
gene 5 14 8 -0.341983 0 19 -0.341983 1
gene 5 1 14 -3.31287 0 22 -3.31287 1
gene 7 3 14 1.5076 0 24 1.5076 1
gene 4 4 14 -5.92589 0 39 -5.92589 1
gene 4 3 19 6.7088 0 47 6.7088 0
gene 4 19 8 0.804496 0 48 0.804496 1
gene 4 6 14 -2.26928 0 50 -2.26928 1
gene 4 19 23 -2.44415 0 63 -2.44415 1
gene 4 23 8 0.769859 0 64 0.769859 1
gene 2 23 14 -1.30474 0 70 -1.30474 1
gene 4 23 27 7.47634 0 79 7.47634 1
gene 4 27 8 1.66583 0 80 1.66583 1
gene 7 1 19 -1.54225 0 83 -1.54225 1
gene 4 5 27 5.23744 0 92 5.23744 0
gene 2 2 19 -3.32082 0 108 -3.32082 1
gene 8 6 23 -0.192782 0 115 -0.192782 1
gene 4 2 23 -2.93567 0 124 -2.93567 0
gene 8 4 19 -0.527733 0 153 -0.527733 1
gene 4 5 47 -1.35253 0 181 -1.35253 0
gene 4 47 27 4.1807 0 182 4.1807 1
gene 7 27 14 1.51197 0 193 1.51197 1
gene 7 4 27 1.98316 0 212 1.98316 1
gene 1 2 27 -2.67196 0 222 -2.67196 1
gene 4 2 53 -3.48148 0 226 -3.48148 1
gene 4 53 23 -3.55476 0 227 -3.55476 1
gene 2 53 27 -3.78021 0 238 -3.78021 0
gene 4 5 64 0.173497 0 277 0.173497 1
gene 4 64 47 -1.64703 0 278 -1.64703 1
gene 2 53 81 2.11432 0 347 2.11432 1
gene 2 81 27 -1.24398 0 348 -1.24398 1
gene 6 3 27 3.70051 0 354 3.70051 1
gene 4 3 88 1.4924 0 372 1.4924 1
gene 4 88 19 6.75233 0 373 6.75233 1
gene 4 6 19 0.734256 0 400 0.734256 1
genomeend 4

/* Organism #5 Fitness: 51 Error: 0 */
/* ##------$ WINNER 5 SPECIES #37 $------## */
genomestart 5
trait 1 0.1 0 0 0 0 0 0 0 
trait 2 0.2 0 0 0 0 0 0 0 
trait 3 0.3 0 0 0 0 0 0 0 
trait 4 0 0 0 0 0 0 0 0 
trait 5 0.5 0 0 0 0 0 0 0 
trait 6 0.378347 0 0 0.742295 0 0.359265 0 0.227462 
trait 7 0.7 0 0 0 0 0 0 0 
trait 8 0.676005 0.480564 0 0 0 0 0 0.0406776 
node 1 3 1 3
node 2 5 1 1
node 3 4 1 1
node 4 6 1 1
node 5 3 1 1
node 6 3 1 1
node 7 8 1 1
node 8 1 0 2
node 14 1 0 0
node 19 1 0 0
node 23 2 0 0
node 27 3 0 0
node 47 1 0 0
node 53 1 0 0
node 64 1 0 0
node 81 1 0 0
node 88 1 0 0
gene 7 1 8 0.484431 0 1 0.484431 1
gene 6 2 8 -2.09043 0 2 -2.09043 1
gene 4 3 8 -0.535984 0 3 -0.535984 1
gene 5 4 8 0.650228 0 4 0.650228 1
gene 5 5 8 -0.514811 0 5 -0.514811 1
gene 3 6 8 4.29276 0 6 4.29276 1
gene 7 7 8 -1.1367 0 7 -1.1367 1
gene 5 5 14 -8 0 18 -8 1
gene 5 14 8 -0.341983 0 19 -0.341983 1
gene 5 1 14 -3.31287 0 22 -3.31287 1
gene 7 3 14 1.5076 0 24 1.5076 1
gene 4 4 14 -5.92589 0 39 -5.92589 1
gene 4 3 19 6.7088 0 47 6.7088 1
gene 4 19 8 0.804496 0 48 0.804496 1
gene 4 6 14 -2.26928 0 50 -2.26928 1
gene 4 19 23 -2.44415 0 63 -2.44415 1
gene 4 23 8 0.769859 0 64 0.769859 1
gene 2 23 14 -1.30474 0 70 -1.30474 1
gene 4 23 27 7.47634 0 79 7.47634 1
gene 4 27 8 1.66583 0 80 1.66583 1
gene 7 1 19 -1.54225 0 83 -1.54225 1
gene 4 5 27 5.23744 0 92 5.23744 0
gene 2 2 19 -3.32082 0 108 -3.32082 1
gene 8 6 23 -0.192782 0 115 -0.192782 1
gene 4 2 23 -2.93567 0 124 -2.93567 1
gene 8 4 19 -0.527733 0 153 -0.527733 1
gene 4 5 47 -1.35253 0 181 -1.35253 0
gene 4 47 27 4.1807 0 182 4.1807 1
gene 7 27 14 1.51197 0 193 1.51197 1
gene 7 4 27 1.98316 0 212 1.98316 1
gene 1 2 27 -2.67196 0 222 -2.67196 1
gene 4 2 53 -3.48148 0 226 -3.48148 1
gene 4 53 23 -3.55476 0 227 -3.55476 1
gene 2 53 27 -3.78021 0 238 -3.78021 0
gene 4 5 64 0.173497 0 277 0.173497 1
gene 4 64 47 -1.64703 0 278 -1.64703 1
gene 2 53 81 2.11432 0 347 2.11432 1
gene 2 81 27 -1.24398 0 348 -1.24398 1
gene 6 3 27 3.70051 0 354 3.70051 1
gene 4 3 88 1.4924 0 372 1.4924 1
gene 4 88 19 6.75233 0 373 6.75233 1
gene 3 19 47 0.757429 0 401 0.757429 1
genomeend 5

/* Organism #6 Fitness: 70 Error: 0 */
/* ##------$ WINNER 6 SPECIES #37 $------## */
genomestart 6
trait 1 0.1 0 0 0 0 0 0 0 
trait 2 0.2 0 0 0 0 0 0 0 
trait 3 0.3 0 0 0 0 0 0 0 
trait 4 0 0 0 0 0 0 0 0 
trait 5 0.5 0 0 0 0 0 0 0 
trait 6 0.378347 0 0 0.742295 0 0.359265 0 0.227462 
trait 7 0.7 0 0 0 0 0 0 0 
trait 8 0.55201 0.961128 0 0 0 0 0 0.0813552 
node 1 3 1 3
node 2 5 1 1
node 3 4 1 1
node 4 6 1 1
node 5 3 1 1
node 6 3 1 1
node 7 8 1 1
node 8 1 0 2
node 14 1 0 0
node 19 1 0 0
node 23 2 0 0
node 27 3 0 0
node 47 1 0 0
node 53 1 0 0
node 64 1 0 0
node 81 1 0 0
node 88 1 0 0
gene 7 1 8 2.6555 0 1 2.6555 1
gene 6 2 8 0.382246 0 2 0.382246 1
gene 4 3 8 -0.535984 0 3 -0.535984 1
gene 5 4 8 -1.52321 0 4 -1.52321 1
gene 5 5 8 -0.514811 0 5 -0.514811 1
gene 3 6 8 -2.4828 0 6 -2.4828 1
gene 7 7 8 -1.34658 0 7 -1.34658 1
gene 5 5 14 -5.63317 0 18 -5.63317 1
gene 5 14 8 -1.08118 0 19 -1.08118 1
gene 5 1 14 -3.31287 0 22 -3.31287 1
gene 7 3 14 0.30458 0 24 0.30458 1
gene 4 4 14 -7.15204 0 39 -7.15204 1
gene 4 3 19 6.38767 0 47 6.38767 0
gene 4 19 8 0.527493 0 48 0.527493 1
gene 4 6 14 -0.369399 0 50 -0.369399 1
gene 4 19 23 -4.605 0 63 -4.605 1
gene 4 23 8 -0.402926 0 64 -0.402926 1
gene 2 23 14 -3.7635 0 70 -3.7635 1
gene 4 23 27 5.52053 0 79 5.52053 1
gene 4 27 8 0.957226 0 80 0.957226 1
gene 7 1 19 -1.54225 0 83 -1.54225 1
gene 4 5 27 3.44617 0 92 3.44617 1
gene 2 2 19 -3.07723 0 108 -3.07723 1
gene 8 6 23 -1.42167 0 115 -1.42167 1
gene 4 2 23 -3.6748 0 124 -3.6748 0
gene 8 4 19 -0.0306363 0 153 -0.0306363 1
gene 4 5 47 -1.92576 0 181 -1.92576 0
gene 4 47 27 4.2607 0 182 4.2607 1
gene 7 27 14 3.4877 0 193 3.4877 1
gene 7 4 27 -0.418213 0 212 -0.418213 1
gene 1 2 27 -3.12482 0 222 -3.12482 1
gene 4 2 53 -2.68022 0 226 -2.68022 1
gene 4 53 23 -4.47399 0 227 -4.47399 1
gene 2 53 27 -2.80275 0 238 -2.80275 0
gene 4 5 64 -0.649368 0 277 -0.649368 1
gene 4 64 47 -0.542671 0 278 -0.542671 1
gene 2 53 81 -0.210901 0 347 -0.210901 1
gene 2 81 27 0.77787 0 348 0.77787 1
gene 6 3 27 3.63945 0 354 3.63945 1
gene 4 3 88 3.67444 0 372 3.67444 1
gene 4 88 19 5.96765 0 373 5.96765 1
genomeend 6

/* Organism #7 Fitness: 0.0005 Error: 0 */
genomestart 7
trait 1 0.1 0 0 0 0 0 0 0 
trait 2 0.2 0 0 0 0 0 0 0 
trait 3 0.3 0 0 0 0 0 0 0 
trait 4 0 0 0 0 0 0 0 0 
trait 5 0.5 0 0 0 0 0 0 0 
trait 6 0.378347 0 0 0.742295 0 0.359265 0 0.227462 
trait 7 0.7 0 0 0 0 0 0 0 
trait 8 0.55201 0.961128 0 0 0 0 0 0.0813552 
node 1 3 1 3
node 2 5 1 1
node 3 4 1 1
node 4 6 1 1
node 5 3 1 1
node 6 3 1 1
node 7 8 1 1
node 8 1 0 2
node 14 1 0 0
node 19 1 0 0
node 23 2 0 0
node 27 3 0 0
node 47 1 0 0
node 53 1 0 0
node 64 1 0 0
node 81 1 0 0
node 88 1 0 0
gene 7 1 8 1.92346 0 1 1.92346 1
gene 6 2 8 -2.22071 0 2 -2.22071 1
gene 4 3 8 0.217039 0 3 0.217039 1
gene 5 4 8 0.889622 0 4 0.889622 1
gene 5 5 8 -2.16932 0 5 -2.16932 1
gene 3 6 8 1.90742 0 6 1.90742 1
gene 7 7 8 -0.0562642 0 7 -0.0562642 1
gene 5 5 14 -8 0 18 -8 1
gene 5 14 8 1.92775 0 19 1.92775 1
gene 5 1 14 -1.23259 0 22 -1.23259 1
gene 7 3 14 -0.631038 0 24 -0.631038 1
gene 4 4 14 -5.89009 0 39 -5.89009 1
gene 4 3 19 7.87999 0 47 7.87999 0
gene 4 19 8 3.05105 0 48 3.05105 1
gene 4 6 14 -2.61172 0 50 -2.61172 1
gene 4 19 23 -3.66014 0 63 -3.66014 1
gene 4 23 8 3.18861 0 64 3.18861 1
gene 2 23 14 -2.37756 0 70 -2.37756 1
gene 4 23 27 8 0 79 8 1
gene 4 27 8 0.57476 0 80 0.57476 1
gene 7 1 19 -3.02539 0 83 -3.02539 1
gene 4 5 27 6.33604 0 92 6.33604 0
gene 2 2 19 -3.08077 0 108 -3.08077 1
gene 8 6 23 -1.95565 0 115 -1.95565 1
gene 4 2 23 -4.96005 0 124 -4.96005 0
gene 8 4 19 0.130811 0 153 0.130811 1
gene 4 5 47 -1.26747 0 181 -1.26747 0
gene 4 47 27 5.37458 0 182 5.37458 1
gene 7 27 14 2.65125 0 193 2.65125 1
gene 7 4 27 -0.464202 0 212 -0.464202 1
gene 1 2 27 -2.39622 0 222 -2.39622 1
gene 4 2 53 -3.96951 0 226 -3.96951 1
gene 4 53 23 -5.96752 0 227 -5.96752 1
gene 2 53 27 -0.571309 0 238 -0.571309 0
gene 4 5 64 -0.504084 0 277 -0.504084 1
gene 4 64 47 0.599863 0 278 0.599863 1
gene 2 53 81 2.11432 0 347 2.11432 1
gene 2 81 27 -0.114675 0 348 -0.114675 1
gene 6 3 27 2.83333 0 354 2.83333 1
gene 4 3 88 1.4924 0 372 1.4924 1
gene 4 88 19 7.75098 0 373 7.75098 1
genomeend 7

/* Organism #8 Fitness: 0.0002 Error: 0 */
genomestart 8
trait 1 0.1 0 0 0 0 0 0 0 
trait 2 0.2 0 0 0 0 0 0 0 
trait 3 0.3 0 0 0 0 0 0 0 
trait 4 0 0 0 0 0 0 0 0 
trait 5 0.5 0 0 0 0 0 0 0 
trait 6 0.378347 0 0 0.742295 0 0.359265 0 0.227462 
trait 7 0.7 0 0 0 0 0 0 0 
trait 8 0.55201 0.961128 0 0 0 0 0 0.0813552 
node 1 3 1 3
node 2 5 1 1
node 3 4 1 1
node 4 6 1 1
node 5 3 1 1
node 6 3 1 1
node 7 8 1 1
node 8 1 0 2
node 14 1 0 0
node 19 1 0 0
node 23 2 0 0
node 27 3 0 0
node 47 1 0 0
node 53 1 0 0
node 64 1 0 0
node 81 1 0 0
node 88 1 0 0
gene 7 1 8 1.1095 0 1 1.1095 1
gene 6 2 8 -4.1891 0 2 -4.1891 1
gene 4 3 8 -2.11669 0 3 -2.11669 1
gene 5 4 8 0.18074 0 4 0.18074 1
gene 5 5 8 2.26397 0 5 2.26397 1
gene 3 6 8 5.93199 0 6 5.93199 1
gene 7 7 8 0.572039 0 7 0.572039 1
gene 5 5 14 -8 0 18 -8 1
gene 5 14 8 -1.20219 0 19 -1.20219 1
gene 5 1 14 -3.31287 0 22 -3.31287 1
gene 7 3 14 0.799655 0 24 0.799655 1
gene 4 4 14 -7.8474 0 39 -7.8474 1
gene 4 3 19 5.15569 0 47 5.15569 0
gene 4 19 8 0.820944 0 48 0.820944 1
gene 4 6 14 -2.26928 0 50 -2.26928 1
gene 4 19 23 -0.042912 0 63 -0.042912 1
gene 4 23 8 0.911896 0 64 0.911896 1
gene 2 23 14 0.953403 0 70 0.953403 1
gene 4 23 27 5.27112 0 79 5.27112 1
gene 4 27 8 2.15082 0 80 2.15082 1
gene 7 1 19 -0.444366 0 83 -0.444366 1
gene 4 5 27 7.26839 0 92 7.26839 0
gene 2 2 19 -0.270363 0 108 -0.270363 1
gene 8 6 23 -2.60376 0 115 -2.60376 1
gene 4 2 23 1.57458 0 124 1.57458 0
gene 8 4 19 1.2263 0 153 1.2263 1
gene 4 5 47 0.184869 0 181 0.184869 0
gene 4 47 27 4.1807 0 182 4.1807 1
gene 7 27 14 0.915989 0 193 0.915989 1
gene 7 4 27 2.22991 0 212 2.22991 1
gene 1 2 27 -4.09596 0 222 -4.09596 1
gene 4 2 53 -1.69372 0 226 -1.69372 1
gene 4 53 23 -3.13489 0 227 -3.13489 1
gene 2 53 27 -5.18123 0 238 -5.18123 0
gene 4 5 64 0.173497 0 277 0.173497 1
gene 4 64 47 -0.0640903 0 278 -0.0640903 1
gene 2 53 81 4.30122 0 347 4.30122 1
gene 2 81 27 -2.46532 0 348 -2.46532 1
gene 6 3 27 3.70051 0 354 3.70051 1
gene 4 3 88 3.96352 0 372 3.96352 1
gene 4 88 19 7.06454 0 373 7.06454 1
genomeend 8

/* Organism #9 Fitness: 52 Error: 0 */
/* ##------$ WINNER 9 SPECIES #37 $------## */
genomestart 9
trait 1 0.1 0 0 0 0 0 0 0 
trait 2 0.2 0 0 0 0 0 0 0 
trait 3 0.3 0 0 0 0 0 0 0 
trait 4 0 0 0 0 0 0 0 0 
trait 5 0.5 0 0 0 0 0 0 0 
trait 6 0.378347 0 0 0.742295 0 0.359265 0 0.227462 
trait 7 0.7 0 0 0 0 0 0 0 
trait 8 0.55201 0.961128 0 0 0 0 0 0.0813552 
node 1 3 1 3
node 2 5 1 1
node 3 4 1 1
node 4 6 1 1
node 5 3 1 1
node 6 3 1 1
node 7 8 1 1
node 8 1 0 2
node 14 1 0 0
node 19 1 0 0
node 23 2 0 0
node 27 3 0 0
node 47 1 0 0
node 53 1 0 0
node 64 1 0 0
node 81 1 0 0
node 88 1 0 0
gene 7 1 8 -1.85144 0 1 -1.85144 1
gene 6 2 8 -2.09043 0 2 -2.09043 1
gene 4 3 8 -0.109748 0 3 -0.109748 1
gene 5 4 8 -1.72354 0 4 -1.72354 1
gene 5 5 8 -2.9321 0 5 -2.9321 1
gene 3 6 8 6.48346 0 6 6.48346 1
gene 7 7 8 -2.02482 0 7 -2.02482 1
gene 5 5 14 -6.62669 0 18 -6.62669 1
gene 5 14 8 -2.27835 0 19 -2.27835 1
gene 5 1 14 -5.3973 0 22 -5.3973 1
gene 7 3 14 -0.583624 0 24 -0.583624 1
gene 4 4 14 -4.74494 0 39 -4.74494 1
gene 4 3 19 8 0 47 8 0
gene 4 19 8 -1.65106 0 48 -1.65106 1
gene 4 6 14 -3.25216 0 50 -3.25216 1
gene 4 19 23 -4.42547 0 63 -4.42547 1
gene 4 23 8 -0.0221195 0 64 -0.0221195 1
gene 2 23 14 -3.66793 0 70 -3.66793 1
gene 4 23 27 0.672054 0 79 0.672054 1
gene 4 27 8 1.66583 0 80 1.66583 1
gene 7 1 19 -3.68375 0 83 -3.68375 1
gene 4 5 27 5.16168 0 92 5.16168 0
gene 2 2 19 -2.67727 0 108 -2.67727 1
gene 8 6 23 0.608653 0 115 0.608653 1
gene 4 2 23 -2.77818 0 124 -2.77818 0
gene 8 4 19 -1.20425 0 153 -1.20425 1
gene 4 5 47 -3.51754 0 181 -3.51754 0
gene 4 47 27 5.04978 0 182 5.04978 1
gene 7 27 14 1.51197 0 193 1.51197 1
gene 7 4 27 -0.0313552 0 212 -0.0313552 1
gene 1 2 27 -2.67196 0 222 -2.67196 1
gene 4 2 53 -3.48148 0 226 -3.48148 1
gene 4 53 23 -4.95531 0 227 -4.95531 1
gene 2 53 27 -1.34593 0 238 -1.34593 0
gene 4 5 64 2.56514 0 277 2.56514 1
gene 4 64 47 -2.83698 0 278 -2.83698 1
gene 2 53 81 1.09441 0 347 1.09441 1
gene 2 81 27 -0.269633 0 348 -0.269633 1
gene 6 3 27 4.01295 0 354 4.01295 1
gene 4 3 88 2.41908 0 372 2.41908 1
gene 4 88 19 -1.69679 0 373 -1.69679 1
genomeend 9

/* Organism #10 Fitness: 95 Error: 0 */
genomestart 10
trait 1 0.1 0 0 0 0 0 0 0 
trait 2 0.2 0 0 0 0 0 0 0 
trait 3 0.3 0 0 0 0 0 0 0 
trait 4 0 0 0 0 0 0 0 0 
trait 5 0.5 0 0 0 0 0 0 0 
trait 6 0.378347 0 0 0.742295 0 0.359265 0 0.227462 
trait 7 0.7 0 0 0 0 0 0 0 
trait 8 0.676005 0.480564 0 0 0 0 0 0.0406776 
node 1 3 1 3
node 2 5 1 1
node 3 4 1 1
node 4 6 1 1
node 5 3 1 1
node 6 3 1 1
node 7 8 1 1
node 8 1 0 2
node 14 1 0 0
node 19 1 0 0
node 23 2 0 0
node 27 3 0 0
node 47 1 0 0
node 53 1 0 0
node 64 1 0 0
node 81 1 0 0
node 88 1 0 0
gene 7 1 8 -1.23509 0 1 -1.23509 1
gene 6 2 8 0.141565 0 2 0.141565 1
gene 4 3 8 -0.503128 0 3 -0.503128 1
gene 5 4 8 -0.727304 0 4 -0.727304 1
gene 5 5 8 -2.13835 0 5 -2.13835 1
gene 3 6 8 3.54838 0 6 3.54838 1
gene 7 7 8 -3.49709 0 7 -3.49709 1
gene 5 5 14 -6.02237 0 18 -6.02237 1
gene 5 14 8 1.76914 0 19 1.76914 1
gene 5 1 14 -5.34639 0 22 -5.34639 1
gene 7 3 14 1.4504 0 24 1.4504 1
gene 4 4 14 -5.69949 0 39 -5.69949 1
gene 4 3 19 4.35193 0 47 4.35193 0
gene 4 19 8 0.996676 0 48 0.996676 1
gene 4 6 14 -3.74178 0 50 -3.74178 1
gene 4 19 23 -4.44919 0 63 -4.44919 1
gene 4 23 8 1.47591 0 64 1.47591 1
gene 2 23 14 -0.13842 0 70 -0.13842 1
gene 4 23 27 7.65783 0 79 7.65783 1
gene 4 27 8 2.86667 0 80 2.86667 1
gene 7 1 19 -0.003259 0 83 -0.003259 1
gene 4 5 27 3.91432 0 92 3.91432 0
gene 2 2 19 -5.01162 0 108 -5.01162 1
gene 8 6 23 -1.53592 0 115 -1.53592 1
gene 4 2 23 -0.99204 0 124 -0.99204 0
gene 8 4 19 -2.69488 0 153 -2.69488 1
gene 4 5 47 -2.47684 0 181 -2.47684 0
gene 4 47 27 3.07689 0 182 3.07689 1
gene 7 27 14 2.30166 0 193 2.30166 1
gene 7 4 27 1.73247 0 212 1.73247 1
gene 1 2 27 -3.95955 0 222 -3.95955 1
gene 4 2 53 -1.43431 0 226 -1.43431 1
gene 4 53 23 -5.77534 0 227 -5.77534 1
gene 2 53 27 -5.66794 0 238 -5.66794 0
gene 4 5 64 0.173497 0 277 0.173497 1
gene 4 64 47 -1.64703 0 278 -1.64703 1
gene 2 53 81 -2.00732 0 347 -2.00732 1
gene 2 81 27 -0.297014 0 348 -0.297014 1
gene 6 3 27 -2.40983 0 354 -2.40983 1
gene 4 3 88 1.4924 0 372 1.4924 1
gene 4 88 19 7.72476 0 373 7.72476 1
genomeend 10

/* Organism #11 Fitness: 219 Error: 0 */
/* ##------$ WINNER 11 SPECIES #37 $------## */
genomestart 11
trait 1 0.1 0 0 0 0 0 0 0 
trait 2 0.2 0 0 0 0 0 0 0 
trait 3 0.3 0 0 0 0 0 0 0 
trait 4 0 0 0 0 0 0 0 0 
trait 5 0.5 0 0 0 0 0 0 0 
trait 6 0.378347 0 0 0.742295 0 0.359265 0 0.227462 
trait 7 0.7 0 0 0 0 0 0 0 
trait 8 0.676005 0.480564 0 0 0 0 0 0.0406776 
node 1 3 1 3
node 2 5 1 1
node 3 4 1 1
node 4 6 1 1
node 5 3 1 1
node 6 3 1 1
node 7 8 1 1
node 8 1 0 2
node 14 1 0 0
node 19 1 0 0
node 23 2 0 0
node 27 3 0 0
node 47 1 0 0
node 53 1 0 0
node 64 1 0 0
node 81 1 0 0
node 88 1 0 0
node 96 1 0 0
gene 7 1 8 0.484431 0 1 0.484431 1
gene 6 2 8 -2.09043 0 2 -2.09043 1
gene 4 3 8 -0.535984 0 3 -0.535984 1
gene 5 4 8 0.650228 0 4 0.650228 1
gene 5 5 8 -0.514811 0 5 -0.514811 1
gene 3 6 8 4.29276 0 6 4.29276 1
gene 7 7 8 -1.1367 0 7 -1.1367 1
gene 5 5 14 -8 0 18 -8 1
gene 5 14 8 -0.341983 0 19 -0.341983 1
gene 5 1 14 -3.31287 0 22 -3.31287 1
gene 7 3 14 1.5076 0 24 1.5076 1
gene 4 4 14 -5.92589 0 39 -5.92589 1
gene 4 3 19 6.7088 0 47 6.7088 0
gene 4 19 8 0.804496 0 48 0.804496 1
gene 4 6 14 -2.26928 0 50 -2.26928 1
gene 4 19 23 -2.44415 0 63 -2.44415 1
gene 4 23 8 0.769859 0 64 0.769859 1
gene 2 23 14 -1.30474 0 70 -1.30474 1
gene 4 23 27 7.47634 0 79 7.47634 1
gene 4 27 8 1.66583 0 80 1.66583 1
gene 7 1 19 -1.54225 0 83 -1.54225 1
gene 4 5 27 5.23744 0 92 5.23744 0
gene 2 2 19 -3.32082 0 108 -3.32082 1
gene 8 6 23 -0.192782 0 115 -0.192782 1
gene 4 2 23 -2.93567 0 124 -2.93567 0
gene 8 4 19 -0.527733 0 153 -0.527733 1
gene 4 5 47 -1.35253 0 181 -1.35253 0
gene 4 47 27 4.1807 0 182 4.1807 1
gene 7 27 14 1.51197 0 193 1.51197 0
gene 7 4 27 1.98316 0 212 1.98316 1
gene 1 2 27 -2.67196 0 222 -2.67196 1
gene 4 2 53 -3.48148 0 226 -3.48148 1
gene 4 53 23 -3.55476 0 227 -3.55476 1
gene 2 53 27 -3.78021 0 238 -3.78021 0
gene 4 5 64 0.173497 0 277 0.173497 1
gene 4 64 47 -1.64703 0 278 -1.64703 1
gene 2 53 81 2.11432 0 347 2.11432 1
gene 2 81 27 -1.24398 0 348 -1.24398 1
gene 6 3 27 3.70051 0 354 3.70051 1
gene 4 3 88 1.4924 0 372 1.4924 1
gene 4 88 19 6.75233 0 373 6.75233 1
gene 7 27 96 1 0 402 0 1
gene 7 96 14 1.51197 0 403 0 1
genomeend 11

/* Organism #12 Fitness: 0.0001 Error: 0 */
genomestart 12
trait 1 0.1 0 0 0 0 0 0 0 
trait 2 0.2 0 0 0 0 0 0 0 
trait 3 0.3 0 0 0 0 0 0 0 
trait 4 0 0 0 0 0 0 0 0 
trait 5 0.5 0 0 0 0 0 0 0 
trait 6 0.378347 0 0 0.742295 0 0.359265 0 0.227462 
trait 7 0.7 0 0 0 0 0 0 0 
trait 8 0.8 0 0 0 0 0 0 0 
node 1 3 1 3
node 2 5 1 1
node 3 4 1 1
node 4 6 1 1
node 5 3 1 1
node 6 3 1 1
node 7 8 1 1
node 8 1 0 2
node 14 1 0 0
node 19 1 0 0
node 23 2 0 0
node 27 3 0 0
node 47 1 0 0
node 53 1 0 0
node 64 1 0 0
node 81 1 0 0
node 88 1 0 0
gene 7 1 8 2.53069 0 1 2.53069 1
gene 6 2 8 -3.83663 0 2 -3.83663 1
gene 4 3 8 1.45552 0 3 1.45552 1
gene 5 4 8 1.2081 0 4 1.2081 1
gene 5 5 8 -1.94057 0 5 -1.94057 1
gene 3 6 8 6.60977 0 6 6.60977 1
gene 7 7 8 -0.708317 0 7 -0.708317 1
gene 5 5 14 -8 0 18 -8 1
gene 5 14 8 -0.757841 0 19 -0.757841 1
gene 5 1 14 -3.71916 0 22 -3.71916 1
gene 7 3 14 -0.730178 0 24 -0.730178 1
gene 4 4 14 -7.60732 0 39 -7.60732 1
gene 4 3 19 7.78052 0 47 7.78052 0
gene 4 19 8 -0.430778 0 48 -0.430778 1
gene 4 6 14 -4.56286 0 50 -4.56286 1
gene 4 19 23 -2.35336 0 63 -2.35336 1
gene 4 23 8 0.0792675 0 64 0.0792675 1
gene 2 23 14 0.844636 0 70 0.844636 1
gene 4 23 27 6.82309 0 79 6.82309 1
gene 4 27 8 0.510487 0 80 0.510487 1
gene 7 1 19 -2.36737 0 83 -2.36737 1
gene 4 5 27 -1.26902 0 92 -1.26902 0
gene 2 2 19 -3.73891 0 108 -3.73891 1
gene 8 6 23 1.57169 0 115 1.57169 1
gene 4 2 23 -4.28993 0 124 -4.28993 0
gene 8 4 19 -2.82256 0 153 -2.82256 1
gene 4 5 47 -1.35253 0 181 -1.35253 0
gene 4 47 27 6.53989 0 182 6.53989 1
gene 7 27 14 1.53701 0 193 1.53701 1
gene 7 4 27 2.44753 0 212 2.44753 1
gene 1 2 27 -2.07324 0 222 -2.07324 1
gene 4 2 53 -1.99516 0 226 -1.99516 1
gene 4 53 23 -5.92812 0 227 -5.92812 1
gene 2 53 27 -4.03159 0 238 -4.03159 0
gene 4 5 64 -1.15496 0 277 -1.15496 1
gene 4 64 47 0.383327 0 278 0.383327 1
gene 2 53 81 -0.0597643 0 347 -0.0597643 1
gene 2 81 27 0.944054 0 348 0.944054 1
gene 6 3 27 4.23676 0 354 4.23676 1
gene 4 3 88 1.35779 0 372 1.35779 1
gene 4 88 19 5.36294 0 373 5.36294 1
genomeend 12

/* Organism #13 Fitness: 173 Error: 0 */
/* ##------$ WINNER 13 SPECIES #37 $------## */
genomestart 13
trait 1 0.1 0 0 0 0 0 0 0 
trait 2 0.2 0 0 0 0 0 0 0 
trait 3 0.3 0 0 0 0 0 0 0 
trait 4 0 0 0 0 0 0 0 0 
trait 5 0.5 0 0 0 0 0 0 0 
trait 6 0.378347 0 0 0.742295 0 0.359265 0 0.227462 
trait 7 0.7 0 0 0 0 0 0 0 
trait 8 0.676005 0.480564 0 0 0 0 0 0.0406776 
node 1 3 1 3
node 2 5 1 1
node 3 4 1 1
node 4 6 1 1
node 5 3 1 1
node 6 3 1 1
node 7 8 1 1
node 8 1 0 2
node 14 1 0 0
node 19 1 0 0
node 23 2 0 0
node 27 3 0 0
node 47 1 0 0
node 53 1 0 0
node 64 1 0 0
node 81 1 0 0
node 88 1 0 0
gene 7 1 8 1.08681 0 1 1.08681 1
gene 6 2 8 -3.75374 0 2 -3.75374 1
gene 4 3 8 0.259496 0 3 0.259496 1
gene 5 4 8 -0.736397 0 4 -0.736397 1
gene 5 5 8 -1.19358 0 5 -1.19358 1
gene 3 6 8 5.0015 0 6 5.0015 1
gene 7 7 8 -0.071441 0 7 -0.071441 1
gene 5 5 14 -8 0 18 -8 1
gene 5 14 8 -0.341983 0 19 -0.341983 1
gene 5 1 14 -3.49812 0 22 -3.49812 1
gene 7 3 14 1.46697 0 24 1.46697 1
gene 4 4 14 -5.73901 0 39 -5.73901 1
gene 4 3 19 5.17712 0 47 5.17712 0
gene 4 19 8 -0.234063 0 48 -0.234063 1
gene 4 6 14 -3.55082 0 50 -3.55082 1
gene 4 19 23 -4.13611 0 63 -4.13611 1
gene 4 23 8 0.657272 0 64 0.657272 1
gene 2 23 14 -3.36218 0 70 -3.36218 1
gene 4 23 27 7.16764 0 79 7.16764 1
gene 4 27 8 4.12769 0 80 4.12769 1
gene 7 1 19 -3.4994 0 83 -3.4994 1
gene 4 5 27 3.9643 0 92 3.9643 0
gene 2 2 19 -3.47217 0 108 -3.47217 1
gene 8 6 23 0.275408 0 115 0.275408 1
gene 4 2 23 -3.6207 0 124 -3.6207 0
gene 8 4 19 -2.69769 0 153 -2.69769 1
gene 4 5 47 -3.83454 0 181 -3.83454 0
gene 4 47 27 2.87215 0 182 2.87215 1
gene 7 27 14 0.306866 0 193 0.306866 1
gene 7 4 27 3.27397 0 212 3.27397 1
gene 1 2 27 -2.6169 0 222 -2.6169 1
gene 4 2 53 -3.48148 0 226 -3.48148 1
gene 4 53 23 2.08969 0 227 2.08969 1
gene 2 53 27 -3.46134 0 238 -3.46134 0
gene 4 5 64 -1.5009 0 277 -1.5009 1
gene 4 64 47 -3.48207 0 278 -3.48207 1
gene 2 53 81 0.604747 0 347 0.604747 1
gene 2 81 27 -3.0072 0 348 -3.0072 1
gene 6 3 27 2.40832 0 354 2.40832 1
gene 4 3 88 3.67527 0 372 3.67527 1
gene 4 88 19 6.75233 0 373 6.75233 1
genomeend 13

/* Organism #14 Fitness: 218 Error: 0 */
/* ##------$ WINNER 14 SPECIES #37 $------## */
genomestart 14
trait 1 0.1 0 0 0 0 0 0 0 
trait 2 0.2 0 0 0 0 0 0 0 
trait 3 0.3 0 0 0 0 0 0 0 
trait 4 0 0 0 0 0 0 0 0 
trait 5 0.5 0 0 0 0 0 0 0 
trait 6 0.378347 0 0 0.742295 0 0.359265 0 0.227462 
trait 7 0.7 0 0 0 0 0 0 0 
trait 8 0.676005 0.480564 0 0 0 0 0 0.0406776 
node 1 3 1 3
node 2 5 1 1
node 3 4 1 1
node 4 6 1 1
node 5 3 1 1
node 6 3 1 1
node 7 8 1 1
node 8 1 0 2
node 14 1 0 0
node 19 1 0 0
node 23 2 0 0
node 27 3 0 0
node 47 1 0 0
node 53 1 0 0
node 64 1 0 0
node 81 1 0 0
node 88 1 0 0
gene 7 1 8 0.484431 0 1 0.484431 1
gene 6 2 8 -2.09043 0 2 -2.09043 1
gene 4 3 8 -0.535984 0 3 -0.535984 1
gene 5 4 8 0.650228 0 4 0.650228 1
gene 5 5 8 -0.514811 0 5 -0.514811 1
gene 3 6 8 4.29276 0 6 4.29276 1
gene 7 7 8 -1.1367 0 7 -1.1367 1
gene 5 5 14 -8 0 18 -8 1
gene 5 14 8 -0.341983 0 19 -0.341983 1
gene 5 1 14 -3.31287 0 22 -3.31287 1
gene 7 3 14 1.5076 0 24 1.5076 1
gene 4 4 14 -5.92589 0 39 -5.92589 1
gene 4 3 19 6.7088 0 47 6.7088 0
gene 4 19 8 0.804496 0 48 0.804496 1
gene 4 6 14 -2.26928 0 50 -2.26928 1
gene 4 19 23 -2.44415 0 63 -2.44415 1
gene 4 23 8 0.769859 0 64 0.769859 1
gene 2 23 14 -1.30474 0 70 -1.30474 1
gene 4 23 27 7.47634 0 79 7.47634 1
gene 4 27 8 1.66583 0 80 1.66583 1
gene 7 1 19 -1.54225 0 83 -1.54225 1
gene 4 5 27 5.23744 0 92 5.23744 0
gene 2 2 19 -3.32082 0 108 -3.32082 1
gene 8 6 23 -0.192782 0 115 -0.192782 1
gene 4 2 23 -2.93567 0 124 -2.93567 0
gene 8 4 19 -0.527733 0 153 -0.527733 1
gene 4 5 47 -1.35253 0 181 -1.35253 0
gene 4 47 27 4.1807 0 182 4.1807 1
gene 7 27 14 1.51197 0 193 1.51197 1
gene 7 4 27 1.98316 0 212 1.98316 1
gene 1 2 27 -2.67196 0 222 -2.67196 1
gene 4 2 53 -3.48148 0 226 -3.48148 1
gene 4 53 23 -3.55476 0 227 -3.55476 1
gene 2 53 27 -3.78021 0 238 -3.78021 0
gene 4 5 64 0.173497 0 277 0.173497 1
gene 4 64 47 -1.64703 0 278 -1.64703 1
gene 2 53 81 2.11432 0 347 2.11432 1
gene 2 81 27 -1.24398 0 348 -1.24398 1
gene 6 3 27 3.70051 0 354 3.70051 1
gene 4 3 88 1.4924 0 372 1.4924 1
gene 4 88 19 6.75233 0 373 6.75233 1
gene 2 88 81 0.250271 0 404 0.250271 1
genomeend 14

/* Organism #15 Fitness: 0 Error: 0 */
genomestart 15
trait 1 0.1 0 0 0 0 0 0 0 
trait 2 0.2 0 0 0 0 0 0 0 
trait 3 0.3 0 0 0 0 0 0 0 
trait 4 0 0 0 0 0 0 0 0 
trait 5 0.5 0 0 0 0 0 0 0 
trait 6 0.378347 0 0 0.742295 0 0.359265 0 0.227462 
trait 7 0.7 0 0 0 0 0 0 0 
trait 8 0.55201 0.961128 0 0 0 0 0 0.0813552 
node 1 3 1 3
node 2 5 1 1
node 3 4 1 1
node 4 6 1 1
node 5 3 1 1
node 6 3 1 1
node 7 8 1 1
node 8 1 0 2
node 14 1 0 0
node 19 1 0 0
node 23 2 0 0
node 27 3 0 0
node 47 1 0 0
node 53 1 0 0
node 64 1 0 0
node 81 1 0 0
node 88 1 0 0
gene 7 1 8 -0.340261 0 1 -0.340261 1
gene 6 2 8 -2.09043 0 2 -2.09043 1
gene 4 3 8 -0.229102 0 3 -0.229102 1
gene 5 4 8 -1.76658 0 4 -1.76658 1
gene 5 5 8 -2.18456 0 5 -2.18456 1
gene 3 6 8 2.33797 0 6 2.33797 1
gene 7 7 8 -3.34412 0 7 -3.34412 1
gene 5 5 14 -8 0 18 -8 1
gene 5 14 8 -0.00210636 0 19 -0.00210636 1
gene 5 1 14 -2.45306 0 22 -2.45306 1
gene 7 3 14 3.84379 0 24 3.84379 1
gene 4 4 14 2.06262 0 39 2.06262 1
gene 4 3 19 -1.69867 0 47 -1.69867 0
gene 4 19 8 0.804496 0 48 0.804496 1
gene 4 6 14 -1.59039 0 50 -1.59039 1
gene 4 19 23 -3.34451 0 63 -3.34451 1
gene 4 23 8 -0.95223 0 64 -0.95223 1
gene 2 23 14 -0.889483 0 70 -0.889483 1
gene 4 23 27 7.47802 0 79 7.47802 1
gene 4 27 8 3.36937 0 80 3.36937 1
gene 7 1 19 0.841072 0 83 0.841072 1
gene 4 5 27 3.20827 0 92 3.20827 0
gene 2 2 19 -1.88593 0 108 -1.88593 1
gene 8 6 23 0.128571 0 115 0.128571 1
gene 4 2 23 -4.68227 0 124 -4.68227 0
gene 8 4 19 -0.26531 0 153 -0.26531 1
gene 4 5 47 1.03369 0 181 1.03369 0
gene 4 47 27 4.1807 0 182 4.1807 1
gene 7 27 14 1.51197 0 193 1.51197 1
gene 7 4 27 2.66005 0 212 2.66005 1
gene 1 2 27 -4.57473 0 222 -4.57473 1
gene 4 2 53 -5.53071 0 226 -5.53071 1
gene 4 53 23 -0.134194 0 227 -0.134194 1
gene 2 53 27 -2.31566 0 238 -2.31566 0
gene 4 5 64 0.173497 0 277 0.173497 1
gene 4 64 47 0.830915 0 278 0.830915 1
gene 2 53 81 2.49147 0 347 2.49147 1
gene 2 81 27 -2.49596 0 348 -2.49596 1
gene 6 3 27 1.65786 0 354 1.65786 1
gene 4 3 88 1.80943 0 372 1.80943 1
gene 4 88 19 0.926565 0 373 0.926565 1
genomeend 15

/* Species #38 : (Size 4) (AF 17.75) (Age 4)  */


/* Organism #16 Fitness: 71 Error: 0 */
/* ##------$ WINNER 16 SPECIES #38 $------## */
genomestart 16
trait 1 0.1 0 0 0 0 0 0 0 
trait 2 0.2 0 0 0 0 0 0 0 
trait 3 0.3 0 0 0 0 0 0 0 
trait 4 0 0 0 0 0 0 0 0 
trait 5 0.5 0 0 0 0 0 0 0 
trait 6 0.378347 0 0 0.742295 0 0.359265 0 0.227462 
trait 7 0.7 0 0 0 0 0 0 0 
trait 8 0.8 0 0 0 0 0 0 0 
node 1 3 1 3
node 2 5 1 1
node 3 4 1 1
node 4 6 1 1
node 5 3 1 1
node 6 3 1 1
node 7 8 1 1
node 8 1 0 2
node 14 1 0 0
node 19 1 0 0
node 23 2 0 0
node 27 3 0 0
node 47 1 0 0
node 53 1 0 0
node 64 1 0 0
node 89 1 0 0
gene 7 1 8 -0.300578 0 1 -0.300578 1
gene 6 2 8 -2.1114 0 2 -2.1114 1
gene 4 3 8 -0.201626 0 3 -0.201626 0
gene 5 4 8 0.742571 0 4 0.742571 1
gene 5 5 8 -8 0 5 -8 1
gene 3 6 8 6.23827 0 6 6.23827 1
gene 7 7 8 -4.67998 0 7 -4.67998 1
gene 5 5 14 1.01295 0 18 1.01295 1
gene 5 14 8 -1.04166 0 19 -1.04166 1
gene 5 1 14 -1.67828 0 22 -1.67828 1
gene 7 3 14 3.14092 0 24 3.14092 1
gene 4 4 14 -6.83577 0 39 -6.83577 1
gene 4 3 19 2.19119 0 47 2.19119 1
gene 4 19 8 5.606 0 48 5.606 1
gene 4 6 14 0.994119 0 50 0.994119 1
gene 4 19 23 -1.0715 0 63 -1.0715 1
gene 4 23 8 -0.803505 0 64 -0.803505 1
gene 2 23 14 -0.882206 0 70 -0.882206 1
gene 4 23 27 4.61614 0 79 4.61614 1
gene 4 27 8 1.91196 0 80 1.91196 1
gene 7 1 19 1.37536 0 83 1.37536 1
gene 4 5 27 8 0 92 8 0
gene 2 2 19 1.49938 0 108 1.49938 1
gene 8 6 23 0.658066 0 115 0.658066 1
gene 4 2 23 -3.88852 0 124 -3.88852 0
gene 8 4 19 -1.64777 0 153 -1.64777 1
gene 4 5 47 -2.48356 0 181 -2.48356 0
gene 4 47 27 0.668333 0 182 0.668333 1
gene 7 27 14 -3.60958 0 193 -3.60958 1
gene 4 4 27 -1.80112 0 212 -1.80112 1
gene 1 2 27 3.68051 0 222 3.68051 1
gene 4 2 53 -3.13066 0 226 -3.13066 1
gene 4 53 23 5.0128 0 227 5.0128 1
gene 2 53 27 -2.64456 0 238 -2.64456 1
gene 4 5 64 2.73905 0 277 2.73905 1
gene 4 64 47 1.58782 0 278 1.58782 1
gene 7 19 47 -1.29707 0 338 -1.29707 1
gene 4 7 23 0.757289 0 366 0.757289 1
gene 4 3 89 -2.03131 0 375 -2.03131 1
gene 4 89 8 -0.365265 0 376 -0.365265 1
gene 6 53 64 0.663328 0 399 0 1
genomeend 16

/* Organism #17 Fitness: 0 Error: 0 */
genomestart 17
trait 1 0.1 0 0 0 0 0 0 0 
trait 2 0.2 0 0 0 0 0 0 0 
trait 3 0.3 0 0 0 0 0 0 0 
trait 4 0 0 0 0 0 0 0 0 
trait 5 0.5 0 0 0 0 0 0 0 
trait 6 0.378347 0 0 0.742295 0 0.359265 0 0.227462 
trait 7 0.7 0 0 0 0 0 0 0 
trait 8 0.8 0 0 0 0 0 0 0 
node 1 3 1 3
node 2 5 1 1
node 3 4 1 1
node 4 6 1 1
node 5 3 1 1
node 6 3 1 1
node 7 8 1 1
node 8 1 0 2
node 14 1 0 0
node 19 1 0 0
node 23 2 0 0
node 27 3 0 0
node 47 1 0 0
node 53 1 0 0
node 64 1 0 0
node 89 1 0 0
gene 7 1 8 0.987439 0 1 0.987439 1
gene 6 2 8 -1.99236 0 2 -1.99236 1
gene 4 3 8 -0.656124 0 3 -0.656124 1
gene 5 4 8 1.13146 0 4 1.13146 1
gene 5 5 8 -7.9482 0 5 -7.9482 1
gene 3 6 8 4.44517 0 6 4.44517 1
gene 7 7 8 -4.78598 0 7 -4.78598 1
gene 5 5 14 -0.422294 0 18 -0.422294 1
gene 5 14 8 0.762666 0 19 0.762666 1
gene 5 1 14 -2.57113 0 22 -2.57113 1
gene 7 3 14 3.58929 0 24 3.58929 1
gene 4 4 14 -7.41789 0 39 -7.41789 1
gene 4 3 19 2.22222 0 47 2.22222 1
gene 4 19 8 4.95643 0 48 4.95643 1
gene 4 6 14 2.25785 0 50 2.25785 1
gene 4 19 23 -2.56939 0 63 -2.56939 1
gene 4 23 8 -1.04892 0 64 -1.04892 1
gene 2 23 14 -0.631206 0 70 -0.631206 1
gene 4 23 27 3.95731 0 79 3.95731 1
gene 4 27 8 2.88703 0 80 2.88703 1
gene 7 1 19 -1.53064 0 83 -1.53064 1
gene 4 5 27 7.41849 0 92 7.41849 1
gene 2 2 19 -0.0550356 0 108 -0.0550356 1
gene 8 6 23 0.64196 0 115 0.64196 1
gene 4 2 23 -4.14448 0 124 -4.14448 0
gene 8 4 19 1.26964 0 153 1.26964 1
gene 4 5 47 -0.783174 0 181 -0.783174 0
gene 4 47 27 0.30054 0 182 0.30054 1
gene 7 27 14 -1.86199 0 193 -1.86199 1
gene 4 4 27 -2.61111 0 212 -2.61111 1
gene 1 2 27 1.54646 0 222 1.54646 1
gene 4 2 53 -4.03563 0 226 -4.03563 1
gene 4 53 23 4.56229 0 227 4.56229 1
gene 2 53 27 -2.04987 0 238 -2.04987 1
gene 4 5 64 3.34417 0 277 3.34417 1
gene 4 64 47 0.948706 0 278 0.948706 1
gene 7 19 47 0.575878 0 338 0.575878 1
gene 4 7 23 0.894248 0 366 0.894248 1
gene 4 3 89 -0.583105 0 375 -0.583105 1
gene 4 89 8 -0.59936 0 376 -0.59936 1
gene 1 7 19 0.047523 0 405 0.047523 1
genomeend 17

/* Organism #18 Fitness: 0 Error: 0 */
genomestart 18
trait 1 0.1 0 0 0 0 0 0 0 
trait 2 0.2 0 0 0 0 0 0 0 
trait 3 0.3 0 0 0 0 0 0 0 
trait 4 0 0 0 0 0 0 0 0 
trait 5 0.5 0 0 0 0 0 0 0 
trait 6 0.378347 0 0 0.742295 0 0.359265 0 0.227462 
trait 7 0.7 0 0 0 0 0 0 0 
trait 8 0.8 0 0 0 0 0 0 0 
node 1 3 1 3
node 2 5 1 1
node 3 4 1 1
node 4 6 1 1
node 5 3 1 1
node 6 1 1 1
node 7 8 1 1
node 8 1 0 2
node 14 1 0 0
node 19 1 0 0
node 23 2 0 0
node 27 3 0 0
node 47 1 0 0
node 53 1 0 0
node 64 1 0 0
node 89 1 0 0
gene 7 1 8 0.226774 0 1 0.226774 1
gene 6 2 8 -2.61577 0 2 -2.61577 1
gene 4 3 8 -0.485486 0 3 -0.485486 0
gene 5 4 8 0.706972 0 4 0.706972 1
gene 5 5 8 -8 0 5 -8 1
gene 3 6 8 3.86615 0 6 3.86615 1
gene 7 7 8 -4.22856 0 7 -4.22856 1
gene 5 5 14 -1.49445 0 18 -1.49445 1
gene 5 14 8 2.92973 0 19 2.92973 1
gene 5 1 14 -3.82895 0 22 -3.82895 1
gene 7 3 14 3.95727 0 24 3.95727 1
gene 4 4 14 -7.64503 0 39 -7.64503 1
gene 4 3 19 -2.4385 0 47 -2.4385 1
gene 4 19 8 5.19912 0 48 5.19912 1
gene 4 6 14 2.92778 0 50 2.92778 1
gene 4 19 23 0.392181 0 63 0.392181 1
gene 4 23 8 -1.168 0 64 -1.168 1
gene 2 23 14 2.90885 0 70 2.90885 1
gene 3 23 27 6.03454 0 79 6.03454 1
gene 4 27 8 4.31101 0 80 4.31101 1
gene 7 1 19 2.01944 0 83 2.01944 1
gene 4 5 27 8 0 92 8 0
gene 2 2 19 2.14067 0 108 2.14067 1
gene 8 6 23 -0.895809 0 115 -0.895809 1
gene 4 2 23 -4.85698 0 124 -4.85698 0
gene 8 4 19 -2.89704 0 153 -2.89704 1
gene 4 5 47 -4.78298 0 181 -4.78298 0
gene 4 47 27 -1.30265 0 182 -1.30265 1
gene 7 27 14 -5.09198 0 193 -5.09198 1
gene 4 4 27 -2.83121 0 212 -2.83121 1
gene 1 2 27 4.78714 0 222 4.78714 1
gene 4 2 53 -3.41861 0 226 -3.41861 1
gene 4 53 23 3.27695 0 227 3.27695 1
gene 2 53 27 -3.12969 0 238 -3.12969 1
gene 4 5 64 -0.652799 0 277 -0.652799 1
gene 4 64 47 2.30115 0 278 2.30115 1
gene 7 19 47 -1.49977 0 338 -1.49977 1
gene 4 7 23 0.275119 0 366 0.275119 1
gene 4 3 89 -1.35899 0 375 -1.35899 1
gene 4 89 8 0.698626 0 376 0.698626 1
genomeend 18

/* Organism #19 Fitness: 0 Error: 0 */
genomestart 19
trait 1 0.1 0 0 0 0 0 0 0 
trait 2 0.2 0 0 0 0 0 0 0 
trait 3 0.3 0 0 0 0 0 0 0 
trait 4 0 0 0 0 0 0 0 0 
trait 5 0.5 0 0 0 0 0 0 0 
trait 6 0.378347 0 0 0.742295 0 0.359265 0 0.227462 
trait 7 0.7 0 0 0 0 0 0 0 
trait 8 0.8 0 0 0 0 0 0 0 
node 1 3 1 3
node 2 5 1 1
node 3 4 1 1
node 4 6 1 1
node 5 3 1 1
node 6 3 1 1
node 7 8 1 1
node 8 1 0 2
node 14 1 0 0
node 19 1 0 0
node 23 2 0 0
node 27 3 0 0
node 47 1 0 0
node 53 1 0 0
node 64 1 0 0
node 89 1 0 0
gene 7 1 8 2.27546 0 1 2.27546 1
gene 6 2 8 -2.1114 0 2 -2.1114 1
gene 4 3 8 -1.11062 0 3 -1.11062 0
gene 5 4 8 1.52036 0 4 1.52036 1
gene 5 5 8 -8 0 5 -8 1
gene 3 6 8 2.65208 0 6 2.65208 1
gene 7 7 8 -4.89197 0 7 -4.89197 1
gene 5 5 14 -1.85754 0 18 -1.85754 1
gene 5 14 8 2.56699 0 19 2.56699 1
gene 5 1 14 -3.46397 0 22 -3.46397 1
gene 7 3 14 4.03766 0 24 4.03766 1
gene 4 4 14 -6.83577 0 39 -6.83577 1
gene 4 3 19 2.25324 0 47 2.25324 1
gene 4 19 8 5.606 0 48 5.606 1
gene 4 6 14 0.994119 0 50 0.994119 1
gene 4 19 23 -4.06728 0 63 -4.06728 1
gene 4 23 8 -0.803505 0 64 -0.803505 1
gene 2 23 14 -0.380206 0 70 -0.380206 1
gene 4 23 27 4.61614 0 79 4.61614 1
gene 4 27 8 1.91196 0 80 1.91196 1
gene 7 1 19 1.37536 0 83 1.37536 1
gene 4 5 27 6.83699 0 92 6.83699 0
gene 2 2 19 -1.60945 0 108 -1.60945 1
gene 8 6 23 0.625855 0 115 0.625855 1
gene 4 2 23 -4.40044 0 124 -4.40044 0
gene 8 4 19 4.18705 0 153 4.18705 1
gene 4 5 47 0.917211 0 181 0.917211 0
gene 4 47 27 0.668333 0 182 0.668333 1
gene 7 27 14 -3.60958 0 193 -3.60958 1
gene 4 4 27 -3.42109 0 212 -3.42109 1
gene 1 2 27 -0.587588 0 222 -0.587588 1
gene 4 2 53 -4.94059 0 226 -4.94059 1
gene 4 53 23 5.0128 0 227 5.0128 1
gene 2 53 27 -1.45517 0 238 -1.45517 1
gene 4 5 64 3.94928 0 277 3.94928 1
gene 4 64 47 0.30959 0 278 0.30959 1
gene 7 19 47 -1.29707 0 338 -1.29707 1
gene 4 7 23 1.03121 0 366 1.03121 1
gene 4 3 89 0.865096 0 375 0.865096 1
gene 4 89 8 -0.833455 0 376 -0.833455 1
genomeend 19
