
/* Species #41 : (Size 8) (AF 67.0001) (Age 6)  */


/* Organism #0 Fitness: 136 Error: 0 */
/* ##------$ WINNER 0 SPECIES #41 $------## */
genomestart 0
trait 1 0.1 0 0 0 0 0 0 0 
trait 2 0.2 0 0 0 0 0 0 0 
trait 3 0.3 0 0 0 0 0 0 0 
trait 4 0 0 0 0 0 0 0 0 
trait 5 0.5 0 0 0 0 0 0 0 
trait 6 0.378347 0 0 0.742295 0 0.359265 0 0.227462 
trait 7 0.7 0 0 0 0 0 0 0 
trait 8 0.8 0 0 0 0 0 0 0 
node 1 3 1 3
node 2 5 1 1
node 3 4 1 1
node 4 6 1 1
node 5 3 1 1
node 6 3 1 1
node 7 8 1 1
node 8 1 0 2
node 14 1 0 0
node 19 1 0 0
node 23 2 0 0
node 27 3 0 0
node 47 1 0 0
node 53 1 0 0
node 64 1 0 0
node 89 1 0 0
node 98 1 0 0
gene 7 1 8 -1.21584 0 1 -1.21584 1
gene 6 2 8 -2.29015 0 2 -2.29015 1
gene 4 3 8 -0.356451 0 3 -0.356451 0
gene 5 4 8 0.739698 0 4 0.739698 1
gene 5 5 8 0.36187 0 5 0.36187 1
gene 3 6 8 -1.89784 0 6 -1.89784 1
gene 7 7 8 -8 0 7 -8 1
gene 5 5 14 2.08747 0 18 2.08747 1
gene 5 14 8 -1.3797 0 19 -1.3797 0
gene 5 1 14 -0.503059 0 22 -0.503059 1
gene 7 3 14 4.19571 0 24 4.19571 1
gene 4 4 14 -8 0 39 -8 1
gene 4 3 19 -3.25294 0 47 -3.25294 1
gene 4 19 8 8 0 48 8 1
gene 4 6 14 -0.0537416 0 50 -0.0537416 1
gene 4 19 23 -1.53019 0 63 -1.53019 1
gene 4 23 8 -1.64257 0 64 -1.64257 1
gene 2 23 14 -2.68931 0 70 -2.68931 1
gene 4 23 27 3.21145 0 79 3.21145 1
gene 4 27 8 2.3454 0 80 2.3454 1
gene 7 1 19 4.16125 0 83 4.16125 1
gene 4 5 27 0.511554 0 92 0.511554 0
gene 2 2 19 2.01058 0 108 2.01058 1
gene 8 6 23 2.91727 0 115 2.91727 1
gene 4 2 23 -2.02641 0 124 -2.02641 0
gene 8 4 19 3.21308 0 153 3.21308 1
gene 4 5 47 0.473014 0 181 0.473014 0
gene 4 47 27 -1.02785 0 182 -1.02785 1
gene 7 27 14 -3.16192 0 193 -3.16192 1
gene 4 4 27 -1.20372 0 212 -1.20372 1
gene 1 2 27 1.34445 0 222 1.34445 1
gene 4 2 53 -3.85021 0 226 -3.85021 1
gene 4 53 23 3.02292 0 227 3.02292 1
gene 2 53 27 -2.02224 0 238 -2.02224 1
gene 4 5 64 -2.51085 0 277 -2.51085 1
gene 4 64 47 0.137645 0 278 0.137645 1
gene 7 19 47 1.77311 0 338 1.77311 1
gene 4 7 23 -0.986965 0 366 -0.986965 1
gene 4 3 89 1.72659 0 375 1.72659 1
gene 4 89 8 0.456636 0 376 0.456636 1
gene 6 53 64 -2.82827 0 399 -2.82827 1
gene 5 14 98 2.72685 0 411 2.72685 1
gene 5 98 8 1.83426 0 412 1.83426 1
gene 3 23 89 -0.838225 0 434 -0.838225 1
gene 6 5 53 -0.751523 0 442 -0.751523 1
genomeend 0

/* Organism #1 Fitness: 111 Error: 0 */
/* ##------$ WINNER 1 SPECIES #41 $------## */
genomestart 1
trait 1 0.1 0 0 0 0 0 0 0 
trait 2 0.2 0 0 0 0 0 0 0 
trait 3 0.3 0 0 0 0 0 0 0 
trait 4 0 0 0 0 0 0 0 0 
trait 5 0.5 0 0 0 0 0 0 0 
trait 6 0.378347 0 0 0.742295 0 0.359265 0 0.227462 
trait 7 0.7 0 0 0 0 0 0 0 
trait 8 0.8 0 0 0 0 0 0 0 
node 1 3 1 3
node 2 5 1 1
node 3 4 1 1
node 4 6 1 1
node 5 3 1 1
node 6 3 1 1
node 7 8 1 1
node 8 1 0 2
node 14 1 0 0
node 19 1 0 0
node 23 2 0 0
node 27 3 0 0
node 47 1 0 0
node 53 1 0 0
node 64 1 0 0
node 89 1 0 0
node 98 1 0 0
gene 7 1 8 -1.21584 0 1 -1.21584 1
gene 6 2 8 -2.29015 0 2 -2.29015 1
gene 4 3 8 -0.356451 0 3 -0.356451 0
gene 5 4 8 0.739698 0 4 0.739698 1
gene 5 5 8 0.36187 0 5 0.36187 1
gene 3 6 8 -1.89784 0 6 -1.89784 1
gene 7 7 8 -8 0 7 -8 1
gene 5 5 14 2.08747 0 18 2.08747 1
gene 5 14 8 -1.3797 0 19 -1.3797 0
gene 5 1 14 -0.503059 0 22 -0.503059 1
gene 7 3 14 4.19571 0 24 4.19571 1
gene 4 4 14 -8 0 39 -8 1
gene 4 3 19 -3.25294 0 47 -3.25294 1
gene 4 19 8 8 0 48 8 1
gene 4 6 14 -0.0537416 0 50 -0.0537416 1
gene 4 19 23 -1.53019 0 63 -1.53019 1
gene 4 23 8 -1.64257 0 64 -1.64257 1
gene 2 23 14 -2.68931 0 70 -2.68931 1
gene 4 23 27 3.21145 0 79 3.21145 1
gene 4 27 8 2.3454 0 80 2.3454 1
gene 7 1 19 4.16125 0 83 4.16125 1
gene 4 5 27 0.511554 0 92 0.511554 0
gene 2 2 19 2.01058 0 108 2.01058 1
gene 8 6 23 2.91727 0 115 2.91727 1
gene 4 2 23 -2.02641 0 124 -2.02641 0
gene 8 4 19 3.21308 0 153 3.21308 1
gene 4 5 47 0.473014 0 181 0.473014 0
gene 4 47 27 -1.02785 0 182 -1.02785 1
gene 7 27 14 -3.16192 0 193 -3.16192 1
gene 4 4 27 -1.20372 0 212 -1.20372 1
gene 1 2 27 1.34445 0 222 1.34445 1
gene 4 2 53 -3.85021 0 226 -3.85021 1
gene 4 53 23 3.02292 0 227 3.02292 1
gene 2 53 27 -2.02224 0 238 -2.02224 1
gene 4 5 64 -2.51085 0 277 -2.51085 1
gene 4 64 47 0.137645 0 278 0.137645 1
gene 7 19 47 1.77311 0 338 1.77311 1
gene 4 7 23 -0.986965 0 366 -0.986965 1
gene 4 3 89 1.72659 0 375 1.72659 1
gene 4 89 8 0.456636 0 376 0.456636 1
gene 6 53 64 -2.82827 0 399 -2.82827 1
gene 5 14 98 2.72685 0 411 2.72685 1
gene 5 98 8 1.83426 0 412 1.83426 1
gene 3 23 89 -0.838225 0 434 -0.838225 1
gene 6 5 53 -0.751523 0 442 -0.751523 1
gene 2 7 27 -0.380404 0 453 -0.380404 1
genomeend 1

/* Organism #2 Fitness: 26 Error: 0 */
genomestart 2
trait 1 0.1 0 0 0 0 0 0 0 
trait 2 0.2 0 0 0 0 0 0 0 
trait 3 0.3 0 0 0 0 0 0 0 
trait 4 0 0 0 0 0 0 0 0 
trait 5 0.5 0 0 0 0 0 0 0 
trait 6 0.378347 0 0 0.742295 0 0.359265 0 0.227462 
trait 7 0.7 0 0 0 0 0 0 0 
trait 8 0.8 0 0 0 0 0 0 0 
node 1 3 1 3
node 2 5 1 1
node 3 4 1 1
node 4 6 1 1
node 5 3 1 1
node 6 3 1 1
node 7 8 1 1
node 8 1 0 2
node 14 1 0 0
node 19 1 0 0
node 23 2 0 0
node 27 3 0 0
node 47 1 0 0
node 53 1 0 0
node 64 1 0 0
node 89 1 0 0
node 98 1 0 0
gene 7 1 8 1.05447 0 1 1.05447 1
gene 6 2 8 -3.86792 0 2 -3.86792 1
gene 4 3 8 -0.356451 0 3 -0.356451 0
gene 5 4 8 0.245447 0 4 0.245447 1
gene 5 5 8 0.36187 0 5 0.36187 1
gene 3 6 8 0.282254 0 6 0.282254 1
gene 7 7 8 1.17471 0 7 1.17471 1
gene 5 5 14 2.58008 0 18 2.58008 1
gene 5 14 8 0.700443 0 19 0.700443 0
gene 5 1 14 -1.60559 0 22 -1.60559 1
gene 7 3 14 4.19571 0 24 4.19571 1
gene 4 4 14 -8 0 39 -8 1
gene 4 3 19 0.63375 0 47 0.63375 1
gene 4 19 8 7.89686 0 48 7.89686 1
gene 4 6 14 1.76683 0 50 1.76683 1
gene 4 19 23 -2.67849 0 63 -2.67849 1
gene 4 23 8 -3.56044 0 64 -3.56044 1
gene 2 23 14 -1.13846 0 70 -1.13846 1
gene 4 23 27 1.10248 0 79 1.10248 1
gene 4 27 8 4.34751 0 80 4.34751 1
gene 7 1 19 -0.715151 0 83 -0.715151 1
gene 4 5 27 2.21415 0 92 2.21415 0
gene 2 2 19 0.806962 0 108 0.806962 1
gene 8 6 23 3.73391 0 115 3.73391 1
gene 4 2 23 0.365414 0 124 0.365414 0
gene 8 4 19 1.69721 0 153 1.69721 1
gene 4 5 47 -1.55164 0 181 -1.55164 0
gene 4 47 27 -0.770639 0 182 -0.770639 1
gene 7 27 14 0.197296 0 193 0.197296 1
gene 4 4 27 -1.20372 0 212 -1.20372 1
gene 1 2 27 -2.3279 0 222 -2.3279 1
gene 4 2 53 -3.77308 0 226 -3.77308 1
gene 4 53 23 5.13976 0 227 5.13976 1
gene 2 53 27 -3.98559 0 238 -3.98559 1
gene 4 5 64 -2.39992 0 277 -2.39992 1
gene 4 64 47 2.35717 0 278 2.35717 1
gene 7 19 47 0.469251 0 338 0.469251 1
gene 4 7 23 -2.02177 0 366 -2.02177 1
gene 4 3 89 3.63539 0 375 3.63539 1
gene 4 89 8 0.285238 0 376 0.285238 1
gene 6 53 64 -2.42817 0 399 -2.42817 1
gene 5 14 98 0.242444 0 411 0.242444 1
gene 5 98 8 2.20369 0 412 2.20369 1
gene 3 23 89 0.607437 0 434 0.607437 1
gene 6 5 53 -0.180022 0 442 -0.180022 1
genomeend 2

/* Organism #3 Fitness: 165 Error: 0 */
/* ##------$ WINNER 3 SPECIES #41 $------## */
genomestart 3
trait 1 0.1 0 0 0 0 0 0 0 
trait 2 0.2 0 0 0 0 0 0 0 
trait 3 0.3 0 0 0 0 0 0 0 
trait 4 0 0 0 0 0 0 0 0 
trait 5 0.5 0 0 0 0 0 0 0 
trait 6 0.378347 0 0 0.742295 0 0.359265 0 0.227462 
trait 7 0.7 0 0 0 0 0 0 0 
trait 8 0.8 0 0 0 0 0 0 0 
node 1 3 1 3
node 2 5 1 1
node 3 4 1 1
node 4 6 1 1
node 5 3 1 1
node 6 3 1 1
node 7 8 1 1
node 8 1 0 2
node 14 1 0 0
node 19 1 0 0
node 23 2 0 0
node 27 3 0 0
node 47 1 0 0
node 53 1 0 0
node 64 1 0 0
node 89 1 0 0
node 98 1 0 0
node 110 1 0 0
gene 7 1 8 -1.21584 0 1 -1.21584 1
gene 6 2 8 -2.29015 0 2 -2.29015 1
gene 4 3 8 -0.356451 0 3 -0.356451 0
gene 5 4 8 0.739698 0 4 0.739698 1
gene 5 5 8 0.36187 0 5 0.36187 1
gene 3 6 8 -1.89784 0 6 -1.89784 1
gene 7 7 8 -8 0 7 -8 1
gene 5 5 14 2.08747 0 18 2.08747 1
gene 5 14 8 -1.3797 0 19 -1.3797 0
gene 5 1 14 -0.503059 0 22 -0.503059 1
gene 7 3 14 4.19571 0 24 4.19571 1
gene 4 4 14 -8 0 39 -8 1
gene 4 3 19 -3.25294 0 47 -3.25294 1
gene 4 19 8 8 0 48 8 1
gene 4 6 14 -0.0537416 0 50 -0.0537416 1
gene 4 19 23 -1.53019 0 63 -1.53019 1
gene 4 23 8 -1.64257 0 64 -1.64257 0
gene 2 23 14 -2.68931 0 70 -2.68931 1
gene 4 23 27 3.21145 0 79 3.21145 1
gene 4 27 8 2.3454 0 80 2.3454 1
gene 7 1 19 4.16125 0 83 4.16125 1
gene 4 5 27 0.511554 0 92 0.511554 0
gene 2 2 19 2.01058 0 108 2.01058 1
gene 8 6 23 2.91727 0 115 2.91727 1
gene 4 2 23 -2.02641 0 124 -2.02641 0
gene 8 4 19 3.21308 0 153 3.21308 1
gene 4 5 47 0.473014 0 181 0.473014 0
gene 4 47 27 -1.02785 0 182 -1.02785 1
gene 7 27 14 -3.16192 0 193 -3.16192 1
gene 4 4 27 -1.20372 0 212 -1.20372 1
gene 1 2 27 1.34445 0 222 1.34445 1
gene 4 2 53 -3.85021 0 226 -3.85021 1
gene 4 53 23 3.02292 0 227 3.02292 1
gene 2 53 27 -2.02224 0 238 -2.02224 1
gene 4 5 64 -2.51085 0 277 -2.51085 1
gene 4 64 47 0.137645 0 278 0.137645 1
gene 7 19 47 1.77311 0 338 1.77311 1
gene 4 7 23 -0.986965 0 366 -0.986965 1
gene 4 3 89 1.72659 0 375 1.72659 1
gene 4 89 8 0.456636 0 376 0.456636 1
gene 6 53 64 -2.82827 0 399 -2.82827 1
gene 5 14 98 2.72685 0 411 2.72685 1
gene 5 98 8 1.83426 0 412 1.83426 1
gene 3 23 89 -0.838225 0 434 -0.838225 1
gene 6 5 53 -0.751523 0 442 -0.751523 1
gene 4 23 110 1 0 454 0 1
gene 4 110 8 -1.64257 0 455 0 1
genomeend 3

/* Organism #4 Fitness: 0 Error: 0 */
genomestart 4
trait 1 0.1 0 0 0 0 0 0 0 
trait 2 0.2 0 0 0 0 0 0 0 
trait 3 0.3 0 0 0 0 0 0 0 
trait 4 0 0 0 0 0 0 0 0 
trait 5 0.5 0 0 0 0 0 0 0 
trait 6 0.378347 0 0 0.742295 0 0.359265 0 0.227462 
trait 7 0.7 0 0 0 0 0 0 0 
trait 8 0.8 0 0 0 0 0 0 0 
node 1 3 1 3
node 2 5 1 1
node 3 4 1 1
node 4 6 1 1
node 5 3 1 1
node 6 3 1 1
node 7 8 1 1
node 8 1 0 2
node 14 1 0 0
node 19 1 0 0
node 23 2 0 0
node 27 3 0 0
node 47 1 0 0
node 53 1 0 0
node 64 1 0 0
node 89 1 0 0
node 98 1 0 0
gene 7 1 8 -1.21584 0 1 -1.21584 1
gene 6 2 8 -2.29015 0 2 -2.29015 1
gene 4 3 8 -0.356451 0 3 -0.356451 0
gene 5 4 8 0.739698 0 4 0.739698 1
gene 5 5 8 0.36187 0 5 0.36187 1
gene 3 6 8 -1.89784 0 6 -1.89784 1
gene 7 7 8 -8 0 7 -8 1
gene 5 5 14 2.08747 0 18 2.08747 1
gene 5 14 8 -1.3797 0 19 -1.3797 0
gene 5 1 14 -0.503059 0 22 -0.503059 1
gene 7 3 14 4.19571 0 24 4.19571 1
gene 4 4 14 -8 0 39 -8 1
gene 4 3 19 -3.25294 0 47 -3.25294 1
gene 4 19 8 8 0 48 8 1
gene 4 6 14 -0.0537416 0 50 -0.0537416 1
gene 4 19 23 -1.53019 0 63 -1.53019 1
gene 4 23 8 -1.64257 0 64 -1.64257 1
gene 2 23 14 -2.68931 0 70 -2.68931 1
gene 4 23 27 3.21145 0 79 3.21145 1
gene 4 27 8 2.3454 0 80 2.3454 1
gene 7 1 19 4.16125 0 83 4.16125 1
gene 4 5 27 0.511554 0 92 0.511554 0
gene 2 2 19 2.01058 0 108 2.01058 1
gene 8 6 23 2.91727 0 115 2.91727 1
gene 4 2 23 -2.02641 0 124 -2.02641 0
gene 8 4 19 3.21308 0 153 3.21308 1
gene 4 5 47 0.473014 0 181 0.473014 0
gene 4 47 27 -1.02785 0 182 -1.02785 1
gene 7 27 14 -3.16192 0 193 -3.16192 1
gene 4 4 27 -1.20372 0 212 -1.20372 1
gene 1 2 27 1.34445 0 222 1.34445 1
gene 4 2 53 -3.85021 0 226 -3.85021 1
gene 4 53 23 3.02292 0 227 3.02292 1
gene 2 53 27 -2.02224 0 238 -2.02224 1
gene 4 5 64 -2.51085 0 277 -2.51085 1
gene 4 64 47 0.137645 0 278 0.137645 1
gene 7 19 47 1.77311 0 338 1.77311 1
gene 4 7 23 -0.986965 0 366 -0.986965 1
gene 4 3 89 1.72659 0 375 1.72659 1
gene 4 89 8 0.456636 0 376 0.456636 1
gene 6 53 64 -2.82827 0 399 -2.82827 1
gene 5 14 98 2.72685 0 411 2.72685 1
gene 5 98 8 1.83426 0 412 1.83426 1
gene 3 23 89 -0.838225 0 434 -0.838225 1
gene 6 5 53 -0.751523 0 442 -0.751523 1
gene 6 1 23 0.327615 0 456 0.327615 1
genomeend 4

/* Organism #5 Fitness: 0 Error: 0 */
genomestart 5
trait 1 0.1 0 0 0 0 0 0 0 
trait 2 0.2 0 0 0 0 0 0 0 
trait 3 0.3 0 0 0 0 0 0 0 
trait 4 0 0 0 0 0 0 0 0 
trait 5 0.5 0 0 0 0 0 0 0 
trait 6 0.378347 0 0 0.742295 0 0.359265 0 0.227462 
trait 7 0.7 0 0 0 0 0 0 0 
trait 8 0.8 0 0 0 0 0 0 0 
node 1 3 1 3
node 2 5 1 1
node 3 4 1 1
node 4 6 1 1
node 5 3 1 1
node 6 3 1 1
node 7 8 1 1
node 8 1 0 2
node 14 1 0 0
node 19 1 0 0
node 23 2 0 0
node 27 3 0 0
node 47 1 0 0
node 53 1 0 0
node 64 1 0 0
node 89 1 0 0
node 98 1 0 0
gene 7 1 8 -1.21584 0 1 -1.21584 1
gene 6 2 8 -2.29015 0 2 -2.29015 1
gene 4 3 8 -0.356451 0 3 -0.356451 0
gene 5 4 8 0.739698 0 4 0.739698 1
gene 5 5 8 0.36187 0 5 0.36187 1
gene 3 6 8 -1.89784 0 6 -1.89784 1
gene 7 7 8 -8 0 7 -8 1
gene 5 5 14 2.08747 0 18 2.08747 1
gene 5 14 8 -1.3797 0 19 -1.3797 0
gene 5 1 14 -0.503059 0 22 -0.503059 1
gene 7 3 14 4.19571 0 24 4.19571 1
gene 4 4 14 -8 0 39 -8 1
gene 4 3 19 -3.25294 0 47 -3.25294 1
gene 4 19 8 8 0 48 8 1
gene 4 6 14 -0.0537416 0 50 -0.0537416 1
gene 4 19 23 -1.53019 0 63 -1.53019 1
gene 4 23 8 -1.64257 0 64 -1.64257 1
gene 2 23 14 -2.68931 0 70 -2.68931 1
gene 4 23 27 3.21145 0 79 3.21145 1
gene 4 27 8 2.3454 0 80 2.3454 1
gene 7 1 19 4.16125 0 83 4.16125 1
gene 4 5 27 0.511554 0 92 0.511554 0
gene 2 2 19 2.01058 0 108 2.01058 1
gene 8 6 23 2.91727 0 115 2.91727 1
gene 4 2 23 -2.02641 0 124 -2.02641 0
gene 8 4 19 3.21308 0 153 3.21308 1
gene 4 5 47 0.473014 0 181 0.473014 0
gene 4 47 27 -1.02785 0 182 -1.02785 1
gene 7 27 14 -3.16192 0 193 -3.16192 1
gene 4 4 27 -1.20372 0 212 -1.20372 1
gene 1 2 27 1.34445 0 222 1.34445 1
gene 4 2 53 -3.85021 0 226 -3.85021 1
gene 4 53 23 3.02292 0 227 3.02292 1
gene 2 53 27 -2.02224 0 238 -2.02224 1
gene 4 5 64 -2.51085 0 277 -2.51085 1
gene 4 64 47 0.137645 0 278 0.137645 1
gene 7 19 47 1.77311 0 338 1.77311 1
gene 4 7 23 -0.986965 0 366 -0.986965 1
gene 4 3 89 1.72659 0 375 1.72659 1
gene 4 89 8 0.456636 0 376 0.456636 1
gene 6 53 64 -2.82827 0 399 -2.82827 1
gene 5 14 98 2.72685 0 411 2.72685 1
gene 5 98 8 1.83426 0 412 1.83426 1
gene 3 23 89 -0.838225 0 434 -0.838225 1
gene 6 5 53 -0.751523 0 442 -0.751523 1
gene 4 53 47 -0.043663 0 457 -0.043663 1
genomeend 5

/* Organism #6 Fitness: 98 Error: 0 */
/* ##------$ WINNER 6 SPECIES #41 $------## */
genomestart 6
trait 1 0.1 0 0 0 0 0 0 0 
trait 2 0.2 0 0 0 0 0 0 0 
trait 3 0.3 0 0 0 0 0 0 0 
trait 4 0 0 0 0 0 0 0 0 
trait 5 0.5 0 0 0 0 0 0 0 
trait 6 0.378347 0 0 0.742295 0 0.359265 0 0.227462 
trait 7 0.7 0 0 0 0 0 0 0 
trait 8 0.8 0 0 0 0 0 0 0 
node 1 3 1 3
node 2 5 1 1
node 3 4 1 1
node 4 6 1 1
node 5 3 1 1
node 6 3 1 1
node 7 8 1 1
node 8 1 0 2
node 14 1 0 0
node 19 1 0 0
node 23 2 0 0
node 27 3 0 0
node 47 1 0 0
node 53 1 0 0
node 64 1 0 0
node 89 1 0 0
node 98 1 0 0
gene 7 1 8 -0.680533 0 1 -0.680533 1
gene 6 2 8 -1.41174 0 2 -1.41174 1
gene 4 3 8 0.411255 0 3 0.411255 0
gene 5 4 8 1.45192 0 4 1.45192 1
gene 5 5 8 0.404096 0 5 0.404096 1
gene 3 6 8 -2.94164 0 6 -2.94164 1
gene 7 7 8 -8 0 7 -8 1
gene 5 5 14 2.97968 0 18 2.97968 1
gene 5 14 8 -1.20952 0 19 -1.20952 0
gene 5 1 14 -0.598908 0 22 -0.598908 1
gene 7 3 14 4.2595 0 24 4.2595 1
gene 4 4 14 -7.51 0 39 -7.51 1
gene 4 3 19 -2.15835 0 47 -2.15835 1
gene 4 19 8 8 0 48 8 1
gene 4 6 14 0.550236 0 50 0.550236 1
gene 4 19 23 0.430754 0 63 0.430754 1
gene 4 23 8 -3.43739 0 64 -3.43739 1
gene 2 23 14 -3.60245 0 70 -3.60245 1
gene 4 23 27 2.47345 0 79 2.47345 1
gene 4 27 8 4.20688 0 80 4.20688 1
gene 7 1 19 2.6106 0 83 2.6106 1
gene 4 5 27 2.80133 0 92 2.80133 0
gene 2 2 19 3.113 0 108 3.113 1
gene 8 6 23 4.68738 0 115 4.68738 1
gene 4 2 23 -4.50845 0 124 -4.50845 0
gene 8 4 19 4.83983 0 153 4.83983 1
gene 4 5 47 1.7527 0 181 1.7527 0
gene 4 47 27 -3.5029 0 182 -3.5029 1
gene 7 27 14 -2.86508 0 193 -2.86508 1
gene 4 4 27 -0.861083 0 212 -0.861083 1
gene 1 2 27 1.85592 0 222 1.85592 1
gene 4 2 53 -6.03414 0 226 -6.03414 1
gene 4 53 23 2.44584 0 227 2.44584 1
gene 2 53 27 -4.0342 0 238 -4.0342 1
gene 4 5 64 -1.45248 0 277 -1.45248 1
gene 4 64 47 -0.876697 0 278 -0.876697 1
gene 7 19 47 2.99488 0 338 2.99488 1
gene 4 7 23 -2.55138 0 366 -2.55138 1
gene 4 3 89 1.72659 0 375 1.72659 1
gene 4 89 8 0.438743 0 376 0.438743 1
gene 6 53 64 -2.82827 0 399 -2.82827 1
gene 5 14 98 2.42899 0 411 2.42899 1
gene 5 98 8 1.83596 0 412 1.83596 1
gene 3 23 89 1.23205 0 434 1.23205 1
gene 6 5 53 -0.231627 0 442 -0.231627 1
genomeend 6

/* Organism #7 Fitness: 0.0004 Error: 0 */
genomestart 7
trait 1 0.1 0 0 0 0 0 0 0 
trait 2 0.2 0 0 0 0 0 0 0 
trait 3 0.3 0 0 0 0 0 0 0 
trait 4 0 0 0 0 0 0 0 0 
trait 5 0.5 0 0 0 0 0 0 0 
trait 6 0.378347 0 0 0.742295 0 0.359265 0 0.227462 
trait 7 0.7 0 0 0 0 0 0 0 
trait 8 0.8 0 0 0 0 0 0 0 
node 1 3 1 3
node 2 5 1 1
node 3 4 1 1
node 4 6 1 1
node 5 3 1 1
node 6 3 1 1
node 7 8 1 1
node 8 1 0 2
node 14 1 0 0
node 19 1 0 0
node 23 2 0 0
node 27 3 0 0
node 47 1 0 0
node 53 1 0 0
node 64 1 0 0
node 89 1 0 0
node 98 1 0 0
node 111 1 0 0
gene 7 1 8 -1.21584 0 1 -1.21584 1
gene 6 2 8 -2.29015 0 2 -2.29015 1
gene 4 3 8 -0.356451 0 3 -0.356451 0
gene 5 4 8 0.739698 0 4 0.739698 1
gene 5 5 8 0.36187 0 5 0.36187 1
gene 3 6 8 -1.89784 0 6 -1.89784 1
gene 7 7 8 -8 0 7 -8 1
gene 5 5 14 2.08747 0 18 2.08747 1
gene 5 14 8 -1.3797 0 19 -1.3797 0
gene 5 1 14 -0.503059 0 22 -0.503059 1
gene 7 3 14 4.19571 0 24 4.19571 1
gene 4 4 14 -8 0 39 -8 1
gene 4 3 19 -3.25294 0 47 -3.25294 1
gene 4 19 8 8 0 48 8 1
gene 4 6 14 -0.0537416 0 50 -0.0537416 1
gene 4 19 23 -1.53019 0 63 -1.53019 1
gene 4 23 8 -1.64257 0 64 -1.64257 1
gene 2 23 14 -2.68931 0 70 -2.68931 1
gene 4 23 27 3.21145 0 79 3.21145 1
gene 4 27 8 2.3454 0 80 2.3454 1
gene 7 1 19 4.16125 0 83 4.16125 1
gene 4 5 27 0.511554 0 92 0.511554 0
gene 2 2 19 2.01058 0 108 2.01058 1
gene 8 6 23 2.91727 0 115 2.91727 1
gene 4 2 23 -2.02641 0 124 -2.02641 0
gene 8 4 19 3.21308 0 153 3.21308 1
gene 4 5 47 0.473014 0 181 0.473014 0
gene 4 47 27 -1.02785 0 182 -1.02785 1
gene 7 27 14 -3.16192 0 193 -3.16192 1
gene 4 4 27 -1.20372 0 212 -1.20372 1
gene 1 2 27 1.34445 0 222 1.34445 0
gene 4 2 53 -3.85021 0 226 -3.85021 1
gene 4 53 23 3.02292 0 227 3.02292 1
gene 2 53 27 -2.02224 0 238 -2.02224 1
gene 4 5 64 -2.51085 0 277 -2.51085 1
gene 4 64 47 0.137645 0 278 0.137645 1
gene 7 19 47 1.77311 0 338 1.77311 1
gene 4 7 23 -0.986965 0 366 -0.986965 1
gene 4 3 89 1.72659 0 375 1.72659 1
gene 4 89 8 0.456636 0 376 0.456636 1
gene 6 53 64 -2.82827 0 399 -2.82827 1
gene 5 14 98 2.72685 0 411 2.72685 1
gene 5 98 8 1.83426 0 412 1.83426 1
gene 3 23 89 -0.838225 0 434 -0.838225 1
gene 6 5 53 -0.751523 0 442 -0.751523 1
gene 1 2 111 1 0 458 0 1
gene 1 111 27 1.34445 0 459 0 1
genomeend 7

/* Species #42 : (Size 4) (AF 10.5) (Age 5)  */


/* Organism #8 Fitness: 0 Error: 0 */
genomestart 8
trait 1 0.1 0 0 0 0 0 0 0 
trait 2 0.2 0 0 0 0 0 0 0 
trait 3 0.3 0 0 0 0 0 0 0 
trait 4 0 0 0 0 0 0 0 0 
trait 5 0.5 0 0 0 0 0 0 0 
trait 6 0.378347 0 0 0.742295 0 0.359265 0 0.227462 
trait 7 0.7 0 0 0 0 0 0 0 
trait 8 0.8 0 0 0 0 0 0 0 
node 1 3 1 3
node 2 5 1 1
node 3 4 1 1
node 4 6 1 1
node 5 3 1 1
node 6 3 1 1
node 7 8 1 1
node 8 1 0 2
node 14 1 0 0
node 19 1 0 0
node 23 2 0 0
node 27 3 0 0
node 47 1 0 0
node 53 1 0 0
node 64 1 0 0
node 89 1 0 0
node 102 1 0 0
gene 7 1 8 -0.689365 0 1 -0.689365 1
gene 6 2 8 1.00003 0 2 1.00003 1
gene 4 3 8 -1.75368 0 3 -1.75368 0
gene 5 4 8 -0.247218 0 4 -0.247218 1
gene 5 5 8 -2.50667 0 5 -2.50667 1
gene 3 6 8 7.56071 0 6 7.56071 1
gene 7 7 8 -5.59823 0 7 -5.59823 1
gene 5 5 14 -4.37206 0 18 -4.37206 1
gene 5 14 8 -0.870318 0 19 -0.870318 1
gene 5 1 14 2.62837 0 22 2.62837 1
gene 7 3 14 4.18602 0 24 4.18602 1
gene 4 4 14 -2.16287 0 39 -2.16287 1
gene 4 3 19 -2.48719 0 47 -2.48719 1
gene 4 19 8 2.78975 0 48 2.78975 1
gene 4 6 14 2.11946 0 50 2.11946 1
gene 4 19 23 0.527645 0 63 0.527645 1
gene 4 23 8 -1.33187 0 64 -1.33187 1
gene 2 23 14 -0.377991 0 70 -0.377991 1
gene 4 23 27 3.41967 0 79 3.41967 1
gene 4 27 8 -0.407952 0 80 -0.407952 1
gene 7 1 19 0.481583 0 83 0.481583 1
gene 4 5 27 6.30075 0 92 6.30075 0
gene 2 2 19 -1.37535 0 108 -1.37535 1
gene 8 6 23 0.0288925 0 115 0.0288925 1
gene 4 2 23 -3.60749 0 124 -3.60749 0
gene 8 4 19 3.95522 0 153 3.95522 1
gene 4 5 47 -2.74335 0 181 -2.74335 1
gene 4 47 27 1.69378 0 182 1.69378 1
gene 7 27 14 -4.35252 0 193 -4.35252 1
gene 4 4 27 -3.99912 0 212 -3.99912 1
gene 1 2 27 -0.969824 0 222 -0.969824 1
gene 4 2 53 2.10865 0 226 2.10865 1
gene 4 53 23 0.153728 0 227 0.153728 0
gene 2 53 27 -6.91679 0 238 -6.91679 1
gene 4 5 64 3.51507 0 277 3.51507 1
gene 4 64 47 -1.65479 0 278 -1.65479 1
gene 7 19 47 0.939162 0 338 0.939162 1
gene 4 7 23 -0.143693 0 366 -0.143693 1
gene 4 3 89 -0.465146 0 375 -0.465146 1
gene 4 89 8 2.8511 0 376 2.8511 1
gene 6 53 64 -2.75484 0 399 -2.75484 1
gene 5 53 14 -3.715 0 420 -3.715 1
gene 4 53 102 1.55276 0 425 1.55276 1
gene 4 102 23 4.85685 0 426 4.85685 1
genomeend 8

/* Organism #9 Fitness: 20 Error: 0 */
genomestart 9
trait 1 0.1 0 0 0 0 0 0 0 
trait 2 0.2 0 0 0 0 0 0 0 
trait 3 0.3 0 0 0 0 0 0 0 
trait 4 0 0 0 0 0 0 0 0 
trait 5 0.5 0 0 0 0 0 0 0 
trait 6 0.378347 0 0 0.742295 0 0.359265 0 0.227462 
trait 7 0.7 0 0 0 0 0 0 0 
trait 8 0.8 0 0 0 0 0 0 0 
node 1 3 1 3
node 2 5 1 1
node 3 4 1 1
node 4 6 1 1
node 5 3 1 1
node 6 3 1 1
node 7 8 1 1
node 8 1 0 2
node 14 1 0 0
node 19 1 0 0
node 23 2 0 0
node 27 3 0 0
node 47 1 0 0
node 53 1 0 0
node 64 1 0 0
node 89 1 0 0
node 102 1 0 0
node 112 1 0 0
gene 7 1 8 -0.728024 0 1 -0.728024 1
gene 6 2 8 -1.14947 0 2 -1.14947 1
gene 4 3 8 -1.75368 0 3 -1.75368 0
gene 5 4 8 -0.234149 0 4 -0.234149 1
gene 5 5 8 -6.11684 0 5 -6.11684 1
gene 3 6 8 5.22325 0 6 5.22325 1
gene 7 7 8 -5.96431 0 7 -5.96431 1
gene 5 5 14 -4.37206 0 18 -4.37206 1
gene 5 14 8 -1.51666 0 19 -1.51666 1
gene 5 1 14 -0.874077 0 22 -0.874077 1
gene 7 3 14 5.50466 0 24 5.50466 1
gene 4 4 14 -4.49355 0 39 -4.49355 0
gene 4 3 19 -2.48719 0 47 -2.48719 1
gene 4 19 8 2.78975 0 48 2.78975 1
gene 4 6 14 -0.103858 0 50 -0.103858 1
gene 4 19 23 0.527645 0 63 0.527645 1
gene 4 23 8 -1.33187 0 64 -1.33187 1
gene 2 23 14 0.68784 0 70 0.68784 1
gene 4 23 27 4.40681 0 79 4.40681 1
gene 4 27 8 3.13888 0 80 3.13888 1
gene 7 1 19 0.481583 0 83 0.481583 1
gene 4 5 27 6.30075 0 92 6.30075 0
gene 2 2 19 -1.37535 0 108 -1.37535 1
gene 8 6 23 0.0288925 0 115 0.0288925 1
gene 4 2 23 -3.60749 0 124 -3.60749 0
gene 8 4 19 -2.41859 0 153 -2.41859 1
gene 4 5 47 -2.74335 0 181 -2.74335 1
gene 4 47 27 1.69378 0 182 1.69378 1
gene 7 27 14 -2.79788 0 193 -2.79788 1
gene 4 4 27 -3.99912 0 212 -3.99912 1
gene 1 2 27 -0.969824 0 222 -0.969824 1
gene 4 2 53 2.10865 0 226 2.10865 1
gene 4 53 23 3.27088 0 227 3.27088 0
gene 2 53 27 -6.91679 0 238 -6.91679 1
gene 4 5 64 4.55893 0 277 4.55893 1
gene 4 64 47 -0.74543 0 278 -0.74543 1
gene 7 19 47 -0.652121 0 338 -0.652121 1
gene 4 7 23 -0.143693 0 366 -0.143693 1
gene 4 3 89 -1.76189 0 375 -1.76189 1
gene 4 89 8 1.24104 0 376 1.24104 1
gene 6 53 64 -2.45012 0 399 -2.45012 1
gene 5 53 14 -0.860913 0 420 -0.860913 1
gene 4 53 102 1.55276 0 425 1.55276 1
gene 4 102 23 5.32447 0 426 5.32447 1
gene 4 4 112 1 0 460 0 1
gene 4 112 14 -4.49355 0 461 0 1
genomeend 9

/* Organism #10 Fitness: 22 Error: 0 */
genomestart 10
trait 1 0.1 0 0 0 0 0 0 0 
trait 2 0.2 0 0 0 0 0 0 0 
trait 3 0.3 0 0 0 0 0 0 0 
trait 4 0 0 0 0 0 0 0 0 
trait 5 0.5 0 0 0 0 0 0 0 
trait 6 0.378347 0 0 0.742295 0 0.359265 0 0.227462 
trait 7 0.7 0 0 0 0 0 0 0 
trait 8 0.8 0 0 0 0 0 0 0 
node 1 3 1 3
node 2 5 1 1
node 3 4 1 1
node 4 6 1 1
node 5 3 1 1
node 6 3 1 1
node 7 8 1 1
node 8 1 0 2
node 14 1 0 0
node 19 1 0 0
node 23 2 0 0
node 27 3 0 0
node 47 1 0 0
node 53 1 0 0
node 64 1 0 0
node 89 1 0 0
node 102 1 0 0
gene 7 1 8 -0.728024 0 1 -0.728024 1
gene 6 2 8 -2.96265 0 2 -2.96265 1
gene 4 3 8 -0.128777 0 3 -0.128777 0
gene 5 4 8 0.971806 0 4 0.971806 1
gene 5 5 8 -8 0 5 -8 1
gene 3 6 8 2.15087 0 6 2.15087 1
gene 7 7 8 0.438524 0 7 0.438524 1
gene 5 5 14 -0.241837 0 18 -0.241837 1
gene 5 14 8 -1.51666 0 19 -1.51666 1
gene 5 1 14 1.35122 0 22 1.35122 1
gene 7 3 14 5.4963 0 24 5.4963 1
gene 4 4 14 -4.29879 0 39 -4.29879 1
gene 4 3 19 -2.05681 0 47 -2.05681 1
gene 4 19 8 5.05008 0 48 5.05008 1
gene 4 6 14 2.25625 0 50 2.25625 1
gene 4 19 23 0.326229 0 63 0.326229 1
gene 4 23 8 1.23871 0 64 1.23871 1
gene 2 23 14 2.11741 0 70 2.11741 1
gene 4 23 27 4.86384 0 79 4.86384 1
gene 4 27 8 4.75539 0 80 4.75539 1
gene 7 1 19 0.822946 0 83 0.822946 1
gene 4 5 27 3.65497 0 92 3.65497 0
gene 2 2 19 3.38831 0 108 3.38831 1
gene 8 6 23 1.57392 0 115 1.57392 1
gene 4 2 23 -2.02695 0 124 -2.02695 0
gene 8 4 19 2.05113 0 153 2.05113 1
gene 4 5 47 -3.22777 0 181 -3.22777 1
gene 4 47 27 5.28578 0 182 5.28578 1
gene 7 27 14 -0.368751 0 193 -0.368751 1
gene 4 4 27 0.240316 0 212 0.240316 1
gene 1 2 27 1.53492 0 222 1.53492 1
gene 4 2 53 -4.60287 0 226 -4.60287 1
gene 4 53 23 3.27088 0 227 3.27088 0
gene 2 53 27 -7.36421 0 238 -7.36421 1
gene 4 5 64 4.55893 0 277 4.55893 1
gene 4 64 47 0.910984 0 278 0.910984 1
gene 7 19 47 -0.208728 0 338 -0.208728 1
gene 4 7 23 1.97711 0 366 1.97711 1
gene 4 3 89 0.30855 0 375 0.30855 1
gene 4 89 8 1.24104 0 376 1.24104 1
gene 6 53 64 -4.49802 0 399 -4.49802 1
gene 5 53 14 1.36552 0 420 1.36552 1
gene 4 53 102 -0.895718 0 425 -0.895718 1
gene 4 102 23 4.7119 0 426 4.7119 1
gene 1 7 14 2.33667 0 439 2.33667 1
gene 4 4 23 -2.24343 0 452 -2.24343 1
genomeend 10

/* Organism #11 Fitness: 0.0001 Error: 0 */
genomestart 11
trait 1 0.1 0 0 0 0 0 0 0 
trait 2 0.2 0 0 0 0 0 0 0 
trait 3 0.3 0 0 0 0 0 0 0 
trait 4 0 0 0 0 0 0 0 0 
trait 5 0.5 0 0 0 0 0 0 0 
trait 6 0.378347 0 0 0.742295 0 0.359265 0 0.227462 
trait 7 0.7 0 0 0 0 0 0 0 
trait 8 0.8 0 0 0 0 0 0 0 
node 1 3 1 3
node 2 2 1 1
node 3 4 1 1
node 4 6 1 1
node 5 3 1 1
node 6 3 1 1
node 7 8 1 1
node 8 1 0 2
node 14 1 0 0
node 19 1 0 0
node 23 2 0 0
node 27 3 0 0
node 47 1 0 0
node 53 1 0 0
node 64 1 0 0
node 89 1 0 0
node 102 1 0 0
gene 7 1 8 -3.81158 0 1 -3.81158 1
gene 6 2 8 -1.8185 0 2 -1.8185 1
gene 4 3 8 -0.447251 0 3 -0.447251 0
gene 5 4 8 3.59631 0 4 3.59631 1
gene 5 5 8 -5.616 0 5 -5.616 1
gene 3 6 8 7.53419 0 6 7.53419 1
gene 7 7 8 -5.06685 0 7 -5.06685 1
gene 5 5 14 -0.349587 0 18 -0.349587 1
gene 5 14 8 -4.20337 0 19 -4.20337 1
gene 5 1 14 3.13136 0 22 3.13136 1
gene 7 3 14 3.5607 0 24 3.5607 1
gene 4 4 14 -3.56342 0 39 -3.56342 1
gene 4 3 19 2.40232 0 47 2.40232 1
gene 4 19 8 4.59418 0 48 4.59418 1
gene 4 6 14 -1.87794 0 50 -1.87794 1
gene 4 19 23 0.213424 0 63 0.213424 1
gene 4 23 8 2.97175 0 64 2.97175 1
gene 2 23 14 1.51975 0 70 1.51975 1
gene 3 23 27 4.06119 0 79 4.06119 1
gene 4 27 8 1.13521 0 80 1.13521 1
gene 7 1 19 0.551902 0 83 0.551902 1
gene 4 5 27 6.59065 0 92 6.59065 0
gene 2 2 19 2.12747 0 108 2.12747 1
gene 8 6 23 1.25764 0 115 1.25764 1
gene 4 2 23 -5.70879 0 124 -5.70879 0
gene 8 4 19 -2.55594 0 153 -2.55594 1
gene 4 5 47 2.74657 0 181 2.74657 1
gene 4 47 27 4.20008 0 182 4.20008 1
gene 7 27 14 -3.28438 0 193 -3.28438 1
gene 4 4 27 -5.12931 0 212 -5.12931 1
gene 1 2 27 2.02891 0 222 2.02891 1
gene 4 2 53 -2.16856 0 226 -2.16856 1
gene 4 53 23 4.30993 0 227 4.30993 0
gene 2 53 27 -2.77712 0 238 -2.77712 1
gene 4 5 64 5.56853 0 277 5.56853 1
gene 4 64 47 0.49402 0 278 0.49402 1
gene 7 19 47 -2.36096 0 338 -2.36096 1
gene 4 7 23 3.81813 0 366 3.81813 1
gene 4 3 89 -2.4986 0 375 -2.4986 1
gene 4 89 8 -1.19486 0 376 -1.19486 1
gene 6 53 64 1.46767 0 399 1.46767 1
gene 5 53 14 -2.02805 0 420 -2.02805 1
gene 4 53 102 -0.825801 0 425 -0.825801 1
gene 4 102 23 6.92372 0 426 6.92372 1
gene 1 7 14 0.408285 0 439 0.408285 1
genomeend 11

/* Species #44 : (Size 6) (AF 24.5) (Age 2)  */


/* Organism #12 Fitness: 20 Error: 0 */
genomestart 12
trait 1 0.1 0 0 0 0 0 0 0 
trait 2 0.2 0 0 0 0 0 0 0 
trait 3 0.3 0 0 0 0 0 0 0 
trait 4 0 0 0 0 0 0 0 0 
trait 5 0.5 0 0 0 0 0 0 0 
trait 6 0.378347 0 0 0.742295 0 0.359265 0 0.227462 
trait 7 0.7 0 0 0 0 0 0 0 
trait 8 0.8 0 0 0 0 0 0 0 
node 1 3 1 3
node 2 5 1 1
node 3 4 1 1
node 4 6 1 1
node 5 3 1 1
node 6 3 1 1
node 7 8 1 1
node 8 1 0 2
node 14 1 0 0
node 19 1 0 0
node 23 2 0 0
node 27 3 0 0
node 47 1 0 0
node 53 1 0 0
node 64 1 0 0
node 89 1 0 0
node 98 1 0 0
node 106 1 0 0
gene 7 1 8 0.926981 0 1 0.926981 1
gene 6 2 8 0.551807 0 2 0.551807 0
gene 4 3 8 1.52663 0 3 1.52663 0
gene 5 4 8 0.0717899 0 4 0.0717899 1
gene 5 5 8 -0.657762 0 5 -0.657762 1
gene 3 6 8 -1.89784 0 6 -1.89784 1
gene 7 7 8 2.08199 0 7 2.08199 1
gene 5 5 14 2.92932 0 18 2.92932 1
gene 5 14 8 -1.3797 0 19 -1.3797 0
gene 5 1 14 -1.6358 0 22 -1.6358 1
gene 7 3 14 1.31326 0 24 1.31326 1
gene 4 4 14 -8 0 39 -8 1
gene 4 3 19 -3.25294 0 47 -3.25294 1
gene 4 19 8 8 0 48 8 1
gene 4 6 14 -0.836174 0 50 -0.836174 1
gene 4 19 23 0.846297 0 63 0.846297 1
gene 4 23 8 -1.64257 0 64 -1.64257 1
gene 2 23 14 -2.68931 0 70 -2.68931 1
gene 4 23 27 2.53492 0 79 2.53492 1
gene 4 27 8 2.3454 0 80 2.3454 1
gene 7 1 19 4.16125 0 83 4.16125 1
gene 4 5 27 -0.151579 0 92 -0.151579 0
gene 2 2 19 0.949238 0 108 0.949238 1
gene 8 6 23 4.35213 0 115 4.35213 1
gene 4 2 23 -2.02641 0 124 -2.02641 0
gene 8 4 19 4.9216 0 153 4.9216 1
gene 4 5 47 0.473014 0 181 0.473014 0
gene 4 47 27 -1.02785 0 182 -1.02785 1
gene 7 27 14 -5.60175 0 193 -5.60175 1
gene 4 4 27 -2.71446 0 212 -2.71446 1
gene 1 2 27 1.34445 0 222 1.34445 1
gene 4 2 53 -3.85021 0 226 -3.85021 1
gene 4 53 23 3.02292 0 227 3.02292 1
gene 2 53 27 -4.3091 0 238 -4.3091 1
gene 4 5 64 -3.86211 0 277 -3.86211 1
gene 4 64 47 0.133376 0 278 0.133376 1
gene 7 19 47 1.77311 0 338 1.77311 1
gene 4 7 23 0.330316 0 366 0.330316 1
gene 4 3 89 1.72659 0 375 1.72659 1
gene 4 89 8 1.74907 0 376 1.74907 1
gene 6 53 64 -2.26945 0 399 -2.26945 1
gene 5 14 98 1.18728 0 411 1.18728 1
gene 5 98 8 -1.88531 0 412 -1.88531 1
gene 4 89 23 0.818376 0 435 0.818376 1
gene 6 2 106 1 0 443 0 1
gene 6 106 8 0.551807 0 444 0 1
genomeend 12

/* Organism #13 Fitness: 41 Error: 0 */
/* ##------$ WINNER 13 SPECIES #44 $------## */
genomestart 13
trait 1 0.1 0 0 0 0 0 0 0 
trait 2 0.2 0 0 0 0 0 0 0 
trait 3 0.3 0 0 0 0 0 0 0 
trait 4 0 0 0 0 0 0 0 0 
trait 5 0.5 0 0 0 0 0 0 0 
trait 6 0.378347 0 0 0.742295 0 0.359265 0 0.227462 
trait 7 0.7 0 0 0 0 0 0 0 
trait 8 0.8 0 0 0 0 0 0 0 
node 1 3 1 3
node 2 5 1 1
node 3 4 1 1
node 4 6 1 1
node 5 3 1 1
node 6 3 1 1
node 7 8 1 1
node 8 1 0 2
node 14 1 0 0
node 19 1 0 0
node 23 2 0 0
node 27 3 0 0
node 47 1 0 0
node 53 1 0 0
node 64 1 0 0
node 89 1 0 0
node 98 1 0 0
node 106 1 0 0
gene 7 1 8 0.496406 0 1 0.496406 1
gene 6 2 8 2.96301 0 2 2.96301 0
gene 4 3 8 0.765213 0 3 0.765213 0
gene 5 4 8 -2.06755 0 4 -2.06755 1
gene 5 5 8 1.53248 0 5 1.53248 1
gene 3 6 8 -2.31897 0 6 -2.31897 1
gene 7 7 8 1.569 0 7 1.569 1
gene 5 5 14 1.42119 0 18 1.42119 1
gene 5 14 8 -3.70437 0 19 -3.70437 0
gene 5 1 14 -3.40421 0 22 -3.40421 1
gene 7 3 14 0.84396 0 24 0.84396 1
gene 4 4 14 -7.43429 0 39 -7.43429 1
gene 4 3 19 -4.32989 0 47 -4.32989 1
gene 4 19 8 8 0 48 8 1
gene 4 6 14 -1.09719 0 50 -1.09719 1
gene 4 19 23 1.65027 0 63 1.65027 1
gene 4 23 8 -2.3514 0 64 -2.3514 1
gene 2 23 14 -2.22345 0 70 -2.22345 1
gene 4 23 27 4.88569 0 79 4.88569 1
gene 4 27 8 2.09239 0 80 2.09239 1
gene 7 1 19 3.55233 0 83 3.55233 1
gene 4 5 27 0.167186 0 92 0.167186 0
gene 2 2 19 -0.566941 0 108 -0.566941 1
gene 8 6 23 3.99851 0 115 3.99851 1
gene 4 2 23 -2.02894 0 124 -2.02894 0
gene 8 4 19 3.6355 0 153 3.6355 1
gene 4 5 47 -1.43107 0 181 -1.43107 0
gene 4 47 27 1.39503 0 182 1.39503 1
gene 7 27 14 -5.66873 0 193 -5.66873 1
gene 4 4 27 -2.56833 0 212 -2.56833 1
gene 1 2 27 3.48793 0 222 3.48793 1
gene 4 2 53 -1.97901 0 226 -1.97901 1
gene 4 53 23 2.77837 0 227 2.77837 1
gene 2 53 27 -4.95514 0 238 -4.95514 1
gene 4 5 64 -5.05513 0 277 -5.05513 1
gene 4 64 47 1.58001 0 278 1.58001 1
gene 7 19 47 3.78245 0 338 3.78245 1
gene 4 7 23 -1.82516 0 366 -1.82516 1
gene 4 3 89 0.40881 0 375 0.40881 1
gene 4 89 8 2.0493 0 376 2.0493 1
gene 6 53 64 -0.0379892 0 399 -0.0379892 1
gene 5 14 98 3.66329 0 411 3.66329 1
gene 5 98 8 -1.88531 0 412 -1.88531 1
gene 4 89 23 0.818376 0 435 0.818376 1
gene 6 2 106 0.104968 0 443 0.104968 1
gene 6 106 8 0.551807 0 444 0.551807 1
genomeend 13

/* Organism #14 Fitness: 31 Error: 0 */
/* ##------$ WINNER 14 SPECIES #44 $------## */
genomestart 14
trait 1 0.1 0 0 0 0 0 0 0 
trait 2 0.2 0 0 0 0 0 0 0 
trait 3 0.3 0 0 0 0 0 0 0 
trait 4 0 0 0 0 0 0 0 0 
trait 5 0.5 0 0 0 0 0 0 0 
trait 6 0.378347 0 0 0.742295 0 0.359265 0 0.227462 
trait 7 0.7 0 0 0 0 0 0 0 
trait 8 0.8 0 0 0 0 0 0 0 
node 1 3 1 3
node 2 5 1 1
node 3 4 1 1
node 4 6 1 1
node 5 3 1 1
node 6 3 1 1
node 7 8 1 1
node 8 1 0 2
node 14 1 0 0
node 19 1 0 0
node 23 2 0 0
node 27 3 0 0
node 47 1 0 0
node 53 1 0 0
node 64 1 0 0
node 89 1 0 0
node 98 1 0 0
node 106 1 0 0
gene 7 1 8 1.55134 0 1 1.55134 1
gene 6 2 8 1.52778 0 2 1.52778 0
gene 4 3 8 1.52663 0 3 1.52663 0
gene 5 4 8 1.39702 0 4 1.39702 1
gene 5 5 8 0.93933 0 5 0.93933 1
gene 3 6 8 -3.47401 0 6 -3.47401 1
gene 7 7 8 4.33151 0 7 4.33151 1
gene 5 5 14 5.36154 0 18 5.36154 1
gene 5 14 8 0.890692 0 19 0.890692 0
gene 5 1 14 -2.56214 0 22 -2.56214 1
gene 7 3 14 3.69577 0 24 3.69577 1
gene 4 4 14 -1.07015 0 39 -1.07015 1
gene 4 3 19 -1.01915 0 47 -1.01915 1
gene 4 19 8 -2.40408 0 48 -2.40408 1
gene 4 6 14 -2.58471 0 50 -2.58471 1
gene 4 19 23 2.83433 0 63 2.83433 1
gene 4 23 8 0.426622 0 64 0.426622 1
gene 2 23 14 -1.00563 0 70 -1.00563 1
gene 4 23 27 0.696718 0 79 0.696718 1
gene 4 27 8 0.838079 0 80 0.838079 1
gene 7 1 19 6.278 0 83 6.278 1
gene 4 5 27 -0.727114 0 92 -0.727114 0
gene 2 2 19 2.75716 0 108 2.75716 1
gene 8 6 23 3.77184 0 115 3.77184 1
gene 4 2 23 -1.62171 0 124 -1.62171 0
gene 8 4 19 0.986192 0 153 0.986192 1
gene 4 5 47 0.645745 0 181 0.645745 0
gene 4 47 27 0.824152 0 182 0.824152 1
gene 7 27 14 -4.05844 0 193 -4.05844 1
gene 4 4 27 -3.64882 0 212 -3.64882 1
gene 1 2 27 -0.159607 0 222 -0.159607 1
gene 4 2 53 -4.62061 0 226 -4.62061 1
gene 4 53 23 -1.79451 0 227 -1.79451 1
gene 2 53 27 -2.47366 0 238 -2.47366 1
gene 4 5 64 -1.64371 0 277 -1.64371 1
gene 4 64 47 2.17387 0 278 2.17387 1
gene 7 19 47 0.377886 0 338 0.377886 1
gene 4 7 23 -1.6498 0 366 -1.6498 1
gene 4 3 89 3.50598 0 375 3.50598 1
gene 4 89 8 3.79519 0 376 3.79519 1
gene 6 53 64 -2.26945 0 399 -2.26945 1
gene 5 14 98 -0.456157 0 411 -0.456157 1
gene 5 98 8 -1.88531 0 412 -1.88531 1
gene 4 89 23 2.60855 0 435 2.60855 1
gene 6 2 106 -0.137976 0 443 -0.137976 1
gene 6 106 8 -1.16682 0 444 -1.16682 1
genomeend 14

/* Organism #15 Fitness: 32 Error: 0 */
/* ##------$ WINNER 15 SPECIES #44 $------## */
genomestart 15
trait 1 0.1 0 0 0 0 0 0 0 
trait 2 0.2 0 0 0 0 0 0 0 
trait 3 0.3 0 0 0 0 0 0 0 
trait 4 0 0 0 0 0 0 0 0 
trait 5 0.5 0 0 0 0 0 0 0 
trait 6 0.378347 0 0 0.742295 0 0.359265 0 0.227462 
trait 7 0.7 0 0 0 0 0 0 0 
trait 8 0.8 0 0 0 0 0 0 0 
node 1 3 1 3
node 2 5 1 1
node 3 4 1 1
node 4 6 1 1
node 5 3 1 1
node 6 3 1 1
node 7 8 1 1
node 8 1 0 2
node 14 1 0 0
node 19 1 0 0
node 23 2 0 0
node 27 3 0 0
node 47 1 0 0
node 53 1 0 0
node 64 1 0 0
node 89 1 0 0
node 98 1 0 0
node 106 1 0 0
gene 7 1 8 1.19572 0 1 1.19572 1
gene 6 2 8 0.926705 0 2 0.926705 0
gene 4 3 8 2.77808 0 3 2.77808 0
gene 5 4 8 -1.42251 0 4 -1.42251 1
gene 5 5 8 -1.58677 0 5 -1.58677 1
gene 3 6 8 -0.153909 0 6 -0.153909 1
gene 7 7 8 0.662687 0 7 0.662687 1
gene 5 5 14 2.92932 0 18 2.92932 1
gene 5 14 8 -3.06567 0 19 -3.06567 0
gene 5 1 14 -3.72455 0 22 -3.72455 1
gene 7 3 14 3.35091 0 24 3.35091 1
gene 4 4 14 -8 0 39 -8 1
gene 4 3 19 -2.26079 0 47 -2.26079 1
gene 4 19 8 8 0 48 8 1
gene 4 6 14 1.39749 0 50 1.39749 1
gene 4 19 23 3.23377 0 63 3.23377 1
gene 4 23 8 -1.64257 0 64 -1.64257 1
gene 2 23 14 -1.65253 0 70 -1.65253 1
gene 4 23 27 3.69184 0 79 3.69184 1
gene 4 27 8 1.68502 0 80 1.68502 1
gene 7 1 19 4.11859 0 83 4.11859 1
gene 4 5 27 -0.334796 0 92 -0.334796 0
gene 2 2 19 -0.0780175 0 108 -0.0780175 1
gene 8 6 23 6.76718 0 115 6.76718 1
gene 4 2 23 -1.64416 0 124 -1.64416 0
gene 8 4 19 5.6694 0 153 5.6694 1
gene 4 5 47 -1.76482 0 181 -1.76482 0
gene 4 47 27 0.629727 0 182 0.629727 1
gene 7 27 14 1.76719 0 193 1.76719 1
gene 4 4 27 -1.81079 0 212 -1.81079 1
gene 1 2 27 3.23368 0 222 3.23368 1
gene 4 2 53 -6.3428 0 226 -6.3428 1
gene 4 53 23 2.43426 0 227 2.43426 1
gene 2 53 27 -1.88023 0 238 -1.88023 1
gene 4 5 64 -1.92635 0 277 -1.92635 1
gene 4 64 47 0.133376 0 278 0.133376 1
gene 7 19 47 -0.117353 0 338 -0.117353 1
gene 4 7 23 1.7418 0 366 1.7418 1
gene 4 3 89 1.66397 0 375 1.66397 1
gene 4 89 8 3.58296 0 376 3.58296 1
gene 6 53 64 -1.50999 0 399 -1.50999 1
gene 5 14 98 0.229929 0 411 0.229929 1
gene 5 98 8 -0.698423 0 412 -0.698423 1
gene 4 89 23 1.19139 0 435 1.19139 1
gene 6 2 106 1.00613 0 443 1.00613 1
gene 6 106 8 0.31991 0 444 0.31991 1
genomeend 15

/* Organism #16 Fitness: 23 Error: 0 */
genomestart 16
trait 1 0.1 0 0 0 0 0 0 0 
trait 2 0.2 0 0 0 0 0 0 0 
trait 3 0.3 0 0 0 0 0 0 0 
trait 4 0 0 0 0 0 0 0 0 
trait 5 0.5 0 0 0 0 0 0 0 
trait 6 0.378347 0 0 0.742295 0 0.359265 0 0.227462 
trait 7 0.7 0 0 0 0 0 0 0 
trait 8 0.8 0 0 0 0 0 0 0 
node 1 3 1 3
node 2 5 1 1
node 3 4 1 1
node 4 6 1 1
node 5 3 1 1
node 6 3 1 1
node 7 8 1 1
node 8 1 0 2
node 14 1 0 0
node 19 1 0 0
node 23 2 0 0
node 27 3 0 0
node 47 1 0 0
node 53 1 0 0
node 64 1 0 0
node 89 1 0 0
node 98 1 0 0
node 106 1 0 0
gene 7 1 8 3.13924 0 1 3.13924 1
gene 6 2 8 -0.341606 0 2 -0.341606 0
gene 4 3 8 0.963538 0 3 0.963538 0
gene 5 4 8 -2.10233 0 4 -2.10233 1
gene 5 5 8 -0.657762 0 5 -0.657762 1
gene 3 6 8 -1.89784 0 6 -1.89784 1
gene 7 7 8 2.00234 0 7 2.00234 1
gene 5 5 14 4.93566 0 18 4.93566 1
gene 5 14 8 0.921824 0 19 0.921824 0
gene 5 1 14 -3.13707 0 22 -3.13707 1
gene 7 3 14 -0.101358 0 24 -0.101358 1
gene 4 4 14 -8 0 39 -8 1
gene 4 3 19 -3.25294 0 47 -3.25294 1
gene 4 19 8 5.66863 0 48 5.66863 1
gene 4 6 14 0.544527 0 50 0.544527 1
gene 4 19 23 3.11012 0 63 3.11012 1
gene 4 23 8 -3.44559 0 64 -3.44559 1
gene 2 23 14 -4.73335 0 70 -4.73335 1
gene 4 23 27 3.73175 0 79 3.73175 1
gene 4 27 8 0.393484 0 80 0.393484 1
gene 7 1 19 4.29858 0 83 4.29858 1
gene 4 5 27 -0.151579 0 92 -0.151579 0
gene 2 2 19 2.09262 0 108 2.09262 1
gene 8 6 23 6.7728 0 115 6.7728 1
gene 4 2 23 -1.22356 0 124 -1.22356 0
gene 8 4 19 3.02288 0 153 3.02288 1
gene 4 5 47 -0.24316 0 181 -0.24316 0
gene 4 47 27 -3.43778 0 182 -3.43778 1
gene 7 27 14 -7.14818 0 193 -7.14818 1
gene 4 4 27 -3.9758 0 212 -3.9758 1
gene 1 2 27 1.37127 0 222 1.37127 1
gene 4 2 53 -3.7951 0 226 -3.7951 1
gene 4 53 23 1.33508 0 227 1.33508 1
gene 2 53 27 -3.42059 0 238 -3.42059 1
gene 4 5 64 -1.53082 0 277 -1.53082 1
gene 4 64 47 1.9631 0 278 1.9631 1
gene 7 19 47 2.54575 0 338 2.54575 1
gene 4 7 23 -0.832064 0 366 -0.832064 1
gene 4 3 89 0.0052787 0 375 0.0052787 1
gene 4 89 8 2.47224 0 376 2.47224 1
gene 6 53 64 -4.58677 0 399 -4.58677 1
gene 5 14 98 -0.0150652 0 411 -0.0150652 1
gene 5 98 8 -1.66908 0 412 -1.66908 1
gene 4 89 23 2.16853 0 435 2.16853 1
gene 6 2 106 2.93552 0 443 2.93552 1
gene 6 106 8 0.534972 0 444 0.534972 1
genomeend 16

/* Organism #17 Fitness: 0 Error: 0 */
genomestart 17
trait 1 0.1 0 0 0 0 0 0 0 
trait 2 0.2 0 0 0 0 0 0 0 
trait 3 0.3 0 0 0 0 0 0 0 
trait 4 0 0 0 0 0 0 0 0 
trait 5 0.5 0 0 0 0 0 0 0 
trait 6 0.378347 0 0 0.742295 0 0.359265 0 0.227462 
trait 7 0.7 0 0 0 0 0 0 0 
trait 8 0.8 0 0 0 0 0 0 0 
node 1 3 1 3
node 2 5 1 1
node 3 4 1 1
node 4 6 1 1
node 5 3 1 1
node 6 3 1 1
node 7 8 1 1
node 8 1 0 2
node 14 1 0 0
node 19 1 0 0
node 23 2 0 0
node 27 3 0 0
node 47 1 0 0
node 53 1 0 0
node 64 1 0 0
node 89 1 0 0
node 98 1 0 0
node 106 1 0 0
gene 7 1 8 0.926981 0 1 0.926981 1
gene 6 2 8 0.551807 0 2 0.551807 0
gene 4 3 8 1.52663 0 3 1.52663 0
gene 5 4 8 0.0717899 0 4 0.0717899 1
gene 5 5 8 -0.657762 0 5 -0.657762 1
gene 3 6 8 -1.89784 0 6 -1.89784 1
gene 7 7 8 2.08199 0 7 2.08199 1
gene 5 5 14 2.92932 0 18 2.92932 1
gene 5 14 8 -1.3797 0 19 -1.3797 0
gene 5 1 14 -1.6358 0 22 -1.6358 1
gene 7 3 14 1.31326 0 24 1.31326 1
gene 4 4 14 -8 0 39 -8 1
gene 4 3 19 -3.25294 0 47 -3.25294 1
gene 4 19 8 8 0 48 8 1
gene 4 6 14 -0.836174 0 50 -0.836174 1
gene 4 19 23 0.846297 0 63 0.846297 1
gene 4 23 8 -1.64257 0 64 -1.64257 1
gene 2 23 14 -2.68931 0 70 -2.68931 1
gene 4 23 27 2.53492 0 79 2.53492 1
gene 4 27 8 2.3454 0 80 2.3454 1
gene 7 1 19 4.16125 0 83 4.16125 1
gene 4 5 27 -0.151579 0 92 -0.151579 0
gene 2 2 19 0.949238 0 108 0.949238 1
gene 8 6 23 4.35213 0 115 4.35213 1
gene 4 2 23 -2.02641 0 124 -2.02641 0
gene 8 4 19 4.9216 0 153 4.9216 1
gene 4 5 47 0.473014 0 181 0.473014 0
gene 4 47 27 -1.02785 0 182 -1.02785 1
gene 7 27 14 -5.60175 0 193 -5.60175 1
gene 4 4 27 -2.71446 0 212 -2.71446 1
gene 1 2 27 1.34445 0 222 1.34445 1
gene 4 2 53 -3.85021 0 226 -3.85021 1
gene 4 53 23 3.02292 0 227 3.02292 1
gene 2 53 27 -4.3091 0 238 -4.3091 1
gene 4 5 64 -3.86211 0 277 -3.86211 1
gene 4 64 47 0.133376 0 278 0.133376 1
gene 7 19 47 1.77311 0 338 1.77311 1
gene 4 7 23 0.330316 0 366 0.330316 1
gene 4 3 89 1.72659 0 375 1.72659 1
gene 4 89 8 1.74907 0 376 1.74907 1
gene 6 53 64 -2.26945 0 399 -2.26945 1
gene 5 14 98 1.18728 0 411 1.18728 1
gene 5 98 8 -1.88531 0 412 -1.88531 1
gene 4 89 23 0.818376 0 435 0.818376 1
gene 6 2 106 1 0 443 0 1
gene 6 106 8 0.551807 0 444 0 1
gene 7 6 19 0.0627772 0 464 0.0627772 1
genomeend 17

/* Species #45 : (Size 2) (AF 97.5) (Age 1)  */


/* Organism #18 Fitness: 113 Error: 0 */
/* ##------$ WINNER 18 SPECIES #45 $------## */
genomestart 18
trait 1 0.1 0 0 0 0 0 0 0 
trait 2 0.2 0 0 0 0 0 0 0 
trait 3 0.3 0 0 0 0 0 0 0 
trait 4 0 0 0 0 0 0 0 0 
trait 5 0.5 0 0 0 0 0 0 0 
trait 6 0.378347 0 0 0.742295 0 0.359265 0 0.227462 
trait 7 0.7 0 0 0 0 0 0 0 
trait 8 0.8 0 0 0 0 0 0 0 
node 1 3 1 3
node 2 5 1 1
node 3 4 1 1
node 4 6 1 1
node 5 3 1 1
node 6 3 1 1
node 7 8 1 1
node 8 1 0 2
node 14 1 0 0
node 19 1 0 0
node 23 2 0 0
node 27 3 0 0
node 47 1 0 0
node 53 1 0 0
node 64 1 0 0
node 89 1 0 0
node 102 1 0 0
node 109 1 0 0
gene 7 1 8 -0.577295 0 1 -0.577295 1
gene 6 2 8 -0.300609 0 2 -0.300609 1
gene 4 3 8 0.654007 0 3 0.654007 0
gene 5 4 8 1.34993 0 4 1.34993 1
gene 5 5 8 -0.012774 0 5 -0.012774 1
gene 3 6 8 7.58711 0 6 7.58711 1
gene 7 7 8 -7.6523 0 7 -7.6523 1
gene 5 5 14 -2.14191 0 18 -2.14191 1
gene 5 14 8 -2.50585 0 19 -2.50585 1
gene 5 1 14 0.409011 0 22 0.409011 1
gene 7 3 14 0.802668 0 24 0.802668 1
gene 4 4 14 -5.86793 0 39 -5.86793 1
gene 4 3 19 -0.743367 0 47 -0.743367 1
gene 4 19 8 5.58561 0 48 5.58561 1
gene 4 6 14 0.602727 0 50 0.602727 1
gene 4 19 23 0.347149 0 63 0.347149 1
gene 4 23 8 -0.47839 0 64 -0.47839 1
gene 2 23 14 -0.377991 0 70 -0.377991 1
gene 4 23 27 0.965403 0 79 0.965403 1
gene 4 27 8 2.50907 0 80 2.50907 1
gene 7 1 19 0.783816 0 83 0.783816 1
gene 4 5 27 3.48556 0 92 3.48556 0
gene 2 2 19 -2.35738 0 108 -2.35738 1
gene 8 6 23 -0.42294 0 115 -0.42294 1
gene 4 2 23 -3.4895 0 124 -3.4895 0
gene 8 4 19 1.96411 0 153 1.96411 1
gene 4 5 47 -2.74335 0 181 -2.74335 1
gene 4 47 27 3.16087 0 182 3.16087 1
gene 7 27 14 -3.68311 0 193 -3.68311 1
gene 4 4 27 -6.20418 0 212 -6.20418 1
gene 1 2 27 1.34973 0 222 1.34973 1
gene 4 2 53 -0.506544 0 226 -0.506544 1
gene 4 53 23 -1.03531 0 227 -1.03531 0
gene 2 53 27 -7.38683 0 238 -7.38683 1
gene 4 5 64 2.21933 0 277 2.21933 1
gene 4 64 47 0.00617992 0 278 0.00617992 0
gene 7 19 47 -0.613823 0 338 -0.613823 1
gene 4 7 23 0.127317 0 366 0.127317 1
gene 4 3 89 -1.76189 0 375 -1.76189 1
gene 4 89 8 1.93035 0 376 1.93035 1
gene 6 53 64 -3.98992 0 399 -3.98992 1
gene 5 53 14 -2.65664 0 420 -2.65664 1
gene 4 53 102 1.33149 0 425 1.33149 1
gene 4 102 23 7.08948 0 426 7.08948 1
gene 4 64 109 1 0 449 0 1
gene 4 109 47 0.00617992 0 450 0 1
gene 4 6 102 0.85771 0 462 0.85771 1
genomeend 18

/* Organism #19 Fitness: 82 Error: 0 */
genomestart 19
trait 1 0.1 0 0 0 0 0 0 0 
trait 2 0.2 0 0 0 0 0 0 0 
trait 3 0.3 0 0 0 0 0 0 0 
trait 4 0 0 0 0 0 0 0 0 
trait 5 0.5 0 0 0 0 0 0 0 
trait 6 0.378347 0 0 0.742295 0 0.359265 0 0.227462 
trait 7 0.7 0 0 0 0 0 0 0 
trait 8 0.8 0 0 0 0 0 0 0 
node 1 3 1 3
node 2 5 1 1
node 3 4 1 1
node 4 6 1 1
node 5 3 1 1
node 6 3 1 1
node 7 8 1 1
node 8 1 0 2
node 14 1 0 0
node 19 1 0 0
node 23 2 0 0
node 27 3 0 0
node 47 1 0 0
node 53 1 0 0
node 64 1 0 0
node 89 1 0 0
node 102 1 0 0
node 109 1 0 0
gene 7 1 8 -0.577295 0 1 -0.577295 1
gene 6 2 8 -0.300609 0 2 -0.300609 1
gene 4 3 8 0.654007 0 3 0.654007 0
gene 5 4 8 1.34993 0 4 1.34993 1
gene 5 5 8 -0.012774 0 5 -0.012774 1
gene 3 6 8 7.58711 0 6 7.58711 1
gene 7 7 8 -7.6523 0 7 -7.6523 1
gene 5 5 14 -2.14191 0 18 -2.14191 1
gene 5 14 8 -2.50585 0 19 -2.50585 1
gene 5 1 14 0.409011 0 22 0.409011 1
gene 7 3 14 0.802668 0 24 0.802668 1
gene 4 4 14 -5.86793 0 39 -5.86793 1
gene 4 3 19 -0.743367 0 47 -0.743367 1
gene 4 19 8 5.58561 0 48 5.58561 1
gene 4 6 14 0.602727 0 50 0.602727 1
gene 4 19 23 0.347149 0 63 0.347149 1
gene 4 23 8 -0.47839 0 64 -0.47839 1
gene 2 23 14 -0.377991 0 70 -0.377991 1
gene 4 23 27 0.965403 0 79 0.965403 1
gene 4 27 8 2.50907 0 80 2.50907 1
gene 7 1 19 0.783816 0 83 0.783816 1
gene 4 5 27 3.48556 0 92 3.48556 0
gene 2 2 19 -2.35738 0 108 -2.35738 1
gene 8 6 23 -0.42294 0 115 -0.42294 1
gene 4 2 23 -3.4895 0 124 -3.4895 0
gene 8 4 19 1.96411 0 153 1.96411 1
gene 4 5 47 -2.74335 0 181 -2.74335 1
gene 4 47 27 3.16087 0 182 3.16087 1
gene 7 27 14 -3.68311 0 193 -3.68311 1
gene 4 4 27 -6.20418 0 212 -6.20418 1
gene 1 2 27 1.34973 0 222 1.34973 1
gene 4 2 53 -0.506544 0 226 -0.506544 1
gene 4 53 23 -1.03531 0 227 -1.03531 0
gene 2 53 27 -7.38683 0 238 -7.38683 1
gene 4 5 64 2.21933 0 277 2.21933 1
gene 4 64 47 0.00617992 0 278 0.00617992 0
gene 7 19 47 -0.613823 0 338 -0.613823 1
gene 4 7 23 0.127317 0 366 0.127317 1
gene 4 3 89 -1.76189 0 375 -1.76189 1
gene 4 89 8 1.93035 0 376 1.93035 1
gene 6 53 64 -3.98992 0 399 -3.98992 1
gene 5 53 14 -2.65664 0 420 -2.65664 1
gene 4 53 102 1.33149 0 425 1.33149 1
gene 4 102 23 7.08948 0 426 7.08948 1
gene 4 64 109 1 0 449 0 1
gene 4 109 47 0.00617992 0 450 0 1
gene 3 109 8 -0.889039 0 463 -0.889039 1
genomeend 19
