
/* Species #41 : (Size 5) (AF 28) (Age 9)  */


/* Organism #0 Fitness: 20 Error: 0 */
genomestart 0
trait 1 0.1 0 0 0 0 0 0 0 
trait 2 0.2 0 0 0 0 0 0 0 
trait 3 0.3 0 0 0 0 0 0 0 
trait 4 0 0 0 0 0 0 0 0 
trait 5 0.5 0 0 0 0 0 0 0 
trait 6 0.378347 0 0 0.742295 0 0.359265 0 0.227462 
trait 7 0.7 0 0 0 0 0 0 0 
trait 8 0.8 0 0 0 0 0 0 0 
node 1 3 1 3
node 2 5 1 1
node 3 4 1 1
node 4 6 1 1
node 5 3 1 1
node 6 3 1 1
node 7 8 1 1
node 8 1 0 2
node 14 1 0 0
node 19 1 0 0
node 23 2 0 0
node 27 3 0 0
node 47 1 0 0
node 53 1 0 0
node 64 1 0 0
node 89 1 0 0
node 98 1 0 0
node 110 1 0 0
gene 7 1 8 1.62237 0 1 1.62237 1
gene 6 2 8 -1.29259 0 2 -1.29259 1
gene 4 3 8 1.2512 0 3 1.2512 0
gene 5 4 8 1.67167 0 4 1.67167 1
gene 5 5 8 -1.78407 0 5 -1.78407 1
gene 3 6 8 -2.6108 0 6 -2.6108 1
gene 7 7 8 -8 0 7 -8 1
gene 5 5 14 0.190267 0 18 0.190267 1
gene 5 14 8 -1.42533 0 19 -1.42533 0
gene 5 1 14 1.14971 0 22 1.14971 1
gene 7 3 14 0.0319357 0 24 0.0319357 1
gene 4 4 14 -6.67868 0 39 -6.67868 1
gene 4 3 19 -4.23992 0 47 -4.23992 1
gene 4 19 8 8 0 48 8 1
gene 4 6 14 0.27267 0 50 0.27267 1
gene 4 19 23 1.81861 0 63 1.81861 1
gene 4 23 8 -1.69476 0 64 -1.69476 0
gene 2 23 14 1.31355 0 70 1.31355 1
gene 4 23 27 -1.01256 0 79 -1.01256 1
gene 4 27 8 3.14558 0 80 3.14558 1
gene 7 1 19 5.30278 0 83 5.30278 1
gene 4 5 27 3.89431 0 92 3.89431 0
gene 2 2 19 3.14786 0 108 3.14786 1
gene 8 6 23 0.449993 0 115 0.449993 1
gene 4 2 23 -0.126147 0 124 -0.126147 0
gene 8 4 19 4.53048 0 153 4.53048 1
gene 4 5 47 0.889443 0 181 0.889443 0
gene 4 47 27 2.44132 0 182 2.44132 1
gene 7 27 14 -6.26291 0 193 -6.26291 1
gene 4 4 27 -3.19059 0 212 -3.19059 1
gene 1 2 27 -0.549028 0 222 -0.549028 1
gene 4 2 53 -2.91967 0 226 -2.91967 1
gene 4 53 23 0.555031 0 227 0.555031 1
gene 2 53 27 -2.5248 0 238 -2.5248 1
gene 4 5 64 -3.49798 0 277 -3.49798 1
gene 4 64 47 1.85702 0 278 1.85702 1
gene 7 19 47 -0.0411949 0 338 -0.0411949 1
gene 4 7 23 2.44263 0 366 2.44263 1
gene 4 3 89 3.69114 0 375 3.69114 1
gene 4 89 8 1.01627 0 376 1.01627 1
gene 6 53 64 -0.0941157 0 399 -0.0941157 1
gene 5 14 98 -0.0905195 0 411 -0.0905195 1
gene 5 98 8 1.8575 0 412 1.8575 1
gene 3 23 89 3.52902 0 434 3.52902 1
gene 6 5 53 -2.2733 0 442 -2.2733 1
gene 4 23 110 -2.42753 0 454 -2.42753 1
gene 4 110 8 1.3432 0 455 1.3432 1
genomeend 0

/* Organism #1 Fitness: 0.0002 Error: 0 */
genomestart 1
trait 1 0.1 0 0 0 0 0 0 0 
trait 2 0.2 0 0 0 0 0 0 0 
trait 3 0.3 0 0 0 0 0 0 0 
trait 4 0 0 0 0 0 0 0 0 
trait 5 0.5 0 0 0 0 0 0 0 
trait 6 0.378347 0 0 0.742295 0 0.359265 0 0.227462 
trait 7 0.7 0 0 0 0 0 0 0 
trait 8 0.8 0 0 0 0 0 0 0 
node 1 3 1 3
node 2 5 1 1
node 3 4 1 1
node 4 6 1 1
node 5 3 1 1
node 6 3 1 1
node 7 8 1 1
node 8 1 0 2
node 14 1 0 0
node 19 1 0 0
node 23 2 0 0
node 27 3 0 0
node 47 1 0 0
node 53 1 0 0
node 64 1 0 0
node 89 1 0 0
node 98 1 0 0
node 110 1 0 0
gene 7 1 8 3.34356 0 1 3.34356 1
gene 6 2 8 0.194213 0 2 0.194213 1
gene 4 3 8 -1.20956 0 3 -1.20956 0
gene 5 4 8 2.42575 0 4 2.42575 1
gene 5 5 8 -1.48349 0 5 -1.48349 1
gene 3 6 8 -0.63856 0 6 -0.63856 1
gene 7 7 8 -0.263591 0 7 -0.263591 1
gene 5 5 14 0.813891 0 18 0.813891 1
gene 5 14 8 -3.67874 0 19 -3.67874 0
gene 5 1 14 -1.09165 0 22 -1.09165 1
gene 7 3 14 -2.1217 0 24 -2.1217 1
gene 4 4 14 -8 0 39 -8 1
gene 4 3 19 -5.95357 0 47 -5.95357 1
gene 4 19 8 8 0 48 8 1
gene 4 6 14 -2.50338 0 50 -2.50338 1
gene 4 19 23 -3.40429 0 63 -3.40429 1
gene 4 23 8 -2.79925 0 64 -2.79925 0
gene 2 23 14 0.403905 0 70 0.403905 1
gene 4 23 27 2.31633 0 79 2.31633 1
gene 4 27 8 -1.81191 0 80 -1.81191 1
gene 7 1 19 1.96932 0 83 1.96932 1
gene 4 5 27 1.47786 0 92 1.47786 0
gene 2 2 19 -0.0652596 0 108 -0.0652596 1
gene 8 6 23 -0.3257 0 115 -0.3257 1
gene 4 2 23 -0.0246511 0 124 -0.0246511 0
gene 8 4 19 1.38595 0 153 1.38595 1
gene 4 5 47 0.391705 0 181 0.391705 0
gene 4 47 27 -2.05717 0 182 -2.05717 1
gene 7 27 14 -3.5728 0 193 -3.5728 1
gene 4 4 27 -2.67022 0 212 -2.67022 1
gene 1 2 27 0.423593 0 222 0.423593 1
gene 4 2 53 -3.91853 0 226 -3.91853 1
gene 4 53 23 -0.820318 0 227 -0.820318 1
gene 2 53 27 -3.46772 0 238 -3.46772 1
gene 4 5 64 -3.47011 0 277 -3.47011 1
gene 4 64 47 -1.458 0 278 -1.458 1
gene 7 19 47 3.74761 0 338 3.74761 1
gene 4 7 23 -2.31332 0 366 -2.31332 1
gene 4 3 89 1.81457 0 375 1.81457 1
gene 4 89 8 2.76535 0 376 2.76535 1
gene 6 53 64 1.76635 0 399 1.76635 1
gene 5 14 98 2.90013 0 411 2.90013 1
gene 5 98 8 2.41941 0 412 2.41941 1
gene 3 23 89 2.12216 0 434 2.12216 1
gene 6 5 53 -1.81975 0 442 -1.81975 1
gene 4 23 110 2.10079 0 454 2.10079 1
gene 4 110 8 0.116539 0 455 0.116539 1
genomeend 1

/* Organism #2 Fitness: 47 Error: 0 */
genomestart 2
trait 1 0.1 0 0 0 0 0 0 0 
trait 2 0.2 0 0 0 0 0 0 0 
trait 3 0.3 0 0 0 0 0 0 0 
trait 4 0 0 0 0 0 0 0 0 
trait 5 0.5 0 0 0 0 0 0 0 
trait 6 0.378347 0 0 0.742295 0 0.359265 0 0.227462 
trait 7 0.7 0 0 0 0 0 0 0 
trait 8 0.8 0 0 0 0 0 0 0 
node 1 3 1 3
node 2 5 1 1
node 3 4 1 1
node 4 6 1 1
node 5 3 1 1
node 6 3 1 1
node 7 8 1 1
node 8 1 0 2
node 14 1 0 0
node 19 1 0 0
node 23 2 0 0
node 27 3 0 0
node 47 1 0 0
node 53 1 0 0
node 64 1 0 0
node 89 1 0 0
node 98 1 0 0
node 110 1 0 0
gene 7 1 8 1.62237 0 1 1.62237 1
gene 6 2 8 -1.61442 0 2 -1.61442 1
gene 4 3 8 -0.944509 0 3 -0.944509 0
gene 5 4 8 1.93063 0 4 1.93063 1
gene 5 5 8 0.541364 0 5 0.541364 1
gene 3 6 8 -2.76364 0 6 -2.76364 1
gene 7 7 8 -8 0 7 -8 1
gene 5 5 14 0.698587 0 18 0.698587 1
gene 5 14 8 -1.98951 0 19 -1.98951 0
gene 5 1 14 -0.503059 0 22 -0.503059 1
gene 7 3 14 3.1006 0 24 3.1006 1
gene 4 4 14 -8 0 39 -8 1
gene 4 3 19 -4.89367 0 47 -4.89367 1
gene 4 19 8 8 0 48 8 1
gene 4 6 14 -1.08504 0 50 -1.08504 1
gene 4 19 23 -3.13045 0 63 -3.13045 1
gene 4 23 8 -3.09872 0 64 -3.09872 0
gene 2 23 14 1.31355 0 70 1.31355 1
gene 4 23 27 1.19169 0 79 1.19169 1
gene 4 27 8 2.46333 0 80 2.46333 1
gene 7 1 19 1.96932 0 83 1.96932 1
gene 4 5 27 2.44417 0 92 2.44417 0
gene 2 2 19 1.16287 0 108 1.16287 1
gene 8 6 23 1.8347 0 115 1.8347 1
gene 4 2 23 -0.126147 0 124 -0.126147 0
gene 8 4 19 3.21308 0 153 3.21308 1
gene 4 5 47 1.43674 0 181 1.43674 0
gene 4 47 27 -1.05393 0 182 -1.05393 1
gene 7 27 14 -4.75478 0 193 -4.75478 1
gene 4 4 27 -2.67022 0 212 -2.67022 1
gene 1 2 27 -0.027568 0 222 -0.027568 1
gene 4 2 53 -4.28202 0 226 -4.28202 1
gene 4 53 23 -0.260276 0 227 -0.260276 1
gene 2 53 27 -3.46772 0 238 -3.46772 1
gene 4 5 64 -3.42891 0 277 -3.42891 1
gene 4 64 47 1.85702 0 278 1.85702 1
gene 7 19 47 1.77311 0 338 1.77311 1
gene 4 7 23 -1.14987 0 366 -1.14987 1
gene 4 3 89 1.26098 0 375 1.26098 1
gene 4 89 8 1.5759 0 376 1.5759 1
gene 6 53 64 1.74198 0 399 1.74198 1
gene 5 14 98 1.0026 0 411 1.0026 1
gene 5 98 8 -0.310275 0 412 -0.310275 1
gene 3 23 89 2.14356 0 434 2.14356 1
gene 6 5 53 -2.82112 0 442 -2.82112 1
gene 4 23 110 0.453953 0 454 0.453953 1
gene 4 110 8 -1.64257 0 455 -1.64257 1
gene 7 7 64 -0.675353 0 486 -0.675353 1
genomeend 2

/* Organism #3 Fitness: 32 Error: 0 */
/* ##------$ WINNER 3 SPECIES #41 $------## */
genomestart 3
trait 1 0.1 0 0 0 0 0 0 0 
trait 2 0.2 0 0 0 0 0 0 0 
trait 3 0.3 0 0 0 0 0 0 0 
trait 4 0 0 0 0 0 0 0 0 
trait 5 0.5 0 0 0 0 0 0 0 
trait 6 0.378347 0 0 0.742295 0 0.359265 0 0.227462 
trait 7 0.7 0 0 0 0 0 0 0 
trait 8 0.8 0 0 0 0 0 0 0 
node 1 3 1 3
node 2 5 1 1
node 3 4 1 1
node 4 6 1 1
node 5 3 1 1
node 6 3 1 1
node 7 8 1 1
node 8 1 0 2
node 14 1 0 0
node 19 1 0 0
node 23 2 0 0
node 27 3 0 0
node 47 1 0 0
node 53 1 0 0
node 64 1 0 0
node 89 1 0 0
node 98 1 0 0
node 110 1 0 0
gene 7 1 8 0.203264 0 1 0.203264 1
gene 6 2 8 -1.95229 0 2 -1.95229 1
gene 4 3 8 -0.65048 0 3 -0.65048 0
gene 5 4 8 1.33517 0 4 1.33517 1
gene 5 5 8 0.451617 0 5 0.451617 1
gene 3 6 8 -2.33074 0 6 -2.33074 1
gene 7 7 8 -8 0 7 -8 1
gene 5 5 14 1.39303 0 18 1.39303 1
gene 5 14 8 -1.68461 0 19 -1.68461 0
gene 5 1 14 -0.503059 0 22 -0.503059 1
gene 7 3 14 3.64816 0 24 3.64816 1
gene 4 4 14 -8 0 39 -8 1
gene 4 3 19 -4.07331 0 47 -4.07331 1
gene 4 19 8 8 0 48 8 1
gene 4 6 14 -0.569393 0 50 -0.569393 1
gene 4 19 23 -2.33032 0 63 -2.33032 1
gene 4 23 8 -2.37064 0 64 -2.37064 0
gene 2 23 14 -0.687879 0 70 -0.687879 1
gene 4 23 27 2.20157 0 79 2.20157 1
gene 4 27 8 2.40437 0 80 2.40437 1
gene 7 1 19 3.06528 0 83 3.06528 1
gene 4 5 27 1.47786 0 92 1.47786 0
gene 2 2 19 1.58673 0 108 1.58673 1
gene 8 6 23 2.37598 0 115 2.37598 1
gene 4 2 23 -1.07628 0 124 -1.07628 1
gene 8 4 19 3.21308 0 153 3.21308 1
gene 4 5 47 0.954875 0 181 0.954875 1
gene 4 47 27 -1.04089 0 182 -1.04089 1
gene 7 27 14 -3.95835 0 193 -3.95835 1
gene 4 4 27 -1.93697 0 212 -1.93697 1
gene 1 2 27 0.658443 0 222 0.658443 1
gene 4 2 53 -4.06612 0 226 -4.06612 1
gene 4 53 23 1.38132 0 227 1.38132 1
gene 2 53 27 -2.74498 0 238 -2.74498 1
gene 4 5 64 -2.96988 0 277 -2.96988 1
gene 4 64 47 0.997332 0 278 0.997332 1
gene 7 19 47 1.77311 0 338 1.77311 1
gene 4 7 23 -1.06842 0 366 -1.06842 1
gene 4 3 89 1.49378 0 375 1.49378 1
gene 4 89 8 1.01627 0 376 1.01627 1
gene 6 53 64 -0.543141 0 399 -0.543141 1
gene 5 14 98 1.86473 0 411 1.86473 1
gene 5 98 8 0.761994 0 412 0.761994 1
gene 3 23 89 0.652668 0 434 0.652668 1
gene 6 5 53 -1.78632 0 442 -1.78632 1
gene 4 23 110 0.726977 0 454 0.226977 1
gene 4 110 8 -1.64257 0 455 -0.821283 1
gene 8 4 98 0.317874 0 487 0.317874 1
genomeend 3

/* Organism #4 Fitness: 41 Error: 0 */
/* ##------$ WINNER 4 SPECIES #41 $------## */
genomestart 4
trait 1 0.1 0 0 0 0 0 0 0 
trait 2 0.2 0 0 0 0 0 0 0 
trait 3 0.3 0 0 0 0 0 0 0 
trait 4 0 0 0 0 0 0 0 0 
trait 5 0.5 0 0 0 0 0 0 0 
trait 6 0.378347 0 0 0.742295 0 0.359265 0 0.227462 
trait 7 0.7 0 0.0249665 0 0.010062 0 0 0 
trait 8 0.8 0 0 0 0 0 0 0 
node 1 3 1 3
node 2 5 1 1
node 3 4 1 1
node 4 6 1 1
node 5 3 1 1
node 6 3 1 1
node 7 8 1 1
node 8 1 0 2
node 14 1 0 0
node 19 1 0 0
node 23 2 0 0
node 27 3 0 0
node 47 1 0 0
node 53 1 0 0
node 64 1 0 0
node 89 1 0 0
node 98 1 0 0
node 110 1 0 0
gene 7 1 8 1.62237 0 1 1.62237 1
gene 6 2 8 -1.97522 0 2 -1.97522 1
gene 4 3 8 -1.93691 0 3 -1.93691 0
gene 5 4 8 2.96664 0 4 2.96664 1
gene 5 5 8 -0.0909041 0 5 -0.0909041 1
gene 3 6 8 -3.00619 0 6 -3.00619 1
gene 7 7 8 0.267704 0 7 0.267704 1
gene 5 5 14 -1.43398 0 18 -1.43398 1
gene 5 14 8 0.192723 0 19 0.192723 0
gene 5 1 14 -1.45322 0 22 -1.45322 1
gene 7 3 14 4.79422 0 24 4.79422 1
gene 4 4 14 0.313065 0 39 0.313065 1
gene 4 3 19 -4.5201 0 47 -4.5201 1
gene 4 19 8 8 0 48 8 1
gene 4 6 14 0.356906 0 50 0.356906 1
gene 4 19 23 -5.43855 0 63 -5.43855 1
gene 4 23 8 -4.23732 0 64 -4.23732 0
gene 2 23 14 0.600832 0 70 0.600832 1
gene 4 23 27 0.347724 0 79 0.347724 1
gene 4 27 8 3.82001 0 80 3.82001 1
gene 7 1 19 3.82516 0 83 3.82516 1
gene 4 5 27 2.41904 0 92 2.41904 0
gene 7 2 19 -0.253027 0 108 -0.253027 1
gene 8 6 23 2.68549 0 115 2.68549 1
gene 4 2 23 1.49039 0 124 1.49039 0
gene 8 4 19 3.66153 0 153 3.66153 1
gene 4 5 47 3.13687 0 181 3.13687 0
gene 4 47 27 1.14952 0 182 1.14952 1
gene 7 27 14 -4.47701 0 193 -4.47701 1
gene 4 4 27 -2.67022 0 212 -2.67022 1
gene 1 2 27 -0.0523784 0 222 -0.0523784 1
gene 4 2 53 -3.48541 0 226 -3.48541 1
gene 4 53 23 -2.29628 0 227 -2.29628 1
gene 2 53 27 -2.78783 0 238 -2.78783 1
gene 4 5 64 -3.16464 0 277 -3.16464 1
gene 4 64 47 0.976966 0 278 0.976966 1
gene 7 19 47 -0.269785 0 338 -0.269785 1
gene 4 7 23 0.0513033 0 366 0.0513033 1
gene 4 3 89 2.06776 0 375 2.06776 1
gene 4 89 8 2.84475 0 376 2.84475 1
gene 6 53 64 2.77951 0 399 2.77951 1
gene 5 14 98 -1.80645 0 411 -1.80645 1
gene 5 98 8 -0.310275 0 412 -0.310275 1
gene 3 23 89 0.15776 0 434 0.15776 1
gene 6 5 53 -1.5692 0 442 -1.5692 1
gene 4 23 110 -0.65916 0 454 -0.65916 1
gene 4 110 8 -3.692 0 455 -3.692 1
genomeend 4

/* Species #42 : (Size 1) (AF 0) (Age 8)  */


/* Organism #5 Fitness: 0 Error: 0 */
genomestart 5
trait 1 0.1 0 0 0 0 0 0 0 
trait 2 0.2 0 0 0 0 0 0 0 
trait 3 0.3 0 0 0 0 0 0 0 
trait 4 0 0 0 0 0 0 0 0 
trait 5 0.5 0 0 0 0 0 0 0 
trait 6 0.378347 0 0 0.742295 0 0.359265 0 0.227462 
trait 7 0.7 0 0 0 0 0 0 0 
trait 8 0.8 0 0 0 0 0 0 0 
node 1 3 1 3
node 2 5 1 1
node 3 4 1 1
node 4 6 1 1
node 5 3 1 1
node 6 3 1 1
node 7 8 1 1
node 8 1 0 2
node 14 1 0 0
node 19 1 0 0
node 23 2 0 0
node 27 3 0 0
node 47 1 0 0
node 53 1 0 0
node 64 1 0 0
node 89 1 0 0
node 102 1 0 0
gene 7 1 8 -1.28189 0 1 -1.28189 1
gene 6 2 8 -0.789213 0 2 -0.789213 1
gene 4 3 8 -1.52376 0 3 -1.52376 0
gene 5 4 8 2.09842 0 4 2.09842 1
gene 5 5 8 -6.25433 0 5 -6.25433 1
gene 3 6 8 -0.181576 0 6 -0.181576 1
gene 7 7 8 -0.732807 0 7 -0.732807 1
gene 5 5 14 0.199122 0 18 0.199122 1
gene 5 14 8 -3.2249 0 19 -3.2249 1
gene 5 1 14 1.58773 0 22 1.58773 1
gene 7 3 14 4.50315 0 24 4.50315 1
gene 4 4 14 -6.29101 0 39 -6.29101 1
gene 4 3 19 0.254424 0 47 0.254424 1
gene 4 19 8 7.22738 0 48 7.22738 1
gene 4 6 14 3.00448 0 50 3.00448 1
gene 4 19 23 1.84292 0 63 1.84292 1
gene 4 23 8 2.17013 0 64 2.17013 1
gene 2 23 14 2.23668 0 70 2.23668 1
gene 4 23 27 4.24839 0 79 4.24839 1
gene 4 27 8 4.93938 0 80 4.93938 1
gene 7 1 19 2.7935 0 83 2.7935 1
gene 4 5 27 4.58776 0 92 4.58776 0
gene 2 2 19 4.76848 0 108 4.76848 1
gene 8 6 23 0.413661 0 115 0.413661 1
gene 4 2 23 -2.27886 0 124 -2.27886 0
gene 8 4 19 0.503288 0 153 0.503288 1
gene 4 5 47 -3.62688 0 181 -3.62688 1
gene 4 47 27 5.19663 0 182 5.19663 1
gene 7 27 14 -1.01387 0 193 -1.01387 1
gene 4 4 27 1.2445 0 212 1.2445 1
gene 1 2 27 0.510634 0 222 0.510634 1
gene 4 2 53 -5.78618 0 226 -5.78618 1
gene 4 53 23 1.1395 0 227 1.1395 0
gene 2 53 27 -8 0 238 -8 1
gene 4 5 64 4.05313 0 277 4.05313 1
gene 4 64 47 -0.819009 0 278 -0.819009 1
gene 7 19 47 0.163913 0 338 0.163913 1
gene 4 7 23 1.91082 0 366 1.91082 1
gene 4 3 89 -1.09058 0 375 -1.09058 1
gene 4 89 8 0.465917 0 376 0.465917 1
gene 6 53 64 0.0513516 0 399 0.0513516 1
gene 5 53 14 1.36552 0 420 1.36552 1
gene 4 53 102 1.18209 0 425 1.18209 1
gene 4 102 23 4.53581 0 426 4.53581 1
gene 1 7 14 0.083472 0 439 0.083472 1
gene 4 4 23 -4.65205 0 452 -4.65205 1
gene 6 5 102 0.281256 0 479 0.281256 1
genomeend 5

/* Species #44 : (Size 3) (AF 20) (Age 5)  */


/* Organism #6 Fitness: 27 Error: 0 */
genomestart 6
trait 1 0.1 0 0 0 0 0 0 0 
trait 2 0.2 0 0 0 0 0 0 0 
trait 3 0.3 0 0 0 0 0 0 0 
trait 4 0 0 0 0 0 0 0 0 
trait 5 0.5 0 0 0 0 0 0 0 
trait 6 0.378347 0 0 0.742295 0 0.359265 0 0.227462 
trait 7 0.7 0 0 0 0 0 0 0 
trait 8 0.8 0 0 0 0 0 0 0 
node 1 3 1 3
node 2 5 1 1
node 3 4 1 1
node 4 6 1 1
node 5 3 1 1
node 6 3 1 1
node 7 8 1 1
node 8 1 0 2
node 14 1 0 0
node 19 1 0 0
node 23 2 0 0
node 27 3 0 0
node 47 1 0 0
node 53 1 0 0
node 64 1 0 0
node 89 1 0 0
node 98 1 0 0
node 106 1 0 0
node 116 1 0 0
gene 7 1 8 -0.960938 0 1 -0.960938 1
gene 6 2 8 -0.12811 0 2 -0.12811 0
gene 4 3 8 2.40058 0 3 2.40058 0
gene 5 4 8 0.44567 0 4 0.44567 1
gene 5 5 8 -1.84742 0 5 -1.84742 1
gene 3 6 8 -2.89524 0 6 -2.89524 1
gene 7 7 8 0.332423 0 7 0.332423 1
gene 5 5 14 3.74758 0 18 3.74758 1
gene 5 14 8 -4.78784 0 19 -4.78784 1
gene 5 1 14 2.00843 0 22 2.00843 1
gene 7 3 14 2.09744 0 24 2.09744 1
gene 4 4 14 -6.8076 0 39 -6.8076 1
gene 4 3 19 -3.29534 0 47 -3.29534 1
gene 4 19 8 5.56186 0 48 5.56186 1
gene 4 6 14 -1.64353 0 50 -1.64353 1
gene 4 19 23 1.38419 0 63 1.38419 1
gene 4 23 8 -2.60023 0 64 -2.60023 1
gene 2 23 14 1.80673 0 70 1.80673 1
gene 4 23 27 3.3593 0 79 3.3593 1
gene 4 27 8 3.90254 0 80 3.90254 1
gene 7 1 19 4.34071 0 83 4.34071 1
gene 4 5 27 -1.56428 0 92 -1.56428 1
gene 2 2 19 -0.322479 0 108 -0.322479 1
gene 8 6 23 5.38284 0 115 5.38284 1
gene 4 2 23 -0.984112 0 124 -0.984112 0
gene 8 4 19 -0.448309 0 153 -0.448309 1
gene 4 5 47 -3.95147 0 181 -3.95147 0
gene 4 47 27 2.33819 0 182 2.33819 1
gene 7 27 14 -2.83512 0 193 -2.83512 1
gene 4 4 27 -0.374472 0 212 -0.374472 1
gene 1 2 27 2.38297 0 222 2.38297 1
gene 4 2 53 0.179593 0 226 0.179593 1
gene 4 53 23 1.11298 0 227 1.11298 1
gene 2 53 27 -0.547996 0 238 -0.547996 1
gene 4 5 64 -5.52501 0 277 -5.52501 0
gene 4 64 47 1.15629 0 278 1.15629 1
gene 7 19 47 -0.170209 0 338 -0.170209 1
gene 4 7 23 2.43451 0 366 2.43451 1
gene 4 3 89 1.03639 0 375 1.03639 1
gene 4 89 8 3.66979 0 376 3.66979 1
gene 6 53 64 -2.16894 0 399 -2.16894 1
gene 5 14 98 -2.40344 0 411 -2.40344 1
gene 5 98 8 -3.75859 0 412 -3.75859 1
gene 4 89 23 1.00488 0 435 1.00488 1
gene 6 2 106 0.0303906 0 443 0.0303906 1
gene 6 106 8 0.68799 0 444 0.68799 1
gene 6 47 14 -0.783365 0 465 -0.783365 1
gene 4 5 116 2.672 0 482 2.672 1
gene 4 116 64 -3.49074 0 483 -3.49074 1
genomeend 6

/* Organism #7 Fitness: 0 Error: 0 */
genomestart 7
trait 1 0.1 0 0 0 0 0 0 0 
trait 2 0.2 0 0 0 0 0 0 0 
trait 3 0.3 0 0 0 0 0 0 0 
trait 4 0 0 0 0 0 0 0 0 
trait 5 0.5 0 0 0 0 0 0 0 
trait 6 0.378347 0 0 0.742295 0 0.359265 0 0.227462 
trait 7 0.7 0 0 0 0 0 0 0 
trait 8 0.8 0 0 0 0 0 0 0 
node 1 3 1 3
node 2 5 1 1
node 3 4 1 1
node 4 6 1 1
node 5 3 1 1
node 6 3 1 1
node 7 8 1 1
node 8 1 0 2
node 14 1 0 0
node 19 1 0 0
node 23 2 0 0
node 27 3 0 0
node 47 1 0 0
node 53 1 0 0
node 64 1 0 0
node 89 1 0 0
node 98 1 0 0
node 106 1 0 0
node 116 1 0 0
gene 7 1 8 -1.15493 0 1 -1.15493 1
gene 6 2 8 3.2906 0 2 3.2906 0
gene 4 3 8 -0.385583 0 3 -0.385583 0
gene 5 4 8 -1.36062 0 4 -1.36062 1
gene 5 5 8 1.95093 0 5 1.95093 1
gene 3 6 8 -3.61964 0 6 -3.61964 1
gene 7 7 8 2.75486 0 7 2.75486 1
gene 5 5 14 2.79467 0 18 2.79467 1
gene 5 14 8 -3.14014 0 19 -3.14014 1
gene 5 1 14 -1.96874 0 22 -1.96874 1
gene 7 3 14 2.74673 0 24 2.74673 1
gene 4 4 14 -8 0 39 -8 1
gene 4 3 19 -3.06103 0 47 -3.06103 1
gene 4 19 8 7.32248 0 48 7.32248 1
gene 4 6 14 -2.34239 0 50 -2.34239 1
gene 4 19 23 3.92115 0 63 3.92115 1
gene 4 23 8 -2.54509 0 64 -2.54509 1
gene 2 23 14 -3.14926 0 70 -3.14926 1
gene 4 23 27 6.0116 0 79 6.0116 1
gene 4 27 8 1.67918 0 80 1.67918 1
gene 7 1 19 4.2101 0 83 4.2101 1
gene 4 5 27 -0.256378 0 92 -0.256378 1
gene 2 2 19 0.550229 0 108 0.550229 1
gene 8 6 23 4.08667 0 115 4.08667 1
gene 4 2 23 0.0629265 0 124 0.0629265 0
gene 8 4 19 6.04605 0 153 6.04605 1
gene 4 5 47 -0.441799 0 181 -0.441799 0
gene 4 47 27 2.97667 0 182 2.97667 1
gene 7 27 14 -2.85686 0 193 -2.85686 1
gene 4 4 27 -1.00085 0 212 -1.00085 1
gene 1 2 27 1.45247 0 222 1.45247 1
gene 4 2 53 -5.19116 0 226 -5.19116 1
gene 4 53 23 3.48589 0 227 3.48589 1
gene 2 53 27 -4.83911 0 238 -4.83911 1
gene 4 5 64 -2.11338 0 277 -2.11338 0
gene 4 64 47 2.81739 0 278 2.81739 1
gene 7 19 47 2.45613 0 338 2.45613 1
gene 4 7 23 -0.873143 0 366 -0.873143 1
gene 4 3 89 3.24646 0 375 3.24646 1
gene 4 89 8 1.04006 0 376 1.04006 1
gene 6 53 64 -0.773991 0 399 -0.773991 1
gene 5 14 98 4.37543 0 411 4.37543 1
gene 5 98 8 -0.973424 0 412 -0.973424 1
gene 4 89 23 1.00488 0 435 1.00488 1
gene 6 2 106 1.43093 0 443 1.43093 1
gene 6 106 8 2.23358 0 444 2.23358 1
gene 6 47 14 -0.743172 0 465 -0.743172 1
gene 4 5 116 1 0 482 1 1
gene 4 116 64 0.642475 0 483 0.642475 1
genomeend 7

/* Organism #8 Fitness: 33 Error: 0 */
/* ##------$ WINNER 8 SPECIES #44 $------## */
genomestart 8
trait 1 0.1 0 0 0 0 0 0 0 
trait 2 0.2 0 0 0 0 0 0 0 
trait 3 0.3 0 0 0 0 0 0 0 
trait 4 0 0 0 0 0 0 0 0 
trait 5 0.5 0 0 0 0 0 0 0 
trait 6 0.378347 0 0 0.742295 0 0.359265 0 0.227462 
trait 7 0.7 0 0 0 0 0 0 0 
trait 8 0.8 0 0 0 0 0 0 0 
node 1 3 1 3
node 2 5 1 1
node 3 4 1 1
node 4 6 1 1
node 5 3 1 1
node 6 3 1 1
node 7 8 1 1
node 8 1 0 2
node 14 1 0 0
node 19 1 0 0
node 23 2 0 0
node 27 3 0 0
node 47 1 0 0
node 53 1 0 0
node 64 1 0 0
node 89 1 0 0
node 98 1 0 0
node 106 1 0 0
node 116 1 0 0
node 117 1 0 0
gene 7 1 8 0.846065 0 1 0.846065 1
gene 6 2 8 1.94486 0 2 1.94486 0
gene 4 3 8 1.77165 0 3 1.77165 0
gene 5 4 8 -1.74503 0 4 -1.74503 1
gene 5 5 8 -0.0271479 0 5 -0.0271479 1
gene 3 6 8 -1.23644 0 6 -1.23644 1
gene 7 7 8 1.11584 0 7 1.11584 1
gene 5 5 14 2.17525 0 18 2.17525 1
gene 5 14 8 -3.38502 0 19 -3.38502 1
gene 5 1 14 -3.56438 0 22 -3.56438 1
gene 7 3 14 2.09744 0 24 2.09744 1
gene 4 4 14 -7.71715 0 39 -7.71715 1
gene 4 3 19 -3.29534 0 47 -3.29534 1
gene 4 19 8 8 0 48 8 1
gene 4 6 14 0.150149 0 50 0.150149 1
gene 4 19 23 2.44202 0 63 2.44202 1
gene 4 23 8 -1.99698 0 64 -1.99698 1
gene 2 23 14 -1.93799 0 70 -1.93799 1
gene 4 23 27 4.28876 0 79 4.28876 1
gene 4 27 8 1.8887 0 80 1.8887 1
gene 7 1 19 3.83546 0 83 3.83546 1
gene 4 5 27 -0.0838048 0 92 -0.0838048 1
gene 2 2 19 -0.322479 0 108 -0.322479 1
gene 8 6 23 5.38284 0 115 5.38284 1
gene 4 2 23 -1.83655 0 124 -1.83655 0
gene 8 4 19 4.65245 0 153 4.65245 1
gene 4 5 47 -1.59795 0 181 -1.59795 0
gene 4 47 27 1.01238 0 182 1.01238 1
gene 7 27 14 -1.95077 0 193 -1.95077 1
gene 4 4 27 -2.18956 0 212 -2.18956 1
gene 1 2 27 3.3608 0 222 3.3608 1
gene 4 2 53 -4.1609 0 226 -4.1609 1
gene 4 53 23 2.60632 0 227 2.60632 1
gene 2 53 27 -3.41768 0 238 -3.41768 1
gene 4 5 64 -3.49074 0 277 -3.49074 0
gene 4 64 47 0.856695 0 278 0.856695 1
gene 7 19 47 1.83255 0 338 1.83255 1
gene 4 7 23 -0.0416785 0 366 -0.0416785 1
gene 4 3 89 1.03639 0 375 1.03639 1
gene 4 89 8 2.81613 0 376 2.81613 1
gene 6 53 64 -0.773991 0 399 -0.773991 1
gene 5 14 98 1.94661 0 411 1.94661 1
gene 5 98 8 -1.29186 0 412 -1.29186 1
gene 4 89 23 1.00488 0 435 1.00488 1
gene 6 2 106 0.555551 0 443 0.555551 1
gene 6 106 8 0.435859 0 444 0.435859 1
gene 6 47 14 -0.350035 0 465 -0.350035 1
gene 4 5 116 1 0 482 0 0
gene 4 116 64 -3.49074 0 483 0 1
gene 4 5 117 1 0 488 0 1
gene 4 117 116 1 0 489 0 1
genomeend 8

/* Species #45 : (Size 8) (AF 54.1251) (Age 4)  */


/* Organism #9 Fitness: 93 Error: 0 */
/* ##------$ WINNER 9 SPECIES #45 $------## */
genomestart 9
trait 1 0.1 0 0 0 0 0 0 0 
trait 2 0.2 0 0 0 0 0 0 0 
trait 3 0.3 0 0 0 0 0 0 0 
trait 4 0 0 0 0 0 0 0 0 
trait 5 0.5 0 0 0 0 0 0 0 
trait 6 0.378347 0 0 0.742295 0 0.359265 0 0.227462 
trait 7 0.7 0 0 0 0 0 0 0 
trait 8 0.8 0 0 0 0 0 0 0 
node 1 3 1 3
node 2 5 1 1
node 3 4 1 1
node 4 6 1 1
node 5 3 1 1
node 6 3 1 1
node 7 8 1 1
node 8 1 0 2
node 14 1 0 0
node 19 1 0 0
node 23 2 0 0
node 27 3 0 0
node 47 1 0 0
node 53 1 0 0
node 64 1 0 0
node 89 1 0 0
node 102 1 0 0
node 109 1 0 0
gene 7 1 8 -0.577295 0 1 -0.577295 1
gene 6 2 8 -0.300609 0 2 -0.300609 1
gene 4 3 8 0.654007 0 3 0.654007 0
gene 5 4 8 1.34993 0 4 1.34993 1
gene 5 5 8 -0.012774 0 5 -0.012774 1
gene 3 6 8 7.58711 0 6 7.58711 1
gene 7 7 8 -7.6523 0 7 -7.6523 1
gene 5 5 14 -2.14191 0 18 -2.14191 1
gene 5 14 8 -2.50585 0 19 -2.50585 1
gene 5 1 14 0.409011 0 22 0.409011 1
gene 7 3 14 0.802668 0 24 0.802668 1
gene 4 4 14 -5.86793 0 39 -5.86793 1
gene 4 3 19 -0.743367 0 47 -0.743367 1
gene 4 19 8 5.58561 0 48 5.58561 1
gene 4 6 14 0.602727 0 50 0.602727 1
gene 4 19 23 0.347149 0 63 0.347149 1
gene 4 23 8 -0.47839 0 64 -0.47839 1
gene 2 23 14 -0.377991 0 70 -0.377991 1
gene 4 23 27 0.965403 0 79 0.965403 1
gene 4 27 8 2.50907 0 80 2.50907 1
gene 7 1 19 0.783816 0 83 0.783816 1
gene 4 5 27 3.48556 0 92 3.48556 0
gene 2 2 19 -2.35738 0 108 -2.35738 1
gene 8 6 23 -0.42294 0 115 -0.42294 1
gene 4 2 23 -3.4895 0 124 -3.4895 0
gene 8 4 19 1.96411 0 153 1.96411 1
gene 4 5 47 -2.74335 0 181 -2.74335 1
gene 4 47 27 3.16087 0 182 3.16087 1
gene 7 27 14 -3.68311 0 193 -3.68311 1
gene 4 4 27 -6.20418 0 212 -6.20418 1
gene 1 2 27 1.34973 0 222 1.34973 1
gene 4 2 53 -0.506544 0 226 -0.506544 1
gene 4 53 23 -1.03531 0 227 -1.03531 0
gene 2 53 27 -7.38683 0 238 -7.38683 1
gene 4 5 64 2.21933 0 277 2.21933 1
gene 4 64 47 0.00617992 0 278 0.00617992 0
gene 7 19 47 -0.613823 0 338 -0.613823 1
gene 4 7 23 0.127317 0 366 0.127317 1
gene 4 3 89 -1.76189 0 375 -1.76189 1
gene 4 89 8 1.93035 0 376 1.93035 1
gene 6 53 64 -3.98992 0 399 -3.98992 1
gene 5 53 14 -2.65664 0 420 -2.65664 1
gene 4 53 102 1.33149 0 425 1.33149 1
gene 4 102 23 7.08948 0 426 7.08948 1
gene 4 64 109 1 0 449 0 1
gene 4 109 47 0.00617992 0 450 0 1
gene 4 6 102 0.85771 0 462 0.85771 1
gene 8 89 23 -0.125555 0 466 -0.125555 1
genomeend 9

/* Organism #10 Fitness: 154 Error: 0 */
/* ##------$ WINNER 10 SPECIES #45 $------## */
genomestart 10
trait 1 0.1 0 0 0 0 0 0 0 
trait 2 0.2 0 0 0 0 0 0 0 
trait 3 0.3 0 0 0 0 0 0 0 
trait 4 0 0 0 0 0 0 0 0 
trait 5 0.5 0 0 0 0 0 0 0 
trait 6 0.378347 0 0 0.742295 0 0.359265 0 0.227462 
trait 7 0.7 0 0 0 0 0 0 0 
trait 8 0.8 0 0 0 0 0 0 0 
node 1 3 1 3
node 2 5 1 1
node 3 4 1 1
node 4 6 1 1
node 5 3 1 1
node 6 3 1 1
node 7 8 1 1
node 8 1 0 2
node 14 1 0 0
node 19 1 0 0
node 23 2 0 0
node 27 3 0 0
node 47 1 0 0
node 53 1 0 0
node 64 1 0 0
node 89 1 0 0
node 102 1 0 0
node 109 1 0 0
gene 7 1 8 -0.577295 0 1 -0.577295 1
gene 6 2 8 -0.300609 0 2 -0.300609 1
gene 4 3 8 0.654007 0 3 0.654007 0
gene 5 4 8 1.34993 0 4 1.34993 1
gene 5 5 8 -0.012774 0 5 -0.012774 1
gene 3 6 8 7.58711 0 6 7.58711 1
gene 7 7 8 -7.6523 0 7 -7.6523 1
gene 5 5 14 -2.14191 0 18 -2.14191 1
gene 5 14 8 -2.50585 0 19 -2.50585 1
gene 5 1 14 0.409011 0 22 0.409011 1
gene 7 3 14 0.802668 0 24 0.802668 1
gene 4 4 14 -5.86793 0 39 -5.86793 1
gene 4 3 19 -0.743367 0 47 -0.743367 1
gene 4 19 8 5.58561 0 48 5.58561 1
gene 4 6 14 0.602727 0 50 0.602727 1
gene 4 19 23 0.347149 0 63 0.347149 1
gene 4 23 8 -0.47839 0 64 -0.47839 1
gene 2 23 14 -0.377991 0 70 -0.377991 1
gene 4 23 27 0.965403 0 79 0.965403 1
gene 4 27 8 2.50907 0 80 2.50907 1
gene 7 1 19 0.783816 0 83 0.783816 1
gene 4 5 27 3.48556 0 92 3.48556 0
gene 2 2 19 -2.35738 0 108 -2.35738 1
gene 8 6 23 -0.42294 0 115 -0.42294 1
gene 4 2 23 -3.4895 0 124 -3.4895 0
gene 8 4 19 1.96411 0 153 1.96411 1
gene 4 5 47 -2.74335 0 181 -2.74335 1
gene 4 47 27 3.16087 0 182 3.16087 1
gene 7 27 14 -3.68311 0 193 -3.68311 1
gene 4 4 27 -6.20418 0 212 -6.20418 1
gene 1 2 27 1.34973 0 222 1.34973 1
gene 4 2 53 -0.506544 0 226 -0.506544 1
gene 4 53 23 -1.03531 0 227 -1.03531 0
gene 2 53 27 -7.38683 0 238 -7.38683 1
gene 4 5 64 2.21933 0 277 2.21933 1
gene 4 64 47 0.00617992 0 278 0.00617992 0
gene 7 19 47 -0.613823 0 338 -0.613823 1
gene 4 7 23 0.127317 0 366 0.127317 1
gene 4 3 89 -1.76189 0 375 -1.76189 1
gene 4 89 8 1.93035 0 376 1.93035 1
gene 6 53 64 -3.98992 0 399 -3.98992 1
gene 5 53 14 -2.65664 0 420 -2.65664 1
gene 4 53 102 1.33149 0 425 1.33149 1
gene 4 102 23 7.08948 0 426 7.08948 1
gene 4 64 109 1 0 449 0 1
gene 4 109 47 0.00617992 0 450 0 1
gene 4 6 102 0.85771 0 462 0.85771 1
gene 8 89 23 -0.125555 0 466 -0.125555 1
genomeend 10

/* Organism #11 Fitness: 23 Error: 0 */
genomestart 11
trait 1 0.1 0 0 0 0 0 0 0 
trait 2 0.2 0 0 0 0 0 0 0 
trait 3 0.3 0 0 0 0 0 0 0 
trait 4 0 0 0 0 0 0 0 0 
trait 5 0.5 0 0 0 0 0 0 0 
trait 6 0.378347 0 0 0 0 0 0.33872 0 
trait 7 0.7 0 0 0 0 0 0 0 
trait 8 0.8 0 0 0 0 0 0 0 
node 1 3 1 3
node 2 5 1 1
node 3 4 1 1
node 4 6 1 1
node 5 3 1 1
node 6 3 1 1
node 7 8 1 1
node 8 1 0 2
node 14 1 0 0
node 19 1 0 0
node 23 2 0 0
node 27 3 0 0
node 47 1 0 0
node 53 1 0 0
node 64 1 0 0
node 89 1 0 0
node 102 1 0 0
node 109 1 0 0
gene 7 1 8 1.83928 0 1 1.83928 1
gene 6 2 8 -2.42227 0 2 -2.42227 1
gene 4 3 8 -0.0915545 0 3 -0.0915545 0
gene 5 4 8 -0.246724 0 4 -0.246724 1
gene 5 5 8 0.803807 0 5 0.803807 1
gene 3 6 8 7.7694 0 6 7.7694 1
gene 7 7 8 -8 0 7 -8 1
gene 5 5 14 -0.287724 0 18 -0.287724 1
gene 5 14 8 -3.73467 0 19 -3.73467 1
gene 5 1 14 -1.76842 0 22 -1.76842 1
gene 7 3 14 -1.06681 0 24 -1.06681 1
gene 4 4 14 -6.00218 0 39 -6.00218 1
gene 4 3 19 -0.784491 0 47 -0.784491 1
gene 4 19 8 4.19835 0 48 4.19835 1
gene 4 6 14 2.2533 0 50 2.2533 1
gene 4 19 23 0.730872 0 63 0.730872 1
gene 4 23 8 0.38887 0 64 0.38887 1
gene 2 23 14 -2.67923 0 70 -2.67923 1
gene 4 23 27 1.23176 0 79 1.23176 1
gene 4 27 8 4.78547 0 80 4.78547 1
gene 7 1 19 2.61427 0 83 2.61427 1
gene 4 5 27 4.2228 0 92 4.2228 1
gene 2 2 19 0.101986 0 108 0.101986 1
gene 8 6 23 -1.35627 0 115 -1.35627 1
gene 4 2 23 -5.29776 0 124 -5.29776 0
gene 8 4 19 1.56075 0 153 1.56075 1
gene 4 5 47 -2.74591 0 181 -2.74591 1
gene 4 47 27 1.99137 0 182 1.99137 1
gene 7 27 14 -6.02459 0 193 -6.02459 1
gene 4 4 27 -8 0 212 -8 1
gene 1 2 27 2.21149 0 222 2.21149 1
gene 4 2 53 -0.533692 0 226 -0.533692 1
gene 4 53 23 0.373948 0 227 0.373948 1
gene 2 53 27 -5.63291 0 238 -5.63291 1
gene 4 5 64 2.07714 0 277 2.07714 1
gene 4 64 47 0.980609 0 278 0.980609 0
gene 7 19 47 0.155547 0 338 0.155547 1
gene 4 7 23 -2.22264 0 366 -2.22264 1
gene 4 3 89 -2.48208 0 375 -2.48208 1
gene 4 89 8 1.18301 0 376 1.18301 1
gene 6 53 64 -0.0827452 0 399 -0.0827452 1
gene 5 53 14 -2.65664 0 420 -2.65664 1
gene 4 53 102 1.33149 0 425 1.33149 1
gene 4 102 23 6.69452 0 426 6.69452 1
gene 4 64 109 2.70664 0 449 2.70664 1
gene 4 109 47 1.01827 0 450 1.01827 1
gene 4 6 102 -0.689866 0 462 -0.689866 1
gene 8 89 23 -1.52309 0 466 -1.52309 1
genomeend 11

/* Organism #12 Fitness: 0.0003 Error: 0 */
genomestart 12
trait 1 0.1 0 0 0 0 0 0 0 
trait 2 0.2 0 0 0 0 0 0 0 
trait 3 0.3 0 0 0 0 0 0 0 
trait 4 0 0 0 0 0 0 0 0 
trait 5 0.5 0 0 0 0 0 0 0 
trait 6 0.378347 0 0 0.742295 0 0.359265 0 0.227462 
trait 7 0.7 0 0 0 0 0 0 0 
trait 8 0.8 0 0 0 0 0 0 0 
node 1 3 1 3
node 2 5 1 1
node 3 4 1 1
node 4 6 1 1
node 5 3 1 1
node 6 3 1 1
node 7 8 1 1
node 8 1 0 2
node 14 1 0 0
node 19 1 0 0
node 23 2 0 0
node 27 3 0 0
node 47 1 0 0
node 53 1 0 0
node 64 1 0 0
node 89 1 0 0
node 102 1 0 0
node 109 1 0 0
gene 7 1 8 -0.577295 0 1 -0.577295 1
gene 6 2 8 -0.300609 0 2 -0.300609 1
gene 4 3 8 0.654007 0 3 0.654007 0
gene 5 4 8 1.34993 0 4 1.34993 1
gene 5 5 8 -0.012774 0 5 -0.012774 1
gene 3 6 8 7.58711 0 6 7.58711 1
gene 7 7 8 -7.6523 0 7 -7.6523 1
gene 5 5 14 -2.14191 0 18 -2.14191 1
gene 5 14 8 -2.50585 0 19 -2.50585 1
gene 5 1 14 0.409011 0 22 0.409011 1
gene 7 3 14 0.802668 0 24 0.802668 1
gene 4 4 14 -5.86793 0 39 -5.86793 1
gene 4 3 19 -0.743367 0 47 -0.743367 1
gene 4 19 8 5.58561 0 48 5.58561 1
gene 4 6 14 0.602727 0 50 0.602727 1
gene 4 19 23 0.347149 0 63 0.347149 1
gene 4 23 8 -0.47839 0 64 -0.47839 1
gene 2 23 14 -0.377991 0 70 -0.377991 1
gene 4 23 27 0.965403 0 79 0.965403 1
gene 4 27 8 2.50907 0 80 2.50907 1
gene 7 1 19 0.783816 0 83 0.783816 1
gene 4 5 27 3.48556 0 92 3.48556 0
gene 2 2 19 -2.35738 0 108 -2.35738 1
gene 8 6 23 -0.42294 0 115 -0.42294 1
gene 4 2 23 -3.4895 0 124 -3.4895 1
gene 8 4 19 1.96411 0 153 1.96411 1
gene 4 5 47 -2.74335 0 181 -2.74335 1
gene 4 47 27 3.16087 0 182 3.16087 1
gene 7 27 14 -3.68311 0 193 -3.68311 1
gene 4 4 27 -6.20418 0 212 -6.20418 1
gene 1 2 27 1.34973 0 222 1.34973 1
gene 4 2 53 -0.506544 0 226 -0.506544 1
gene 4 53 23 -1.03531 0 227 -1.03531 0
gene 2 53 27 -7.38683 0 238 -7.38683 1
gene 4 5 64 2.21933 0 277 2.21933 1
gene 4 64 47 0.00617992 0 278 0.00617992 1
gene 7 19 47 -0.613823 0 338 -0.613823 1
gene 4 7 23 0.127317 0 366 0.127317 1
gene 4 3 89 -1.76189 0 375 -1.76189 1
gene 4 89 8 1.93035 0 376 1.93035 1
gene 6 53 64 -3.98992 0 399 -3.98992 1
gene 5 53 14 -2.65664 0 420 -2.65664 1
gene 4 53 102 1.33149 0 425 1.33149 1
gene 4 102 23 7.08948 0 426 7.08948 1
gene 4 64 109 1 0 449 0 1
gene 4 109 47 0.00617992 0 450 0 1
gene 4 6 102 0.85771 0 462 0.85771 1
gene 8 89 23 -0.125555 0 466 -0.125555 1
gene 2 53 19 -0.915162 0 490 -0.915162 1
genomeend 12

/* Organism #13 Fitness: 0.0005 Error: 0 */
genomestart 13
trait 1 0.1 0 0 0 0 0 0 0 
trait 2 0.2 0 0 0 0 0 0 0 
trait 3 0.3 0 0 0 0 0 0 0 
trait 4 0 0 0 0 0 0 0 0 
trait 5 0.5 0 0 0 0 0 0 0 
trait 6 0.378347 0 0 0.742295 0 0.359265 0 0.227462 
trait 7 0.7 0 0 0 0 0 0 0 
trait 8 0.8 0 0 0 0 0 0 0 
node 1 3 1 3
node 2 5 1 1
node 3 4 1 1
node 4 6 1 1
node 5 3 1 1
node 6 3 1 1
node 7 8 1 1
node 8 1 0 2
node 14 1 0 0
node 19 1 0 0
node 23 2 0 0
node 27 3 0 0
node 47 1 0 0
node 53 1 0 0
node 64 1 0 0
node 89 1 0 0
node 102 1 0 0
node 109 1 0 0
gene 7 1 8 -2.70579 0 1 -2.70579 1
gene 6 2 8 -2.0382 0 2 -2.0382 1
gene 4 3 8 -0.356611 0 3 -0.356611 0
gene 5 4 8 1.1322 0 4 1.1322 1
gene 5 5 8 0.0660468 0 5 0.0660468 1
gene 3 6 8 6.60804 0 6 6.60804 1
gene 7 7 8 -5.36061 0 7 -5.36061 1
gene 5 5 14 -4.16528 0 18 -4.16528 1
gene 5 14 8 -3.73134 0 19 -3.73134 1
gene 5 1 14 2.41453 0 22 2.41453 1
gene 7 3 14 2.8257 0 24 2.8257 1
gene 4 4 14 -5.32233 0 39 -5.32233 1
gene 4 3 19 -0.407967 0 47 -0.407967 1
gene 4 19 8 4.84351 0 48 4.84351 1
gene 4 6 14 -0.947691 0 50 -0.947691 1
gene 4 19 23 -1.51024 0 63 -1.51024 1
gene 4 23 8 -1.47564 0 64 -1.47564 1
gene 2 23 14 1.81142 0 70 1.81142 1
gene 4 23 27 -0.626153 0 79 -0.626153 1
gene 4 27 8 2.03154 0 80 2.03154 1
gene 7 1 19 -1.05138 0 83 -1.05138 1
gene 4 5 27 2.59026 0 92 2.59026 0
gene 2 2 19 -4.73093 0 108 -4.73093 1
gene 8 6 23 -0.454703 0 115 -0.454703 1
gene 4 2 23 -4.43442 0 124 -4.43442 0
gene 8 4 19 3.28727 0 153 3.28727 1
gene 4 5 47 -3.59872 0 181 -3.59872 1
gene 4 47 27 1.22885 0 182 1.22885 1
gene 7 27 14 -4.74925 0 193 -4.74925 1
gene 4 4 27 -7.1129 0 212 -7.1129 1
gene 1 2 27 0.554423 0 222 0.554423 1
gene 4 2 53 -2.17836 0 226 -2.17836 1
gene 4 53 23 -0.348517 0 227 -0.348517 0
gene 2 53 27 -8 0 238 -8 1
gene 4 5 64 4.11718 0 277 4.11718 1
gene 4 64 47 0.296127 0 278 0.296127 0
gene 7 19 47 -2.65972 0 338 -2.65972 1
gene 4 7 23 -0.769858 0 366 -0.769858 1
gene 4 3 89 -2.41321 0 375 -2.41321 1
gene 4 89 8 -2.32314 0 376 -2.32314 1
gene 6 53 64 -1.55005 0 399 -1.55005 1
gene 5 53 14 -3.34758 0 420 -3.34758 1
gene 4 53 102 1.28878 0 425 1.28878 1
gene 4 102 23 -0.686624 0 426 -0.686624 1
gene 4 64 109 3.01649 0 449 3.01649 1
gene 4 109 47 0.00617992 0 450 0.00617992 1
gene 4 6 102 1.05516 0 462 1.05516 1
gene 8 89 23 -2.07789 0 466 -2.07789 1
genomeend 13

/* Organism #14 Fitness: 93 Error: 0 */
genomestart 14
trait 1 0.1 0 0 0 0 0 0 0 
trait 2 0.2 0 0 0 0 0 0 0 
trait 3 0.3 0 0 0 0 0 0 0 
trait 4 0 0 0 0 0 0 0 0 
trait 5 0.5 0 0 0 0 0 0 0 
trait 6 0.378347 0 0 0.742295 0 0.359265 0 0.227462 
trait 7 0.7 0 0 0 0 0 0 0 
trait 8 0.8 0 0 0 0 0 0 0 
node 1 3 1 3
node 2 5 1 1
node 3 4 1 1
node 4 6 1 1
node 5 3 1 1
node 6 3 1 1
node 7 8 1 1
node 8 1 0 2
node 14 1 0 0
node 19 1 0 0
node 23 2 0 0
node 27 3 0 0
node 47 1 0 0
node 53 1 0 0
node 64 1 0 0
node 89 1 0 0
node 102 1 0 0
node 109 1 0 0
gene 7 1 8 -0.577295 0 1 -0.577295 1
gene 6 2 8 -0.300609 0 2 -0.300609 1
gene 4 3 8 0.654007 0 3 0.654007 0
gene 5 4 8 1.34993 0 4 1.34993 1
gene 5 5 8 -0.012774 0 5 -0.012774 1
gene 3 6 8 7.58711 0 6 7.58711 1
gene 7 7 8 -7.6523 0 7 -7.6523 1
gene 5 5 14 -2.14191 0 18 -2.14191 1
gene 5 14 8 -2.50585 0 19 -2.50585 1
gene 5 1 14 0.409011 0 22 0.409011 1
gene 7 3 14 0.802668 0 24 0.802668 1
gene 4 4 14 -5.86793 0 39 -5.86793 1
gene 4 3 19 -0.743367 0 47 -0.743367 1
gene 4 19 8 5.58561 0 48 5.58561 1
gene 4 6 14 0.602727 0 50 0.602727 1
gene 4 19 23 0.347149 0 63 0.347149 1
gene 4 23 8 -0.47839 0 64 -0.47839 1
gene 2 23 14 -0.377991 0 70 -0.377991 1
gene 4 23 27 0.965403 0 79 0.965403 1
gene 4 27 8 2.50907 0 80 2.50907 1
gene 7 1 19 0.783816 0 83 0.783816 1
gene 4 5 27 3.48556 0 92 3.48556 0
gene 2 2 19 -2.35738 0 108 -2.35738 1
gene 8 6 23 -0.42294 0 115 -0.42294 1
gene 4 2 23 -3.4895 0 124 -3.4895 0
gene 8 4 19 1.96411 0 153 1.96411 1
gene 4 5 47 -2.74335 0 181 -2.74335 1
gene 4 47 27 3.16087 0 182 3.16087 1
gene 7 27 14 -3.68311 0 193 -3.68311 1
gene 4 4 27 -6.20418 0 212 -6.20418 1
gene 1 2 27 1.34973 0 222 1.34973 1
gene 4 2 53 -0.506544 0 226 -0.506544 1
gene 4 53 23 -1.03531 0 227 -1.03531 0
gene 2 53 27 -7.38683 0 238 -7.38683 1
gene 4 5 64 2.21933 0 277 2.21933 1
gene 4 64 47 0.00617992 0 278 0.00617992 0
gene 7 19 47 -0.613823 0 338 -0.613823 1
gene 4 7 23 0.127317 0 366 0.127317 1
gene 4 3 89 -1.76189 0 375 -1.76189 1
gene 4 89 8 1.93035 0 376 1.93035 1
gene 6 53 64 -3.98992 0 399 -3.98992 1
gene 5 53 14 -2.65664 0 420 -2.65664 1
gene 4 53 102 1.33149 0 425 1.33149 1
gene 4 102 23 7.08948 0 426 7.08948 1
gene 4 64 109 1 0 449 0 1
gene 4 109 47 0.00617992 0 450 0 1
gene 4 6 102 0.85771 0 462 0.85771 1
gene 8 89 23 -0.125555 0 466 -0.125555 1
gene 6 2 89 -0.933498 0 491 -0.933498 1
genomeend 14

/* Organism #15 Fitness: 70 Error: 0 */
/* ##------$ WINNER 15 SPECIES #45 $------## */
genomestart 15
trait 1 0.1 0 0 0 0 0 0 0 
trait 2 0.2 0 0 0 0 0 0 0 
trait 3 0.3 0 0 0 0 0 0 0 
trait 4 0 0 0 0 0 0 0 0 
trait 5 0.5 0 0 0 0 0 0 0 
trait 6 0.378347 0 0 0.742295 0 0.359265 0 0.227462 
trait 7 0.7 0 0 0 0 0 0 0 
trait 8 0.8 0 0 0 0 0 0 0 
node 1 3 1 3
node 2 5 1 1
node 3 4 1 1
node 4 6 1 1
node 5 3 1 1
node 6 3 1 1
node 7 8 1 1
node 8 1 0 2
node 14 1 0 0
node 19 1 0 0
node 23 2 0 0
node 27 3 0 0
node 47 1 0 0
node 53 1 0 0
node 64 1 0 0
node 89 1 0 0
node 102 1 0 0
node 109 1 0 0
gene 7 1 8 -0.577295 0 1 -0.577295 1
gene 6 2 8 -0.300609 0 2 -0.300609 1
gene 4 3 8 0.654007 0 3 0.654007 0
gene 5 4 8 1.34993 0 4 1.34993 1
gene 5 5 8 -0.012774 0 5 -0.012774 1
gene 3 6 8 7.58711 0 6 7.58711 1
gene 7 7 8 -7.6523 0 7 -7.6523 1
gene 5 5 14 -2.14191 0 18 -2.14191 1
gene 5 14 8 -2.50585 0 19 -2.50585 1
gene 5 1 14 0.409011 0 22 0.409011 1
gene 7 3 14 0.802668 0 24 0.802668 1
gene 4 4 14 -5.86793 0 39 -5.86793 1
gene 4 3 19 -0.743367 0 47 -0.743367 1
gene 4 19 8 5.58561 0 48 5.58561 1
gene 4 6 14 0.602727 0 50 0.602727 1
gene 4 19 23 0.347149 0 63 0.347149 1
gene 4 23 8 -0.47839 0 64 -0.47839 1
gene 2 23 14 -0.377991 0 70 -0.377991 1
gene 4 23 27 0.965403 0 79 0.965403 1
gene 4 27 8 2.50907 0 80 2.50907 1
gene 7 1 19 0.783816 0 83 0.783816 1
gene 4 5 27 3.48556 0 92 3.48556 0
gene 2 2 19 -2.35738 0 108 -2.35738 1
gene 8 6 23 -0.42294 0 115 -0.42294 1
gene 4 2 23 -3.4895 0 124 -3.4895 0
gene 8 4 19 1.96411 0 153 1.96411 1
gene 4 5 47 -2.74335 0 181 -2.74335 1
gene 4 47 27 3.16087 0 182 3.16087 1
gene 7 27 14 -3.68311 0 193 -3.68311 1
gene 4 4 27 -6.20418 0 212 -6.20418 1
gene 1 2 27 1.34973 0 222 1.34973 1
gene 4 2 53 -0.506544 0 226 -0.506544 1
gene 4 53 23 -1.03531 0 227 -1.03531 0
gene 2 53 27 -7.38683 0 238 -7.38683 1
gene 4 5 64 2.21933 0 277 2.21933 1
gene 4 64 47 0.00617992 0 278 0.00617992 0
gene 7 19 47 -0.613823 0 338 -0.613823 1
gene 4 7 23 0.127317 0 366 0.127317 1
gene 4 3 89 -1.76189 0 375 -1.76189 1
gene 4 89 8 1.93035 0 376 1.93035 1
gene 6 53 64 -3.98992 0 399 -3.98992 1
gene 5 53 14 -2.65664 0 420 -2.65664 1
gene 4 53 102 1.33149 0 425 1.33149 1
gene 4 102 23 7.08948 0 426 7.08948 1
gene 4 64 109 1 0 449 0 1
gene 4 109 47 0.00617992 0 450 0 1
gene 4 6 102 0.85771 0 462 0.85771 1
gene 8 89 23 -0.125555 0 466 -0.125555 1
gene 2 102 19 0.86653 0 492 0.86653 1
genomeend 15

/* Organism #16 Fitness: 0.0001 Error: 0 */
genomestart 16
trait 1 0.1 0 0 0 0 0 0 0 
trait 2 0.2 0 0 0 0 0 0 0 
trait 3 0.3 0 0 0 0 0 0 0 
trait 4 0 0 0 0 0 0 0 0 
trait 5 0.5 0 0 0 0 0 0 0 
trait 6 0.378347 0 0 0.742295 0 0.359265 0 0.227462 
trait 7 0.7 0 0 0 0 0 0 0 
trait 8 0.8 0 0 0 0 0 0 0 
node 1 3 1 3
node 2 5 1 1
node 3 4 1 1
node 4 6 1 1
node 5 3 1 1
node 6 3 1 1
node 7 8 1 1
node 8 1 0 2
node 14 1 0 0
node 19 1 0 0
node 23 2 0 0
node 27 3 0 0
node 47 1 0 0
node 53 1 0 0
node 64 1 0 0
node 89 1 0 0
node 102 1 0 0
node 109 1 0 0
gene 7 1 8 -0.577295 0 1 -0.577295 1
gene 6 2 8 -0.300609 0 2 -0.300609 1
gene 4 3 8 0.654007 0 3 0.654007 0
gene 5 4 8 1.34993 0 4 1.34993 1
gene 5 5 8 -0.012774 0 5 -0.012774 1
gene 3 6 8 7.58711 0 6 7.58711 1
gene 7 7 8 -7.6523 0 7 -7.6523 1
gene 5 5 14 -2.14191 0 18 -2.14191 1
gene 5 14 8 -2.50585 0 19 -2.50585 1
gene 5 1 14 0.409011 0 22 0.409011 1
gene 7 3 14 0.802668 0 24 0.802668 1
gene 4 4 14 -5.86793 0 39 -5.86793 1
gene 4 3 19 -0.743367 0 47 -0.743367 1
gene 4 19 8 5.58561 0 48 5.58561 1
gene 4 6 14 0.602727 0 50 0.602727 1
gene 4 19 23 0.347149 0 63 0.347149 1
gene 4 23 8 -0.47839 0 64 -0.47839 1
gene 2 23 14 -0.377991 0 70 -0.377991 1
gene 4 23 27 0.965403 0 79 0.965403 1
gene 4 27 8 2.50907 0 80 2.50907 1
gene 7 1 19 0.783816 0 83 0.783816 1
gene 4 5 27 3.48556 0 92 3.48556 0
gene 2 2 19 -2.35738 0 108 -2.35738 1
gene 8 6 23 -0.42294 0 115 -0.42294 1
gene 4 2 23 -3.4895 0 124 -3.4895 1
gene 8 4 19 1.96411 0 153 1.96411 1
gene 4 5 47 -2.74335 0 181 -2.74335 1
gene 4 47 27 3.16087 0 182 3.16087 1
gene 7 27 14 -3.68311 0 193 -3.68311 1
gene 4 4 27 -6.20418 0 212 -6.20418 1
gene 1 2 27 1.34973 0 222 1.34973 1
gene 4 2 53 -0.506544 0 226 -0.506544 1
gene 4 53 23 -1.03531 0 227 -1.03531 0
gene 2 53 27 -7.38683 0 238 -7.38683 1
gene 4 5 64 2.21933 0 277 2.21933 1
gene 4 64 47 0.00617992 0 278 0.00617992 0
gene 7 19 47 -0.613823 0 338 -0.613823 1
gene 4 7 23 0.127317 0 366 0.127317 1
gene 4 3 89 -1.76189 0 375 -1.76189 1
gene 4 89 8 1.93035 0 376 1.93035 1
gene 6 53 64 -3.98992 0 399 -3.98992 1
gene 5 53 14 -2.65664 0 420 -2.65664 1
gene 4 53 102 1.33149 0 425 1.33149 1
gene 4 102 23 7.08948 0 426 7.08948 1
gene 4 64 109 1 0 449 0 1
gene 4 109 47 0.00617992 0 450 0 1
gene 4 6 102 0.85771 0 462 0.85771 1
gene 8 89 23 -0.125555 0 466 -0.125555 1
gene 3 23 64 0.388322 0 493 0.388322 1
genomeend 16

/* Species #46 : (Size 3) (AF 68.0002) (Age 1)  */


/* Organism #17 Fitness: 113 Error: 0 */
genomestart 17
trait 1 0.1 0 0 0 0 0 0 0 
trait 2 0.2 0 0 0 0 0 0 0 
trait 3 0.3 0 0 0 0 0 0 0 
trait 4 0 0 0 0 0 0 0 0 
trait 5 0.5 0 0 0 0 0 0 0 
trait 6 0.378347 0 0 0.742295 0 0.359265 0 0.227462 
trait 7 0.7 0 0 0 0 0 0 0 
trait 8 0.8 0 0 0 0 0 0 0 
node 1 3 1 3
node 2 5 1 1
node 3 4 1 1
node 4 6 1 1
node 5 3 1 1
node 6 3 1 1
node 7 8 1 1
node 8 1 0 2
node 14 1 0 0
node 19 1 0 0
node 23 2 0 0
node 27 3 0 0
node 47 1 0 0
node 53 1 0 0
node 64 1 0 0
node 89 1 0 0
node 102 1 0 0
node 109 1 0 0
gene 7 1 8 1.33082 0 1 1.33082 1
gene 6 2 8 -0.179818 0 2 -0.179818 1
gene 4 3 8 -0.535623 0 3 -0.535623 0
gene 5 4 8 -1.78732 0 4 -1.78732 1
gene 5 5 8 0.205953 0 5 0.205953 1
gene 3 6 8 6.45706 0 6 6.45706 1
gene 7 7 8 -6.44126 0 7 -6.44126 1
gene 5 5 14 -4.56914 0 18 -4.56914 1
gene 5 14 8 -1.7033 0 19 -1.7033 1
gene 5 1 14 2.13555 0 22 2.13555 1
gene 7 3 14 -1.37369 0 24 -1.37369 1
gene 4 4 14 -5.86793 0 39 -5.86793 1
gene 4 3 19 -1.72182 0 47 -1.72182 1
gene 4 19 8 -0.664211 0 48 -0.664211 1
gene 4 6 14 1.78189 0 50 1.78189 1
gene 4 19 23 0.0758795 0 63 0.0758795 1
gene 4 23 8 -1.73016 0 64 -1.73016 1
gene 2 23 14 0.0123581 0 70 0.0123581 1
gene 4 23 27 1.01386 0 79 1.01386 1
gene 4 27 8 2.45836 0 80 2.45836 1
gene 7 1 19 2.57515 0 83 2.57515 1
gene 4 5 27 3.48556 0 92 3.48556 0
gene 2 2 19 -1.20295 0 108 -1.20295 1
gene 8 6 23 1.55624 0 115 1.55624 1
gene 4 2 23 0.964899 0 124 0.964899 0
gene 8 4 19 -1.1708 0 153 -1.1708 1
gene 4 5 47 -1.62245 0 181 -1.62245 1
gene 4 47 27 3.53187 0 182 3.53187 1
gene 7 27 14 -3.68311 0 193 -3.68311 1
gene 4 4 27 -6.20418 0 212 -6.20418 1
gene 1 2 27 2.26005 0 222 2.26005 1
gene 4 2 53 0.254974 0 226 0.254974 1
gene 4 53 23 0.730968 0 227 0.730968 0
gene 2 53 27 -5.37852 0 238 -5.37852 1
gene 4 5 64 1.38086 0 277 1.38086 1
gene 4 64 47 1.57352 0 278 1.57352 0
gene 7 19 47 -1.19781 0 338 -1.19781 1
gene 4 7 23 1.61062 0 366 1.61062 1
gene 4 3 89 -1.76189 0 375 -1.76189 1
gene 4 89 8 1.42604 0 376 1.42604 1
gene 6 53 64 -4.56859 0 399 -4.56859 1
gene 5 53 14 -2.25049 0 420 -2.25049 1
gene 4 53 102 -0.231847 0 425 -0.231847 1
gene 4 102 23 -1.99567 0 426 -1.99567 1
gene 4 64 109 -0.711703 0 449 -0.711703 1
gene 4 109 47 -1.88441 0 450 -1.88441 1
gene 4 6 102 1.16132 0 462 1.16132 1
gene 8 3 23 -1.06641 0 467 -1.06641 1
gene 7 53 109 -1.66518 0 485 -1.66518 1
genomeend 17

/* Organism #18 Fitness: 0.0006 Error: 0 */
genomestart 18
trait 1 0.1 0 0 0 0 0 0 0 
trait 2 0.2 0 0 0 0 0 0 0 
trait 3 0.3 0 0 0 0 0 0 0 
trait 4 0 0 0 0 0 0 0 0 
trait 5 0.5 0 0 0 0 0 0 0 
trait 6 0.378347 0 0 0.742295 0 0.359265 0 0.227462 
trait 7 0.7 0 0 0 0 0.955533 0 0 
trait 8 0.8 0 0 0 0 0 0 0 
node 1 3 1 3
node 2 5 1 1
node 3 4 1 1
node 4 6 1 1
node 5 3 1 1
node 6 3 1 1
node 7 8 1 1
node 8 1 0 2
node 14 1 0 0
node 19 1 0 0
node 23 2 0 0
node 27 3 0 0
node 47 1 0 0
node 53 1 0 0
node 64 1 0 0
node 89 1 0 0
node 102 1 0 0
node 109 1 0 0
gene 7 1 8 -1.94464 0 1 -1.94464 1
gene 6 2 8 1.29135 0 2 1.29135 1
gene 4 3 8 1.79856 0 3 1.79856 0
gene 5 4 8 1.08145 0 4 1.08145 1
gene 5 5 8 -1.67016 0 5 -1.67016 1
gene 3 6 8 0.649844 0 6 0.649844 1
gene 7 7 8 -8 0 7 -8 1
gene 5 5 14 -0.874585 0 18 -0.874585 1
gene 5 14 8 -1.33422 0 19 -1.33422 1
gene 5 1 14 1.72309 0 22 1.72309 1
gene 7 3 14 -0.561596 0 24 -0.561596 1
gene 4 4 14 -8 0 39 -8 1
gene 4 3 19 -1.18175 0 47 -1.18175 1
gene 4 19 8 5.95225 0 48 5.95225 1
gene 4 6 14 0.419192 0 50 0.419192 1
gene 4 19 23 -0.944341 0 63 -0.944341 1
gene 4 23 8 -1.12682 0 64 -1.12682 1
gene 2 23 14 1.85713 0 70 1.85713 1
gene 4 23 27 2.04285 0 79 2.04285 1
gene 4 27 8 3.88957 0 80 3.88957 1
gene 7 1 19 2.00533 0 83 2.00533 1
gene 4 5 27 4.27876 0 92 4.27876 0
gene 2 2 19 -1.72796 0 108 -1.72796 1
gene 8 6 23 -0.42294 0 115 -0.42294 1
gene 4 2 23 -1.51559 0 124 -1.51559 0
gene 8 4 19 -0.476431 0 153 -0.476431 1
gene 4 5 47 -4.24759 0 181 -4.24759 1
gene 4 47 27 2.7952 0 182 2.7952 1
gene 7 27 14 -5.25107 0 193 -5.25107 1
gene 4 4 27 -6.92062 0 212 -6.92062 1
gene 1 2 27 -0.199852 0 222 -0.199852 1
gene 4 2 53 -0.434729 0 226 -0.434729 1
gene 4 53 23 0.127935 0 227 0.127935 0
gene 2 53 27 -2.37967 0 238 -2.37967 1
gene 4 5 64 4.07182 0 277 4.07182 1
gene 4 64 47 1.24528 0 278 1.24528 1
gene 7 19 47 0.575518 0 338 0.575518 1
gene 4 7 23 0.709027 0 366 0.709027 1
gene 4 3 89 0.683534 0 375 0.683534 1
gene 4 89 8 2.25938 0 376 2.25938 1
gene 6 53 64 -3.98992 0 399 -3.98992 1
gene 1 53 14 0.254899 0 420 0.254899 1
gene 4 53 102 2.08155 0 425 2.08155 1
gene 4 102 23 6.08995 0 426 6.08995 1
gene 4 64 109 2.36994 0 449 2.36994 1
gene 4 109 47 2.051 0 450 2.051 1
gene 4 6 102 -0.610816 0 462 -0.610816 1
gene 8 3 23 -0.174958 0 467 -0.174958 1
gene 7 53 109 0.00492251 0 485 0.00492251 1
genomeend 18

/* Organism #19 Fitness: 91 Error: 0 */
/* ##------$ WINNER 19 SPECIES #46 $------## */
genomestart 19
trait 1 0.1 0 0 0 0 0 0 0 
trait 2 0.2 0 0 0 0 0 0 0 
trait 3 0.3 0 0 0 0 0 0 0 
trait 4 0 0 0 0 0 0 0 0 
trait 5 0.5 0 0 0 0 0 0 0 
trait 6 0.378347 0 0 0.742295 0 0.359265 0 0.227462 
trait 7 0.7 0 0 0 0 0 0.655379 0 
trait 8 0.8 0 0 0 0 0 0 0 
node 1 3 1 3
node 2 5 1 1
node 3 4 1 1
node 4 6 1 1
node 5 3 1 1
node 6 3 1 1
node 7 8 1 1
node 8 1 0 2
node 14 1 0 0
node 19 1 0 0
node 23 2 0 0
node 27 3 0 0
node 47 1 0 0
node 53 1 0 0
node 64 1 0 0
node 89 1 0 0
node 102 1 0 0
node 109 1 0 0
gene 7 1 8 -0.222874 0 1 -0.222874 1
gene 6 2 8 -1.82034 0 2 -1.82034 1
gene 4 3 8 2.9658 0 3 2.9658 0
gene 5 4 8 2.89585 0 4 2.89585 1
gene 5 5 8 2.29917 0 5 2.29917 1
gene 3 6 8 5.83401 0 6 5.83401 1
gene 7 7 8 -7.87339 0 7 -7.87339 1
gene 5 5 14 -1.61114 0 18 -1.61114 1
gene 5 14 8 -0.912217 0 19 -0.912217 1
gene 5 1 14 2.12798 0 22 2.12798 1
gene 7 3 14 0.19746 0 24 0.19746 1
gene 4 4 14 -7.66291 0 39 -7.66291 1
gene 4 3 19 -2.17794 0 47 -2.17794 1
gene 4 19 8 4.33815 0 48 4.33815 1
gene 4 6 14 -0.187611 0 50 -0.187611 1
gene 4 19 23 0.274458 0 63 0.274458 1
gene 4 23 8 -1.28305 0 64 -1.28305 1
gene 2 23 14 0.641384 0 70 0.641384 1
gene 4 23 27 0.564035 0 79 0.564035 1
gene 4 27 8 4.46518 0 80 4.46518 1
gene 7 1 19 0.95596 0 83 0.95596 1
gene 4 5 27 3.07337 0 92 3.07337 0
gene 2 2 19 0.122601 0 108 0.122601 1
gene 8 6 23 1.84965 0 115 1.84965 1
gene 4 2 23 -5.28863 0 124 -5.28863 0
gene 8 4 19 4.24721 0 153 4.24721 1
gene 4 5 47 -3.08923 0 181 -3.08923 1
gene 4 47 27 1.77176 0 182 1.77176 1
gene 7 27 14 -4.2295 0 193 -4.2295 1
gene 4 4 27 -6.9733 0 212 -6.9733 1
gene 1 2 27 -0.0275134 0 222 -0.0275134 1
gene 4 2 53 -2.42124 0 226 -2.42124 1
gene 4 53 23 -2.55474 0 227 -2.55474 0
gene 2 53 27 -8 0 238 -8 1
gene 4 5 64 3.91352 0 277 3.91352 1
gene 4 64 47 -0.0457405 0 278 -0.0457405 0
gene 7 19 47 -0.519013 0 338 -0.519013 1
gene 4 7 23 -0.867133 0 366 -0.867133 1
gene 4 3 89 -0.859143 0 375 -0.859143 1
gene 4 89 8 4.36588 0 376 4.36588 1
gene 6 53 64 -3.98992 0 399 -3.98992 1
gene 5 53 14 -2.91414 0 420 -2.91414 1
gene 4 53 102 -0.413007 0 425 -0.413007 1
gene 4 102 23 6.47716 0 426 6.47716 1
gene 4 64 109 0.335756 0 449 0.335756 1
gene 4 109 47 -1.25638 0 450 -1.25638 1
gene 4 6 102 0.85771 0 462 0.85771 1
gene 8 3 23 1.65196 0 467 1.65196 1
gene 7 53 109 -2.07048 0 485 -2.07048 1
genomeend 19
