
/* Species #41 : (Size 3) (AF 19.6667) (Age 10)  */


/* Organism #0 Fitness: 32 Error: 0 */
/* ##------$ WINNER 0 SPECIES #41 $------## */
genomestart 0
trait 1 0.1 0 0 0 0 0 0 0 
trait 2 0.2 0 0 0 0 0 0 0 
trait 3 0.3 0 0 0 0 0 0 0 
trait 4 0 0 0 0 0 0 0 0 
trait 5 0.5 0 0 0 0 0 0 0 
trait 6 0.378347 0 0 0.742295 0 0.359265 0 0.227462 
trait 7 0.7 0 0.0249665 0 0.010062 0 0 0 
trait 8 0.8 0 0 0 0 0 0 0 
node 1 3 1 3
node 2 5 1 1
node 3 4 1 1
node 4 6 1 1
node 5 3 1 1
node 6 3 1 1
node 7 8 1 1
node 8 1 0 2
node 14 1 0 0
node 19 1 0 0
node 23 2 0 0
node 27 3 0 0
node 47 1 0 0
node 53 1 0 0
node 64 1 0 0
node 89 1 0 0
node 98 1 0 0
node 110 1 0 0
gene 7 1 8 4.09503 0 1 4.09503 1
gene 6 2 8 -3.2478 0 2 -3.2478 1
gene 4 3 8 -4.20319 0 3 -4.20319 0
gene 5 4 8 4.8445 0 4 4.8445 1
gene 5 5 8 1.57866 0 5 1.57866 1
gene 3 6 8 -3.1242 0 6 -3.1242 1
gene 7 7 8 -0.164211 0 7 -0.164211 1
gene 5 5 14 -3.90896 0 18 -3.90896 1
gene 5 14 8 -0.139299 0 19 -0.139299 0
gene 5 1 14 0.594068 0 22 0.594068 1
gene 7 3 14 3.06711 0 24 3.06711 1
gene 4 4 14 -2.10263 0 39 -2.10263 1
gene 4 3 19 -4.03469 0 47 -4.03469 1
gene 4 19 8 6.77737 0 48 6.77737 1
gene 4 6 14 -0.649463 0 50 -0.649463 1
gene 4 19 23 -5.08531 0 63 -5.08531 1
gene 4 23 8 -2.61342 0 64 -2.61342 0
gene 2 23 14 -1.51411 0 70 -1.51411 1
gene 4 23 27 -0.384536 0 79 -0.384536 1
gene 4 27 8 1.41473 0 80 1.41473 1
gene 7 1 19 5.13604 0 83 5.13604 1
gene 4 5 27 0.165745 0 92 0.165745 0
gene 7 2 19 1.82481 0 108 1.82481 1
gene 8 6 23 1.35805 0 115 1.35805 1
gene 4 2 23 3.65441 0 124 3.65441 0
gene 8 4 19 4.38201 0 153 4.38201 1
gene 4 5 47 2.28782 0 181 2.28782 0
gene 4 47 27 1.32819 0 182 1.32819 1
gene 7 27 14 -4.45163 0 193 -4.45163 1
gene 4 4 27 -3.20993 0 212 -3.20993 1
gene 1 2 27 1.35368 0 222 1.35368 1
gene 4 2 53 -1.03606 0 226 -1.03606 1
gene 4 53 23 -3.36743 0 227 -3.36743 1
gene 2 53 27 -0.873152 0 238 -0.873152 1
gene 4 5 64 -3.24605 0 277 -3.24605 1
gene 4 64 47 -1.20204 0 278 -1.20204 1
gene 7 19 47 1.53242 0 338 1.53242 1
gene 4 7 23 1.53508 0 366 1.53508 1
gene 4 3 89 1.67792 0 375 1.67792 1
gene 4 89 8 2.22141 0 376 2.22141 1
gene 6 53 64 4.0877 0 399 4.0877 1
gene 5 14 98 1.11556 0 411 1.11556 1
gene 5 98 8 -0.310275 0 412 -0.310275 1
gene 3 23 89 0.15776 0 434 0.15776 1
gene 6 5 53 -1.5692 0 442 -1.5692 1
gene 4 23 110 -2.13426 0 454 -2.13426 1
gene 4 110 8 -3.692 0 455 -3.692 1
genomeend 0

/* Organism #1 Fitness: 0.0001 Error: 0 */
genomestart 1
trait 1 0.1 0 0 0 0 0 0 0 
trait 2 0.2 0 0 0 0 0 0 0 
trait 3 0.3 0 0 0 0 0 0 0 
trait 4 0 0 0 0 0 0 0 0 
trait 5 0.5 0 0 0 0 0 0 0 
trait 6 0.378347 0 0 0.742295 0 0.359265 0 0.227462 
trait 7 0.7 0 0 0 0 0 0 0 
trait 8 0.8 0 0 0 0 0 0 0 
node 1 3 1 3
node 2 5 1 1
node 3 4 1 1
node 4 6 1 1
node 5 3 1 1
node 6 3 1 1
node 7 8 1 1
node 8 1 0 2
node 14 1 0 0
node 19 1 0 0
node 23 2 0 0
node 27 3 0 0
node 47 1 0 0
node 53 1 0 0
node 64 1 0 0
node 89 1 0 0
node 98 1 0 0
node 110 1 0 0
gene 7 1 8 1.58657 0 1 1.58657 1
gene 6 2 8 -1.93144 0 2 -1.93144 1
gene 4 3 8 -2.24571 0 3 -2.24571 0
gene 5 4 8 0.862582 0 4 0.862582 1
gene 5 5 8 0.500714 0 5 0.500714 1
gene 3 6 8 -1.66669 0 6 -1.66669 1
gene 7 7 8 -7.08851 0 7 -7.08851 1
gene 5 5 14 0.0872137 0 18 0.0872137 1
gene 5 14 8 -4.33635 0 19 -4.33635 0
gene 5 1 14 -1.8652 0 22 -1.8652 1
gene 7 3 14 1.93204 0 24 1.93204 1
gene 4 4 14 -7.79502 0 39 -7.79502 1
gene 4 3 19 -3.41123 0 47 -3.41123 1
gene 4 19 8 8 0 48 8 1
gene 4 6 14 -1.29143 0 50 -1.29143 1
gene 4 19 23 -1.27992 0 63 -1.27992 1
gene 4 23 8 -1.24489 0 64 -1.24489 0
gene 2 23 14 -0.510858 0 70 -0.510858 1
gene 4 23 27 1.77474 0 79 1.77474 1
gene 4 27 8 3.71676 0 80 3.71676 1
gene 7 1 19 -0.395846 0 83 -0.395846 1
gene 4 5 27 0.330328 0 92 0.330328 0
gene 2 2 19 -0.130676 0 108 -0.130676 1
gene 8 6 23 -0.56543 0 115 -0.56543 1
gene 4 2 23 -1.44558 0 124 -1.44558 0
gene 8 4 19 3.28859 0 153 3.28859 1
gene 4 5 47 0.130146 0 181 0.130146 0
gene 4 47 27 0.767754 0 182 0.767754 1
gene 7 27 14 -2.65037 0 193 -2.65037 1
gene 4 4 27 -4.24509 0 212 -4.24509 1
gene 1 2 27 0.73159 0 222 0.73159 1
gene 4 2 53 -6.0614 0 226 -6.0614 1
gene 4 53 23 -0.20369 0 227 -0.20369 1
gene 2 53 27 -4.20013 0 238 -4.20013 1
gene 4 5 64 -4.67474 0 277 -4.67474 1
gene 4 64 47 -0.360482 0 278 -0.360482 1
gene 7 19 47 1.26706 0 338 1.26706 1
gene 4 7 23 1.26866 0 366 1.26866 1
gene 4 3 89 -0.99414 0 375 -0.99414 1
gene 4 89 8 0.0413971 0 376 0.0413971 1
gene 6 53 64 3.8753 0 399 3.8753 1
gene 5 14 98 0.126629 0 411 0.126629 1
gene 5 98 8 -0.310275 0 412 -0.310275 1
gene 3 23 89 2.14356 0 434 2.14356 1
gene 6 5 53 -2.75235 0 442 -2.75235 1
gene 4 23 110 2.77708 0 454 2.77708 1
gene 4 110 8 -1.64257 0 455 -1.64257 1
gene 7 7 64 -0.675353 0 486 -0.675353 1
genomeend 1

/* Organism #2 Fitness: 27 Error: 0 */
genomestart 2
trait 1 0.1 0 0 0 0 0 0 0 
trait 2 0.2 0 0 0 0 0 0 0 
trait 3 0.3 0 0 0 0 0 0 0 
trait 4 0 0 0 0 0 0 0 0 
trait 5 0.5 0 0 0 0 0 0 0 
trait 6 0.378347 0 0 0.742295 0 0.359265 0 0.227462 
trait 7 0.7 0 0.0124832 0 0.00503101 0 0 0 
trait 8 0.8 0 0 0 0 0 0 0 
node 1 3 1 3
node 2 5 1 1
node 3 4 1 1
node 4 6 1 1
node 5 3 1 1
node 6 3 1 1
node 7 8 1 1
node 8 1 0 2
node 14 1 0 0
node 19 1 0 0
node 23 2 0 0
node 27 3 0 0
node 47 1 0 0
node 53 1 0 0
node 64 1 0 0
node 89 1 0 0
node 98 1 0 0
node 110 1 0 0
gene 7 1 8 1.62237 0 1 1.62237 1
gene 6 2 8 -1.61442 0 2 -1.61442 1
gene 4 3 8 -0.944509 0 3 -0.944509 0
gene 5 4 8 2.96664 0 4 2.96664 1
gene 5 5 8 0.541364 0 5 0.541364 1
gene 3 6 8 -3.00619 0 6 -3.00619 1
gene 7 7 8 -8 0 7 -8 1
gene 5 5 14 0.698587 0 18 0.698587 1
gene 5 14 8 -1.98951 0 19 -1.98951 0
gene 5 1 14 -0.503059 0 22 -0.503059 1
gene 7 3 14 4.79422 0 24 4.79422 1
gene 4 4 14 0.313065 0 39 0.313065 1
gene 4 3 19 -4.89367 0 47 -4.89367 1
gene 4 19 8 8 0 48 8 1
gene 4 6 14 0.356906 0 50 0.356906 1
gene 4 19 23 -5.43855 0 63 -5.43855 1
gene 4 23 8 -4.23732 0 64 -4.23732 0
gene 2 23 14 0.600832 0 70 0.600832 1
gene 4 23 27 1.19169 0 79 1.19169 1
gene 4 27 8 2.46333 0 80 2.46333 1
gene 7 1 19 3.82516 0 83 3.82516 1
gene 4 5 27 2.44417 0 92 2.44417 0
gene 7 2 19 -0.253027 0 108 -0.253027 1
gene 8 6 23 1.8347 0 115 1.8347 1
gene 4 2 23 -0.126147 0 124 -0.126147 0
gene 8 4 19 3.66153 0 153 3.66153 1
gene 4 5 47 3.13687 0 181 3.13687 0
gene 4 47 27 1.14952 0 182 1.14952 1
gene 7 27 14 -4.47701 0 193 -4.47701 1
gene 4 4 27 -2.67022 0 212 -2.67022 1
gene 1 2 27 -0.0523784 0 222 -0.0523784 1
gene 4 2 53 -3.48541 0 226 -3.48541 1
gene 4 53 23 -2.29628 0 227 -2.29628 1
gene 2 53 27 -3.46772 0 238 -3.46772 1
gene 4 5 64 -3.16464 0 277 -3.16464 1
gene 4 64 47 0.976966 0 278 0.976966 1
gene 7 19 47 1.77311 0 338 1.77311 1
gene 4 7 23 0.0513033 0 366 0.0513033 1
gene 4 3 89 2.06776 0 375 2.06776 1
gene 4 89 8 1.5759 0 376 1.5759 1
gene 6 53 64 2.77951 0 399 2.77951 1
gene 5 14 98 1.0026 0 411 1.0026 1
gene 5 98 8 -0.310275 0 412 -0.310275 1
gene 3 23 89 0.15776 0 434 0.15776 1
gene 6 5 53 -1.5692 0 442 -1.5692 1
gene 4 23 110 -0.65916 0 454 -0.65916 1
gene 4 110 8 -3.692 0 455 -3.692 1
gene 7 7 64 -0.675353 0 486 -0.675353 1
genomeend 2

/* Species #44 : (Size 2) (AF 21) (Age 6)  */


/* Organism #3 Fitness: 42 Error: 0 */
/* ##------$ WINNER 3 SPECIES #44 $------## */
genomestart 3
trait 1 0.1 0 0 0 0 0 0 0 
trait 2 0.2 0 0 0 0 0 0 0 
trait 3 0.3 0 0 0 0 0 0 0 
trait 4 0 0 0 0 0 0 0 0 
trait 5 0.5 0 0 0 0 0 0 0 
trait 6 0.378347 0 0 0.742295 0 0.359265 0 0.227462 
trait 7 0.7 0 0 0 0 0 0 0 
trait 8 0.8 0 0 0 0 0 0 0 
node 1 3 1 3
node 2 5 1 1
node 3 4 1 1
node 4 6 1 1
node 5 3 1 1
node 6 3 1 1
node 7 8 1 1
node 8 1 0 2
node 14 1 0 0
node 19 1 0 0
node 23 2 0 0
node 27 3 0 0
node 47 1 0 0
node 53 1 0 0
node 64 1 0 0
node 89 1 0 0
node 98 1 0 0
node 106 1 0 0
node 116 1 0 0
node 117 1 0 0
gene 7 1 8 2.98153 0 1 2.98153 1
gene 6 2 8 4.3834 0 2 4.3834 0
gene 4 3 8 0.933199 0 3 0.933199 0
gene 5 4 8 -1.95256 0 4 -1.95256 1
gene 5 5 8 0.338318 0 5 0.338318 1
gene 3 6 8 -0.874091 0 6 -0.874091 1
gene 7 7 8 -0.671606 0 7 -0.671606 1
gene 5 5 14 0.514239 0 18 0.514239 1
gene 5 14 8 -2.86221 0 19 -2.86221 1
gene 5 1 14 -1.93452 0 22 -1.93452 1
gene 7 3 14 3.73329 0 24 3.73329 1
gene 4 4 14 -8 0 39 -8 1
gene 4 3 19 -0.894837 0 47 -0.894837 1
gene 4 19 8 8 0 48 8 1
gene 4 6 14 -1.91604 0 50 -1.91604 1
gene 4 19 23 4.81799 0 63 4.81799 1
gene 4 23 8 0.0418158 0 64 0.0418158 1
gene 2 23 14 -3.05925 0 70 -3.05925 1
gene 4 23 27 4.13273 0 79 4.13273 1
gene 4 27 8 0.493647 0 80 0.493647 1
gene 7 1 19 1.57608 0 83 1.57608 1
gene 4 5 27 -0.694079 0 92 -0.694079 1
gene 2 2 19 0.346004 0 108 0.346004 1
gene 8 6 23 4.12547 0 115 4.12547 1
gene 4 2 23 -3.26591 0 124 -3.26591 0
gene 8 4 19 2.52838 0 153 2.52838 1
gene 4 5 47 -2.53541 0 181 -2.53541 0
gene 4 47 27 1.48298 0 182 1.48298 1
gene 7 27 14 -0.213865 0 193 -0.213865 1
gene 4 4 27 -1.31178 0 212 -1.31178 1
gene 1 2 27 3.02055 0 222 3.02055 1
gene 4 2 53 -4.51559 0 226 -4.51559 1
gene 4 53 23 4.94364 0 227 4.94364 1
gene 2 53 27 -0.957266 0 238 -0.957266 1
gene 4 5 64 -5.54138 0 277 -5.54138 0
gene 4 64 47 2.88694 0 278 2.88694 1
gene 7 19 47 -0.21243 0 338 -0.21243 1
gene 4 7 23 -0.0066761 0 366 -0.0066761 1
gene 4 3 89 0.971093 0 375 0.971093 1
gene 4 89 8 0.722456 0 376 0.722456 1
gene 6 53 64 -1.99929 0 399 -1.99929 1
gene 5 14 98 1.18572 0 411 1.18572 1
gene 5 98 8 -1.29186 0 412 -1.29186 1
gene 4 89 23 -0.314002 0 435 -0.314002 1
gene 6 2 106 -2.17249 0 443 -2.17249 1
gene 6 106 8 -1.28161 0 444 -1.28161 1
gene 6 47 14 1.79019 0 465 1.79019 1
gene 4 5 116 -0.609244 0 482 -0.609244 0
gene 4 116 64 -4.15971 0 483 -4.15971 1
gene 4 5 117 1 0 488 1 1
gene 4 117 116 -1.19365 0 489 -1.19365 1
genomeend 3

/* Organism #4 Fitness: 0 Error: 0 */
genomestart 4
trait 1 0.1 0 0 0 0 0 0 0 
trait 2 0.2 0 0 0 0 0 0 0 
trait 3 0.3 0 0 0 0 0 0 0 
trait 4 0 0 0 0 0 0 0 0 
trait 5 0.5 0 0 0 0 0 0 0 
trait 6 0.378347 0 0 0.742295 0 0.359265 0 0.227462 
trait 7 0.7 0 0 0 0 0 0 0 
trait 8 0.8 0 0 0 0 0 0 0 
node 1 3 1 3
node 2 5 1 1
node 3 4 1 1
node 4 6 1 1
node 5 3 1 1
node 6 3 1 1
node 7 8 1 1
node 8 1 0 2
node 14 1 0 0
node 19 1 0 0
node 23 2 0 0
node 27 3 0 0
node 47 1 0 0
node 53 1 0 0
node 64 1 0 0
node 89 1 0 0
node 98 1 0 0
node 106 1 0 0
node 116 1 0 0
node 117 1 0 0
gene 7 1 8 0.846065 0 1 0.846065 1
gene 6 2 8 1.94486 0 2 1.94486 0
gene 4 3 8 1.77165 0 3 1.77165 0
gene 5 4 8 -1.74503 0 4 -1.74503 1
gene 5 5 8 -0.0271479 0 5 -0.0271479 1
gene 3 6 8 -1.23644 0 6 -1.23644 1
gene 7 7 8 1.11584 0 7 1.11584 1
gene 5 5 14 2.17525 0 18 2.17525 1
gene 5 14 8 -3.38502 0 19 -3.38502 1
gene 5 1 14 -3.56438 0 22 -3.56438 1
gene 7 3 14 2.09744 0 24 2.09744 1
gene 4 4 14 -7.71715 0 39 -7.71715 1
gene 4 3 19 -3.29534 0 47 -3.29534 1
gene 4 19 8 8 0 48 8 1
gene 4 6 14 0.150149 0 50 0.150149 1
gene 4 19 23 2.44202 0 63 2.44202 1
gene 4 23 8 -1.99698 0 64 -1.99698 1
gene 2 23 14 -1.93799 0 70 -1.93799 1
gene 4 23 27 4.28876 0 79 4.28876 1
gene 4 27 8 1.8887 0 80 1.8887 1
gene 7 1 19 3.83546 0 83 3.83546 1
gene 4 5 27 -0.0838048 0 92 -0.0838048 1
gene 2 2 19 -0.322479 0 108 -0.322479 1
gene 8 6 23 5.38284 0 115 5.38284 1
gene 4 2 23 -1.83655 0 124 -1.83655 0
gene 8 4 19 4.65245 0 153 4.65245 1
gene 4 5 47 -1.59795 0 181 -1.59795 0
gene 4 47 27 1.01238 0 182 1.01238 1
gene 7 27 14 -1.95077 0 193 -1.95077 1
gene 4 4 27 -2.18956 0 212 -2.18956 1
gene 1 2 27 3.3608 0 222 3.3608 1
gene 4 2 53 -4.1609 0 226 -4.1609 1
gene 4 53 23 2.60632 0 227 2.60632 1
gene 2 53 27 -3.41768 0 238 -3.41768 1
gene 4 5 64 -3.49074 0 277 -3.49074 0
gene 4 64 47 0.856695 0 278 0.856695 1
gene 7 19 47 1.83255 0 338 1.83255 1
gene 4 7 23 -0.0416785 0 366 -0.0416785 1
gene 4 3 89 1.03639 0 375 1.03639 1
gene 4 89 8 2.81613 0 376 2.81613 1
gene 6 53 64 -0.773991 0 399 -0.773991 1
gene 5 14 98 1.94661 0 411 1.94661 1
gene 5 98 8 -1.29186 0 412 -1.29186 1
gene 4 89 23 1.00488 0 435 1.00488 1
gene 6 2 106 0.555551 0 443 0.555551 1
gene 6 106 8 0.435859 0 444 0.435859 1
gene 6 47 14 -0.350035 0 465 -0.350035 1
gene 4 5 116 1 0 482 0 0
gene 4 116 64 -3.49074 0 483 0 1
gene 4 5 117 1 0 488 0 1
gene 4 117 116 1 0 489 0 1
gene 3 6 64 0.874179 0 494 0.874179 1
genomeend 4

/* Species #45 : (Size 7) (AF 28.2857) (Age 5)  */


/* Organism #5 Fitness: 0 Error: 0 */
genomestart 5
trait 1 0.1 0 0 0 0 0 0 0 
trait 2 0.2 0 0 0 0 0 0 0 
trait 3 0.3 0 0 0 0 0 0 0 
trait 4 0 0 0 0 0 0 0 0 
trait 5 0.5 0 0 0 0 0 0 0 
trait 6 0.378347 0 0 0.742295 0 0.359265 0 0.227462 
trait 7 0.7 0 0 0 0 0 0 0 
trait 8 0.8 0 0 0 0 0 0 0 
node 1 3 1 3
node 2 5 1 1
node 3 4 1 1
node 4 6 1 1
node 5 3 1 1
node 6 3 1 1
node 7 8 1 1
node 8 1 0 2
node 14 1 0 0
node 19 1 0 0
node 23 2 0 0
node 27 3 0 0
node 47 1 0 0
node 53 1 0 0
node 64 1 0 0
node 89 1 0 0
node 102 1 0 0
node 109 1 0 0
gene 7 1 8 -0.577295 0 1 -0.577295 1
gene 6 2 8 -0.300609 0 2 -0.300609 1
gene 4 3 8 0.654007 0 3 0.654007 0
gene 5 4 8 1.34993 0 4 1.34993 1
gene 5 5 8 -0.012774 0 5 -0.012774 1
gene 3 6 8 7.58711 0 6 7.58711 1
gene 7 7 8 -7.6523 0 7 -7.6523 1
gene 5 5 14 -2.14191 0 18 -2.14191 1
gene 5 14 8 -2.50585 0 19 -2.50585 1
gene 5 1 14 0.409011 0 22 0.409011 1
gene 7 3 14 0.802668 0 24 0.802668 1
gene 4 4 14 -5.86793 0 39 -5.86793 1
gene 4 3 19 -0.743367 0 47 -0.743367 1
gene 4 19 8 5.58561 0 48 5.58561 1
gene 4 6 14 0.602727 0 50 0.602727 1
gene 4 19 23 0.347149 0 63 0.347149 1
gene 4 23 8 -0.47839 0 64 -0.47839 1
gene 2 23 14 -0.377991 0 70 -0.377991 1
gene 4 23 27 0.965403 0 79 0.965403 1
gene 4 27 8 2.50907 0 80 2.50907 1
gene 7 1 19 0.783816 0 83 0.783816 1
gene 4 5 27 3.48556 0 92 3.48556 0
gene 2 2 19 -2.35738 0 108 -2.35738 1
gene 8 6 23 -0.42294 0 115 -0.42294 1
gene 4 2 23 -3.4895 0 124 -3.4895 0
gene 8 4 19 1.96411 0 153 1.96411 1
gene 4 5 47 -2.74335 0 181 -2.74335 1
gene 4 47 27 3.16087 0 182 3.16087 1
gene 7 27 14 -3.68311 0 193 -3.68311 1
gene 4 4 27 -6.20418 0 212 -6.20418 1
gene 1 2 27 1.34973 0 222 1.34973 1
gene 4 2 53 -0.506544 0 226 -0.506544 1
gene 4 53 23 -1.03531 0 227 -1.03531 0
gene 2 53 27 -7.38683 0 238 -7.38683 1
gene 4 5 64 2.21933 0 277 2.21933 1
gene 4 64 47 0.00617992 0 278 0.00617992 0
gene 7 19 47 -0.613823 0 338 -0.613823 1
gene 4 7 23 0.127317 0 366 0.127317 1
gene 4 3 89 -1.76189 0 375 -1.76189 1
gene 4 89 8 1.93035 0 376 1.93035 1
gene 6 53 64 -3.98992 0 399 -3.98992 1
gene 5 53 14 -2.65664 0 420 -2.65664 1
gene 4 53 102 1.33149 0 425 1.33149 1
gene 4 102 23 7.08948 0 426 7.08948 1
gene 4 64 109 1 0 449 0 1
gene 4 109 47 0.00617992 0 450 0 1
gene 4 6 102 0.85771 0 462 0.85771 1
gene 8 89 23 -0.125555 0 466 -0.125555 1
genomeend 5

/* Organism #6 Fitness: 0 Error: 0 */
genomestart 6
trait 1 0.1 0 0 0 0 0 0 0 
trait 2 0.2 0 0 0 0 0 0 0 
trait 3 0.3 0 0 0 0 0 0 0 
trait 4 0 0 0 0 0 0 0 0 
trait 5 0.5 0 0 0 0 0 0 0 
trait 6 0.378347 0 0 0.742295 0 0.359265 0 0.227462 
trait 7 0.7 0 0 0 0 0 0 0 
trait 8 0.8 0 0 0 0 0 0 0 
node 1 3 1 3
node 2 5 1 1
node 3 4 1 1
node 4 6 1 1
node 5 3 1 1
node 6 3 1 1
node 7 8 1 1
node 8 1 0 2
node 14 1 0 0
node 19 1 0 0
node 23 2 0 0
node 27 3 0 0
node 47 1 0 0
node 53 1 0 0
node 64 1 0 0
node 89 1 0 0
node 102 1 0 0
node 109 1 0 0
gene 7 1 8 -0.577295 0 1 -0.577295 1
gene 6 2 8 -0.300609 0 2 -0.300609 1
gene 4 3 8 0.654007 0 3 0.654007 0
gene 5 4 8 1.34993 0 4 1.34993 1
gene 5 5 8 -0.012774 0 5 -0.012774 1
gene 3 6 8 7.58711 0 6 7.58711 1
gene 7 7 8 -7.6523 0 7 -7.6523 1
gene 5 5 14 -2.14191 0 18 -2.14191 1
gene 5 14 8 -2.50585 0 19 -2.50585 1
gene 5 1 14 0.409011 0 22 0.409011 1
gene 7 3 14 0.802668 0 24 0.802668 1
gene 4 4 14 -5.86793 0 39 -5.86793 1
gene 4 3 19 -0.743367 0 47 -0.743367 1
gene 4 19 8 5.58561 0 48 5.58561 1
gene 4 6 14 0.602727 0 50 0.602727 1
gene 4 19 23 0.347149 0 63 0.347149 1
gene 4 23 8 -0.47839 0 64 -0.47839 1
gene 2 23 14 -0.377991 0 70 -0.377991 1
gene 4 23 27 0.965403 0 79 0.965403 1
gene 4 27 8 2.50907 0 80 2.50907 1
gene 7 1 19 0.783816 0 83 0.783816 1
gene 4 5 27 3.48556 0 92 3.48556 0
gene 2 2 19 -2.35738 0 108 -2.35738 1
gene 8 6 23 -0.42294 0 115 -0.42294 1
gene 4 2 23 -3.4895 0 124 -3.4895 0
gene 8 4 19 1.96411 0 153 1.96411 1
gene 4 5 47 -2.74335 0 181 -2.74335 1
gene 4 47 27 3.16087 0 182 3.16087 1
gene 7 27 14 -3.68311 0 193 -3.68311 1
gene 4 4 27 -6.20418 0 212 -6.20418 1
gene 1 2 27 1.34973 0 222 1.34973 1
gene 4 2 53 -0.506544 0 226 -0.506544 1
gene 4 53 23 -1.03531 0 227 -1.03531 0
gene 2 53 27 -7.38683 0 238 -7.38683 1
gene 4 5 64 2.21933 0 277 2.21933 1
gene 4 64 47 0.00617992 0 278 0.00617992 0
gene 7 19 47 -0.613823 0 338 -0.613823 1
gene 4 7 23 0.127317 0 366 0.127317 1
gene 4 3 89 -1.76189 0 375 -1.76189 1
gene 4 89 8 1.93035 0 376 1.93035 1
gene 6 53 64 -3.98992 0 399 -3.98992 1
gene 5 53 14 -2.65664 0 420 -2.65664 1
gene 4 53 102 1.33149 0 425 1.33149 1
gene 4 102 23 7.08948 0 426 7.08948 1
gene 4 64 109 1 0 449 0 1
gene 4 109 47 0.00617992 0 450 0 1
gene 4 6 102 0.85771 0 462 0.85771 1
gene 8 89 23 -0.125555 0 466 -0.125555 1
genomeend 6

/* Organism #7 Fitness: 0.0002 Error: 0 */
genomestart 7
trait 1 0.1 0 0 0 0 0 0 0 
trait 2 0.2 0 0 0 0 0 0 0 
trait 3 0.3 0 0 0 0 0 0 0 
trait 4 0 0 0 0 0 0 0 0 
trait 5 0.5 0 0 0 0 0 0 0 
trait 6 0.378347 0 0 0.742295 0 0.359265 0 0.227462 
trait 7 0.7 0 0 0 0 0 0 0 
trait 8 0.8 0 0 0 0 0 0 0 
node 1 3 1 3
node 2 5 1 1
node 3 4 1 1
node 4 6 1 1
node 5 3 1 1
node 6 3 1 1
node 7 8 1 1
node 8 1 0 2
node 14 1 0 0
node 19 1 0 0
node 23 2 0 0
node 27 3 0 0
node 47 1 0 0
node 53 1 0 0
node 64 1 0 0
node 89 1 0 0
node 102 1 0 0
node 109 1 0 0
gene 7 1 8 -0.577295 0 1 -0.577295 1
gene 6 2 8 -0.300609 0 2 -0.300609 1
gene 4 3 8 0.654007 0 3 0.654007 0
gene 5 4 8 1.34993 0 4 1.34993 1
gene 5 5 8 -0.012774 0 5 -0.012774 1
gene 3 6 8 7.58711 0 6 7.58711 1
gene 7 7 8 -7.6523 0 7 -7.6523 1
gene 5 5 14 -2.14191 0 18 -2.14191 1
gene 5 14 8 -2.50585 0 19 -2.50585 1
gene 5 1 14 0.409011 0 22 0.409011 1
gene 7 3 14 0.802668 0 24 0.802668 1
gene 4 4 14 -5.86793 0 39 -5.86793 1
gene 4 3 19 -0.743367 0 47 -0.743367 1
gene 4 19 8 5.58561 0 48 5.58561 1
gene 4 6 14 0.602727 0 50 0.602727 1
gene 4 19 23 0.347149 0 63 0.347149 1
gene 4 23 8 -0.47839 0 64 -0.47839 1
gene 2 23 14 -0.377991 0 70 -0.377991 1
gene 4 23 27 0.965403 0 79 0.965403 1
gene 4 27 8 2.50907 0 80 2.50907 1
gene 7 1 19 0.783816 0 83 0.783816 1
gene 4 5 27 3.48556 0 92 3.48556 0
gene 2 2 19 -2.35738 0 108 -2.35738 1
gene 8 6 23 -0.42294 0 115 -0.42294 1
gene 4 2 23 -3.4895 0 124 -3.4895 0
gene 8 4 19 1.96411 0 153 1.96411 1
gene 4 5 47 -2.74335 0 181 -2.74335 1
gene 4 47 27 3.16087 0 182 3.16087 1
gene 7 27 14 -3.68311 0 193 -3.68311 1
gene 4 4 27 -6.20418 0 212 -6.20418 1
gene 1 2 27 1.34973 0 222 1.34973 1
gene 4 2 53 -0.506544 0 226 -0.506544 1
gene 4 53 23 -1.03531 0 227 -1.03531 0
gene 2 53 27 -7.38683 0 238 -7.38683 1
gene 4 5 64 2.21933 0 277 2.21933 1
gene 4 64 47 0.00617992 0 278 0.00617992 0
gene 7 19 47 -0.613823 0 338 -0.613823 1
gene 4 7 23 0.127317 0 366 0.127317 1
gene 4 3 89 -1.76189 0 375 -1.76189 1
gene 4 89 8 1.93035 0 376 1.93035 1
gene 6 53 64 -3.98992 0 399 -3.98992 1
gene 5 53 14 -2.65664 0 420 -2.65664 1
gene 4 53 102 1.33149 0 425 1.33149 1
gene 4 102 23 7.08948 0 426 7.08948 1
gene 4 64 109 1 0 449 0 1
gene 4 109 47 0.00617992 0 450 0 1
gene 4 6 102 0.85771 0 462 0.85771 1
gene 8 89 23 -0.125555 0 466 -0.125555 1
gene 8 7 19 0.161071 0 495 0.161071 1
genomeend 7

/* Organism #8 Fitness: 32 Error: 0 */
/* ##------$ WINNER 8 SPECIES #45 $------## */
genomestart 8
trait 1 0.1 0 0 0 0 0 0 0 
trait 2 0.2 0 0 0 0 0 0 0 
trait 3 0.3 0 0 0 0 0 0 0 
trait 4 0 0 0 0 0 0 0 0 
trait 5 0.5 0 0 0 0 0 0 0 
trait 6 0.378347 0 0 0.742295 0 0.359265 0 0.227462 
trait 7 0.7 0 0 0 0 0 0 0 
trait 8 0.8 0 0 0 0 0 0 0 
node 1 3 1 3
node 2 5 1 1
node 3 4 1 1
node 4 6 1 1
node 5 3 1 1
node 6 3 1 1
node 7 8 1 1
node 8 1 0 2
node 14 1 0 0
node 19 1 0 0
node 23 2 0 0
node 27 3 0 0
node 47 1 0 0
node 53 1 0 0
node 64 1 0 0
node 89 1 0 0
node 102 1 0 0
node 109 1 0 0
gene 7 1 8 -1.22127 0 1 -1.22127 1
gene 6 2 8 -0.858217 0 2 -0.858217 1
gene 4 3 8 1.45165 0 3 1.45165 0
gene 5 4 8 3.54085 0 4 3.54085 1
gene 5 5 8 -0.491155 0 5 -0.491155 1
gene 3 6 8 7.20818 0 6 7.20818 1
gene 7 7 8 -5.80537 0 7 -5.80537 1
gene 5 5 14 -4.5577 0 18 -4.5577 1
gene 5 14 8 -1.24445 0 19 -1.24445 1
gene 5 1 14 -0.611914 0 22 -0.611914 1
gene 7 3 14 1.2349 0 24 1.2349 1
gene 4 4 14 -3.74112 0 39 -3.74112 1
gene 4 3 19 1.02315 0 47 1.02315 1
gene 4 19 8 5.58561 0 48 5.58561 1
gene 4 6 14 1.33884 0 50 1.33884 1
gene 4 19 23 -0.141386 0 63 -0.141386 1
gene 4 23 8 0.62217 0 64 0.62217 1
gene 2 23 14 2.10328 0 70 2.10328 1
gene 4 23 27 -0.907733 0 79 -0.907733 1
gene 4 27 8 2.50907 0 80 2.50907 1
gene 7 1 19 2.29498 0 83 2.29498 1
gene 4 5 27 3.48556 0 92 3.48556 0
gene 2 2 19 -1.36978 0 108 -1.36978 1
gene 8 6 23 1.57026 0 115 1.57026 1
gene 4 2 23 -5.77126 0 124 -5.77126 0
gene 8 4 19 1.66754 0 153 1.66754 1
gene 4 5 47 -3.27556 0 181 -3.27556 1
gene 4 47 27 -1.56188 0 182 -1.56188 1
gene 7 27 14 -3.68311 0 193 -3.68311 1
gene 4 4 27 -7.04725 0 212 -7.04725 1
gene 1 2 27 -0.00832776 0 222 -0.00832776 1
gene 4 2 53 -1.04752 0 226 -1.04752 1
gene 4 53 23 -1.50439 0 227 -1.50439 0
gene 2 53 27 -6.96646 0 238 -6.96646 1
gene 4 5 64 0.592323 0 277 0.592323 1
gene 4 64 47 -1.45713 0 278 -1.45713 0
gene 7 19 47 0.912251 0 338 0.912251 1
gene 4 7 23 0.913409 0 366 0.913409 1
gene 4 3 89 -2.7625 0 375 -2.7625 1
gene 4 89 8 2.24756 0 376 2.24756 1
gene 6 53 64 -2.25682 0 399 -2.25682 1
gene 5 53 14 -4.90829 0 420 -4.90829 1
gene 4 53 102 -1.09703 0 425 -1.09703 1
gene 4 102 23 5.77891 0 426 5.77891 1
gene 4 64 109 -1.30342 0 449 -1.30342 1
gene 4 109 47 1.25206 0 450 1.25206 1
gene 4 6 102 -1.62651 0 462 -1.62651 1
gene 8 89 23 -0.693025 0 466 -0.693025 1
genomeend 8

/* Organism #9 Fitness: 100 Error: 0 */
/* ##------$ WINNER 9 SPECIES #45 $------## */
genomestart 9
trait 1 0.1 0.420581 0.811749 0 0.998253 0 0 0.599752 
trait 2 0.2 0 0 0 0 0 0 0 
trait 3 0.3 0 0 0 0 0 0 0 
trait 4 0 0 0 0 0 0 0 0 
trait 5 0.5 0 0 0 0 0 0 0 
trait 6 0.378347 0 0 0.742295 0 0.359265 0 0.227462 
trait 7 0.7 0 0 0 0 0 0 0 
trait 8 0.8 0 0 0 0 0 0 0 
node 1 3 1 3
node 2 5 1 1
node 3 4 1 1
node 4 6 1 1
node 5 3 1 1
node 6 3 1 1
node 7 8 1 1
node 8 1 0 2
node 14 1 0 0
node 19 1 0 0
node 23 2 0 0
node 27 3 0 0
node 47 1 0 0
node 53 1 0 0
node 64 1 0 0
node 89 1 0 0
node 102 1 0 0
node 109 1 0 0
gene 7 1 8 0.936363 0 1 0.936363 1
gene 6 2 8 -2.74442 0 2 -2.74442 1
gene 4 3 8 -0.890128 0 3 -0.890128 1
gene 5 4 8 -0.635359 0 4 -0.635359 1
gene 5 5 8 0.350242 0 5 0.350242 1
gene 3 6 8 8 0 6 8 1
gene 7 7 8 -8 0 7 -8 1
gene 5 5 14 -2.87979 0 18 -2.87979 1
gene 5 14 8 -2.92921 0 19 -2.92921 1
gene 5 1 14 -0.929341 0 22 -0.929341 1
gene 7 3 14 2.35476 0 24 2.35476 1
gene 4 4 14 -5.40819 0 39 -5.40819 1
gene 4 3 19 -0.962739 0 47 -0.962739 1
gene 4 19 8 7.21493 0 48 7.21493 1
gene 4 6 14 1.19462 0 50 1.19462 1
gene 4 19 23 1.21676 0 63 1.21676 1
gene 4 23 8 -0.988073 0 64 -0.988073 1
gene 2 23 14 -2.60568 0 70 -2.60568 1
gene 4 23 27 2.87164 0 79 2.87164 1
gene 4 27 8 4.74512 0 80 4.74512 1
gene 7 1 19 -0.581963 0 83 -0.581963 1
gene 4 5 27 1.25945 0 92 1.25945 1
gene 2 2 19 -4.31117 0 108 -4.31117 1
gene 8 6 23 -0.785287 0 115 -0.785287 1
gene 4 2 23 -5.08512 0 124 -5.08512 0
gene 8 4 19 1.34017 0 153 1.34017 1
gene 4 5 47 -1.46646 0 181 -1.46646 1
gene 4 47 27 5.36548 0 182 5.36548 1
gene 7 27 14 -5.94623 0 193 -5.94623 1
gene 4 4 27 -6.47561 0 212 -6.47561 1
gene 1 2 27 2.81784 0 222 2.81784 1
gene 4 2 53 -2.19064 0 226 -2.19064 1
gene 4 53 23 1.40623 0 227 1.40623 0
gene 2 53 27 -7.01369 0 238 -7.01369 1
gene 4 5 64 0.0929815 0 277 0.0929815 1
gene 4 64 47 1.08285 0 278 1.08285 1
gene 7 19 47 0.189014 0 338 0.189014 1
gene 4 7 23 2.33134 0 366 2.33134 1
gene 4 3 89 -3.35318 0 375 -3.35318 1
gene 4 89 8 1.93035 0 376 1.93035 1
gene 6 53 64 -5.54502 0 399 -5.54502 1
gene 5 53 14 -2.65664 0 420 -2.65664 1
gene 4 53 102 0.864228 0 425 0.864228 1
gene 4 102 23 7.58005 0 426 7.58005 1
gene 4 64 109 1 0 449 1 1
gene 4 109 47 0.222879 0 450 0.222879 1
gene 4 6 102 3.04742 0 462 3.04742 1
gene 8 89 23 -2.01929 0 466 -2.01929 1
genomeend 9

/* Organism #10 Fitness: 23 Error: 0 */
genomestart 10
trait 1 0.1 0 0 0 0 0 0 0 
trait 2 0.2 0 0 0 0 0 0 0 
trait 3 0.3 0 0 0 0 0 0 0 
trait 4 0 0 0 0 0 0 0 0 
trait 5 0.5 0 0 0 0 0 0 0 
trait 6 0.378347 0 0 0.742295 0 0.359265 0 0.227462 
trait 7 0.7 0 0 0 0 0 0 0 
trait 8 0.8 0 0 0 0 0 0 0 
node 1 3 1 3
node 2 5 1 1
node 3 4 1 1
node 4 6 1 1
node 5 3 1 1
node 6 3 1 1
node 7 8 1 1
node 8 1 0 2
node 14 1 0 0
node 19 1 0 0
node 23 2 0 0
node 27 3 0 0
node 47 1 0 0
node 53 1 0 0
node 64 1 0 0
node 89 1 0 0
node 102 1 0 0
node 109 1 0 0
gene 7 1 8 -2.47925 0 1 -2.47925 1
gene 6 2 8 0.12352 0 2 0.12352 1
gene 4 3 8 -0.711696 0 3 -0.711696 0
gene 5 4 8 0.790396 0 4 0.790396 1
gene 5 5 8 -2.06476 0 5 -2.06476 1
gene 3 6 8 8 0 6 8 1
gene 7 7 8 -5.19603 0 7 -5.19603 1
gene 5 5 14 -1.28088 0 18 -1.28088 1
gene 5 14 8 -0.922621 0 19 -0.922621 1
gene 5 1 14 -1.69798 0 22 -1.69798 1
gene 7 3 14 2.29657 0 24 2.29657 1
gene 4 4 14 -6.24774 0 39 -6.24774 1
gene 4 3 19 1.59442 0 47 1.59442 1
gene 4 19 8 7.99748 0 48 7.99748 1
gene 4 6 14 -1.09309 0 50 -1.09309 1
gene 4 19 23 -1.70285 0 63 -1.70285 1
gene 4 23 8 -0.517976 0 64 -0.517976 1
gene 2 23 14 1.43988 0 70 1.43988 1
gene 4 23 27 1.58057 0 79 1.58057 1
gene 4 27 8 1.42187 0 80 1.42187 1
gene 7 1 19 3.02278 0 83 3.02278 1
gene 4 5 27 1.27318 0 92 1.27318 0
gene 2 2 19 -0.0612195 0 108 -0.0612195 1
gene 8 6 23 -1.81802 0 115 -1.81802 1
gene 4 2 23 -1.06905 0 124 -1.06905 0
gene 8 4 19 3.47769 0 153 3.47769 1
gene 4 5 47 -2.06109 0 181 -2.06109 1
gene 4 47 27 5.37651 0 182 5.37651 1
gene 7 27 14 -3.71003 0 193 -3.71003 1
gene 4 4 27 -7.3703 0 212 -7.3703 1
gene 1 2 27 0.44421 0 222 0.44421 1
gene 4 2 53 -2.40393 0 226 -2.40393 1
gene 4 53 23 -2.94312 0 227 -2.94312 0
gene 2 53 27 -8 0 238 -8 1
gene 4 5 64 0.697809 0 277 0.697809 1
gene 4 64 47 0.230531 0 278 0.230531 0
gene 7 19 47 0.319667 0 338 0.319667 1
gene 4 7 23 -0.794316 0 366 -0.794316 1
gene 4 3 89 -3.01245 0 375 -3.01245 1
gene 4 89 8 1.28239 0 376 1.28239 1
gene 6 53 64 -2.4658 0 399 -2.4658 1
gene 5 53 14 -1.63469 0 420 -1.63469 1
gene 4 53 102 1.33149 0 425 1.33149 1
gene 4 102 23 -1.14971 0 426 -1.14971 1
gene 4 64 109 -1.38688 0 449 -1.38688 1
gene 4 109 47 -0.572472 0 450 -0.572472 1
gene 4 6 102 1.23358 0 462 1.23358 1
gene 8 89 23 -0.125555 0 466 -0.125555 1
genomeend 10

/* Organism #11 Fitness: 43 Error: 0 */
genomestart 11
trait 1 0.1 0 0 0 0 0 0 0 
trait 2 0.2 0 0 0 0 0 0 0 
trait 3 0.3 0 0 0 0 0 0 0 
trait 4 0 0 0 0 0 0 0 0 
trait 5 0.5 0 0 0 0 0 0 0 
trait 6 0.378347 0 0 0.742295 0 0.359265 0 0.227462 
trait 7 0.7 0 0 0 0 0 0 0 
trait 8 0.8 0 0 0 0 0 0 0 
node 1 3 1 3
node 2 5 1 1
node 3 4 1 1
node 4 6 1 1
node 5 3 1 1
node 6 3 1 1
node 7 8 1 1
node 8 1 0 2
node 14 1 0 0
node 19 1 0 0
node 23 2 0 0
node 27 3 0 0
node 47 1 0 0
node 53 1 0 0
node 64 1 0 0
node 89 1 0 0
node 102 1 0 0
node 109 1 0 0
gene 7 1 8 -2.06517 0 1 -2.06517 1
gene 6 2 8 1.24211 0 2 1.24211 1
gene 4 3 8 1.38505 0 3 1.38505 0
gene 5 4 8 2.57907 0 4 2.57907 1
gene 5 5 8 0.172857 0 5 0.172857 1
gene 3 6 8 8 0 6 8 1
gene 7 7 8 -8 0 7 -8 1
gene 5 5 14 -4.27305 0 18 -4.27305 1
gene 5 14 8 -2.80376 0 19 -2.80376 1
gene 5 1 14 1.66423 0 22 1.66423 1
gene 7 3 14 1.74264 0 24 1.74264 1
gene 4 4 14 -3.75733 0 39 -3.75733 1
gene 4 3 19 0.733017 0 47 0.733017 1
gene 4 19 8 5.64214 0 48 5.64214 1
gene 4 6 14 -1.0198 0 50 -1.0198 1
gene 4 19 23 2.82309 0 63 2.82309 1
gene 4 23 8 0.849006 0 64 0.849006 1
gene 2 23 14 -1.70733 0 70 -1.70733 1
gene 4 23 27 0.159798 0 79 0.159798 1
gene 4 27 8 1.84964 0 80 1.84964 1
gene 7 1 19 2.98092 0 83 2.98092 1
gene 4 5 27 3.5341 0 92 3.5341 0
gene 2 2 19 -3.45028 0 108 -3.45028 1
gene 8 6 23 0.249625 0 115 0.249625 1
gene 4 2 23 -1.48126 0 124 -1.48126 0
gene 8 4 19 4.15122 0 153 4.15122 1
gene 4 5 47 -0.269303 0 181 -0.269303 1
gene 4 47 27 5.39582 0 182 5.39582 1
gene 7 27 14 -2.46313 0 193 -2.46313 1
gene 4 4 27 -7.94511 0 212 -7.94511 1
gene 1 2 27 2.08475 0 222 2.08475 1
gene 4 2 53 -1.66831 0 226 -1.66831 1
gene 4 53 23 0.167286 0 227 0.167286 0
gene 2 53 27 -8 0 238 -8 1
gene 4 5 64 4.37917 0 277 4.37917 1
gene 4 64 47 -0.906468 0 278 -0.906468 0
gene 7 19 47 -0.216676 0 338 -0.216676 1
gene 4 7 23 -1.46625 0 366 -1.46625 1
gene 4 3 89 -3.96698 0 375 -3.96698 1
gene 4 89 8 1.06348 0 376 1.06348 1
gene 6 53 64 -3.98992 0 399 -3.98992 1
gene 5 53 14 0.544498 0 420 0.544498 1
gene 4 53 102 1.33149 0 425 1.33149 1
gene 4 102 23 4.77062 0 426 4.77062 1
gene 4 64 109 -1.71365 0 449 -1.71365 1
gene 4 109 47 0.00617992 0 450 0.00617992 1
gene 4 6 102 -0.195332 0 462 -0.195332 1
gene 8 89 23 -0.125555 0 466 -0.125555 1
genomeend 11

/* Species #46 : (Size 8) (AF 40.3751) (Age 2)  */


/* Organism #12 Fitness: 118 Error: 0 */
genomestart 12
trait 1 0.1 0 0 0 0 0 0 0 
trait 2 0.2 0 0 0 0 0 0 0 
trait 3 0.3 0 0 0 0 0 0 0 
trait 4 0 0 0 0 0 0 0 0 
trait 5 0.5 0 0 0 0 0 0 0 
trait 6 0.378347 0 0 0.742295 0 0.359265 0 0.227462 
trait 7 0.7 0 0 0 0 0 0 0 
trait 8 0.8 0 0 0 0 0 0 0 
node 1 3 1 3
node 2 5 1 1
node 3 4 1 1
node 4 6 1 1
node 5 3 1 1
node 6 3 1 1
node 7 8 1 1
node 8 1 0 2
node 14 1 0 0
node 19 1 0 0
node 23 2 0 0
node 27 3 0 0
node 47 1 0 0
node 53 1 0 0
node 64 1 0 0
node 89 1 0 0
node 102 1 0 0
node 109 1 0 0
gene 7 1 8 1.33082 0 1 1.33082 1
gene 6 2 8 -0.179818 0 2 -0.179818 1
gene 4 3 8 -0.535623 0 3 -0.535623 0
gene 5 4 8 -1.78732 0 4 -1.78732 1
gene 5 5 8 0.205953 0 5 0.205953 1
gene 3 6 8 6.45706 0 6 6.45706 1
gene 7 7 8 -6.44126 0 7 -6.44126 1
gene 5 5 14 -4.56914 0 18 -4.56914 1
gene 5 14 8 -1.7033 0 19 -1.7033 1
gene 5 1 14 2.13555 0 22 2.13555 1
gene 7 3 14 -1.37369 0 24 -1.37369 1
gene 4 4 14 -5.86793 0 39 -5.86793 1
gene 4 3 19 -1.72182 0 47 -1.72182 1
gene 4 19 8 -0.664211 0 48 -0.664211 1
gene 4 6 14 1.78189 0 50 1.78189 1
gene 4 19 23 0.0758795 0 63 0.0758795 1
gene 4 23 8 -1.73016 0 64 -1.73016 1
gene 2 23 14 0.0123581 0 70 0.0123581 1
gene 4 23 27 1.01386 0 79 1.01386 1
gene 4 27 8 2.45836 0 80 2.45836 1
gene 7 1 19 2.57515 0 83 2.57515 1
gene 4 5 27 3.48556 0 92 3.48556 0
gene 2 2 19 -1.20295 0 108 -1.20295 1
gene 8 6 23 1.55624 0 115 1.55624 1
gene 4 2 23 0.964899 0 124 0.964899 0
gene 8 4 19 -1.1708 0 153 -1.1708 1
gene 4 5 47 -1.62245 0 181 -1.62245 1
gene 4 47 27 3.53187 0 182 3.53187 1
gene 7 27 14 -3.68311 0 193 -3.68311 1
gene 4 4 27 -6.20418 0 212 -6.20418 1
gene 1 2 27 2.26005 0 222 2.26005 1
gene 4 2 53 0.254974 0 226 0.254974 1
gene 4 53 23 0.730968 0 227 0.730968 0
gene 2 53 27 -5.37852 0 238 -5.37852 1
gene 4 5 64 1.38086 0 277 1.38086 1
gene 4 64 47 1.57352 0 278 1.57352 0
gene 7 19 47 -1.19781 0 338 -1.19781 1
gene 4 7 23 1.61062 0 366 1.61062 1
gene 4 3 89 -1.76189 0 375 -1.76189 1
gene 4 89 8 1.42604 0 376 1.42604 1
gene 6 53 64 -4.56859 0 399 -4.56859 1
gene 5 53 14 -2.25049 0 420 -2.25049 1
gene 4 53 102 -0.231847 0 425 -0.231847 1
gene 4 102 23 -1.99567 0 426 -1.99567 1
gene 4 64 109 -0.711703 0 449 -0.711703 1
gene 4 109 47 -1.88441 0 450 -1.88441 1
gene 4 6 102 1.16132 0 462 1.16132 1
gene 8 3 23 -1.06641 0 467 -1.06641 1
gene 7 53 109 -1.66518 0 485 -1.66518 1
genomeend 12

/* Organism #13 Fitness: 205 Error: 0 */
/* ##------$ WINNER 13 SPECIES #46 $------## */
genomestart 13
trait 1 0.1 0 0 0 0 0 0 0 
trait 2 0.2 0 0 0 0 0 0 0 
trait 3 0.3 0 0 0 0 0 0 0 
trait 4 0 0 0 0 0 0 0 0 
trait 5 0.5 0 0 0 0 0 0 0 
trait 6 0.378347 0 0 0.742295 0 0.359265 0 0.227462 
trait 7 0.7 0 0 0 0 0 0 0 
trait 8 0.8 0 0 0 0 0 0 0 
node 1 3 1 3
node 2 5 1 1
node 3 4 1 1
node 4 6 1 1
node 5 3 1 1
node 6 3 1 1
node 7 8 1 1
node 8 1 0 2
node 14 1 0 0
node 19 1 0 0
node 23 2 0 0
node 27 3 0 0
node 47 1 0 0
node 53 1 0 0
node 64 1 0 0
node 89 1 0 0
node 102 1 0 0
node 109 1 0 0
gene 7 1 8 1.33082 0 1 1.33082 1
gene 6 2 8 -0.179818 0 2 -0.179818 1
gene 4 3 8 -0.535623 0 3 -0.535623 0
gene 5 4 8 -1.78732 0 4 -1.78732 1
gene 5 5 8 0.205953 0 5 0.205953 1
gene 3 6 8 6.45706 0 6 6.45706 1
gene 7 7 8 -6.44126 0 7 -6.44126 1
gene 5 5 14 -4.56914 0 18 -4.56914 1
gene 5 14 8 -1.7033 0 19 -1.7033 1
gene 5 1 14 2.13555 0 22 2.13555 1
gene 7 3 14 -1.37369 0 24 -1.37369 1
gene 4 4 14 -5.86793 0 39 -5.86793 1
gene 4 3 19 -1.72182 0 47 -1.72182 1
gene 4 19 8 -0.664211 0 48 -0.664211 1
gene 4 6 14 1.78189 0 50 1.78189 1
gene 4 19 23 0.0758795 0 63 0.0758795 1
gene 4 23 8 -1.73016 0 64 -1.73016 1
gene 2 23 14 0.0123581 0 70 0.0123581 1
gene 4 23 27 1.01386 0 79 1.01386 1
gene 4 27 8 2.45836 0 80 2.45836 1
gene 7 1 19 2.57515 0 83 2.57515 1
gene 4 5 27 3.48556 0 92 3.48556 0
gene 2 2 19 -1.20295 0 108 -1.20295 1
gene 8 6 23 1.55624 0 115 1.55624 1
gene 4 2 23 0.964899 0 124 0.964899 0
gene 8 4 19 -1.1708 0 153 -1.1708 1
gene 4 5 47 -1.62245 0 181 -1.62245 1
gene 4 47 27 3.53187 0 182 3.53187 1
gene 7 27 14 -3.68311 0 193 -3.68311 1
gene 4 4 27 -6.20418 0 212 -6.20418 1
gene 1 2 27 2.26005 0 222 2.26005 1
gene 4 2 53 0.254974 0 226 0.254974 1
gene 4 53 23 0.730968 0 227 0.730968 0
gene 2 53 27 -5.37852 0 238 -5.37852 1
gene 4 5 64 1.38086 0 277 1.38086 1
gene 4 64 47 1.57352 0 278 1.57352 0
gene 7 19 47 -1.19781 0 338 -1.19781 1
gene 4 7 23 1.61062 0 366 1.61062 1
gene 4 3 89 -1.76189 0 375 -1.76189 1
gene 4 89 8 1.42604 0 376 1.42604 1
gene 6 53 64 -4.56859 0 399 -4.56859 1
gene 5 53 14 -2.25049 0 420 -2.25049 1
gene 4 53 102 -0.231847 0 425 -0.231847 1
gene 4 102 23 -1.99567 0 426 -1.99567 1
gene 4 64 109 -0.711703 0 449 -0.711703 1
gene 4 109 47 -1.88441 0 450 -1.88441 1
gene 4 6 102 1.16132 0 462 1.16132 1
gene 8 3 23 -1.06641 0 467 -1.06641 1
gene 7 53 109 -1.66518 0 485 -1.66518 1
gene 6 5 19 0.130628 0 496 0.130628 1
genomeend 13

/* Organism #14 Fitness: 0.0007 Error: 0 */
genomestart 14
trait 1 0.907236 0 0 0 0 0.503295 0.493374 0.977925 
trait 2 0.2 0 0 0 0 0 0 0 
trait 3 0.3 0 0 0 0 0 0 0 
trait 4 0 0 0 0 0 0 0 0 
trait 5 0.5 0 0 0 0 0 0 0 
trait 6 0.378347 0 0 0.742295 0 0.359265 0 0.227462 
trait 7 0.7 0 0 0 0 0 0 0 
trait 8 0.8 0 0 0 0 0 0 0 
node 1 3 1 3
node 2 5 1 1
node 3 4 1 1
node 4 6 1 1
node 5 3 1 1
node 6 3 1 1
node 7 8 1 1
node 8 1 0 2
node 14 1 0 0
node 19 1 0 0
node 23 2 0 0
node 27 3 0 0
node 47 1 0 0
node 53 1 0 0
node 64 1 0 0
node 89 1 0 0
node 102 1 0 0
node 109 1 0 0
gene 7 1 8 0.686966 0 1 0.686966 1
gene 6 2 8 0.858997 0 2 0.858997 1
gene 4 3 8 -0.530992 0 3 -0.530992 0
gene 5 4 8 -2.79788 0 4 -2.79788 1
gene 5 5 8 -1.62805 0 5 -1.62805 1
gene 3 6 8 4.41401 0 6 4.41401 1
gene 7 7 8 -4.38259 0 7 -4.38259 1
gene 5 5 14 -2.18092 0 18 -2.18092 1
gene 5 14 8 -1.37711 0 19 -1.37711 1
gene 5 1 14 -0.274111 0 22 -0.274111 1
gene 7 3 14 -2.92104 0 24 -2.92104 1
gene 4 4 14 -5.50302 0 39 -5.50302 1
gene 4 3 19 -3.2376 0 47 -3.2376 1
gene 4 19 8 -0.489848 0 48 -0.489848 1
gene 4 6 14 1.73061 0 50 1.73061 1
gene 4 19 23 -2.03737 0 63 -2.03737 1
gene 4 23 8 -3.67007 0 64 -3.67007 1
gene 2 23 14 -0.2161 0 70 -0.2161 1
gene 4 23 27 -0.639808 0 79 -0.639808 1
gene 4 27 8 0.478638 0 80 0.478638 1
gene 7 1 19 0.500841 0 83 0.500841 1
gene 4 5 27 4.628 0 92 4.628 0
gene 2 2 19 -0.600645 0 108 -0.600645 1
gene 8 6 23 3.36866 0 115 3.36866 1
gene 4 2 23 2.20277 0 124 2.20277 0
gene 8 4 19 -3.51455 0 153 -3.51455 1
gene 4 5 47 -3.1254 0 181 -3.1254 1
gene 4 47 27 1.94223 0 182 1.94223 1
gene 7 27 14 -4.57866 0 193 -4.57866 1
gene 4 4 27 -7.8031 0 212 -7.8031 1
gene 1 2 27 4.72769 0 222 4.72769 1
gene 4 2 53 -0.714742 0 226 -0.714742 1
gene 4 53 23 2.2622 0 227 2.2622 0
gene 2 53 27 -6.37857 0 238 -6.37857 1
gene 4 5 64 -0.611039 0 277 -0.611039 1
gene 4 64 47 3.19536 0 278 3.19536 0
gene 7 19 47 0.798546 0 338 0.798546 1
gene 4 7 23 0.558197 0 366 0.558197 1
gene 4 3 89 -3.91387 0 375 -3.91387 1
gene 4 89 8 2.2111 0 376 2.2111 1
gene 6 53 64 -6.88488 0 399 -6.88488 1
gene 5 53 14 -2.25049 0 420 -2.25049 1
gene 4 53 102 -0.231847 0 425 -0.231847 1
gene 4 102 23 -2.44773 0 426 -2.44773 1
gene 4 64 109 -2.78559 0 449 -2.78559 1
gene 4 109 47 -3.97568 0 450 -3.97568 1
gene 4 6 102 1.16132 0 462 1.16132 1
gene 8 3 23 -1.93368 0 467 -1.93368 1
gene 7 53 109 -3.25083 0 485 -3.25083 1
genomeend 14

/* Organism #15 Fitness: 0 Error: 0 */
genomestart 15
trait 1 0.1 0 0 0 0 0 0 0 
trait 2 0.2 0 0 0 0 0 0 0 
trait 3 0.3 0 0 0 0 0 0 0 
trait 4 0 0 0 0 0 0 0 0 
trait 5 0.5 0 0 0 0 0 0 0 
trait 6 0.378347 0 0 0.742295 0 0.359265 0 0.227462 
trait 7 0.7 0 0 0 0 0 0 0 
trait 8 0.8 0 0 0 0 0 0 0 
node 1 3 1 3
node 2 5 1 1
node 3 4 1 1
node 4 6 1 1
node 5 3 1 1
node 6 3 1 1
node 7 8 1 1
node 8 1 0 2
node 14 1 0 0
node 19 1 0 0
node 23 2 0 0
node 27 3 0 0
node 47 1 0 0
node 53 1 0 0
node 64 1 0 0
node 89 1 0 0
node 102 1 0 0
node 109 1 0 0
node 118 1 0 0
gene 7 1 8 1.33082 0 1 1.33082 1
gene 6 2 8 -0.179818 0 2 -0.179818 1
gene 4 3 8 -0.535623 0 3 -0.535623 0
gene 5 4 8 -1.78732 0 4 -1.78732 1
gene 5 5 8 0.205953 0 5 0.205953 1
gene 3 6 8 6.45706 0 6 6.45706 1
gene 7 7 8 -6.44126 0 7 -6.44126 1
gene 5 5 14 -4.56914 0 18 -4.56914 1
gene 5 14 8 -1.7033 0 19 -1.7033 1
gene 5 1 14 2.13555 0 22 2.13555 1
gene 7 3 14 -1.37369 0 24 -1.37369 1
gene 4 4 14 -5.86793 0 39 -5.86793 1
gene 4 3 19 -1.72182 0 47 -1.72182 1
gene 4 19 8 -0.664211 0 48 -0.664211 1
gene 4 6 14 1.78189 0 50 1.78189 1
gene 4 19 23 0.0758795 0 63 0.0758795 1
gene 4 23 8 -1.73016 0 64 -1.73016 1
gene 2 23 14 0.0123581 0 70 0.0123581 1
gene 4 23 27 1.01386 0 79 1.01386 1
gene 4 27 8 2.45836 0 80 2.45836 1
gene 7 1 19 2.57515 0 83 2.57515 1
gene 4 5 27 3.48556 0 92 3.48556 0
gene 2 2 19 -1.20295 0 108 -1.20295 1
gene 8 6 23 1.55624 0 115 1.55624 1
gene 4 2 23 0.964899 0 124 0.964899 0
gene 8 4 19 -1.1708 0 153 -1.1708 1
gene 4 5 47 -1.62245 0 181 -1.62245 1
gene 4 47 27 3.53187 0 182 3.53187 0
gene 7 27 14 -3.68311 0 193 -3.68311 1
gene 4 4 27 -6.20418 0 212 -6.20418 1
gene 1 2 27 2.26005 0 222 2.26005 1
gene 4 2 53 0.254974 0 226 0.254974 1
gene 4 53 23 0.730968 0 227 0.730968 0
gene 2 53 27 -5.37852 0 238 -5.37852 1
gene 4 5 64 1.38086 0 277 1.38086 1
gene 4 64 47 1.57352 0 278 1.57352 0
gene 7 19 47 -1.19781 0 338 -1.19781 1
gene 4 7 23 1.61062 0 366 1.61062 1
gene 4 3 89 -1.76189 0 375 -1.76189 1
gene 4 89 8 1.42604 0 376 1.42604 1
gene 6 53 64 -4.56859 0 399 -4.56859 1
gene 5 53 14 -2.25049 0 420 -2.25049 1
gene 4 53 102 -0.231847 0 425 -0.231847 1
gene 4 102 23 -1.99567 0 426 -1.99567 1
gene 4 64 109 -0.711703 0 449 -0.711703 1
gene 4 109 47 -1.88441 0 450 -1.88441 1
gene 4 6 102 1.16132 0 462 1.16132 1
gene 8 3 23 -1.06641 0 467 -1.06641 1
gene 7 53 109 -1.66518 0 485 -1.66518 1
gene 4 47 118 1 0 497 0 1
gene 4 118 27 3.53187 0 498 0 1
genomeend 15

/* Organism #16 Fitness: 0 Error: 0 */
genomestart 16
trait 1 0.1 0 0 0 0 0 0 0 
trait 2 0.2 0 0 0 0 0 0 0 
trait 3 0.3 0 0 0 0 0 0 0 
trait 4 0 0 0 0 0 0 0 0 
trait 5 0.5 0 0 0 0 0 0 0 
trait 6 0.378347 0 0 0.742295 0 0.359265 0 0.227462 
trait 7 0.7 0 0 0 0 0 0 0 
trait 8 0.8 0 0 0 0 0 0 0 
node 1 3 1 3
node 2 5 1 1
node 3 4 1 1
node 4 6 1 1
node 5 3 1 1
node 6 3 1 1
node 7 8 1 1
node 8 1 0 2
node 14 1 0 0
node 19 1 0 0
node 23 2 0 0
node 27 3 0 0
node 47 1 0 0
node 53 1 0 0
node 64 1 0 0
node 89 1 0 0
node 102 1 0 0
node 109 1 0 0
gene 7 1 8 1.33082 0 1 1.33082 1
gene 6 2 8 -0.179818 0 2 -0.179818 1
gene 4 3 8 -0.535623 0 3 -0.535623 0
gene 5 4 8 -1.78732 0 4 -1.78732 1
gene 5 5 8 0.205953 0 5 0.205953 1
gene 3 6 8 6.45706 0 6 6.45706 1
gene 7 7 8 -6.44126 0 7 -6.44126 1
gene 5 5 14 -4.56914 0 18 -4.56914 1
gene 5 14 8 -1.7033 0 19 -1.7033 1
gene 5 1 14 2.13555 0 22 2.13555 1
gene 7 3 14 -1.37369 0 24 -1.37369 1
gene 4 4 14 -5.86793 0 39 -5.86793 1
gene 4 3 19 -1.72182 0 47 -1.72182 1
gene 4 19 8 -0.664211 0 48 -0.664211 1
gene 4 6 14 1.78189 0 50 1.78189 1
gene 4 19 23 0.0758795 0 63 0.0758795 1
gene 4 23 8 -1.73016 0 64 -1.73016 1
gene 2 23 14 0.0123581 0 70 0.0123581 1
gene 4 23 27 1.01386 0 79 1.01386 1
gene 4 27 8 2.45836 0 80 2.45836 1
gene 7 1 19 2.57515 0 83 2.57515 1
gene 4 5 27 3.48556 0 92 3.48556 0
gene 2 2 19 -1.20295 0 108 -1.20295 1
gene 8 6 23 1.55624 0 115 1.55624 1
gene 4 2 23 0.964899 0 124 0.964899 0
gene 8 4 19 -1.1708 0 153 -1.1708 1
gene 4 5 47 -1.62245 0 181 -1.62245 1
gene 4 47 27 3.53187 0 182 3.53187 1
gene 7 27 14 -3.68311 0 193 -3.68311 1
gene 4 4 27 -6.20418 0 212 -6.20418 1
gene 1 2 27 2.26005 0 222 2.26005 1
gene 4 2 53 0.254974 0 226 0.254974 1
gene 4 53 23 0.730968 0 227 0.730968 0
gene 2 53 27 -5.37852 0 238 -5.37852 1
gene 4 5 64 1.38086 0 277 1.38086 1
gene 4 64 47 1.57352 0 278 1.57352 0
gene 7 19 47 -1.19781 0 338 -1.19781 1
gene 4 7 23 1.61062 0 366 1.61062 1
gene 4 3 89 -1.76189 0 375 -1.76189 1
gene 4 89 8 1.42604 0 376 1.42604 1
gene 6 53 64 -4.56859 0 399 -4.56859 1
gene 5 53 14 -2.25049 0 420 -2.25049 1
gene 4 53 102 -0.231847 0 425 -0.231847 1
gene 4 102 23 -1.99567 0 426 -1.99567 1
gene 4 64 109 -0.711703 0 449 -0.711703 1
gene 4 109 47 -1.88441 0 450 -1.88441 1
gene 4 6 102 1.16132 0 462 1.16132 1
gene 8 3 23 -1.06641 0 467 -1.06641 1
gene 7 53 109 -1.66518 0 485 -1.66518 1
gene 2 109 23 0.96121 0 499 0.96121 1
genomeend 16

/* Organism #17 Fitness: 0.0001 Error: 0 */
genomestart 17
trait 1 0.1 0 0 0 0 0 0 0 
trait 2 0.2 0 0 0 0 0 0 0 
trait 3 0.3 0 0 0 0 0 0 0 
trait 4 0 0 0 0 0 0 0 0 
trait 5 0.5 0 0 0 0 0 0 0 
trait 6 0.378347 0 0 0.742295 0 0.359265 0 0.227462 
trait 7 0.7 0 0 0 0 0 0 0 
trait 8 0.8 0 0 0 0 0 0 0 
node 1 3 1 3
node 2 5 1 1
node 3 4 1 1
node 4 6 1 1
node 5 3 1 1
node 6 3 1 1
node 7 8 1 1
node 8 1 0 2
node 14 1 0 0
node 19 1 0 0
node 23 2 0 0
node 27 3 0 0
node 47 1 0 0
node 53 1 0 0
node 64 1 0 0
node 89 1 0 0
node 102 1 0 0
node 109 1 0 0
gene 7 1 8 1.33082 0 1 1.33082 1
gene 6 2 8 -0.179818 0 2 -0.179818 1
gene 4 3 8 -0.535623 0 3 -0.535623 0
gene 5 4 8 -1.78732 0 4 -1.78732 1
gene 5 5 8 0.205953 0 5 0.205953 1
gene 3 6 8 6.45706 0 6 6.45706 1
gene 7 7 8 -6.44126 0 7 -6.44126 1
gene 5 5 14 -4.56914 0 18 -4.56914 1
gene 5 14 8 -1.7033 0 19 -1.7033 1
gene 5 1 14 2.13555 0 22 2.13555 1
gene 7 3 14 -1.37369 0 24 -1.37369 1
gene 4 4 14 -5.86793 0 39 -5.86793 1
gene 4 3 19 -1.72182 0 47 -1.72182 1
gene 4 19 8 -0.664211 0 48 -0.664211 1
gene 4 6 14 1.78189 0 50 1.78189 1
gene 4 19 23 0.0758795 0 63 0.0758795 1
gene 4 23 8 -1.73016 0 64 -1.73016 1
gene 2 23 14 0.0123581 0 70 0.0123581 1
gene 4 23 27 1.01386 0 79 1.01386 1
gene 4 27 8 2.45836 0 80 2.45836 1
gene 7 1 19 2.57515 0 83 2.57515 1
gene 4 5 27 3.48556 0 92 3.48556 0
gene 2 2 19 -1.20295 0 108 -1.20295 1
gene 8 6 23 1.55624 0 115 1.55624 1
gene 4 2 23 0.964899 0 124 0.964899 0
gene 8 4 19 -1.1708 0 153 -1.1708 1
gene 4 5 47 -1.62245 0 181 -1.62245 1
gene 4 47 27 3.53187 0 182 3.53187 1
gene 7 27 14 -3.68311 0 193 -3.68311 1
gene 4 4 27 -6.20418 0 212 -6.20418 1
gene 1 2 27 2.26005 0 222 2.26005 1
gene 4 2 53 0.254974 0 226 0.254974 1
gene 4 53 23 0.730968 0 227 0.730968 0
gene 2 53 27 -5.37852 0 238 -5.37852 1
gene 4 5 64 1.38086 0 277 1.38086 1
gene 4 64 47 1.57352 0 278 1.57352 0
gene 7 19 47 -1.19781 0 338 -1.19781 1
gene 4 7 23 1.61062 0 366 1.61062 1
gene 4 3 89 -1.76189 0 375 -1.76189 1
gene 4 89 8 1.42604 0 376 1.42604 1
gene 6 53 64 -4.56859 0 399 -4.56859 1
gene 5 53 14 -2.25049 0 420 -2.25049 1
gene 4 53 102 -0.231847 0 425 -0.231847 1
gene 4 102 23 -1.99567 0 426 -1.99567 1
gene 4 64 109 -0.711703 0 449 -0.711703 1
gene 4 109 47 -1.88441 0 450 -1.88441 1
gene 4 6 102 1.16132 0 462 1.16132 1
gene 8 3 23 -1.06641 0 467 -1.06641 1
gene 7 53 109 -1.66518 0 485 -1.66518 1
gene 8 102 14 0.445612 0 500 0.445612 1
genomeend 17

/* Organism #18 Fitness: 0.0001 Error: 0 */
genomestart 18
trait 1 0.1 0 0 0 0 0 0 0 
trait 2 0.2 0 0 0 0 0 0 0 
trait 3 0.3 0 0 0 0 0 0 0 
trait 4 0 0 0 0 0 0 0 0 
trait 5 0.5 0 0 0 0 0 0 0 
trait 6 0.378347 0 0 0.742295 0 0.359265 0 0.227462 
trait 7 0.7 0 0 0 0 0 0 0 
trait 8 0.8 0 0 0 0 0 0 0 
node 1 3 1 3
node 2 5 1 1
node 3 4 1 1
node 4 6 1 1
node 5 3 1 1
node 6 3 1 1
node 7 8 1 1
node 8 1 0 2
node 14 1 0 0
node 19 1 0 0
node 23 2 0 0
node 27 3 0 0
node 47 1 0 0
node 53 1 0 0
node 64 1 0 0
node 89 1 0 0
node 102 1 0 0
node 109 1 0 0
node 119 1 0 0
gene 7 1 8 1.33082 0 1 1.33082 1
gene 6 2 8 -0.179818 0 2 -0.179818 1
gene 4 3 8 -0.535623 0 3 -0.535623 0
gene 5 4 8 -1.78732 0 4 -1.78732 1
gene 5 5 8 0.205953 0 5 0.205953 1
gene 3 6 8 6.45706 0 6 6.45706 1
gene 7 7 8 -6.44126 0 7 -6.44126 1
gene 5 5 14 -4.56914 0 18 -4.56914 1
gene 5 14 8 -1.7033 0 19 -1.7033 1
gene 5 1 14 2.13555 0 22 2.13555 1
gene 7 3 14 -1.37369 0 24 -1.37369 1
gene 4 4 14 -5.86793 0 39 -5.86793 0
gene 4 3 19 -1.72182 0 47 -1.72182 1
gene 4 19 8 -0.664211 0 48 -0.664211 1
gene 4 6 14 1.78189 0 50 1.78189 1
gene 4 19 23 0.0758795 0 63 0.0758795 1
gene 4 23 8 -1.73016 0 64 -1.73016 1
gene 2 23 14 0.0123581 0 70 0.0123581 1
gene 4 23 27 1.01386 0 79 1.01386 1
gene 4 27 8 2.45836 0 80 2.45836 1
gene 7 1 19 2.57515 0 83 2.57515 1
gene 4 5 27 3.48556 0 92 3.48556 0
gene 2 2 19 -1.20295 0 108 -1.20295 1
gene 8 6 23 1.55624 0 115 1.55624 1
gene 4 2 23 0.964899 0 124 0.964899 0
gene 8 4 19 -1.1708 0 153 -1.1708 1
gene 4 5 47 -1.62245 0 181 -1.62245 1
gene 4 47 27 3.53187 0 182 3.53187 1
gene 7 27 14 -3.68311 0 193 -3.68311 1
gene 4 4 27 -6.20418 0 212 -6.20418 1
gene 1 2 27 2.26005 0 222 2.26005 1
gene 4 2 53 0.254974 0 226 0.254974 1
gene 4 53 23 0.730968 0 227 0.730968 0
gene 2 53 27 -5.37852 0 238 -5.37852 1
gene 4 5 64 1.38086 0 277 1.38086 1
gene 4 64 47 1.57352 0 278 1.57352 0
gene 7 19 47 -1.19781 0 338 -1.19781 1
gene 4 7 23 1.61062 0 366 1.61062 1
gene 4 3 89 -1.76189 0 375 -1.76189 1
gene 4 89 8 1.42604 0 376 1.42604 1
gene 6 53 64 -4.56859 0 399 -4.56859 1
gene 5 53 14 -2.25049 0 420 -2.25049 1
gene 4 53 102 -0.231847 0 425 -0.231847 1
gene 4 102 23 -1.99567 0 426 -1.99567 1
gene 4 64 109 -0.711703 0 449 -0.711703 1
gene 4 109 47 -1.88441 0 450 -1.88441 1
gene 4 6 102 1.16132 0 462 1.16132 1
gene 8 3 23 -1.06641 0 467 -1.06641 1
gene 7 53 109 -1.66518 0 485 -1.66518 1
gene 4 4 119 1 0 501 0 1
gene 4 119 14 -5.86793 0 502 0 1
genomeend 18

/* Organism #19 Fitness: 0.0001 Error: 0 */
genomestart 19
trait 1 0.1 0 0 0 0 0 0 0 
trait 2 0.2 0 0 0 0 0 0 0 
trait 3 0.3 0 0 0 0 0 0 0 
trait 4 0 0 0 0 0 0 0 0 
trait 5 0.5 0 0 0 0 0 0 0 
trait 6 0.378347 0 0 0.742295 0 0.359265 0 0.227462 
trait 7 0.7 0 0 0 0 0 0 0 
trait 8 0.8 0 0 0 0 0 0 0 
node 1 3 1 3
node 2 5 1 1
node 3 4 1 1
node 4 6 1 1
node 5 3 1 1
node 6 3 1 1
node 7 8 1 1
node 8 1 0 2
node 14 1 0 0
node 19 1 0 0
node 23 2 0 0
node 27 3 0 0
node 47 1 0 0
node 53 1 0 0
node 64 1 0 0
node 89 1 0 0
node 102 1 0 0
node 109 1 0 0
gene 7 1 8 2.72391 0 1 2.72391 1
gene 6 2 8 0.456386 0 2 0.456386 1
gene 4 3 8 -3.01537 0 3 -3.01537 0
gene 5 4 8 -1.45201 0 4 -1.45201 1
gene 5 5 8 1.3013 0 5 1.3013 1
gene 3 6 8 5.73394 0 6 5.73394 1
gene 7 7 8 -7.52889 0 7 -7.52889 1
gene 5 5 14 -4.26377 0 18 -4.26377 1
gene 5 14 8 -2.45117 0 19 -2.45117 1
gene 5 1 14 1.85053 0 22 1.85053 1
gene 7 3 14 0.940363 0 24 0.940363 1
gene 4 4 14 -5.33144 0 39 -5.33144 1
gene 4 3 19 -3.65805 0 47 -3.65805 1
gene 4 19 8 -2.8719 0 48 -2.8719 1
gene 4 6 14 3.67383 0 50 3.67383 1
gene 4 19 23 0.908561 0 63 0.908561 1
gene 4 23 8 -0.454294 0 64 -0.454294 1
gene 2 23 14 1.24536 0 70 1.24536 1
gene 4 23 27 -0.927986 0 79 -0.927986 1
gene 4 27 8 1.16655 0 80 1.16655 1
gene 7 1 19 3.55312 0 83 3.55312 1
gene 4 5 27 2.98982 0 92 2.98982 0
gene 2 2 19 -1.1707 0 108 -1.1707 1
gene 8 6 23 1.7727 0 115 1.7727 1
gene 4 2 23 3.3934 0 124 3.3934 0
gene 8 4 19 -2.16683 0 153 -2.16683 1
gene 4 5 47 -2.21243 0 181 -2.21243 1
gene 4 47 27 4.73194 0 182 4.73194 1
gene 7 27 14 -3.63579 0 193 -3.63579 1
gene 4 4 27 -8 0 212 -8 1
gene 1 2 27 2.84492 0 222 2.84492 1
gene 4 2 53 -0.74152 0 226 -0.74152 1
gene 4 53 23 1.655 0 227 1.655 0
gene 2 53 27 -5.15278 0 238 -5.15278 1
gene 4 5 64 1.58085 0 277 1.58085 1
gene 4 64 47 -0.726969 0 278 -0.726969 0
gene 7 19 47 -2.50235 0 338 -2.50235 1
gene 4 7 23 0.824087 0 366 0.824087 1
gene 4 3 89 -2.59925 0 375 -2.59925 1
gene 4 89 8 -0.335766 0 376 -0.335766 1
gene 6 53 64 -4.75443 0 399 -4.75443 1
gene 5 53 14 -2.25049 0 420 -2.25049 1
gene 4 53 102 1.96384 0 425 1.96384 1
gene 4 102 23 2.23797 0 426 2.23797 1
gene 4 64 109 1.32676 0 449 1.32676 1
gene 4 109 47 -1.88441 0 450 -1.88441 1
gene 4 6 102 -2.27716 0 462 -2.27716 1
gene 8 3 23 -0.467622 0 467 -0.467622 1
gene 7 53 109 -1.66518 0 485 -1.66518 1
genomeend 19
