
/* Species #41 : (Size 3) (AF 46.6668) (Age 5)  */


/* Organism #0 Fitness: 37 Error: 0 */
genomestart 0
trait 1 0.1 0 0 0 0 0 0 0 
trait 2 0.2 0 0 0 0 0 0 0 
trait 3 0.3 0 0 0 0 0 0 0 
trait 4 0 0 0 0 0 0 0 0 
trait 5 0.5 0 0 0 0 0 0 0 
trait 6 0.378347 0 0 0.742295 0 0.359265 0 0.227462 
trait 7 0.7 0 0 0 0 0 0 0 
trait 8 0.8 0 0 0 0 0 0 0 
node 1 3 1 3
node 2 5 1 1
node 3 4 1 1
node 4 6 1 1
node 5 3 1 1
node 6 3 1 1
node 7 8 1 1
node 8 1 0 2
node 14 1 0 0
node 19 1 0 0
node 23 2 0 0
node 27 3 0 0
node 47 1 0 0
node 53 1 0 0
node 64 1 0 0
node 89 1 0 0
node 98 1 0 0
gene 7 1 8 -2.18419 0 1 -2.18419 1
gene 6 2 8 -3.38817 0 2 -3.38817 1
gene 4 3 8 2.0494 0 3 2.0494 0
gene 5 4 8 -1.69014 0 4 -1.69014 1
gene 5 5 8 0.676416 0 5 0.676416 1
gene 3 6 8 -1.78551 0 6 -1.78551 1
gene 7 7 8 -8 0 7 -8 1
gene 5 5 14 0.091131 0 18 0.091131 1
gene 5 14 8 0.54335 0 19 0.54335 1
gene 5 1 14 -2.9601 0 22 -2.9601 1
gene 7 3 14 3.37648 0 24 3.37648 1
gene 4 4 14 -8 0 39 -8 1
gene 4 3 19 -4.17691 0 47 -4.17691 1
gene 4 19 8 8 0 48 8 1
gene 4 6 14 2.0934 0 50 2.0934 1
gene 4 19 23 -0.144757 0 63 -0.144757 1
gene 4 23 8 -0.290273 0 64 -0.290273 1
gene 2 23 14 -0.320365 0 70 -0.320365 1
gene 4 23 27 3.76367 0 79 3.76367 1
gene 4 27 8 0.900306 0 80 0.900306 1
gene 7 1 19 3.19584 0 83 3.19584 1
gene 4 5 27 1.07366 0 92 1.07366 0
gene 2 2 19 -0.376772 0 108 -0.376772 1
gene 8 6 23 1.9664 0 115 1.9664 1
gene 4 2 23 -1.2776 0 124 -1.2776 0
gene 8 4 19 3.8667 0 153 3.8667 1
gene 4 5 47 -1.53276 0 181 -1.53276 0
gene 4 47 27 -2.63512 0 182 -2.63512 1
gene 7 27 14 -4.11082 0 193 -4.11082 1
gene 4 4 27 -1.90372 0 212 -1.90372 1
gene 1 2 27 2.92411 0 222 2.92411 1
gene 4 2 53 -3.81638 0 226 -3.81638 1
gene 4 53 23 5.37511 0 227 5.37511 1
gene 2 53 27 -2.75317 0 238 -2.75317 1
gene 4 5 64 -2.06141 0 277 -2.06141 1
gene 4 64 47 -0.158729 0 278 -0.158729 1
gene 7 19 47 -1.24527 0 338 -1.24527 1
gene 4 7 23 -1.24324 0 366 -1.24324 1
gene 4 3 89 1.72659 0 375 1.72659 1
gene 4 89 8 -0.0928352 0 376 -0.0928352 1
gene 6 53 64 0.583297 0 399 0.583297 1
gene 5 14 98 2.72685 0 411 2.72685 1
gene 5 98 8 -0.266293 0 412 -0.266293 1
gene 3 23 89 -0.838225 0 434 -0.838225 1
genomeend 0

/* Organism #1 Fitness: 0.0003 Error: 0 */
genomestart 1
trait 1 0.1 0 0 0 0 0 0 0 
trait 2 0.2 0 0 0 0 0 0 0 
trait 3 0.3 0 0 0 0 0 0 0 
trait 4 0 0 0 0 0 0 0 0 
trait 5 0.5 0 0 0 0 0 0 0 
trait 6 0.378347 0 0 0.742295 0 0.359265 0 0.227462 
trait 7 0.7 0 0 0 0 0 0 0 
trait 8 0.8 0 0 0 0 0 0 0 
node 1 3 1 3
node 2 5 1 1
node 3 4 1 1
node 4 6 1 1
node 5 3 1 1
node 6 3 1 1
node 7 8 1 1
node 8 1 0 2
node 14 1 0 0
node 19 1 0 0
node 23 2 0 0
node 27 3 0 0
node 47 1 0 0
node 53 1 0 0
node 64 1 0 0
node 89 1 0 0
node 98 1 0 0
gene 7 1 8 -0.182203 0 1 -0.182203 1
gene 6 2 8 2.68111 0 2 2.68111 1
gene 4 3 8 3.43077 0 3 3.43077 0
gene 5 4 8 0.424817 0 4 0.424817 1
gene 5 5 8 1.57719 0 5 1.57719 1
gene 3 6 8 -1.05649 0 6 -1.05649 1
gene 7 7 8 1.06131 0 7 1.06131 1
gene 5 5 14 2.5738 0 18 2.5738 1
gene 5 14 8 -3.12735 0 19 -3.12735 0
gene 5 1 14 -3.8195 0 22 -3.8195 1
gene 7 3 14 3.73284 0 24 3.73284 1
gene 4 4 14 -8 0 39 -8 1
gene 4 3 19 -2.34711 0 47 -2.34711 1
gene 4 19 8 7.31314 0 48 7.31314 1
gene 4 6 14 -0.273708 0 50 -0.273708 1
gene 4 19 23 0.910445 0 63 0.910445 1
gene 4 23 8 0.605724 0 64 0.605724 1
gene 2 23 14 0.621976 0 70 0.621976 1
gene 4 23 27 0.499847 0 79 0.499847 1
gene 4 27 8 -0.0956126 0 80 -0.0956126 1
gene 7 1 19 2.66958 0 83 2.66958 1
gene 4 5 27 -0.371394 0 92 -0.371394 0
gene 2 2 19 2.25663 0 108 2.25663 1
gene 8 6 23 4.72747 0 115 4.72747 1
gene 4 2 23 2.79126 0 124 2.79126 0
gene 8 4 19 4.37305 0 153 4.37305 1
gene 4 5 47 -1.65163 0 181 -1.65163 0
gene 4 47 27 -1.66268 0 182 -1.66268 1
gene 7 27 14 -5.83877 0 193 -5.83877 1
gene 4 4 27 -0.257814 0 212 -0.257814 1
gene 1 2 27 0.704227 0 222 0.704227 1
gene 4 2 53 -4.17539 0 226 -4.17539 1
gene 4 53 23 3.73204 0 227 3.73204 1
gene 2 53 27 -2.10113 0 238 -2.10113 1
gene 4 5 64 -5.39397 0 277 -5.39397 1
gene 4 64 47 -2.03332 0 278 -2.03332 1
gene 7 19 47 0.293511 0 338 0.293511 1
gene 4 7 23 0.330316 0 366 0.330316 1
gene 4 3 89 -3.22028 0 375 -3.22028 1
gene 4 89 8 3.36725 0 376 3.36725 1
gene 6 53 64 -1.95087 0 399 -1.95087 1
gene 5 14 98 1.18728 0 411 1.18728 1
gene 5 98 8 -1.36111 0 412 -1.36111 1
genomeend 1

/* Organism #2 Fitness: 103 Error: 0 */
/* ##------$ WINNER 2 SPECIES #41 $------## */
genomestart 2
trait 1 0.1 0 0 0 0 0 0 0 
trait 2 0.2 0 0 0 0 0 0 0 
trait 3 0.3 0 0 0 0 0 0 0 
trait 4 0 0 0 0 0 0 0 0 
trait 5 0.5 0 0 0 0 0 0 0 
trait 6 0.378347 0 0 0.742295 0 0.359265 0 0.227462 
trait 7 0.7 0 0 0 0 0 0 0 
trait 8 0.8 0 0 0 0 0 0 0 
node 1 3 1 3
node 2 5 1 1
node 3 4 1 1
node 4 6 1 1
node 5 3 1 1
node 6 3 1 1
node 7 8 1 1
node 8 1 0 2
node 14 1 0 0
node 19 1 0 0
node 23 2 0 0
node 27 3 0 0
node 47 1 0 0
node 53 1 0 0
node 64 1 0 0
node 89 1 0 0
node 98 1 0 0
gene 7 1 8 -1.21584 0 1 -1.21584 1
gene 6 2 8 -2.29015 0 2 -2.29015 1
gene 4 3 8 -0.356451 0 3 -0.356451 0
gene 5 4 8 0.739698 0 4 0.739698 1
gene 5 5 8 0.36187 0 5 0.36187 1
gene 3 6 8 -1.89784 0 6 -1.89784 1
gene 7 7 8 -8 0 7 -8 1
gene 5 5 14 2.08747 0 18 2.08747 1
gene 5 14 8 -1.3797 0 19 -1.3797 0
gene 5 1 14 -0.503059 0 22 -0.503059 1
gene 7 3 14 4.19571 0 24 4.19571 1
gene 4 4 14 -8 0 39 -8 1
gene 4 3 19 -3.25294 0 47 -3.25294 1
gene 4 19 8 8 0 48 8 1
gene 4 6 14 -0.0537416 0 50 -0.0537416 1
gene 4 19 23 -1.53019 0 63 -1.53019 1
gene 4 23 8 -1.64257 0 64 -1.64257 1
gene 2 23 14 -2.68931 0 70 -2.68931 1
gene 4 23 27 3.21145 0 79 3.21145 1
gene 4 27 8 2.3454 0 80 2.3454 1
gene 7 1 19 4.16125 0 83 4.16125 1
gene 4 5 27 0.511554 0 92 0.511554 0
gene 2 2 19 2.01058 0 108 2.01058 1
gene 8 6 23 2.91727 0 115 2.91727 1
gene 4 2 23 -2.02641 0 124 -2.02641 0
gene 8 4 19 3.21308 0 153 3.21308 1
gene 4 5 47 0.473014 0 181 0.473014 0
gene 4 47 27 -1.02785 0 182 -1.02785 1
gene 7 27 14 -3.16192 0 193 -3.16192 1
gene 4 4 27 -1.20372 0 212 -1.20372 1
gene 1 2 27 1.34445 0 222 1.34445 1
gene 4 2 53 -3.85021 0 226 -3.85021 1
gene 4 53 23 3.02292 0 227 3.02292 1
gene 2 53 27 -2.02224 0 238 -2.02224 1
gene 4 5 64 -2.51085 0 277 -2.51085 1
gene 4 64 47 0.137645 0 278 0.137645 1
gene 7 19 47 1.77311 0 338 1.77311 1
gene 4 7 23 -0.986965 0 366 -0.986965 1
gene 4 3 89 1.72659 0 375 1.72659 1
gene 4 89 8 0.456636 0 376 0.456636 1
gene 6 53 64 -2.82827 0 399 -2.82827 1
gene 5 14 98 2.72685 0 411 2.72685 1
gene 5 98 8 1.83426 0 412 1.83426 1
gene 3 23 89 -0.838225 0 434 -0.838225 1
gene 6 5 53 -0.751523 0 442 -0.751523 1
genomeend 2

/* Species #42 : (Size 15) (AF 33.2001) (Age 4)  */


/* Organism #3 Fitness: 0 Error: 0 */
genomestart 3
trait 1 0.1 0 0 0 0 0 0 0 
trait 2 0.2 0 0 0 0 0 0 0 
trait 3 0.3 0 0 0 0 0 0 0 
trait 4 0 0 0 0 0 0 0 0 
trait 5 0.5 0 0 0 0 0 0 0 
trait 6 0.378347 0 0 0.742295 0 0.359265 0 0.227462 
trait 7 0.7 0 0 0 0 0 0 0 
trait 8 0.8 0 0 0 0 0 0 0 
node 1 3 1 3
node 2 5 1 1
node 3 4 1 1
node 4 6 1 1
node 5 3 1 1
node 6 3 1 1
node 7 8 1 1
node 8 1 0 2
node 14 1 0 0
node 19 1 0 0
node 23 2 0 0
node 27 3 0 0
node 47 1 0 0
node 53 1 0 0
node 64 1 0 0
node 89 1 0 0
node 102 1 0 0
gene 7 1 8 -0.577295 0 1 -0.577295 1
gene 6 2 8 -0.300609 0 2 -0.300609 1
gene 4 3 8 0.654007 0 3 0.654007 0
gene 5 4 8 1.34993 0 4 1.34993 1
gene 5 5 8 -0.012774 0 5 -0.012774 1
gene 3 6 8 7.58711 0 6 7.58711 1
gene 7 7 8 -7.6523 0 7 -7.6523 1
gene 5 5 14 -2.14191 0 18 -2.14191 1
gene 5 14 8 -2.50585 0 19 -2.50585 1
gene 5 1 14 0.409011 0 22 0.409011 1
gene 7 3 14 0.802668 0 24 0.802668 1
gene 4 4 14 -5.86793 0 39 -5.86793 1
gene 4 3 19 -0.743367 0 47 -0.743367 1
gene 4 19 8 5.58561 0 48 5.58561 1
gene 4 6 14 0.602727 0 50 0.602727 1
gene 4 19 23 0.347149 0 63 0.347149 1
gene 4 23 8 -0.47839 0 64 -0.47839 1
gene 2 23 14 -0.377991 0 70 -0.377991 1
gene 4 23 27 0.965403 0 79 0.965403 1
gene 4 27 8 2.50907 0 80 2.50907 1
gene 7 1 19 0.783816 0 83 0.783816 1
gene 4 5 27 3.48556 0 92 3.48556 0
gene 2 2 19 -2.35738 0 108 -2.35738 1
gene 8 6 23 -0.42294 0 115 -0.42294 1
gene 4 2 23 -3.4895 0 124 -3.4895 0
gene 8 4 19 1.96411 0 153 1.96411 1
gene 4 5 47 -2.74335 0 181 -2.74335 1
gene 4 47 27 3.16087 0 182 3.16087 1
gene 7 27 14 -3.68311 0 193 -3.68311 1
gene 4 4 27 -6.20418 0 212 -6.20418 1
gene 1 2 27 1.34973 0 222 1.34973 1
gene 4 2 53 -0.506544 0 226 -0.506544 1
gene 4 53 23 -1.03531 0 227 -1.03531 0
gene 2 53 27 -7.38683 0 238 -7.38683 1
gene 4 5 64 2.21933 0 277 2.21933 1
gene 4 64 47 0.00617992 0 278 0.00617992 1
gene 7 19 47 -0.613823 0 338 -0.613823 1
gene 4 7 23 0.127317 0 366 0.127317 1
gene 4 3 89 -1.76189 0 375 -1.76189 1
gene 4 89 8 1.93035 0 376 1.93035 1
gene 6 53 64 -3.98992 0 399 -3.98992 1
gene 5 53 14 -2.65664 0 420 -2.65664 1
gene 4 53 102 1.33149 0 425 1.33149 1
gene 4 102 23 7.08948 0 426 7.08948 1
genomeend 3

/* Organism #4 Fitness: 0.0007 Error: 0 */
genomestart 4
trait 1 0.1 0 0 0 0 0 0 0 
trait 2 0.2 0 0 0 0 0 0 0 
trait 3 0.3 0 0 0 0 0 0 0 
trait 4 0 0 0 0 0 0 0 0 
trait 5 0.5 0 0 0 0 0 0 0 
trait 6 0.378347 0 0 0.742295 0 0.359265 0 0.227462 
trait 7 0.7 0 0 0 0 0 0 0 
trait 8 0.8 0 0 0 0 0 0 0 
node 1 3 1 3
node 2 5 1 1
node 3 4 1 1
node 4 6 1 1
node 5 3 1 1
node 6 3 1 1
node 7 8 1 1
node 8 1 0 2
node 14 1 0 0
node 19 1 0 0
node 23 2 0 0
node 27 3 0 0
node 47 1 0 0
node 53 1 0 0
node 64 1 0 0
node 89 1 0 0
node 102 1 0 0
gene 7 1 8 -2.02111 0 1 -2.02111 1
gene 6 2 8 0.214865 0 2 0.214865 1
gene 4 3 8 0.513009 0 3 0.513009 0
gene 5 4 8 1.62971 0 4 1.62971 1
gene 5 5 8 1.28583 0 5 1.28583 1
gene 3 6 8 5.92144 0 6 5.92144 1
gene 7 7 8 -8 0 7 -8 1
gene 5 5 14 -4.03554 0 18 -4.03554 1
gene 5 14 8 -1.88411 0 19 -1.88411 1
gene 5 1 14 2.04452 0 22 2.04452 1
gene 7 3 14 3.20051 0 24 3.20051 1
gene 4 4 14 -4.3637 0 39 -4.3637 1
gene 4 3 19 0.123886 0 47 0.123886 1
gene 4 19 8 7.43363 0 48 7.43363 1
gene 4 6 14 2.10804 0 50 2.10804 1
gene 4 19 23 0.118261 0 63 0.118261 1
gene 4 23 8 0.0402253 0 64 0.0402253 1
gene 2 23 14 -0.960906 0 70 -0.960906 1
gene 4 23 27 -1.37371 0 79 -1.37371 1
gene 4 27 8 3.93023 0 80 3.93023 1
gene 7 1 19 1.93133 0 83 1.93133 1
gene 4 5 27 2.37334 0 92 2.37334 0
gene 2 2 19 -1.28143 0 108 -1.28143 1
gene 8 6 23 -1.32255 0 115 -1.32255 1
gene 4 2 23 -5.72037 0 124 -5.72037 0
gene 8 4 19 1.02273 0 153 1.02273 1
gene 4 5 47 -1.00898 0 181 -1.00898 1
gene 4 47 27 3.78788 0 182 3.78788 1
gene 7 27 14 -5.89376 0 193 -5.89376 1
gene 4 4 27 -5.3846 0 212 -5.3846 1
gene 1 2 27 2.53807 0 222 2.53807 1
gene 4 2 53 -2.71626 0 226 -2.71626 1
gene 4 53 23 -3.03443 0 227 -3.03443 0
gene 2 53 27 -8 0 238 -8 1
gene 4 5 64 0.217544 0 277 0.217544 1
gene 4 64 47 -2.10864 0 278 -2.10864 1
gene 7 19 47 -0.613823 0 338 -0.613823 1
gene 4 7 23 -0.148337 0 366 -0.148337 1
gene 4 3 89 -1.76189 0 375 -1.76189 1
gene 4 89 8 0.545619 0 376 0.545619 1
gene 6 53 64 -3.73458 0 399 -3.73458 1
gene 5 53 14 -2.19592 0 420 -2.19592 1
gene 4 53 102 -0.618784 0 425 -0.618784 1
gene 4 102 23 7.08948 0 426 7.08948 1
genomeend 4

/* Organism #5 Fitness: 40 Error: 0 */
/* ##------$ WINNER 5 SPECIES #42 $------## */
genomestart 5
trait 1 0.1 0 0 0 0 0 0 0 
trait 2 0.2 0 0 0 0 0 0 0 
trait 3 0.3 0 0 0 0 0 0 0 
trait 4 0 0 0 0 0 0 0 0 
trait 5 0.5 0 0 0 0 0 0 0 
trait 6 0.378347 0 0 0.742295 0 0.359265 0 0.227462 
trait 7 0.7 0 0 0 0 0 0 0 
trait 8 0.8 0 0 0 0 0 0 0 
node 1 3 1 3
node 2 5 1 1
node 3 4 1 1
node 4 6 1 1
node 5 3 1 1
node 6 3 1 1
node 7 8 1 1
node 8 1 0 2
node 14 1 0 0
node 19 1 0 0
node 23 2 0 0
node 27 3 0 0
node 47 1 0 0
node 53 1 0 0
node 64 1 0 0
node 89 1 0 0
node 102 1 0 0
node 107 1 0 0
gene 7 1 8 -0.652659 0 1 -0.652659 1
gene 6 2 8 -0.725038 0 2 -0.725038 1
gene 4 3 8 0.930797 0 3 0.930797 1
gene 5 4 8 0.557893 0 4 0.557893 1
gene 5 5 8 -3.06481 0 5 -3.06481 1
gene 3 6 8 6.40518 0 6 6.40518 1
gene 7 7 8 -6.80831 0 7 -6.80831 1
gene 5 5 14 -0.728566 0 18 -0.728566 1
gene 5 14 8 -2.01125 0 19 -2.01125 1
gene 5 1 14 -0.232533 0 22 -0.232533 1
gene 7 3 14 3.15366 0 24 3.15366 1
gene 4 4 14 -5.18074 0 39 -5.18074 1
gene 4 3 19 0.315596 0 47 0.315596 1
gene 4 19 8 5.06835 0 48 5.06835 1
gene 4 6 14 0.249435 0 50 0.249435 1
gene 4 19 23 -0.125892 0 63 -0.125892 1
gene 4 23 8 -0.47839 0 64 -0.47839 1
gene 2 23 14 0.154924 0 70 0.154924 1
gene 4 23 27 2.68611 0 79 2.68611 1
gene 4 27 8 2.82397 0 80 2.82397 1
gene 7 1 19 1.65939 0 83 1.65939 1
gene 4 5 27 4.59227 0 92 4.59227 1
gene 2 2 19 0.0518252 0 108 0.0518252 1
gene 8 6 23 0.119583 0 115 0.119583 1
gene 4 2 23 -3.5485 0 124 -3.5485 1
gene 8 4 19 -0.227241 0 153 -0.227241 1
gene 4 5 47 -3.25865 0 181 -3.25865 1
gene 4 47 27 3.16087 0 182 3.16087 1
gene 7 27 14 -3.2405 0 193 -3.2405 1
gene 4 4 27 -5.10165 0 212 -5.10165 1
gene 1 2 27 2.15965 0 222 2.15965 1
gene 4 2 53 -1.3967 0 226 -1.3967 1
gene 4 53 23 1.11779 0 227 1.11779 1
gene 2 53 27 -6.16762 0 238 -6.16762 1
gene 4 5 64 3.38913 0 277 3.38913 1
gene 4 64 47 -0.369625 0 278 -0.369625 1
gene 7 19 47 -0.632972 0 338 -0.632972 1
gene 4 7 23 1.07114 0 366 1.07114 1
gene 4 3 89 -1.76189 0 375 -1.76189 0
gene 4 89 8 1.58569 0 376 1.58569 1
gene 6 53 64 -3.22002 0 399 -3.22002 1
gene 5 53 14 -1.75878 0 420 -1.75878 1
gene 4 53 102 1.16575 0 425 1.16575 1
gene 4 102 23 6.20698 0 426 6.20698 1
gene 4 3 107 1 0 445 0 1
gene 4 107 89 -1.76189 0 446 0 1
genomeend 5

/* Organism #6 Fitness: 22 Error: 0 */
genomestart 6
trait 1 0.1 0 0 0 0 0 0 0 
trait 2 0.2 0 0 0 0 0 0 0 
trait 3 0.3 0 0 0 0 0 0 0 
trait 4 0 0 0 0 0 0 0 0 
trait 5 0.5 0 0 0 0 0 0 0 
trait 6 0.378347 0 0 0.742295 0 0.359265 0 0.227462 
trait 7 0.7 0 0 0 0 0 0 0 
trait 8 0.8 0 0 0 0 0 0 0 
node 1 3 1 3
node 2 5 1 1
node 3 4 1 1
node 4 6 1 1
node 5 3 1 1
node 6 3 1 1
node 7 8 1 1
node 8 1 0 2
node 14 1 0 0
node 19 1 0 0
node 23 2 0 0
node 27 3 0 0
node 47 1 0 0
node 53 1 0 0
node 64 1 0 0
node 89 1 0 0
node 102 1 0 0
node 108 1 0 0
gene 7 1 8 -0.652659 0 1 -0.652659 1
gene 6 2 8 -0.725038 0 2 -0.725038 1
gene 4 3 8 0.930797 0 3 0.930797 0
gene 5 4 8 0.557893 0 4 0.557893 1
gene 5 5 8 -3.06481 0 5 -3.06481 1
gene 3 6 8 6.40518 0 6 6.40518 1
gene 7 7 8 -6.80831 0 7 -6.80831 1
gene 5 5 14 -0.728566 0 18 -0.728566 1
gene 5 14 8 -2.01125 0 19 -2.01125 1
gene 5 1 14 -0.232533 0 22 -0.232533 1
gene 7 3 14 3.15366 0 24 3.15366 1
gene 4 4 14 -5.18074 0 39 -5.18074 0
gene 4 3 19 0.315596 0 47 0.315596 1
gene 4 19 8 5.06835 0 48 5.06835 1
gene 4 6 14 0.249435 0 50 0.249435 1
gene 4 19 23 -0.125892 0 63 -0.125892 1
gene 4 23 8 -0.47839 0 64 -0.47839 1
gene 2 23 14 0.154924 0 70 0.154924 1
gene 4 23 27 2.68611 0 79 2.68611 1
gene 4 27 8 2.82397 0 80 2.82397 1
gene 7 1 19 1.65939 0 83 1.65939 1
gene 4 5 27 4.59227 0 92 4.59227 0
gene 2 2 19 0.0518252 0 108 0.0518252 1
gene 8 6 23 0.119583 0 115 0.119583 1
gene 4 2 23 -3.5485 0 124 -3.5485 0
gene 8 4 19 -0.227241 0 153 -0.227241 1
gene 4 5 47 -3.25865 0 181 -3.25865 1
gene 4 47 27 3.16087 0 182 3.16087 1
gene 7 27 14 -3.2405 0 193 -3.2405 1
gene 4 4 27 -5.10165 0 212 -5.10165 1
gene 1 2 27 2.15965 0 222 2.15965 1
gene 4 2 53 -1.3967 0 226 -1.3967 1
gene 4 53 23 1.11779 0 227 1.11779 1
gene 2 53 27 -6.16762 0 238 -6.16762 1
gene 4 5 64 3.38913 0 277 3.38913 1
gene 4 64 47 -0.369625 0 278 -0.369625 1
gene 7 19 47 -0.632972 0 338 -0.632972 1
gene 4 7 23 1.07114 0 366 1.07114 1
gene 4 3 89 -1.76189 0 375 -1.76189 1
gene 4 89 8 1.58569 0 376 1.58569 1
gene 6 53 64 -3.22002 0 399 -3.22002 1
gene 5 53 14 -1.75878 0 420 -1.75878 1
gene 4 53 102 1.16575 0 425 1.16575 1
gene 4 102 23 6.20698 0 426 6.20698 1
gene 4 4 108 1 0 447 0 1
gene 4 108 14 -5.18074 0 448 0 1
genomeend 6

/* Organism #7 Fitness: 112 Error: 0 */
genomestart 7
trait 1 0.1 0 0 0 0 0 0 0 
trait 2 0.2 0 0 0 0 0 0 0 
trait 3 0.3 0 0 0 0 0 0 0 
trait 4 0 0 0 0 0 0 0 0 
trait 5 0.5 0 0 0 0 0 0 0 
trait 6 0.378347 0 0 0.742295 0 0.359265 0 0.227462 
trait 7 0.7 0 0 0 0 0 0 0 
trait 8 0.8 0 0 0 0 0 0 0 
node 1 3 1 3
node 2 5 1 1
node 3 4 1 1
node 4 6 1 1
node 5 3 1 1
node 6 3 1 1
node 7 8 1 1
node 8 1 0 2
node 14 1 0 0
node 19 1 0 0
node 23 2 0 0
node 27 3 0 0
node 47 1 0 0
node 53 1 0 0
node 64 1 0 0
node 89 1 0 0
node 102 1 0 0
node 109 1 0 0
gene 7 1 8 -0.577295 0 1 -0.577295 1
gene 6 2 8 -0.300609 0 2 -0.300609 1
gene 4 3 8 0.654007 0 3 0.654007 0
gene 5 4 8 1.34993 0 4 1.34993 1
gene 5 5 8 -0.012774 0 5 -0.012774 1
gene 3 6 8 7.58711 0 6 7.58711 1
gene 7 7 8 -7.6523 0 7 -7.6523 1
gene 5 5 14 -2.14191 0 18 -2.14191 1
gene 5 14 8 -2.50585 0 19 -2.50585 1
gene 5 1 14 0.409011 0 22 0.409011 1
gene 7 3 14 0.802668 0 24 0.802668 1
gene 4 4 14 -5.86793 0 39 -5.86793 1
gene 4 3 19 -0.743367 0 47 -0.743367 1
gene 4 19 8 5.58561 0 48 5.58561 1
gene 4 6 14 0.602727 0 50 0.602727 1
gene 4 19 23 0.347149 0 63 0.347149 1
gene 4 23 8 -0.47839 0 64 -0.47839 1
gene 2 23 14 -0.377991 0 70 -0.377991 1
gene 4 23 27 0.965403 0 79 0.965403 1
gene 4 27 8 2.50907 0 80 2.50907 1
gene 7 1 19 0.783816 0 83 0.783816 1
gene 4 5 27 3.48556 0 92 3.48556 0
gene 2 2 19 -2.35738 0 108 -2.35738 1
gene 8 6 23 -0.42294 0 115 -0.42294 1
gene 4 2 23 -3.4895 0 124 -3.4895 0
gene 8 4 19 1.96411 0 153 1.96411 1
gene 4 5 47 -2.74335 0 181 -2.74335 1
gene 4 47 27 3.16087 0 182 3.16087 1
gene 7 27 14 -3.68311 0 193 -3.68311 1
gene 4 4 27 -6.20418 0 212 -6.20418 1
gene 1 2 27 1.34973 0 222 1.34973 1
gene 4 2 53 -0.506544 0 226 -0.506544 1
gene 4 53 23 -1.03531 0 227 -1.03531 0
gene 2 53 27 -7.38683 0 238 -7.38683 1
gene 4 5 64 2.21933 0 277 2.21933 1
gene 4 64 47 0.00617992 0 278 0.00617992 0
gene 7 19 47 -0.613823 0 338 -0.613823 1
gene 4 7 23 0.127317 0 366 0.127317 1
gene 4 3 89 -1.76189 0 375 -1.76189 1
gene 4 89 8 1.93035 0 376 1.93035 1
gene 6 53 64 -3.98992 0 399 -3.98992 1
gene 5 53 14 -2.65664 0 420 -2.65664 1
gene 4 53 102 1.33149 0 425 1.33149 1
gene 4 102 23 7.08948 0 426 7.08948 1
gene 4 64 109 1 0 449 0 1
gene 4 109 47 0.00617992 0 450 0 1
genomeend 7

/* Organism #8 Fitness: 0.0001 Error: 0 */
genomestart 8
trait 1 0.1 0 0 0 0 0 0 0 
trait 2 0.2 0 0 0 0 0 0 0 
trait 3 0.3 0 0 0 0 0 0 0 
trait 4 0 0 0 0 0 0 0 0 
trait 5 0.5 0 0 0 0 0 0 0 
trait 6 0.378347 0 0 0.742295 0 0.359265 0 0.227462 
trait 7 0.7 0 0 0 0 0 0 0 
trait 8 0.8 0 0 0 0 0 0 0 
node 1 3 1 3
node 2 5 1 1
node 3 4 1 1
node 4 6 1 1
node 5 3 1 1
node 6 3 1 1
node 7 8 1 1
node 8 1 0 2
node 14 1 0 0
node 19 1 0 0
node 23 2 0 0
node 27 3 0 0
node 47 1 0 0
node 53 1 0 0
node 64 1 0 0
node 89 1 0 0
node 102 1 0 0
gene 7 1 8 -2.36761 0 1 -2.36761 1
gene 6 2 8 -0.337947 0 2 -0.337947 1
gene 4 3 8 2.8919 0 3 2.8919 0
gene 5 4 8 -2.41362 0 4 -2.41362 1
gene 5 5 8 -1.01019 0 5 -1.01019 1
gene 3 6 8 8 0 6 8 1
gene 7 7 8 -0.052436 0 7 -0.052436 1
gene 5 5 14 -0.0534066 0 18 -0.0534066 1
gene 5 14 8 -2.01125 0 19 -2.01125 1
gene 5 1 14 -2.42475 0 22 -2.42475 1
gene 7 3 14 4.6997 0 24 4.6997 1
gene 4 4 14 -3.99586 0 39 -3.99586 1
gene 4 3 19 0.18584 0 47 0.18584 1
gene 4 19 8 -2.45391 0 48 -2.45391 1
gene 4 6 14 -0.574879 0 50 -0.574879 1
gene 4 19 23 0.611026 0 63 0.611026 1
gene 4 23 8 -0.741435 0 64 -0.741435 1
gene 2 23 14 -2.12886 0 70 -2.12886 1
gene 4 23 27 2.68611 0 79 2.68611 1
gene 4 27 8 1.82263 0 80 1.82263 1
gene 7 1 19 3.52315 0 83 3.52315 1
gene 4 5 27 4.59227 0 92 4.59227 1
gene 2 2 19 0.0518252 0 108 0.0518252 1
gene 8 6 23 0.119583 0 115 0.119583 1
gene 4 2 23 -0.757337 0 124 -0.757337 0
gene 8 4 19 -1.68385 0 153 -1.68385 1
gene 4 5 47 -4.49952 0 181 -4.49952 1
gene 4 47 27 1.78896 0 182 1.78896 1
gene 7 27 14 -0.30478 0 193 -0.30478 1
gene 4 4 27 -3.2827 0 212 -3.2827 1
gene 1 2 27 2.01684 0 222 2.01684 1
gene 4 2 53 0.594606 0 226 0.594606 1
gene 4 53 23 1.32017 0 227 1.32017 0
gene 2 53 27 -7.90477 0 238 -7.90477 1
gene 4 5 64 3.38913 0 277 3.38913 1
gene 4 64 47 1.20361 0 278 1.20361 1
gene 7 19 47 -1.27697 0 338 -1.27697 1
gene 4 7 23 0.398264 0 366 0.398264 1
gene 4 3 89 -2.19802 0 375 -2.19802 1
gene 4 89 8 1.94761 0 376 1.94761 1
gene 6 53 64 -3.36248 0 399 -3.36248 1
gene 5 53 14 -0.434971 0 420 -0.434971 1
gene 4 53 102 1.25656 0 425 1.25656 1
gene 4 102 23 -1.57326 0 426 -1.57326 1
genomeend 8

/* Organism #9 Fitness: 0 Error: 0 */
genomestart 9
trait 1 0.1 0 0 0 0 0 0 0 
trait 2 0.2 0 0 0 0 0 0 0 
trait 3 0.3 0 0 0 0 0 0 0 
trait 4 0 0 0 0 0 0 0 0 
trait 5 0.5 0 0 0 0 0 0 0 
trait 6 0.378347 0 0 0.742295 0 0.359265 0 0.227462 
trait 7 0.7 0 0 0 0 0 0 0 
trait 8 0.8 0 0 0 0 0 0 0 
node 1 3 1 3
node 2 5 1 1
node 3 4 1 1
node 4 6 1 1
node 5 3 1 1
node 6 3 1 1
node 7 8 1 1
node 8 1 0 2
node 14 1 0 0
node 19 1 0 0
node 23 2 0 0
node 27 3 0 0
node 47 1 0 0
node 53 1 0 0
node 64 1 0 0
node 89 1 0 0
node 102 1 0 0
gene 7 1 8 0.682493 0 1 0.682493 1
gene 6 2 8 -2.74187 0 2 -2.74187 1
gene 4 3 8 1.51075 0 3 1.51075 0
gene 5 4 8 3.66038 0 4 3.66038 1
gene 5 5 8 -0.513918 0 5 -0.513918 1
gene 3 6 8 8 0 6 8 1
gene 7 7 8 -7.10843 0 7 -7.10843 1
gene 5 5 14 -2.63756 0 18 -2.63756 1
gene 5 14 8 -4.18724 0 19 -4.18724 1
gene 5 1 14 1.13875 0 22 1.13875 1
gene 7 3 14 -0.08966 0 24 -0.08966 1
gene 4 4 14 -5.98757 0 39 -5.98757 1
gene 4 3 19 -2.94644 0 47 -2.94644 1
gene 4 19 8 5.89006 0 48 5.89006 1
gene 4 6 14 1.54321 0 50 1.54321 1
gene 4 19 23 1.41118 0 63 1.41118 1
gene 4 23 8 -0.827052 0 64 -0.827052 1
gene 2 23 14 0.127731 0 70 0.127731 1
gene 4 23 27 3.38906 0 79 3.38906 1
gene 4 27 8 1.30987 0 80 1.30987 1
gene 7 1 19 -1.59622 0 83 -1.59622 1
gene 4 5 27 3.69586 0 92 3.69586 0
gene 2 2 19 -3.22868 0 108 -3.22868 1
gene 8 6 23 -1.61046 0 115 -1.61046 1
gene 4 2 23 -3.85239 0 124 -3.85239 0
gene 8 4 19 2.37616 0 153 2.37616 1
gene 4 5 47 -1.53754 0 181 -1.53754 1
gene 4 47 27 2.33627 0 182 2.33627 1
gene 7 27 14 -4.38756 0 193 -4.38756 1
gene 4 4 27 -5.819 0 212 -5.819 1
gene 1 2 27 0.829923 0 222 0.829923 1
gene 4 2 53 -0.075602 0 226 -0.075602 1
gene 4 53 23 0.886115 0 227 0.886115 0
gene 2 53 27 -6.24927 0 238 -6.24927 1
gene 4 5 64 3.01591 0 277 3.01591 1
gene 4 64 47 1.59748 0 278 1.59748 1
gene 7 19 47 -2.90957 0 338 -2.90957 1
gene 4 7 23 0.837807 0 366 0.837807 1
gene 4 3 89 0.27602 0 375 0.27602 1
gene 4 89 8 -0.498123 0 376 -0.498123 1
gene 6 53 64 -3.6305 0 399 -3.6305 1
gene 5 53 14 -3.80988 0 420 -3.80988 1
gene 4 53 102 -0.315682 0 425 -0.315682 1
gene 4 102 23 8 0 426 8 1
genomeend 9

/* Organism #10 Fitness: 113 Error: 0 */
genomestart 10
trait 1 0.1 0 0 0 0 0 0 0 
trait 2 0.2 0 0 0 0 0 0 0 
trait 3 0.3 0 0 0 0 0 0 0 
trait 4 0 0 0 0 0 0 0 0 
trait 5 0.5 0 0 0 0 0 0 0 
trait 6 0.378347 0 0 0.742295 0 0.359265 0 0.227462 
trait 7 0.7 0 0 0 0 0 0 0 
trait 8 0.8 0 0 0 0 0 0 0 
node 1 3 1 3
node 2 5 1 1
node 3 4 1 1
node 4 6 1 1
node 5 3 1 1
node 6 3 1 1
node 7 8 1 1
node 8 1 0 2
node 14 1 0 0
node 19 1 0 0
node 23 2 0 0
node 27 3 0 0
node 47 1 0 0
node 53 1 0 0
node 64 1 0 0
node 89 1 0 0
node 102 1 0 0
gene 7 1 8 -0.689365 0 1 -0.689365 1
gene 6 2 8 1.00003 0 2 1.00003 1
gene 4 3 8 -1.75368 0 3 -1.75368 0
gene 5 4 8 -0.247218 0 4 -0.247218 1
gene 5 5 8 -2.50667 0 5 -2.50667 1
gene 3 6 8 7.56071 0 6 7.56071 1
gene 7 7 8 -5.59823 0 7 -5.59823 1
gene 5 5 14 -4.37206 0 18 -4.37206 1
gene 5 14 8 -0.870318 0 19 -0.870318 1
gene 5 1 14 2.62837 0 22 2.62837 1
gene 7 3 14 4.18602 0 24 4.18602 1
gene 4 4 14 -2.16287 0 39 -2.16287 1
gene 4 3 19 -2.48719 0 47 -2.48719 1
gene 4 19 8 2.78975 0 48 2.78975 1
gene 4 6 14 2.11946 0 50 2.11946 1
gene 4 19 23 0.527645 0 63 0.527645 1
gene 4 23 8 -1.33187 0 64 -1.33187 1
gene 2 23 14 -0.377991 0 70 -0.377991 1
gene 4 23 27 3.41967 0 79 3.41967 1
gene 4 27 8 -0.407952 0 80 -0.407952 1
gene 7 1 19 0.481583 0 83 0.481583 1
gene 4 5 27 6.30075 0 92 6.30075 0
gene 2 2 19 -1.37535 0 108 -1.37535 1
gene 8 6 23 0.0288925 0 115 0.0288925 1
gene 4 2 23 -3.60749 0 124 -3.60749 0
gene 8 4 19 3.95522 0 153 3.95522 1
gene 4 5 47 -2.74335 0 181 -2.74335 1
gene 4 47 27 1.69378 0 182 1.69378 1
gene 7 27 14 -4.35252 0 193 -4.35252 1
gene 4 4 27 -3.99912 0 212 -3.99912 1
gene 1 2 27 -0.969824 0 222 -0.969824 1
gene 4 2 53 2.10865 0 226 2.10865 1
gene 4 53 23 0.153728 0 227 0.153728 0
gene 2 53 27 -6.91679 0 238 -6.91679 1
gene 4 5 64 3.51507 0 277 3.51507 1
gene 4 64 47 -1.65479 0 278 -1.65479 1
gene 7 19 47 0.939162 0 338 0.939162 1
gene 4 7 23 -0.143693 0 366 -0.143693 1
gene 4 3 89 -0.465146 0 375 -0.465146 1
gene 4 89 8 2.8511 0 376 2.8511 1
gene 6 53 64 -2.75484 0 399 -2.75484 1
gene 5 53 14 -3.715 0 420 -3.715 1
gene 4 53 102 1.55276 0 425 1.55276 1
gene 4 102 23 4.85685 0 426 4.85685 1
genomeend 10

/* Organism #11 Fitness: 51 Error: 0 */
genomestart 11
trait 1 0.1 0 0 0 0 0 0 0 
trait 2 0.2 0 0 0 0 0 0 0 
trait 3 0.3 0 0 0 0 0 0 0 
trait 4 0 0 0 0 0 0 0 0 
trait 5 0.5 0 0 0 0 0 0 0 
trait 6 0.378347 0 0 0.742295 0 0.359265 0 0.227462 
trait 7 0.7 0 0 0 0 0 0 0 
trait 8 0.8 0 0 0 0 0 0 0 
node 1 3 1 3
node 2 5 1 1
node 3 4 1 1
node 4 6 1 1
node 5 3 1 1
node 6 3 1 1
node 7 8 1 1
node 8 1 0 2
node 14 1 0 0
node 19 1 0 0
node 23 2 0 0
node 27 3 0 0
node 47 1 0 0
node 53 1 0 0
node 64 1 0 0
node 89 1 0 0
node 102 1 0 0
gene 7 1 8 -1.7441 0 1 -1.7441 1
gene 6 2 8 -0.584339 0 2 -0.584339 1
gene 4 3 8 -0.0558935 0 3 -0.0558935 0
gene 5 4 8 2.79526 0 4 2.79526 1
gene 5 5 8 -0.77882 0 5 -0.77882 1
gene 3 6 8 5.94701 0 6 5.94701 1
gene 7 7 8 -8 0 7 -8 1
gene 5 5 14 -2.0748 0 18 -2.0748 1
gene 5 14 8 -1.68273 0 19 -1.68273 1
gene 5 1 14 0.131907 0 22 0.131907 1
gene 7 3 14 -0.11462 0 24 -0.11462 1
gene 4 4 14 -6.36915 0 39 -6.36915 1
gene 4 3 19 0.232497 0 47 0.232497 1
gene 4 19 8 7.67371 0 48 7.67371 1
gene 4 6 14 1.85237 0 50 1.85237 1
gene 4 19 23 0.788504 0 63 0.788504 1
gene 4 23 8 1.91918 0 64 1.91918 1
gene 2 23 14 -1.26819 0 70 -1.26819 1
gene 4 23 27 1.16519 0 79 1.16519 1
gene 4 27 8 1.17221 0 80 1.17221 1
gene 7 1 19 -0.532829 0 83 -0.532829 1
gene 4 5 27 1.79028 0 92 1.79028 0
gene 2 2 19 -4.35459 0 108 -4.35459 1
gene 8 6 23 -1.0474 0 115 -1.0474 1
gene 4 2 23 -5.7888 0 124 -5.7888 0
gene 8 4 19 0.892758 0 153 0.892758 1
gene 4 5 47 -1.80578 0 181 -1.80578 1
gene 4 47 27 5.10354 0 182 5.10354 1
gene 7 27 14 -5.18394 0 193 -5.18394 1
gene 4 4 27 -6.17233 0 212 -6.17233 1
gene 1 2 27 0.718357 0 222 0.718357 1
gene 4 2 53 1.70853 0 226 1.70853 1
gene 4 53 23 -2.78034 0 227 -2.78034 0
gene 2 53 27 -5.5539 0 238 -5.5539 1
gene 4 5 64 0.351402 0 277 0.351402 1
gene 4 64 47 0.00604332 0 278 0.00604332 1
gene 7 19 47 -2.11479 0 338 -2.11479 1
gene 4 7 23 -2.06976 0 366 -2.06976 1
gene 4 3 89 0.838114 0 375 0.838114 1
gene 4 89 8 1.93035 0 376 1.93035 1
gene 6 53 64 -3.03401 0 399 -3.03401 1
gene 5 53 14 -2.65664 0 420 -2.65664 1
gene 4 53 102 -0.674156 0 425 -0.674156 1
gene 4 102 23 7.96448 0 426 7.96448 1
genomeend 11

/* Organism #12 Fitness: 62 Error: 0 */
/* ##------$ WINNER 12 SPECIES #42 $------## */
genomestart 12
trait 1 0.1 0 0 0 0 0 0 0 
trait 2 0.2 0 0 0 0 0 0 0 
trait 3 0.3 0 0 0 0 0 0 0 
trait 4 0 0 0 0 0 0 0 0 
trait 5 0.5 0 0 0 0 0 0 0 
trait 6 0.378347 0 0 0.742295 0 0.359265 0 0.227462 
trait 7 0.7 0 0 0 0 0 0 0 
trait 8 0.8 0 0 0 0 0 0 0 
node 1 3 1 3
node 2 2 1 1
node 3 4 1 1
node 4 6 1 1
node 5 3 1 1
node 6 3 1 1
node 7 8 1 1
node 8 1 0 2
node 14 1 0 0
node 19 1 0 0
node 23 2 0 0
node 27 3 0 0
node 47 1 0 0
node 53 1 0 0
node 64 1 0 0
node 89 1 0 0
node 102 1 0 0
gene 7 1 8 -2.68529 0 1 -2.68529 1
gene 6 2 8 -2.04283 0 2 -2.04283 1
gene 4 3 8 -0.737514 0 3 -0.737514 0
gene 5 4 8 2.02058 0 4 2.02058 1
gene 5 5 8 -8 0 5 -8 1
gene 3 6 8 5.98312 0 6 5.98312 1
gene 7 7 8 -7.14292 0 7 -7.14292 1
gene 5 5 14 -0.82146 0 18 -0.82146 1
gene 5 14 8 -3.96175 0 19 -3.96175 1
gene 5 1 14 2.2424 0 22 2.2424 1
gene 7 3 14 5.50466 0 24 5.50466 1
gene 4 4 14 -2.91576 0 39 -2.91576 1
gene 4 3 19 3.2248 0 47 3.2248 1
gene 4 19 8 6.56191 0 48 6.56191 1
gene 4 6 14 0.0481005 0 50 0.0481005 1
gene 4 19 23 0.114235 0 63 0.114235 1
gene 4 23 8 1.22616 0 64 1.22616 1
gene 2 23 14 0.556638 0 70 0.556638 1
gene 3 23 27 5.27144 0 79 5.27144 1
gene 4 27 8 3.55744 0 80 3.55744 1
gene 7 1 19 -1.84103 0 83 -1.84103 1
gene 4 5 27 4.96204 0 92 4.96204 0
gene 2 2 19 -0.00407611 0 108 -0.00407611 1
gene 8 6 23 0.18565 0 115 0.18565 1
gene 4 2 23 -3.66229 0 124 -3.66229 0
gene 8 4 19 -0.645867 0 153 -0.645867 1
gene 4 5 47 1.96195 0 181 1.96195 1
gene 4 47 27 2.27343 0 182 2.27343 1
gene 7 27 14 -1.67548 0 193 -1.67548 1
gene 4 4 27 -4.29033 0 212 -4.29033 1
gene 1 2 27 3.09258 0 222 3.09258 1
gene 4 2 53 -2.3619 0 226 -2.3619 1
gene 4 53 23 5.46104 0 227 5.46104 0
gene 2 53 27 -4.9484 0 238 -4.9484 1
gene 4 5 64 4.55893 0 277 4.55893 1
gene 4 64 47 1.52153 0 278 1.52153 1
gene 7 19 47 -0.176858 0 338 -0.176858 1
gene 4 7 23 3.81813 0 366 3.81813 1
gene 4 3 89 -1.505 0 375 -1.505 1
gene 4 89 8 2.02259 0 376 2.02259 1
gene 6 53 64 -3.06965 0 399 -3.06965 1
gene 5 53 14 -1.90927 0 420 -1.90927 1
gene 4 53 102 -0.145844 0 425 -0.145844 1
gene 4 102 23 5.06226 0 426 5.06226 1
gene 1 7 14 0.408285 0 439 0.408285 1
genomeend 12

/* Organism #13 Fitness: 0.0002 Error: 0 */
genomestart 13
trait 1 0.1 0 0 0 0 0 0 0 
trait 2 0.2 0 0 0 0 0 0 0 
trait 3 0.3 0 0 0 0 0 0 0 
trait 4 0 0 0 0 0 0 0 0 
trait 5 0.5 0 0 0 0 0 0 0 
trait 6 0.378347 0 0 0.742295 0 0.359265 0 0.227462 
trait 7 0.7 0 0 0 0 0 0 0 
trait 8 0.8 0 0 0 0 0 0 0 
node 1 3 1 3
node 2 5 1 1
node 3 4 1 1
node 4 6 1 1
node 5 3 1 1
node 6 3 1 1
node 7 8 1 1
node 8 1 0 2
node 14 1 0 0
node 19 1 0 0
node 23 2 0 0
node 27 3 0 0
node 47 1 0 0
node 53 1 0 0
node 64 1 0 0
node 89 1 0 0
node 102 1 0 0
gene 7 1 8 -0.728024 0 1 -0.728024 1
gene 6 2 8 -1.14947 0 2 -1.14947 1
gene 4 3 8 1.20759 0 3 1.20759 0
gene 5 4 8 -0.234149 0 4 -0.234149 1
gene 5 5 8 -6.11684 0 5 -6.11684 1
gene 3 6 8 5.22325 0 6 5.22325 1
gene 7 7 8 -5.96431 0 7 -5.96431 1
gene 5 5 14 0.68478 0 18 0.68478 1
gene 5 14 8 -1.51666 0 19 -1.51666 1
gene 5 1 14 -0.874077 0 22 -0.874077 1
gene 7 3 14 5.50466 0 24 5.50466 1
gene 4 4 14 -4.49355 0 39 -4.49355 1
gene 4 3 19 1.37456 0 47 1.37456 1
gene 4 19 8 4.55108 0 48 4.55108 1
gene 4 6 14 -0.103858 0 50 -0.103858 1
gene 4 19 23 -0.598934 0 63 -0.598934 1
gene 4 23 8 -0.47839 0 64 -0.47839 1
gene 2 23 14 0.68784 0 70 0.68784 1
gene 4 23 27 4.40681 0 79 4.40681 1
gene 4 27 8 3.13888 0 80 3.13888 1
gene 7 1 19 2.53496 0 83 2.53496 1
gene 4 5 27 5.69897 0 92 5.69897 0
gene 2 2 19 2.46103 0 108 2.46103 1
gene 8 6 23 0.662106 0 115 0.662106 1
gene 4 2 23 -3.60749 0 124 -3.60749 0
gene 8 4 19 -2.41859 0 153 -2.41859 1
gene 4 5 47 -3.77395 0 181 -3.77395 1
gene 4 47 27 3.16087 0 182 3.16087 1
gene 7 27 14 -2.79788 0 193 -2.79788 1
gene 4 4 27 -3.99912 0 212 -3.99912 1
gene 1 2 27 2.96957 0 222 2.96957 1
gene 4 2 53 -2.28685 0 226 -2.28685 1
gene 4 53 23 3.27088 0 227 3.27088 0
gene 2 53 27 -4.9484 0 238 -4.9484 1
gene 4 5 64 4.55893 0 277 4.55893 1
gene 4 64 47 -0.74543 0 278 -0.74543 1
gene 7 19 47 -0.652121 0 338 -0.652121 1
gene 4 7 23 2.01497 0 366 2.01497 1
gene 4 3 89 -1.76189 0 375 -1.76189 1
gene 4 89 8 1.24104 0 376 1.24104 1
gene 6 53 64 -2.45012 0 399 -2.45012 1
gene 5 53 14 -0.860913 0 420 -0.860913 1
gene 4 53 102 1 0 425 1 1
gene 4 102 23 5.32447 0 426 5.32447 1
gene 1 7 14 0.960687 0 439 0.960687 1
gene 2 7 47 -0.0996106 0 451 -0.0996106 1
genomeend 13

/* Organism #14 Fitness: 0.0003 Error: 0 */
genomestart 14
trait 1 0.1 0 0 0 0 0 0 0 
trait 2 0.2 0 0 0 0 0 0 0 
trait 3 0.3 0 0 0 0 0 0 0 
trait 4 0 0 0 0 0 0 0 0 
trait 5 0.5 0 0 0 0 0 0 0 
trait 6 0.378347 0 0 0.742295 0 0.359265 0 0.227462 
trait 7 0.7 0 0 0 0 0 0 0 
trait 8 0.8 0 0 0 0 0 0 0 
node 1 3 1 3
node 2 5 1 1
node 3 4 1 1
node 4 6 1 1
node 5 3 1 1
node 6 3 1 1
node 7 5 1 1
node 8 1 0 2
node 14 1 0 0
node 19 1 0 0
node 23 2 0 0
node 27 3 0 0
node 47 1 0 0
node 53 1 0 0
node 64 1 0 0
node 89 1 0 0
node 102 1 0 0
gene 7 1 8 0.0847802 0 1 0.0847802 1
gene 6 2 8 -3.18135 0 2 -3.18135 1
gene 4 3 8 -1.27105 0 3 -1.27105 0
gene 5 4 8 -0.0417961 0 4 -0.0417961 1
gene 5 5 8 -5.23551 0 5 -5.23551 1
gene 3 6 8 4.34978 0 6 4.34978 1
gene 7 7 8 -7.08681 0 7 -7.08681 1
gene 5 5 14 0.68478 0 18 0.68478 1
gene 5 14 8 1.30316 0 19 1.30316 1
gene 5 1 14 0.627531 0 22 0.627531 1
gene 7 3 14 5.85057 0 24 5.85057 1
gene 4 4 14 -2.54113 0 39 -2.54113 1
gene 4 3 19 -0.0926469 0 47 -0.0926469 1
gene 4 19 8 4.7691 0 48 4.7691 1
gene 4 6 14 -0.103858 0 50 -0.103858 1
gene 4 19 23 0.84011 0 63 0.84011 1
gene 4 23 8 1.8702 0 64 1.8702 1
gene 2 23 14 0.319139 0 70 0.319139 1
gene 4 23 27 -1.24736 0 79 -1.24736 1
gene 4 27 8 5.24788 0 80 5.24788 1
gene 7 1 19 4.72637 0 83 4.72637 1
gene 4 5 27 5.38816 0 92 5.38816 0
gene 2 2 19 2.7994 0 108 2.7994 1
gene 8 6 23 1.91708 0 115 1.91708 1
gene 4 2 23 -2.1836 0 124 -2.1836 0
gene 8 4 19 -1.86576 0 153 -1.86576 1
gene 4 5 47 -3.19266 0 181 -3.19266 1
gene 4 47 27 4.9639 0 182 4.9639 1
gene 7 27 14 0.657225 0 193 0.657225 1
gene 4 4 27 -1.64762 0 212 -1.64762 1
gene 1 2 27 3.90654 0 222 3.90654 1
gene 4 2 53 -3.78528 0 226 -3.78528 1
gene 4 53 23 -1.06776 0 227 -1.06776 0
gene 2 53 27 -2.8248 0 238 -2.8248 1
gene 4 5 64 2.3583 0 277 2.3583 1
gene 4 64 47 -0.898627 0 278 -0.898627 1
gene 7 19 47 -2.03387 0 338 -2.03387 1
gene 4 7 23 4.18142 0 366 4.18142 1
gene 4 3 89 0.398478 0 375 0.398478 1
gene 4 89 8 1.07439 0 376 1.07439 1
gene 6 53 64 -2.26321 0 399 -2.26321 1
gene 5 53 14 -0.927966 0 420 -0.927966 1
gene 4 53 102 -0.75949 0 425 -0.75949 1
gene 4 102 23 3.59305 0 426 3.59305 1
gene 1 7 14 1.16157 0 439 1.16157 1
genomeend 14

/* Organism #15 Fitness: 0.0006 Error: 0 */
genomestart 15
trait 1 0.1 0 0 0 0 0 0 0 
trait 2 0.2 0 0 0 0 0 0 0 
trait 3 0.3 0 0 0 0 0 0 0 
trait 4 0 0 0 0 0 0 0 0 
trait 5 0.5 0 0 0 0 0 0 0 
trait 6 0.378347 0 0 0.742295 0 0.359265 0 0.227462 
trait 7 0.7 0 0 0 0 0 0 0 
trait 8 0.8 0 0 0 0 0 0 0 
node 1 3 1 3
node 2 5 1 1
node 3 4 1 1
node 4 6 1 1
node 5 3 1 1
node 6 3 1 1
node 7 8 1 1
node 8 1 0 2
node 14 1 0 0
node 19 1 0 0
node 23 2 0 0
node 27 3 0 0
node 47 1 0 0
node 53 1 0 0
node 64 1 0 0
node 89 1 0 0
node 102 1 0 0
gene 7 1 8 0.946973 0 1 0.946973 1
gene 6 2 8 0.331057 0 2 0.331057 1
gene 4 3 8 0.930797 0 3 0.930797 0
gene 5 4 8 -0.303755 0 4 -0.303755 1
gene 5 5 8 2.11073 0 5 2.11073 1
gene 3 6 8 8 0 6 8 1
gene 7 7 8 1.32362 0 7 1.32362 1
gene 5 5 14 0.208694 0 18 0.208694 1
gene 5 14 8 -0.146192 0 19 -0.146192 1
gene 5 1 14 0.887762 0 22 0.887762 1
gene 7 3 14 4.66202 0 24 4.66202 1
gene 4 4 14 -6.55394 0 39 -6.55394 1
gene 4 3 19 2.00785 0 47 2.00785 1
gene 4 19 8 4.52377 0 48 4.52377 1
gene 4 6 14 -2.11516 0 50 -2.11516 1
gene 4 19 23 1.93392 0 63 1.93392 1
gene 4 23 8 0.291429 0 64 0.291429 1
gene 2 23 14 -2.04567 0 70 -2.04567 1
gene 4 23 27 2.68611 0 79 2.68611 1
gene 4 27 8 4.79384 0 80 4.79384 1
gene 7 1 19 -1.81103 0 83 -1.81103 1
gene 4 5 27 4.28983 0 92 4.28983 0
gene 2 2 19 -1.9934 0 108 -1.9934 1
gene 8 6 23 1.46969 0 115 1.46969 1
gene 4 2 23 -5.92956 0 124 -5.92956 0
gene 8 4 19 1.20292 0 153 1.20292 1
gene 4 5 47 -1.47272 0 181 -1.47272 1
gene 4 47 27 3.42669 0 182 3.42669 1
gene 7 27 14 -0.134012 0 193 -0.134012 1
gene 4 4 27 -6.80003 0 212 -6.80003 1
gene 1 2 27 0.616069 0 222 0.616069 1
gene 4 2 53 -0.127454 0 226 -0.127454 1
gene 4 53 23 -0.813681 0 227 -0.813681 0
gene 2 53 27 1.31802 0 238 1.31802 1
gene 4 5 64 -0.290554 0 277 -0.290554 1
gene 4 64 47 -1.32942 0 278 -1.32942 1
gene 7 19 47 -0.786888 0 338 -0.786888 1
gene 4 7 23 -0.625385 0 366 -0.625385 1
gene 4 3 89 -3.28679 0 375 -3.28679 1
gene 4 89 8 -1.50409 0 376 -1.50409 1
gene 6 53 64 -2.96563 0 399 -2.96563 1
gene 5 53 14 0.0253863 0 420 0.0253863 1
gene 4 53 102 -2.46661 0 425 -2.46661 1
gene 4 102 23 4.71299 0 426 4.71299 1
genomeend 15

/* Organism #16 Fitness: 0.0001 Error: 0 */
genomestart 16
trait 1 0.1 0 0 0 0 0 0 0 
trait 2 0.2 0 0 0 0 0 0 0 
trait 3 0.3 0 0 0 0 0 0 0 
trait 4 0 0 0 0 0 0 0 0 
trait 5 0.5 0 0 0 0 0 0 0 
trait 6 0.378347 0 0 0.742295 0 0.359265 0 0.227462 
trait 7 0.7 0 0 0 0 0 0 0 
trait 8 0.8 0 0 0 0 0 0 0 
node 1 3 1 3
node 2 5 1 1
node 3 4 1 1
node 4 6 1 1
node 5 3 1 1
node 6 3 1 1
node 7 8 1 1
node 8 1 0 2
node 14 1 0 0
node 19 1 0 0
node 23 2 0 0
node 27 3 0 0
node 47 1 0 0
node 53 1 0 0
node 64 1 0 0
node 89 1 0 0
node 102 1 0 0
gene 7 1 8 -0.728024 0 1 -0.728024 1
gene 6 2 8 -1.14947 0 2 -1.14947 1
gene 4 3 8 1.20759 0 3 1.20759 0
gene 5 4 8 -0.234149 0 4 -0.234149 1
gene 5 5 8 -6.11684 0 5 -6.11684 1
gene 3 6 8 5.22325 0 6 5.22325 1
gene 7 7 8 -5.96431 0 7 -5.96431 1
gene 5 5 14 0.68478 0 18 0.68478 1
gene 5 14 8 -1.51666 0 19 -1.51666 1
gene 5 1 14 -0.874077 0 22 -0.874077 1
gene 7 3 14 5.50466 0 24 5.50466 1
gene 4 4 14 -4.49355 0 39 -4.49355 1
gene 4 3 19 1.37456 0 47 1.37456 1
gene 4 19 8 4.55108 0 48 4.55108 1
gene 4 6 14 -0.103858 0 50 -0.103858 1
gene 4 19 23 -0.598934 0 63 -0.598934 1
gene 4 23 8 -0.47839 0 64 -0.47839 1
gene 2 23 14 0.68784 0 70 0.68784 1
gene 4 23 27 4.40681 0 79 4.40681 1
gene 4 27 8 3.13888 0 80 3.13888 1
gene 7 1 19 2.53496 0 83 2.53496 1
gene 4 5 27 5.69897 0 92 5.69897 0
gene 2 2 19 2.46103 0 108 2.46103 1
gene 8 6 23 0.662106 0 115 0.662106 1
gene 4 2 23 -3.60749 0 124 -3.60749 0
gene 8 4 19 -2.41859 0 153 -2.41859 1
gene 4 5 47 -3.77395 0 181 -3.77395 1
gene 4 47 27 3.16087 0 182 3.16087 1
gene 7 27 14 -2.79788 0 193 -2.79788 1
gene 4 4 27 -3.99912 0 212 -3.99912 1
gene 1 2 27 2.96957 0 222 2.96957 1
gene 4 2 53 -2.28685 0 226 -2.28685 1
gene 4 53 23 3.27088 0 227 3.27088 0
gene 2 53 27 -4.9484 0 238 -4.9484 1
gene 4 5 64 4.55893 0 277 4.55893 1
gene 4 64 47 -0.74543 0 278 -0.74543 1
gene 7 19 47 -0.652121 0 338 -0.652121 1
gene 4 7 23 2.01497 0 366 2.01497 1
gene 4 3 89 -1.76189 0 375 -1.76189 1
gene 4 89 8 1.24104 0 376 1.24104 1
gene 6 53 64 -2.45012 0 399 -2.45012 1
gene 5 53 14 -0.860913 0 420 -0.860913 1
gene 4 53 102 1 0 425 1 1
gene 4 102 23 5.32447 0 426 5.32447 1
gene 5 23 47 0.201747 0 436 0.201747 1
genomeend 16

/* Organism #17 Fitness: 98 Error: 0 */
genomestart 17
trait 1 0.1 0 0 0 0 0 0 0 
trait 2 0.2 0 0 0 0 0 0 0 
trait 3 0.3 0 0 0 0 0 0 0 
trait 4 0 0 0 0 0 0 0 0 
trait 5 0.5 0 0 0 0 0 0 0 
trait 6 0.378347 0 0 0.742295 0 0.359265 0 0.227462 
trait 7 0.7 0 0 0 0 0 0 0 
trait 8 0.8 0 0 0 0 0 0 0 
node 1 3 1 3
node 2 5 1 1
node 3 4 1 1
node 4 6 1 1
node 5 3 1 1
node 6 3 1 1
node 7 8 1 1
node 8 1 0 2
node 14 1 0 0
node 19 1 0 0
node 23 2 0 0
node 27 3 0 0
node 47 1 0 0
node 53 1 0 0
node 64 1 0 0
node 89 1 0 0
node 102 1 0 0
gene 7 1 8 -0.728024 0 1 -0.728024 1
gene 6 2 8 -1.14947 0 2 -1.14947 1
gene 4 3 8 1.20759 0 3 1.20759 0
gene 5 4 8 -0.234149 0 4 -0.234149 1
gene 5 5 8 -6.11684 0 5 -6.11684 1
gene 3 6 8 5.22325 0 6 5.22325 1
gene 7 7 8 -5.96431 0 7 -5.96431 1
gene 5 5 14 0.68478 0 18 0.68478 1
gene 5 14 8 -1.51666 0 19 -1.51666 1
gene 5 1 14 -0.874077 0 22 -0.874077 1
gene 7 3 14 5.50466 0 24 5.50466 1
gene 4 4 14 -4.49355 0 39 -4.49355 1
gene 4 3 19 1.37456 0 47 1.37456 1
gene 4 19 8 4.55108 0 48 4.55108 1
gene 4 6 14 -0.103858 0 50 -0.103858 1
gene 4 19 23 -0.598934 0 63 -0.598934 1
gene 4 23 8 -0.47839 0 64 -0.47839 1
gene 2 23 14 0.68784 0 70 0.68784 1
gene 4 23 27 4.40681 0 79 4.40681 1
gene 4 27 8 3.13888 0 80 3.13888 1
gene 7 1 19 2.53496 0 83 2.53496 1
gene 4 5 27 5.69897 0 92 5.69897 0
gene 2 2 19 2.46103 0 108 2.46103 1
gene 8 6 23 0.662106 0 115 0.662106 1
gene 4 2 23 -3.60749 0 124 -3.60749 0
gene 8 4 19 -2.41859 0 153 -2.41859 1
gene 4 5 47 -3.77395 0 181 -3.77395 1
gene 4 47 27 3.16087 0 182 3.16087 1
gene 7 27 14 -2.79788 0 193 -2.79788 1
gene 4 4 27 -3.99912 0 212 -3.99912 1
gene 1 2 27 2.96957 0 222 2.96957 1
gene 4 2 53 -2.28685 0 226 -2.28685 1
gene 4 53 23 3.27088 0 227 3.27088 0
gene 2 53 27 -4.9484 0 238 -4.9484 1
gene 4 5 64 4.55893 0 277 4.55893 1
gene 4 64 47 -0.74543 0 278 -0.74543 1
gene 7 19 47 -0.652121 0 338 -0.652121 1
gene 4 7 23 2.01497 0 366 2.01497 1
gene 4 3 89 -1.76189 0 375 -1.76189 1
gene 4 89 8 1.24104 0 376 1.24104 1
gene 6 53 64 -2.45012 0 399 -2.45012 1
gene 5 53 14 -0.860913 0 420 -0.860913 1
gene 4 53 102 1 0 425 1 1
gene 4 102 23 5.32447 0 426 5.32447 1
gene 1 7 14 0.960687 0 439 0.960687 1
gene 4 4 23 -0.697376 0 452 -0.697376 1
genomeend 17

/* Species #43 : (Size 1) (AF 0) (Age 1)  */


/* Organism #18 Fitness: 0 Error: 0 */
genomestart 18
trait 1 0.1 0 0 0 0 0 0 0 
trait 2 0.2 0 0 0 0 0 0 0 
trait 3 0.3 0 0 0 0 0 0 0 
trait 4 0 0 0 0 0 0 0 0 
trait 5 0.5 0 0 0 0 0 0 0 
trait 6 0.378347 0 0 0.742295 0 0.359265 0 0.227462 
trait 7 0.7 0 0 0 0 0 0 0 
trait 8 0.8 0 0 0 0 0 0 0 
node 1 3 1 3
node 2 5 1 1
node 3 4 1 1
node 4 6 1 1
node 5 3 1 1
node 6 3 1 1
node 7 8 1 1
node 8 1 0 2
node 14 1 0 0
node 19 1 0 0
node 23 2 0 0
node 27 3 0 0
node 47 1 0 0
node 53 1 0 0
node 64 1 0 0
node 89 1 0 0
node 98 1 0 0
node 105 1 0 0
gene 7 1 8 0.926981 0 1 0.926981 1
gene 6 2 8 0.551807 0 2 0.551807 1
gene 4 3 8 1.52663 0 3 1.52663 0
gene 5 4 8 0.0717899 0 4 0.0717899 1
gene 5 5 8 -0.657762 0 5 -0.657762 1
gene 3 6 8 -1.89784 0 6 -1.89784 1
gene 7 7 8 2.08199 0 7 2.08199 1
gene 5 5 14 2.92932 0 18 2.92932 1
gene 5 14 8 -1.03187 0 19 -1.03187 0
gene 5 1 14 -1.6358 0 22 -1.6358 1
gene 7 3 14 1.31326 0 24 1.31326 1
gene 4 4 14 -8 0 39 -8 1
gene 4 3 19 -0.430619 0 47 -0.430619 1
gene 4 19 8 7.92628 0 48 7.92628 1
gene 4 6 14 -0.836174 0 50 -0.836174 1
gene 4 19 23 0.846297 0 63 0.846297 1
gene 4 23 8 -0.518042 0 64 -0.518042 1
gene 2 23 14 -0.110338 0 70 -0.110338 1
gene 4 23 27 2.53492 0 79 2.53492 1
gene 4 27 8 -1.20333 0 80 -1.20333 1
gene 7 1 19 4.87769 0 83 4.87769 1
gene 4 5 27 -0.151579 0 92 -0.151579 0
gene 2 2 19 0.949238 0 108 0.949238 1
gene 8 6 23 4.35213 0 115 4.35213 1
gene 4 2 23 0.895189 0 124 0.895189 0
gene 8 4 19 4.9216 0 153 4.9216 1
gene 4 5 47 0.473014 0 181 0.473014 0
gene 4 47 27 -1.02785 0 182 -1.02785 1
gene 7 27 14 -5.60175 0 193 -5.60175 1
gene 4 4 27 -2.71446 0 212 -2.71446 1
gene 1 2 27 -0.120848 0 222 -0.120848 1
gene 4 2 53 -2.15305 0 226 -2.15305 0
gene 4 53 23 4.81438 0 227 4.81438 1
gene 2 53 27 -4.3091 0 238 -4.3091 1
gene 4 5 64 -3.86211 0 277 -3.86211 1
gene 4 64 47 0.133376 0 278 0.133376 1
gene 7 19 47 0.303146 0 338 0.303146 1
gene 4 7 23 0.330316 0 366 0.330316 1
gene 4 3 89 -2.42718 0 375 -2.42718 1
gene 4 89 8 1.74907 0 376 1.74907 1
gene 6 53 64 -2.26945 0 399 -2.26945 1
gene 5 14 98 1.18728 0 411 1.18728 1
gene 5 98 8 -1.88531 0 412 -1.88531 1
gene 4 2 105 1 0 440 0 1
gene 4 105 53 -2.15305 0 441 0 1
genomeend 18

/* Species #44 : (Size 1) (AF 41) (Age 1)  */


/* Organism #19 Fitness: 41 Error: 0 */
/* ##------$ WINNER 19 SPECIES #44 $------## */
genomestart 19
trait 1 0.1 0 0 0 0 0 0 0 
trait 2 0.2 0 0 0 0 0 0 0 
trait 3 0.3 0 0 0 0 0 0 0 
trait 4 0 0 0 0 0 0 0 0 
trait 5 0.5 0 0 0 0 0 0 0 
trait 6 0.378347 0 0 0.742295 0 0.359265 0 0.227462 
trait 7 0.7 0 0 0 0 0 0 0 
trait 8 0.8 0 0 0 0 0 0 0 
node 1 3 1 3
node 2 5 1 1
node 3 4 1 1
node 4 6 1 1
node 5 3 1 1
node 6 3 1 1
node 7 8 1 1
node 8 1 0 2
node 14 1 0 0
node 19 1 0 0
node 23 2 0 0
node 27 3 0 0
node 47 1 0 0
node 53 1 0 0
node 64 1 0 0
node 89 1 0 0
node 98 1 0 0
node 106 1 0 0
gene 7 1 8 0.926981 0 1 0.926981 1
gene 6 2 8 0.551807 0 2 0.551807 0
gene 4 3 8 1.52663 0 3 1.52663 0
gene 5 4 8 0.0717899 0 4 0.0717899 1
gene 5 5 8 -0.657762 0 5 -0.657762 1
gene 3 6 8 -1.89784 0 6 -1.89784 1
gene 7 7 8 2.08199 0 7 2.08199 1
gene 5 5 14 2.92932 0 18 2.92932 1
gene 5 14 8 -1.3797 0 19 -1.3797 0
gene 5 1 14 -1.6358 0 22 -1.6358 1
gene 7 3 14 1.31326 0 24 1.31326 1
gene 4 4 14 -8 0 39 -8 1
gene 4 3 19 -3.25294 0 47 -3.25294 1
gene 4 19 8 8 0 48 8 1
gene 4 6 14 -0.836174 0 50 -0.836174 1
gene 4 19 23 0.846297 0 63 0.846297 1
gene 4 23 8 -1.64257 0 64 -1.64257 1
gene 2 23 14 -2.68931 0 70 -2.68931 1
gene 4 23 27 2.53492 0 79 2.53492 1
gene 4 27 8 2.3454 0 80 2.3454 1
gene 7 1 19 4.16125 0 83 4.16125 1
gene 4 5 27 -0.151579 0 92 -0.151579 0
gene 2 2 19 0.949238 0 108 0.949238 1
gene 8 6 23 4.35213 0 115 4.35213 1
gene 4 2 23 -2.02641 0 124 -2.02641 0
gene 8 4 19 4.9216 0 153 4.9216 1
gene 4 5 47 0.473014 0 181 0.473014 0
gene 4 47 27 -1.02785 0 182 -1.02785 1
gene 7 27 14 -5.60175 0 193 -5.60175 1
gene 4 4 27 -2.71446 0 212 -2.71446 1
gene 1 2 27 1.34445 0 222 1.34445 1
gene 4 2 53 -3.85021 0 226 -3.85021 1
gene 4 53 23 3.02292 0 227 3.02292 1
gene 2 53 27 -4.3091 0 238 -4.3091 1
gene 4 5 64 -3.86211 0 277 -3.86211 1
gene 4 64 47 0.133376 0 278 0.133376 1
gene 7 19 47 1.77311 0 338 1.77311 1
gene 4 7 23 0.330316 0 366 0.330316 1
gene 4 3 89 1.72659 0 375 1.72659 1
gene 4 89 8 1.74907 0 376 1.74907 1
gene 6 53 64 -2.26945 0 399 -2.26945 1
gene 5 14 98 1.18728 0 411 1.18728 1
gene 5 98 8 -1.88531 0 412 -1.88531 1
gene 4 89 23 0.818376 0 435 0.818376 1
gene 6 2 106 1 0 443 0 1
gene 6 106 8 0.551807 0 444 0 1
genomeend 19
