
/* Species #41 : (Size 6) (AF 66.8334) (Age 7)  */


/* Organism #0 Fitness: 83 Error: 0 */
genomestart 0
trait 1 0.1 0 0 0 0 0 0 0 
trait 2 0.2 0 0 0 0 0 0 0 
trait 3 0.3 0 0 0 0 0 0 0 
trait 4 0 0 0 0 0 0 0 0 
trait 5 0.5 0 0 0 0 0 0 0 
trait 6 0.378347 0 0 0.742295 0 0.359265 0 0.227462 
trait 7 0.7 0 0 0 0 0 0 0 
trait 8 0.8 0 0 0 0 0 0 0 
node 1 3 1 3
node 2 5 1 1
node 3 4 1 1
node 4 6 1 1
node 5 3 1 1
node 6 3 1 1
node 7 8 1 1
node 8 1 0 2
node 14 1 0 0
node 19 1 0 0
node 23 2 0 0
node 27 3 0 0
node 47 1 0 0
node 53 1 0 0
node 64 1 0 0
node 89 1 0 0
node 98 1 0 0
node 110 1 0 0
gene 7 1 8 -1.21584 0 1 -1.21584 1
gene 6 2 8 -2.29015 0 2 -2.29015 1
gene 4 3 8 -0.356451 0 3 -0.356451 0
gene 5 4 8 0.739698 0 4 0.739698 1
gene 5 5 8 0.36187 0 5 0.36187 1
gene 3 6 8 -1.89784 0 6 -1.89784 1
gene 7 7 8 -8 0 7 -8 1
gene 5 5 14 2.08747 0 18 2.08747 1
gene 5 14 8 -1.3797 0 19 -1.3797 0
gene 5 1 14 -0.503059 0 22 -0.503059 1
gene 7 3 14 4.19571 0 24 4.19571 1
gene 4 4 14 -8 0 39 -8 1
gene 4 3 19 -3.25294 0 47 -3.25294 1
gene 4 19 8 8 0 48 8 1
gene 4 6 14 -0.0537416 0 50 -0.0537416 1
gene 4 19 23 -1.53019 0 63 -1.53019 1
gene 4 23 8 -1.64257 0 64 -1.64257 0
gene 2 23 14 -2.68931 0 70 -2.68931 1
gene 4 23 27 3.21145 0 79 3.21145 1
gene 4 27 8 2.3454 0 80 2.3454 1
gene 7 1 19 4.16125 0 83 4.16125 1
gene 4 5 27 0.511554 0 92 0.511554 0
gene 2 2 19 2.01058 0 108 2.01058 1
gene 8 6 23 2.91727 0 115 2.91727 1
gene 4 2 23 -2.02641 0 124 -2.02641 0
gene 8 4 19 3.21308 0 153 3.21308 1
gene 4 5 47 0.473014 0 181 0.473014 0
gene 4 47 27 -1.02785 0 182 -1.02785 1
gene 7 27 14 -3.16192 0 193 -3.16192 1
gene 4 4 27 -1.20372 0 212 -1.20372 1
gene 1 2 27 1.34445 0 222 1.34445 1
gene 4 2 53 -3.85021 0 226 -3.85021 1
gene 4 53 23 3.02292 0 227 3.02292 1
gene 2 53 27 -2.02224 0 238 -2.02224 1
gene 4 5 64 -2.51085 0 277 -2.51085 1
gene 4 64 47 0.137645 0 278 0.137645 1
gene 7 19 47 1.77311 0 338 1.77311 1
gene 4 7 23 -0.986965 0 366 -0.986965 1
gene 4 3 89 1.72659 0 375 1.72659 1
gene 4 89 8 0.456636 0 376 0.456636 1
gene 6 53 64 -2.82827 0 399 -2.82827 1
gene 5 14 98 2.72685 0 411 2.72685 1
gene 5 98 8 1.83426 0 412 1.83426 1
gene 3 23 89 -0.838225 0 434 -0.838225 1
gene 6 5 53 -0.751523 0 442 -0.751523 1
gene 4 23 110 1 0 454 0 1
gene 4 110 8 -1.64257 0 455 0 1
genomeend 0

/* Organism #1 Fitness: 85 Error: 0 */
genomestart 1
trait 1 0.1 0 0 0 0 0 0 0 
trait 2 0.2 0 0 0 0 0 0 0 
trait 3 0.3 0 0 0 0 0 0 0 
trait 4 0 0 0 0 0 0 0 0 
trait 5 0.5 0 0 0 0 0 0 0 
trait 6 0.378347 0 0 0.742295 0 0.359265 0 0.227462 
trait 7 0.7 0 0 0 0 0 0 0 
trait 8 0.8 0 0 0 0 0 0 0 
node 1 3 1 3
node 2 5 1 1
node 3 4 1 1
node 4 6 1 1
node 5 3 1 1
node 6 3 1 1
node 7 8 1 1
node 8 1 0 2
node 14 1 0 0
node 19 1 0 0
node 23 2 0 0
node 27 3 0 0
node 47 1 0 0
node 53 1 0 0
node 64 1 0 0
node 89 1 0 0
node 98 1 0 0
node 110 1 0 0
gene 7 1 8 -1.21584 0 1 -1.21584 1
gene 6 2 8 -2.29015 0 2 -2.29015 1
gene 4 3 8 -0.356451 0 3 -0.356451 1
gene 5 4 8 0.739698 0 4 0.739698 1
gene 5 5 8 0.36187 0 5 0.36187 1
gene 3 6 8 -1.89784 0 6 -1.89784 1
gene 7 7 8 -8 0 7 -8 1
gene 5 5 14 2.08747 0 18 2.08747 1
gene 5 14 8 -1.3797 0 19 -1.3797 0
gene 5 1 14 -0.503059 0 22 -0.503059 1
gene 7 3 14 4.19571 0 24 4.19571 1
gene 4 4 14 -8 0 39 -8 1
gene 4 3 19 -3.25294 0 47 -3.25294 1
gene 4 19 8 8 0 48 8 1
gene 4 6 14 -0.0537416 0 50 -0.0537416 1
gene 4 19 23 -1.53019 0 63 -1.53019 1
gene 4 23 8 -1.64257 0 64 -1.64257 0
gene 2 23 14 -2.68931 0 70 -2.68931 1
gene 4 23 27 3.21145 0 79 3.21145 1
gene 4 27 8 2.3454 0 80 2.3454 1
gene 7 1 19 4.16125 0 83 4.16125 1
gene 4 5 27 0.511554 0 92 0.511554 1
gene 2 2 19 2.01058 0 108 2.01058 1
gene 8 6 23 2.91727 0 115 2.91727 1
gene 4 2 23 -2.02641 0 124 -2.02641 0
gene 8 4 19 3.21308 0 153 3.21308 1
gene 4 5 47 0.473014 0 181 0.473014 0
gene 4 47 27 -1.02785 0 182 -1.02785 1
gene 7 27 14 -3.16192 0 193 -3.16192 1
gene 4 4 27 -1.20372 0 212 -1.20372 1
gene 1 2 27 1.34445 0 222 1.34445 1
gene 4 2 53 -3.85021 0 226 -3.85021 1
gene 4 53 23 3.02292 0 227 3.02292 1
gene 2 53 27 -2.02224 0 238 -2.02224 1
gene 4 5 64 -2.51085 0 277 -2.51085 1
gene 4 64 47 0.137645 0 278 0.137645 1
gene 7 19 47 1.77311 0 338 1.77311 1
gene 4 7 23 -0.986965 0 366 -0.986965 1
gene 4 3 89 1.72659 0 375 1.72659 1
gene 4 89 8 0.456636 0 376 0.456636 1
gene 6 53 64 -2.82827 0 399 -2.82827 1
gene 5 14 98 2.72685 0 411 2.72685 1
gene 5 98 8 1.83426 0 412 1.83426 1
gene 3 23 89 -0.838225 0 434 -0.838225 1
gene 6 5 53 -0.751523 0 442 -0.751523 1
gene 4 23 110 1 0 454 0 1
gene 4 110 8 -1.64257 0 455 0 1
genomeend 1

/* Organism #2 Fitness: 26 Error: 0 */
genomestart 2
trait 1 0.1 0 0 0 0 0 0 0 
trait 2 0.2 0 0 0 0 0 0 0 
trait 3 0.3 0 0 0 0 0 0 0 
trait 4 0 0 0 0 0 0 0 0 
trait 5 0.5 0 0 0 0 0 0 0 
trait 6 0.378347 0 0 0.742295 0 0.359265 0 0.227462 
trait 7 0.7 0 0 0 0 0 0 0 
trait 8 0.8 0 0 0 0 0 0 0 
node 1 3 1 3
node 2 5 1 1
node 3 4 1 1
node 4 6 1 1
node 5 3 1 1
node 6 3 1 1
node 7 8 1 1
node 8 1 0 2
node 14 1 0 0
node 19 1 0 0
node 23 2 0 0
node 27 3 0 0
node 47 1 0 0
node 53 1 0 0
node 64 1 0 0
node 89 1 0 0
node 98 1 0 0
gene 7 1 8 -1.21584 0 1 -1.21584 1
gene 6 2 8 -2.29015 0 2 -2.29015 1
gene 4 3 8 -1.64309 0 3 -1.64309 0
gene 5 4 8 1.45572 0 4 1.45572 1
gene 5 5 8 1.30714 0 5 1.30714 1
gene 3 6 8 -2.19641 0 6 -2.19641 1
gene 7 7 8 -0.444193 0 7 -0.444193 1
gene 5 5 14 2.37763 0 18 2.37763 1
gene 5 14 8 -1.0637 0 19 -1.0637 0
gene 5 1 14 -2.02823 0 22 -2.02823 1
gene 7 3 14 6.69101 0 24 6.69101 1
gene 4 4 14 -8 0 39 -8 1
gene 4 3 19 0.860356 0 47 0.860356 1
gene 4 19 8 8 0 48 8 1
gene 4 6 14 0.29453 0 50 0.29453 1
gene 4 19 23 -2.48094 0 63 -2.48094 1
gene 4 23 8 2.17598 0 64 2.17598 1
gene 2 23 14 1.72499 0 70 1.72499 1
gene 4 23 27 1.32965 0 79 1.32965 1
gene 4 27 8 -1.99428 0 80 -1.99428 1
gene 7 1 19 1.93272 0 83 1.93272 1
gene 4 5 27 2.60528 0 92 2.60528 0
gene 2 2 19 -0.402178 0 108 -0.402178 1
gene 8 6 23 1.42106 0 115 1.42106 1
gene 4 2 23 -0.282561 0 124 -0.282561 0
gene 8 4 19 1.2818 0 153 1.2818 1
gene 4 5 47 -0.733028 0 181 -0.733028 0
gene 4 47 27 -1.602 0 182 -1.602 1
gene 7 27 14 -5.44621 0 193 -5.44621 1
gene 4 4 27 -2.13188 0 212 -2.13188 1
gene 1 2 27 2.33168 0 222 2.33168 1
gene 4 2 53 -4.48958 0 226 -4.48958 1
gene 4 53 23 3.68407 0 227 3.68407 1
gene 2 53 27 -3.20592 0 238 -3.20592 1
gene 4 5 64 0.422981 0 277 0.422981 1
gene 4 64 47 -1.68666 0 278 -1.68666 1
gene 7 19 47 1.77311 0 338 1.77311 1
gene 4 7 23 -2.45298 0 366 -2.45298 1
gene 4 3 89 2.41469 0 375 2.41469 1
gene 4 89 8 1.34399 0 376 1.34399 1
gene 6 53 64 -5.22748 0 399 -5.22748 1
gene 5 14 98 4.67241 0 411 4.67241 1
gene 5 98 8 -0.519048 0 412 -0.519048 1
gene 3 23 89 -2.82105 0 434 -2.82105 1
gene 6 5 53 -1.67158 0 442 -1.67158 1
genomeend 2

/* Organism #3 Fitness: 106 Error: 0 */
/* ##------$ WINNER 3 SPECIES #41 $------## */
genomestart 3
trait 1 0.1 0 0 0 0 0 0 0 
trait 2 0.2 0 0 0 0 0 0 0 
trait 3 0.3 0 0 0 0 0 0 0 
trait 4 0 0 0 0 0 0 0 0 
trait 5 0.5 0 0 0 0 0 0 0 
trait 6 0.378347 0 0 0.742295 0 0.359265 0 0.227462 
trait 7 0.7 0 0 0 0 0 0 0 
trait 8 0.8 0 0 0 0 0 0 0 
node 1 3 1 3
node 2 5 1 1
node 3 4 1 1
node 4 6 1 1
node 5 3 1 1
node 6 3 1 1
node 7 8 1 1
node 8 1 0 2
node 14 1 0 0
node 19 1 0 0
node 23 2 0 0
node 27 3 0 0
node 47 1 0 0
node 53 1 0 0
node 64 1 0 0
node 89 1 0 0
node 98 1 0 0
node 110 1 0 0
gene 7 1 8 1.62237 0 1 1.62237 1
gene 6 2 8 -1.61442 0 2 -1.61442 1
gene 4 3 8 -0.944509 0 3 -0.944509 0
gene 5 4 8 1.93063 0 4 1.93063 1
gene 5 5 8 0.541364 0 5 0.541364 1
gene 3 6 8 -2.76364 0 6 -2.76364 1
gene 7 7 8 -8 0 7 -8 1
gene 5 5 14 0.698587 0 18 0.698587 1
gene 5 14 8 -1.98951 0 19 -1.98951 0
gene 5 1 14 -0.503059 0 22 -0.503059 1
gene 7 3 14 3.1006 0 24 3.1006 1
gene 4 4 14 -8 0 39 -8 1
gene 4 3 19 -4.89367 0 47 -4.89367 1
gene 4 19 8 8 0 48 8 1
gene 4 6 14 -1.08504 0 50 -1.08504 1
gene 4 19 23 -3.13045 0 63 -3.13045 1
gene 4 23 8 -3.09872 0 64 -3.09872 0
gene 2 23 14 1.31355 0 70 1.31355 1
gene 4 23 27 1.19169 0 79 1.19169 1
gene 4 27 8 2.46333 0 80 2.46333 1
gene 7 1 19 1.96932 0 83 1.96932 1
gene 4 5 27 2.44417 0 92 2.44417 0
gene 2 2 19 1.16287 0 108 1.16287 1
gene 8 6 23 1.8347 0 115 1.8347 1
gene 4 2 23 -0.126147 0 124 -0.126147 0
gene 8 4 19 3.21308 0 153 3.21308 1
gene 4 5 47 1.43674 0 181 1.43674 0
gene 4 47 27 -1.05393 0 182 -1.05393 1
gene 7 27 14 -4.75478 0 193 -4.75478 1
gene 4 4 27 -2.67022 0 212 -2.67022 1
gene 1 2 27 -0.027568 0 222 -0.027568 1
gene 4 2 53 -4.28202 0 226 -4.28202 1
gene 4 53 23 -0.260276 0 227 -0.260276 1
gene 2 53 27 -3.46772 0 238 -3.46772 1
gene 4 5 64 -3.42891 0 277 -3.42891 1
gene 4 64 47 1.85702 0 278 1.85702 1
gene 7 19 47 1.77311 0 338 1.77311 1
gene 4 7 23 -1.14987 0 366 -1.14987 1
gene 4 3 89 1.26098 0 375 1.26098 1
gene 4 89 8 1.5759 0 376 1.5759 1
gene 6 53 64 1.74198 0 399 1.74198 1
gene 5 14 98 1.0026 0 411 1.0026 1
gene 5 98 8 -0.310275 0 412 -0.310275 1
gene 3 23 89 2.14356 0 434 2.14356 1
gene 6 5 53 -2.82112 0 442 -2.82112 1
gene 4 23 110 0.453953 0 454 0.453953 1
gene 4 110 8 -1.64257 0 455 -1.64257 1
genomeend 3

/* Organism #4 Fitness: 0.0007 Error: 0 */
genomestart 4
trait 1 0.1 0 0 0 0 0 0 0 
trait 2 0.2 0 0 0 0 0 0 0 
trait 3 0.3 0 0 0 0 0 0 0 
trait 4 0 0 0 0 0 0 0 0 
trait 5 0.5 0 0 0 0 0 0 0 
trait 6 0.378347 0 0 0.742295 0 0.359265 0 0.227462 
trait 7 0.7 0 0 0 0 0 0 0 
trait 8 0.8 0 0 0 0 0 0 0 
node 1 3 1 3
node 2 5 1 1
node 3 4 1 1
node 4 6 1 1
node 5 3 1 1
node 6 3 1 1
node 7 8 1 1
node 8 1 0 2
node 14 1 0 0
node 19 1 0 0
node 23 2 0 0
node 27 3 0 0
node 47 1 0 0
node 53 1 0 0
node 64 1 0 0
node 89 1 0 0
node 98 1 0 0
gene 7 1 8 0.82507 0 1 0.82507 1
gene 6 2 8 -3.09215 0 2 -3.09215 1
gene 4 3 8 -0.297614 0 3 -0.297614 0
gene 5 4 8 1.24699 0 4 1.24699 1
gene 5 5 8 0.172545 0 5 0.172545 1
gene 3 6 8 -4.30256 0 6 -4.30256 1
gene 7 7 8 -7.59575 0 7 -7.59575 1
gene 5 5 14 2.28047 0 18 2.28047 1
gene 5 14 8 -2.55796 0 19 -2.55796 0
gene 5 1 14 1.91412 0 22 1.91412 1
gene 7 3 14 6.16852 0 24 6.16852 1
gene 4 4 14 -6.01099 0 39 -6.01099 1
gene 4 3 19 -3.91565 0 47 -3.91565 1
gene 4 19 8 6.09779 0 48 6.09779 1
gene 4 6 14 1.19228 0 50 1.19228 1
gene 4 19 23 -2.51648 0 63 -2.51648 1
gene 4 23 8 -1.44477 0 64 -1.44477 1
gene 2 23 14 -1.40588 0 70 -1.40588 1
gene 4 23 27 1.39926 0 79 1.39926 1
gene 4 27 8 2.82369 0 80 2.82369 1
gene 7 1 19 3.5129 0 83 3.5129 1
gene 4 5 27 -0.309742 0 92 -0.309742 0
gene 2 2 19 -0.244798 0 108 -0.244798 1
gene 8 6 23 3.23172 0 115 3.23172 1
gene 4 2 23 -3.54707 0 124 -3.54707 0
gene 8 4 19 3.53322 0 153 3.53322 1
gene 4 5 47 -0.825005 0 181 -0.825005 0
gene 4 47 27 -0.315702 0 182 -0.315702 1
gene 7 27 14 -3.93567 0 193 -3.93567 1
gene 4 4 27 -0.122918 0 212 -0.122918 1
gene 1 2 27 0.531819 0 222 0.531819 1
gene 4 2 53 -5.69822 0 226 -5.69822 1
gene 4 53 23 1.4878 0 227 1.4878 1
gene 2 53 27 -1.53749 0 238 -1.53749 1
gene 4 5 64 -4.0406 0 277 -4.0406 1
gene 4 64 47 -1.6965 0 278 -1.6965 1
gene 7 19 47 0.670989 0 338 0.670989 1
gene 4 7 23 -3.16989 0 366 -3.16989 1
gene 4 3 89 2.2457 0 375 2.2457 1
gene 4 89 8 0.456636 0 376 0.456636 1
gene 6 53 64 -1.24721 0 399 -1.24721 1
gene 5 14 98 3.34302 0 411 3.34302 1
gene 5 98 8 1.83426 0 412 1.83426 1
gene 3 23 89 0.620787 0 434 0.620787 1
gene 6 5 53 -0.751523 0 442 -0.751523 1
genomeend 4

/* Organism #5 Fitness: 101 Error: 0 */
/* ##------$ WINNER 5 SPECIES #41 $------## */
genomestart 5
trait 1 0.1 0 0 0 0 0 0 0 
trait 2 0.2 0 0 0 0 0 0 0 
trait 3 0.3 0 0 0 0 0 0 0 
trait 4 0 0 0 0 0 0 0 0 
trait 5 0.5 0 0 0 0 0 0 0 
trait 6 0.378347 0 0 0.742295 0 0.359265 0 0.227462 
trait 7 0.7 0 0 0 0 0 0 0 
trait 8 0.8 0 0 0 0 0 0 0 
node 1 3 1 3
node 2 5 1 1
node 3 4 1 1
node 4 6 1 1
node 5 3 1 1
node 6 3 1 1
node 7 8 1 1
node 8 1 0 2
node 14 1 0 0
node 19 1 0 0
node 23 2 0 0
node 27 3 0 0
node 47 1 0 0
node 53 1 0 0
node 64 1 0 0
node 89 1 0 0
node 98 1 0 0
node 110 1 0 0
gene 7 1 8 -1.21584 0 1 -1.21584 1
gene 6 2 8 -2.29015 0 2 -2.29015 1
gene 4 3 8 -0.356451 0 3 -0.356451 0
gene 5 4 8 0.739698 0 4 0.739698 1
gene 5 5 8 0.36187 0 5 0.36187 1
gene 3 6 8 -1.89784 0 6 -1.89784 1
gene 7 7 8 -8 0 7 -8 1
gene 5 5 14 2.08747 0 18 2.08747 1
gene 5 14 8 -1.3797 0 19 -1.3797 0
gene 5 1 14 -0.503059 0 22 -0.503059 1
gene 7 3 14 4.19571 0 24 4.19571 1
gene 4 4 14 -8 0 39 -8 1
gene 4 3 19 -3.25294 0 47 -3.25294 1
gene 4 19 8 8 0 48 8 1
gene 4 6 14 -0.0537416 0 50 -0.0537416 1
gene 4 19 23 -1.53019 0 63 -1.53019 1
gene 4 23 8 -1.64257 0 64 -1.64257 0
gene 2 23 14 -2.68931 0 70 -2.68931 1
gene 4 23 27 3.21145 0 79 3.21145 1
gene 4 27 8 2.3454 0 80 2.3454 1
gene 7 1 19 4.16125 0 83 4.16125 1
gene 4 5 27 0.511554 0 92 0.511554 0
gene 2 2 19 2.01058 0 108 2.01058 1
gene 8 6 23 2.91727 0 115 2.91727 1
gene 4 2 23 -2.02641 0 124 -2.02641 0
gene 8 4 19 3.21308 0 153 3.21308 1
gene 4 5 47 0.473014 0 181 0.473014 0
gene 4 47 27 -1.02785 0 182 -1.02785 1
gene 7 27 14 -3.16192 0 193 -3.16192 1
gene 4 4 27 -1.20372 0 212 -1.20372 1
gene 1 2 27 1.34445 0 222 1.34445 1
gene 4 2 53 -3.85021 0 226 -3.85021 1
gene 4 53 23 3.02292 0 227 3.02292 1
gene 2 53 27 -2.02224 0 238 -2.02224 1
gene 4 5 64 -2.51085 0 277 -2.51085 1
gene 4 64 47 0.137645 0 278 0.137645 1
gene 7 19 47 1.77311 0 338 1.77311 1
gene 4 7 23 -0.986965 0 366 -0.986965 1
gene 4 3 89 1.72659 0 375 1.72659 1
gene 4 89 8 0.456636 0 376 0.456636 1
gene 6 53 64 -2.82827 0 399 -2.82827 1
gene 5 14 98 2.72685 0 411 2.72685 1
gene 5 98 8 1.83426 0 412 1.83426 1
gene 3 23 89 -0.838225 0 434 -0.838225 1
gene 6 5 53 -0.751523 0 442 -0.751523 1
gene 4 23 110 1 0 454 0 1
gene 4 110 8 -1.64257 0 455 0 1
genomeend 5

/* Species #42 : (Size 1) (AF 31) (Age 6)  */


/* Organism #6 Fitness: 31 Error: 0 */
/* ##------$ WINNER 6 SPECIES #42 $------## */
genomestart 6
trait 1 0.1 0 0 0 0 0 0 0 
trait 2 0.2 0 0 0 0 0 0 0 
trait 3 0.3 0 0 0 0 0 0 0 
trait 4 0 0 0 0 0 0 0 0 
trait 5 0.5 0 0 0 0 0 0 0 
trait 6 0.378347 0 0 0.742295 0 0.359265 0 0.227462 
trait 7 0.7 0 0 0 0 0 0 0 
trait 8 0.8 0 0 0 0 0 0 0 
node 1 3 1 3
node 2 5 1 1
node 3 4 1 1
node 4 6 1 1
node 5 3 1 1
node 6 3 1 1
node 7 8 1 1
node 8 1 0 2
node 14 1 0 0
node 19 1 0 0
node 23 2 0 0
node 27 3 0 0
node 47 1 0 0
node 53 1 0 0
node 64 1 0 0
node 89 1 0 0
node 102 1 0 0
gene 7 1 8 -0.728024 0 1 -0.728024 1
gene 6 2 8 -2.96265 0 2 -2.96265 1
gene 4 3 8 -0.128777 0 3 -0.128777 0
gene 5 4 8 0.971806 0 4 0.971806 1
gene 5 5 8 -8 0 5 -8 1
gene 3 6 8 2.15087 0 6 2.15087 1
gene 7 7 8 0.438524 0 7 0.438524 1
gene 5 5 14 -0.241837 0 18 -0.241837 1
gene 5 14 8 -1.51666 0 19 -1.51666 1
gene 5 1 14 1.35122 0 22 1.35122 1
gene 7 3 14 5.4963 0 24 5.4963 1
gene 4 4 14 -4.29879 0 39 -4.29879 1
gene 4 3 19 -2.05681 0 47 -2.05681 1
gene 4 19 8 5.05008 0 48 5.05008 1
gene 4 6 14 2.25625 0 50 2.25625 1
gene 4 19 23 0.326229 0 63 0.326229 1
gene 4 23 8 1.23871 0 64 1.23871 1
gene 2 23 14 2.11741 0 70 2.11741 1
gene 4 23 27 4.86384 0 79 4.86384 1
gene 4 27 8 4.75539 0 80 4.75539 1
gene 7 1 19 0.822946 0 83 0.822946 1
gene 4 5 27 3.65497 0 92 3.65497 0
gene 2 2 19 3.38831 0 108 3.38831 1
gene 8 6 23 1.57392 0 115 1.57392 1
gene 4 2 23 -2.02695 0 124 -2.02695 0
gene 8 4 19 2.05113 0 153 2.05113 1
gene 4 5 47 -3.22777 0 181 -3.22777 1
gene 4 47 27 5.28578 0 182 5.28578 1
gene 7 27 14 -0.368751 0 193 -0.368751 1
gene 4 4 27 0.240316 0 212 0.240316 1
gene 1 2 27 1.53492 0 222 1.53492 1
gene 4 2 53 -4.60287 0 226 -4.60287 1
gene 4 53 23 3.27088 0 227 3.27088 0
gene 2 53 27 -7.36421 0 238 -7.36421 1
gene 4 5 64 4.55893 0 277 4.55893 1
gene 4 64 47 0.910984 0 278 0.910984 1
gene 7 19 47 -0.208728 0 338 -0.208728 1
gene 4 7 23 1.97711 0 366 1.97711 1
gene 4 3 89 0.30855 0 375 0.30855 1
gene 4 89 8 1.24104 0 376 1.24104 1
gene 6 53 64 -4.49802 0 399 -4.49802 1
gene 5 53 14 1.36552 0 420 1.36552 1
gene 4 53 102 -0.895718 0 425 -0.895718 1
gene 4 102 23 4.7119 0 426 4.7119 1
gene 1 7 14 2.33667 0 439 2.33667 1
gene 4 4 23 -2.24343 0 452 -2.24343 1
genomeend 6

/* Species #44 : (Size 3) (AF 30.3333) (Age 3)  */


/* Organism #7 Fitness: 27 Error: 0 */
genomestart 7
trait 1 0.1 0 0 0 0 0 0 0 
trait 2 0.2 0 0 0 0 0 0 0 
trait 3 0.3 0 0 0 0 0 0 0 
trait 4 0 0 0 0 0 0 0 0 
trait 5 0.5 0 0 0 0 0 0 0 
trait 6 0.378347 0 0 0.742295 0 0.359265 0 0.227462 
trait 7 0.7 0 0 0 0 0 0 0 
trait 8 0.8 0 0 0 0 0 0 0 
node 1 3 1 3
node 2 5 1 1
node 3 4 1 1
node 4 6 1 1
node 5 3 1 1
node 6 3 1 1
node 7 8 1 1
node 8 1 0 2
node 14 1 0 0
node 19 1 0 0
node 23 2 0 0
node 27 3 0 0
node 47 1 0 0
node 53 1 0 0
node 64 1 0 0
node 89 1 0 0
node 98 1 0 0
node 106 1 0 0
gene 7 1 8 0.496406 0 1 0.496406 1
gene 6 2 8 2.96301 0 2 2.96301 0
gene 4 3 8 0.765213 0 3 0.765213 0
gene 5 4 8 -2.06755 0 4 -2.06755 1
gene 5 5 8 1.53248 0 5 1.53248 1
gene 3 6 8 -2.31897 0 6 -2.31897 1
gene 7 7 8 1.569 0 7 1.569 1
gene 5 5 14 1.42119 0 18 1.42119 1
gene 5 14 8 -3.70437 0 19 -3.70437 0
gene 5 1 14 -3.40421 0 22 -3.40421 1
gene 7 3 14 0.84396 0 24 0.84396 1
gene 4 4 14 -7.43429 0 39 -7.43429 1
gene 4 3 19 -4.32989 0 47 -4.32989 1
gene 4 19 8 8 0 48 8 1
gene 4 6 14 -1.09719 0 50 -1.09719 1
gene 4 19 23 1.65027 0 63 1.65027 1
gene 4 23 8 -2.3514 0 64 -2.3514 1
gene 2 23 14 -2.22345 0 70 -2.22345 1
gene 4 23 27 4.88569 0 79 4.88569 1
gene 4 27 8 2.09239 0 80 2.09239 1
gene 7 1 19 3.55233 0 83 3.55233 1
gene 4 5 27 0.167186 0 92 0.167186 0
gene 2 2 19 -0.566941 0 108 -0.566941 1
gene 8 6 23 3.99851 0 115 3.99851 1
gene 4 2 23 -2.02894 0 124 -2.02894 0
gene 8 4 19 3.6355 0 153 3.6355 1
gene 4 5 47 -1.43107 0 181 -1.43107 0
gene 4 47 27 1.39503 0 182 1.39503 1
gene 7 27 14 -5.66873 0 193 -5.66873 1
gene 4 4 27 -2.56833 0 212 -2.56833 1
gene 1 2 27 3.48793 0 222 3.48793 1
gene 4 2 53 -1.97901 0 226 -1.97901 1
gene 4 53 23 2.77837 0 227 2.77837 1
gene 2 53 27 -4.95514 0 238 -4.95514 1
gene 4 5 64 -5.05513 0 277 -5.05513 1
gene 4 64 47 1.58001 0 278 1.58001 1
gene 7 19 47 3.78245 0 338 3.78245 1
gene 4 7 23 -1.82516 0 366 -1.82516 1
gene 4 3 89 0.40881 0 375 0.40881 1
gene 4 89 8 2.0493 0 376 2.0493 1
gene 6 53 64 -0.0379892 0 399 -0.0379892 1
gene 5 14 98 3.66329 0 411 3.66329 1
gene 5 98 8 -1.88531 0 412 -1.88531 1
gene 4 89 23 0.818376 0 435 0.818376 1
gene 6 2 106 0.104968 0 443 0.104968 1
gene 6 106 8 0.551807 0 444 0.551807 1
genomeend 7

/* Organism #8 Fitness: 23 Error: 0 */
genomestart 8
trait 1 0.1 0 0 0 0 0 0 0 
trait 2 0.2 0 0 0 0 0 0 0 
trait 3 0.3 0 0 0 0 0 0 0 
trait 4 0 0 0 0 0 0 0 0 
trait 5 0.5 0 0 0 0 0 0 0 
trait 6 0.378347 0 0 0.742295 0 0.359265 0 0.227462 
trait 7 0.7 0 0 0 0 0 0 0 
trait 8 0.8 0 0 0 0 0 0 0 
node 1 3 1 3
node 2 5 1 1
node 3 4 1 1
node 4 6 1 1
node 5 3 1 1
node 6 3 1 1
node 7 8 1 1
node 8 1 0 2
node 14 1 0 0
node 19 1 0 0
node 23 2 0 0
node 27 3 0 0
node 47 1 0 0
node 53 1 0 0
node 64 1 0 0
node 89 1 0 0
node 98 1 0 0
node 106 1 0 0
gene 7 1 8 0.612654 0 1 0.612654 1
gene 6 2 8 0.170859 0 2 0.170859 0
gene 4 3 8 4.7807 0 3 4.7807 0
gene 5 4 8 -0.942006 0 4 -0.942006 1
gene 5 5 8 -2.10906 0 5 -2.10906 1
gene 3 6 8 0.351615 0 6 0.351615 1
gene 7 7 8 -0.549547 0 7 -0.549547 1
gene 5 5 14 3.42746 0 18 3.42746 1
gene 5 14 8 -0.628485 0 19 -0.628485 0
gene 5 1 14 -3.9658 0 22 -3.9658 1
gene 7 3 14 3.0313 0 24 3.0313 1
gene 4 4 14 -6.51186 0 39 -6.51186 1
gene 4 3 19 -3.46232 0 47 -3.46232 1
gene 4 19 8 8 0 48 8 1
gene 4 6 14 1.2023 0 50 1.2023 1
gene 4 19 23 3.86358 0 63 3.86358 1
gene 4 23 8 0.482473 0 64 0.482473 1
gene 2 23 14 -0.609117 0 70 -0.609117 1
gene 4 23 27 5.75548 0 79 5.75548 1
gene 4 27 8 1.51633 0 80 1.51633 1
gene 7 1 19 6.07484 0 83 6.07484 1
gene 4 5 27 -1.04561 0 92 -1.04561 0
gene 2 2 19 1.8405 0 108 1.8405 1
gene 8 6 23 8 0 115 8 1
gene 4 2 23 -3.39327 0 124 -3.39327 0
gene 8 4 19 5.58614 0 153 5.58614 1
gene 4 5 47 -0.635412 0 181 -0.635412 0
gene 4 47 27 1.73244 0 182 1.73244 1
gene 7 27 14 0.588924 0 193 0.588924 1
gene 4 4 27 -4.23492 0 212 -4.23492 1
gene 1 2 27 4.20147 0 222 4.20147 1
gene 4 2 53 -6.61105 0 226 -6.61105 1
gene 4 53 23 0.552599 0 227 0.552599 1
gene 2 53 27 -2.8197 0 238 -2.8197 1
gene 4 5 64 -2.21051 0 277 -2.21051 1
gene 4 64 47 1.20479 0 278 1.20479 1
gene 7 19 47 -1.89823 0 338 -1.89823 1
gene 4 7 23 1.70502 0 366 1.70502 1
gene 4 3 89 0.616299 0 375 0.616299 1
gene 4 89 8 3.58296 0 376 3.58296 1
gene 6 53 64 -1.50999 0 399 -1.50999 1
gene 5 14 98 0.229929 0 411 0.229929 1
gene 5 98 8 1.79156 0 412 1.79156 1
gene 4 89 23 1.19139 0 435 1.19139 1
gene 6 2 106 1.72005 0 443 1.72005 1
gene 6 106 8 -1.46543 0 444 -1.46543 1
genomeend 8

/* Organism #9 Fitness: 41 Error: 0 */
/* ##------$ WINNER 9 SPECIES #44 $------## */
genomestart 9
trait 1 0.1 0 0 0 0 0 0 0 
trait 2 0.2 0 0 0 0 0 0 0 
trait 3 0.3 0 0 0 0 0 0 0 
trait 4 0 0 0 0 0 0 0 0 
trait 5 0.5 0 0 0 0 0 0 0 
trait 6 0.378347 0 0 0.742295 0 0.359265 0 0.227462 
trait 7 0.7 0 0 0 0 0 0 0 
trait 8 0.8 0 0 0 0 0 0 0 
node 1 3 1 3
node 2 5 1 1
node 3 4 1 1
node 4 6 1 1
node 5 3 1 1
node 6 3 1 1
node 7 8 1 1
node 8 1 0 2
node 14 1 0 0
node 19 1 0 0
node 23 2 0 0
node 27 3 0 0
node 47 1 0 0
node 53 1 0 0
node 64 1 0 0
node 89 1 0 0
node 98 1 0 0
node 106 1 0 0
gene 7 1 8 0.846065 0 1 0.846065 1
gene 6 2 8 1.94486 0 2 1.94486 0
gene 4 3 8 1.77165 0 3 1.77165 0
gene 5 4 8 -1.74503 0 4 -1.74503 1
gene 5 5 8 -0.0271479 0 5 -0.0271479 1
gene 3 6 8 -1.23644 0 6 -1.23644 1
gene 7 7 8 1.11584 0 7 1.11584 1
gene 5 5 14 2.17525 0 18 2.17525 1
gene 5 14 8 -3.38502 0 19 -3.38502 1
gene 5 1 14 -3.56438 0 22 -3.56438 1
gene 7 3 14 2.09744 0 24 2.09744 1
gene 4 4 14 -7.71715 0 39 -7.71715 1
gene 4 3 19 -3.29534 0 47 -3.29534 1
gene 4 19 8 8 0 48 8 1
gene 4 6 14 0.150149 0 50 0.150149 1
gene 4 19 23 2.44202 0 63 2.44202 1
gene 4 23 8 -1.99698 0 64 -1.99698 1
gene 2 23 14 -1.93799 0 70 -1.93799 1
gene 4 23 27 4.28876 0 79 4.28876 1
gene 4 27 8 1.8887 0 80 1.8887 1
gene 7 1 19 3.83546 0 83 3.83546 1
gene 4 5 27 -0.0838048 0 92 -0.0838048 1
gene 2 2 19 -0.322479 0 108 -0.322479 1
gene 8 6 23 5.38284 0 115 5.38284 1
gene 4 2 23 -1.83655 0 124 -1.83655 0
gene 8 4 19 4.65245 0 153 4.65245 1
gene 4 5 47 -1.59795 0 181 -1.59795 0
gene 4 47 27 1.01238 0 182 1.01238 1
gene 7 27 14 -1.95077 0 193 -1.95077 1
gene 4 4 27 -2.18956 0 212 -2.18956 1
gene 1 2 27 3.3608 0 222 3.3608 1
gene 4 2 53 -4.1609 0 226 -4.1609 1
gene 4 53 23 2.60632 0 227 2.60632 1
gene 2 53 27 -3.41768 0 238 -3.41768 1
gene 4 5 64 -3.49074 0 277 -3.49074 1
gene 4 64 47 0.856695 0 278 0.856695 1
gene 7 19 47 1.83255 0 338 1.83255 1
gene 4 7 23 -0.0416785 0 366 -0.0416785 1
gene 4 3 89 1.03639 0 375 1.03639 1
gene 4 89 8 2.81613 0 376 2.81613 1
gene 6 53 64 -0.773991 0 399 -0.773991 1
gene 5 14 98 1.94661 0 411 1.94661 1
gene 5 98 8 -1.29186 0 412 -1.29186 1
gene 4 89 23 1.00488 0 435 1.00488 1
gene 6 2 106 0.555551 0 443 0.555551 1
gene 6 106 8 0.435859 0 444 0.435859 1
gene 6 47 14 -0.350035 0 465 -0.350035 1
genomeend 9

/* Species #45 : (Size 10) (AF 41.0001) (Age 2)  */


/* Organism #10 Fitness: 122 Error: 0 */
/* ##------$ WINNER 10 SPECIES #45 $------## */
genomestart 10
trait 1 0.1 0 0 0 0 0 0 0 
trait 2 0.2 0 0 0 0 0 0 0 
trait 3 0.3 0 0 0 0 0 0 0 
trait 4 0 0 0 0 0 0 0 0 
trait 5 0.5 0 0 0 0 0 0 0 
trait 6 0.378347 0 0 0.742295 0 0.359265 0 0.227462 
trait 7 0.7 0 0 0 0 0 0 0 
trait 8 0.8 0 0 0 0 0 0 0 
node 1 3 1 3
node 2 5 1 1
node 3 4 1 1
node 4 6 1 1
node 5 3 1 1
node 6 3 1 1
node 7 8 1 1
node 8 1 0 2
node 14 1 0 0
node 19 1 0 0
node 23 2 0 0
node 27 3 0 0
node 47 1 0 0
node 53 1 0 0
node 64 1 0 0
node 89 1 0 0
node 102 1 0 0
node 109 1 0 0
gene 7 1 8 -0.577295 0 1 -0.577295 1
gene 6 2 8 -0.300609 0 2 -0.300609 1
gene 4 3 8 0.654007 0 3 0.654007 0
gene 5 4 8 1.34993 0 4 1.34993 1
gene 5 5 8 -0.012774 0 5 -0.012774 1
gene 3 6 8 7.58711 0 6 7.58711 1
gene 7 7 8 -7.6523 0 7 -7.6523 1
gene 5 5 14 -2.14191 0 18 -2.14191 1
gene 5 14 8 -2.50585 0 19 -2.50585 1
gene 5 1 14 0.409011 0 22 0.409011 1
gene 7 3 14 0.802668 0 24 0.802668 1
gene 4 4 14 -5.86793 0 39 -5.86793 1
gene 4 3 19 -0.743367 0 47 -0.743367 1
gene 4 19 8 5.58561 0 48 5.58561 1
gene 4 6 14 0.602727 0 50 0.602727 1
gene 4 19 23 0.347149 0 63 0.347149 1
gene 4 23 8 -0.47839 0 64 -0.47839 1
gene 2 23 14 -0.377991 0 70 -0.377991 1
gene 4 23 27 0.965403 0 79 0.965403 1
gene 4 27 8 2.50907 0 80 2.50907 1
gene 7 1 19 0.783816 0 83 0.783816 1
gene 4 5 27 3.48556 0 92 3.48556 0
gene 2 2 19 -2.35738 0 108 -2.35738 1
gene 8 6 23 -0.42294 0 115 -0.42294 1
gene 4 2 23 -3.4895 0 124 -3.4895 0
gene 8 4 19 1.96411 0 153 1.96411 1
gene 4 5 47 -2.74335 0 181 -2.74335 1
gene 4 47 27 3.16087 0 182 3.16087 1
gene 7 27 14 -3.68311 0 193 -3.68311 1
gene 4 4 27 -6.20418 0 212 -6.20418 1
gene 1 2 27 1.34973 0 222 1.34973 1
gene 4 2 53 -0.506544 0 226 -0.506544 1
gene 4 53 23 -1.03531 0 227 -1.03531 0
gene 2 53 27 -7.38683 0 238 -7.38683 1
gene 4 5 64 2.21933 0 277 2.21933 1
gene 4 64 47 0.00617992 0 278 0.00617992 0
gene 7 19 47 -0.613823 0 338 -0.613823 1
gene 4 7 23 0.127317 0 366 0.127317 1
gene 4 3 89 -1.76189 0 375 -1.76189 1
gene 4 89 8 1.93035 0 376 1.93035 1
gene 6 53 64 -3.98992 0 399 -3.98992 1
gene 5 53 14 -2.65664 0 420 -2.65664 1
gene 4 53 102 1.33149 0 425 1.33149 1
gene 4 102 23 7.08948 0 426 7.08948 1
gene 4 64 109 1 0 449 0 1
gene 4 109 47 0.00617992 0 450 0 1
gene 4 6 102 0.85771 0 462 0.85771 1
genomeend 10

/* Organism #11 Fitness: 122 Error: 0 */
/* ##------$ WINNER 11 SPECIES #45 $------## */
genomestart 11
trait 1 0.1 0 0 0 0 0 0 0 
trait 2 0.2 0 0 0 0 0 0 0 
trait 3 0.3 0 0 0 0 0 0 0 
trait 4 0 0 0 0 0 0 0 0 
trait 5 0.5 0 0 0 0 0 0 0 
trait 6 0.378347 0 0 0.742295 0 0.359265 0 0.227462 
trait 7 0.7 0 0 0 0 0 0 0 
trait 8 0.8 0 0 0 0 0 0 0 
node 1 3 1 3
node 2 5 1 1
node 3 4 1 1
node 4 6 1 1
node 5 3 1 1
node 6 3 1 1
node 7 8 1 1
node 8 1 0 2
node 14 1 0 0
node 19 1 0 0
node 23 2 0 0
node 27 3 0 0
node 47 1 0 0
node 53 1 0 0
node 64 1 0 0
node 89 1 0 0
node 102 1 0 0
node 109 1 0 0
gene 7 1 8 -0.577295 0 1 -0.577295 1
gene 6 2 8 -0.300609 0 2 -0.300609 1
gene 4 3 8 0.654007 0 3 0.654007 0
gene 5 4 8 1.34993 0 4 1.34993 1
gene 5 5 8 -0.012774 0 5 -0.012774 1
gene 3 6 8 7.58711 0 6 7.58711 1
gene 7 7 8 -7.6523 0 7 -7.6523 1
gene 5 5 14 -2.14191 0 18 -2.14191 1
gene 5 14 8 -2.50585 0 19 -2.50585 1
gene 5 1 14 0.409011 0 22 0.409011 1
gene 7 3 14 0.802668 0 24 0.802668 1
gene 4 4 14 -5.86793 0 39 -5.86793 1
gene 4 3 19 -0.743367 0 47 -0.743367 1
gene 4 19 8 5.58561 0 48 5.58561 1
gene 4 6 14 0.602727 0 50 0.602727 1
gene 4 19 23 0.347149 0 63 0.347149 1
gene 4 23 8 -0.47839 0 64 -0.47839 1
gene 2 23 14 -0.377991 0 70 -0.377991 1
gene 4 23 27 0.965403 0 79 0.965403 1
gene 4 27 8 2.50907 0 80 2.50907 1
gene 7 1 19 0.783816 0 83 0.783816 1
gene 4 5 27 3.48556 0 92 3.48556 0
gene 2 2 19 -2.35738 0 108 -2.35738 1
gene 8 6 23 -0.42294 0 115 -0.42294 1
gene 4 2 23 -3.4895 0 124 -3.4895 0
gene 8 4 19 1.96411 0 153 1.96411 1
gene 4 5 47 -2.74335 0 181 -2.74335 1
gene 4 47 27 3.16087 0 182 3.16087 1
gene 7 27 14 -3.68311 0 193 -3.68311 1
gene 4 4 27 -6.20418 0 212 -6.20418 1
gene 1 2 27 1.34973 0 222 1.34973 1
gene 4 2 53 -0.506544 0 226 -0.506544 1
gene 4 53 23 -1.03531 0 227 -1.03531 0
gene 2 53 27 -7.38683 0 238 -7.38683 1
gene 4 5 64 2.21933 0 277 2.21933 1
gene 4 64 47 0.00617992 0 278 0.00617992 0
gene 7 19 47 -0.613823 0 338 -0.613823 1
gene 4 7 23 0.127317 0 366 0.127317 1
gene 4 3 89 -1.76189 0 375 -1.76189 1
gene 4 89 8 1.93035 0 376 1.93035 1
gene 6 53 64 -3.98992 0 399 -3.98992 1
gene 5 53 14 -2.65664 0 420 -2.65664 1
gene 4 53 102 1.33149 0 425 1.33149 1
gene 4 102 23 7.08948 0 426 7.08948 1
gene 4 64 109 1 0 449 0 1
gene 4 109 47 0.00617992 0 450 0 1
gene 4 6 102 0.85771 0 462 0.85771 1
gene 8 89 23 -0.125555 0 466 -0.125555 1
genomeend 11

/* Organism #12 Fitness: 0.0003 Error: 0 */
genomestart 12
trait 1 0.1 0 0 0 0 0 0 0 
trait 2 0.2 0 0 0 0 0 0 0 
trait 3 0.3 0 0 0 0 0 0 0 
trait 4 0 0 0 0 0 0 0 0 
trait 5 0.5 0 0 0 0 0 0 0 
trait 6 0.378347 0 0 0.742295 0 0.359265 0 0.227462 
trait 7 0.7 0 0 0 0 0 0 0 
trait 8 0.8 0 0 0 0 0 0 0 
node 1 3 1 3
node 2 5 1 1
node 3 4 1 1
node 4 6 1 1
node 5 3 1 1
node 6 3 1 1
node 7 8 1 1
node 8 1 0 2
node 14 1 0 0
node 19 1 0 0
node 23 2 0 0
node 27 3 0 0
node 47 1 0 0
node 53 1 0 0
node 64 1 0 0
node 89 1 0 0
node 102 1 0 0
node 109 1 0 0
gene 7 1 8 0.692849 0 1 0.692849 1
gene 6 2 8 -2.26579 0 2 -2.26579 1
gene 4 3 8 -0.934743 0 3 -0.934743 0
gene 5 4 8 2.00124 0 4 2.00124 1
gene 5 5 8 1.28355 0 5 1.28355 1
gene 3 6 8 6.12066 0 6 6.12066 1
gene 7 7 8 -7.8639 0 7 -7.8639 1
gene 5 5 14 -1.14384 0 18 -1.14384 1
gene 5 14 8 -3.53843 0 19 -3.53843 1
gene 5 1 14 2.144 0 22 2.144 1
gene 7 3 14 0.343743 0 24 0.343743 1
gene 4 4 14 -5.18938 0 39 -5.18938 1
gene 4 3 19 -0.55843 0 47 -0.55843 1
gene 4 19 8 6.56908 0 48 6.56908 1
gene 4 6 14 0.785541 0 50 0.785541 1
gene 4 19 23 -0.831231 0 63 -0.831231 1
gene 4 23 8 -2.64333 0 64 -2.64333 1
gene 2 23 14 0.374447 0 70 0.374447 1
gene 4 23 27 1.48827 0 79 1.48827 1
gene 4 27 8 2.39974 0 80 2.39974 1
gene 7 1 19 -1.71406 0 83 -1.71406 1
gene 4 5 27 2.50972 0 92 2.50972 0
gene 2 2 19 -4.71518 0 108 -4.71518 1
gene 8 6 23 -2.92169 0 115 -2.92169 1
gene 4 2 23 -2.57749 0 124 -2.57749 0
gene 8 4 19 0.600979 0 153 0.600979 1
gene 4 5 47 -4.28136 0 181 -4.28136 1
gene 4 47 27 4.50958 0 182 4.50958 1
gene 7 27 14 -4.20819 0 193 -4.20819 1
gene 4 4 27 -5.14565 0 212 -5.14565 1
gene 1 2 27 2.74558 0 222 2.74558 1
gene 4 2 53 0.281208 0 226 0.281208 1
gene 4 53 23 0.120241 0 227 0.120241 0
gene 2 53 27 -7.79603 0 238 -7.79603 1
gene 4 5 64 0.78187 0 277 0.78187 1
gene 4 64 47 1.26199 0 278 1.26199 0
gene 7 19 47 1.30962 0 338 1.30962 1
gene 4 7 23 -0.837715 0 366 -0.837715 1
gene 4 3 89 2.36089 0 375 2.36089 1
gene 4 89 8 3.18584 0 376 3.18584 1
gene 6 53 64 -2.31378 0 399 -2.31378 1
gene 5 53 14 -0.720949 0 420 -0.720949 1
gene 4 53 102 1.33149 0 425 1.33149 1
gene 4 102 23 5.29737 0 426 5.29737 1
gene 4 64 109 1.38667 0 449 1.38667 1
gene 4 109 47 -0.916673 0 450 -0.916673 1
gene 4 6 102 0.85771 0 462 0.85771 1
genomeend 12

/* Organism #13 Fitness: 0 Error: 0 */
genomestart 13
trait 1 0.1 0 0 0 0 0 0 0 
trait 2 0.2 0 0 0 0 0 0 0 
trait 3 0.3 0 0 0 0 0 0 0 
trait 4 0 0 0 0 0 0 0 0 
trait 5 0.5 0 0 0 0 0 0 0 
trait 6 0.378347 0 0 0.742295 0 0.359265 0 0.227462 
trait 7 0.7 0 0 0 0 0 0 0 
trait 8 0.8 0 0 0 0 0 0 0 
node 1 3 1 3
node 2 5 1 1
node 3 4 1 1
node 4 6 1 1
node 5 3 1 1
node 6 3 1 1
node 7 8 1 1
node 8 1 0 2
node 14 1 0 0
node 19 1 0 0
node 23 2 0 0
node 27 3 0 0
node 47 1 0 0
node 53 1 0 0
node 64 1 0 0
node 89 1 0 0
node 102 1 0 0
node 109 1 0 0
gene 7 1 8 -3.05538 0 1 -3.05538 1
gene 6 2 8 1.46971 0 2 1.46971 1
gene 4 3 8 0.654007 0 3 0.654007 0
gene 5 4 8 -0.422398 0 4 -0.422398 1
gene 5 5 8 1.51546 0 5 1.51546 1
gene 3 6 8 7.17021 0 6 7.17021 1
gene 7 7 8 -8 0 7 -8 1
gene 5 5 14 -4.22254 0 18 -4.22254 1
gene 5 14 8 -3.26174 0 19 -3.26174 1
gene 5 1 14 0.409011 0 22 0.409011 1
gene 7 3 14 0.802668 0 24 0.802668 1
gene 4 4 14 -7.97935 0 39 -7.97935 1
gene 4 3 19 -1.87992 0 47 -1.87992 1
gene 4 19 8 3.63182 0 48 3.63182 1
gene 4 6 14 1.26043 0 50 1.26043 1
gene 4 19 23 0.284474 0 63 0.284474 1
gene 4 23 8 -0.735931 0 64 -0.735931 1
gene 2 23 14 1.05888 0 70 1.05888 1
gene 4 23 27 -0.62139 0 79 -0.62139 1
gene 4 27 8 2.70117 0 80 2.70117 1
gene 7 1 19 0.783816 0 83 0.783816 1
gene 4 5 27 1.49318 0 92 1.49318 0
gene 2 2 19 -4.47548 0 108 -4.47548 1
gene 8 6 23 -0.42294 0 115 -0.42294 1
gene 4 2 23 -5.54457 0 124 -5.54457 0
gene 8 4 19 3.32921 0 153 3.32921 1
gene 4 5 47 -2.72323 0 181 -2.72323 1
gene 4 47 27 4.12096 0 182 4.12096 1
gene 7 27 14 -4.24951 0 193 -4.24951 1
gene 4 4 27 -7.36503 0 212 -7.36503 1
gene 1 2 27 3.14328 0 222 3.14328 1
gene 4 2 53 1.93605 0 226 1.93605 1
gene 4 53 23 1.34297 0 227 1.34297 0
gene 2 53 27 -8 0 238 -8 1
gene 4 5 64 0.929616 0 277 0.929616 1
gene 4 64 47 -1.05986 0 278 -1.05986 0
gene 7 19 47 0.535243 0 338 0.535243 1
gene 4 7 23 -2.30505 0 366 -2.30505 1
gene 4 3 89 -0.147283 0 375 -0.147283 1
gene 4 89 8 -0.403283 0 376 -0.403283 1
gene 6 53 64 -4.13869 0 399 -4.13869 1
gene 5 53 14 -3.14786 0 420 -3.14786 1
gene 4 53 102 0.859095 0 425 0.859095 1
gene 4 102 23 1.22885 0 426 1.22885 1
gene 4 64 109 3.21438 0 449 3.21438 1
gene 4 109 47 0.00617992 0 450 0.00617992 1
gene 4 6 102 -1.27252 0 462 -1.27252 1
genomeend 13

/* Organism #14 Fitness: 85 Error: 0 */
genomestart 14
trait 1 0.1 0 0 0 0 0 0 0 
trait 2 0.2 0 0 0 0 0 0 0 
trait 3 0.3 0 0 0 0 0 0 0 
trait 4 0 0 0 0 0 0 0 0 
trait 5 0.5 0 0 0 0 0 0 0 
trait 6 0.378347 0 0 0.742295 0 0.359265 0 0.227462 
trait 7 0.7 0 0 0 0 0 0 0 
trait 8 0.8 0 0 0 0 0 0 0 
node 1 3 1 3
node 2 5 1 1
node 3 4 1 1
node 4 6 1 1
node 5 3 1 1
node 6 3 1 1
node 7 8 1 1
node 8 1 0 2
node 14 1 0 0
node 19 1 0 0
node 23 2 0 0
node 27 3 0 0
node 47 1 0 0
node 53 1 0 0
node 64 1 0 0
node 89 1 0 0
node 102 1 0 0
node 109 1 0 0
gene 7 1 8 -0.577295 0 1 -0.577295 1
gene 6 2 8 -0.300609 0 2 -0.300609 1
gene 4 3 8 0.654007 0 3 0.654007 0
gene 5 4 8 1.34993 0 4 1.34993 1
gene 5 5 8 -0.012774 0 5 -0.012774 1
gene 3 6 8 7.58711 0 6 7.58711 1
gene 7 7 8 -7.6523 0 7 -7.6523 1
gene 5 5 14 -2.14191 0 18 -2.14191 1
gene 5 14 8 -2.50585 0 19 -2.50585 1
gene 5 1 14 0.409011 0 22 0.409011 1
gene 7 3 14 0.802668 0 24 0.802668 1
gene 4 4 14 -5.86793 0 39 -5.86793 1
gene 4 3 19 -0.743367 0 47 -0.743367 1
gene 4 19 8 5.58561 0 48 5.58561 1
gene 4 6 14 0.602727 0 50 0.602727 1
gene 4 19 23 0.347149 0 63 0.347149 1
gene 4 23 8 -0.47839 0 64 -0.47839 1
gene 2 23 14 -0.377991 0 70 -0.377991 1
gene 4 23 27 0.965403 0 79 0.965403 1
gene 4 27 8 2.50907 0 80 2.50907 1
gene 7 1 19 0.783816 0 83 0.783816 1
gene 4 5 27 3.48556 0 92 3.48556 0
gene 2 2 19 -2.35738 0 108 -2.35738 1
gene 8 6 23 -0.42294 0 115 -0.42294 1
gene 4 2 23 -3.4895 0 124 -3.4895 0
gene 8 4 19 1.96411 0 153 1.96411 1
gene 4 5 47 -2.74335 0 181 -2.74335 1
gene 4 47 27 3.16087 0 182 3.16087 1
gene 7 27 14 -3.68311 0 193 -3.68311 1
gene 4 4 27 -6.20418 0 212 -6.20418 1
gene 1 2 27 1.34973 0 222 1.34973 1
gene 4 2 53 -0.506544 0 226 -0.506544 1
gene 4 53 23 -1.03531 0 227 -1.03531 0
gene 2 53 27 -7.38683 0 238 -7.38683 1
gene 4 5 64 2.21933 0 277 2.21933 1
gene 4 64 47 0.00617992 0 278 0.00617992 0
gene 7 19 47 -0.613823 0 338 -0.613823 1
gene 4 7 23 0.127317 0 366 0.127317 1
gene 4 3 89 -1.76189 0 375 -1.76189 1
gene 4 89 8 1.93035 0 376 1.93035 1
gene 6 53 64 -3.98992 0 399 -3.98992 1
gene 5 53 14 -2.65664 0 420 -2.65664 1
gene 4 53 102 1.33149 0 425 1.33149 1
gene 4 102 23 7.08948 0 426 7.08948 1
gene 4 64 109 1 0 449 0 1
gene 4 109 47 0.00617992 0 450 0 1
gene 4 6 102 0.85771 0 462 0.85771 1
gene 8 3 23 0.114513 0 467 0.114513 1
genomeend 14

/* Organism #15 Fitness: 0.0006 Error: 0 */
genomestart 15
trait 1 0.1 0 0 0 0 0 0 0 
trait 2 0.2 0 0 0 0 0 0 0 
trait 3 0.3 0 0 0 0 0 0 0 
trait 4 0 0 0 0 0 0 0 0 
trait 5 0.5 0 0 0 0 0 0 0 
trait 6 0.378347 0 0 0.742295 0 0.359265 0 0.227462 
trait 7 0.7 0 0 0 0 0 0 0 
trait 8 0.8 0 0 0 0 0 0 0 
node 1 3 1 3
node 2 5 1 1
node 3 4 1 1
node 4 6 1 1
node 5 3 1 1
node 6 3 1 1
node 7 8 1 1
node 8 1 0 2
node 14 1 0 0
node 19 1 0 0
node 23 2 0 0
node 27 3 0 0
node 47 1 0 0
node 53 1 0 0
node 64 1 0 0
node 89 1 0 0
node 102 1 0 0
node 109 1 0 0
gene 7 1 8 -1.83847 0 1 -1.83847 1
gene 6 2 8 0.963409 0 2 0.963409 1
gene 4 3 8 1.57519 0 3 1.57519 0
gene 5 4 8 1.34993 0 4 1.34993 1
gene 5 5 8 0.206153 0 5 0.206153 1
gene 3 6 8 -1.386 0 6 -1.386 1
gene 7 7 8 -2.41485 0 7 -2.41485 1
gene 5 5 14 0.0990498 0 18 0.0990498 1
gene 5 14 8 -4.38703 0 19 -4.38703 1
gene 5 1 14 0.269486 0 22 0.269486 1
gene 7 3 14 -1.27728 0 24 -1.27728 1
gene 4 4 14 -4.28376 0 39 -4.28376 1
gene 4 3 19 -0.743367 0 47 -0.743367 1
gene 4 19 8 -1.55247 0 48 -1.55247 1
gene 4 6 14 -2.16802 0 50 -2.16802 1
gene 4 19 23 0.934588 0 63 0.934588 1
gene 4 23 8 -2.12276 0 64 -2.12276 1
gene 2 23 14 -0.865578 0 70 -0.865578 1
gene 4 23 27 1.07371 0 79 1.07371 1
gene 4 27 8 1.53015 0 80 1.53015 1
gene 7 1 19 0.783816 0 83 0.783816 1
gene 4 5 27 5.85635 0 92 5.85635 0
gene 2 2 19 -4.05048 0 108 -4.05048 1
gene 8 6 23 -1.92545 0 115 -1.92545 1
gene 4 2 23 -3.4895 0 124 -3.4895 0
gene 8 4 19 0.990619 0 153 0.990619 1
gene 4 5 47 -3.22643 0 181 -3.22643 1
gene 4 47 27 0.54594 0 182 0.54594 1
gene 7 27 14 -1.07017 0 193 -1.07017 1
gene 4 4 27 -7.32808 0 212 -7.32808 1
gene 1 2 27 1.60443 0 222 1.60443 1
gene 4 2 53 2.22374 0 226 2.22374 1
gene 4 53 23 -0.240274 0 227 -0.240274 0
gene 2 53 27 -8 0 238 -8 1
gene 4 5 64 1.45859 0 277 1.45859 1
gene 4 64 47 -0.120687 0 278 -0.120687 0
gene 7 19 47 -1.37415 0 338 -1.37415 1
gene 4 7 23 -1.79012 0 366 -1.79012 1
gene 4 3 89 0.0938876 0 375 0.0938876 1
gene 4 89 8 -0.570356 0 376 -0.570356 1
gene 6 53 64 -3.28922 0 399 -3.28922 1
gene 5 53 14 1.02408 0 420 1.02408 1
gene 4 53 102 1.95617 0 425 1.95617 1
gene 4 102 23 8 0 426 8 1
gene 4 64 109 1.58854 0 449 1.58854 1
gene 4 109 47 2.17849 0 450 2.17849 1
gene 4 6 102 -1.96741 0 462 -1.96741 1
genomeend 15

/* Organism #16 Fitness: 20 Error: 0 */
genomestart 16
trait 1 0.1 0 0 0 0 0 0 0 
trait 2 0.2 0 0 0 0 0 0 0 
trait 3 0.3 0 0 0 0 0 0 0 
trait 4 0 0 0 0 0 0 0 0 
trait 5 0.5 0 0 0 0 0 0 0 
trait 6 0.378347 0 0 0.742295 0 0.359265 0 0.227462 
trait 7 0.7 0 0 0 0 0 0 0 
trait 8 0.8 0 0 0 0 0 0 0 
node 1 3 1 3
node 2 5 1 1
node 3 4 1 1
node 4 6 1 1
node 5 3 1 1
node 6 3 1 1
node 7 8 1 1
node 8 1 0 2
node 14 1 0 0
node 19 1 0 0
node 23 2 0 0
node 27 3 0 0
node 47 1 0 0
node 53 1 0 0
node 64 1 0 0
node 89 1 0 0
node 102 1 0 0
node 109 1 0 0
gene 7 1 8 -1.59877 0 1 -1.59877 1
gene 6 2 8 1.33161 0 2 1.33161 1
gene 4 3 8 -0.537993 0 3 -0.537993 0
gene 5 4 8 -1.33354 0 4 -1.33354 1
gene 5 5 8 0.377061 0 5 0.377061 1
gene 3 6 8 7.58711 0 6 7.58711 1
gene 7 7 8 -7.522 0 7 -7.522 1
gene 5 5 14 -2.24695 0 18 -2.24695 1
gene 5 14 8 -0.570292 0 19 -0.570292 1
gene 5 1 14 2.24544 0 22 2.24544 1
gene 7 3 14 3.24066 0 24 3.24066 1
gene 4 4 14 -4.30427 0 39 -4.30427 1
gene 4 3 19 0.570613 0 47 0.570613 1
gene 4 19 8 5.77859 0 48 5.77859 1
gene 4 6 14 2.76325 0 50 2.76325 1
gene 4 19 23 -0.953231 0 63 -0.953231 1
gene 4 23 8 1.92926 0 64 1.92926 1
gene 2 23 14 -0.244857 0 70 -0.244857 1
gene 4 23 27 1.97093 0 79 1.97093 1
gene 4 27 8 3.3758 0 80 3.3758 1
gene 7 1 19 1.98055 0 83 1.98055 1
gene 4 5 27 2.8896 0 92 2.8896 0
gene 2 2 19 -2.35738 0 108 -2.35738 1
gene 8 6 23 -1.98324 0 115 -1.98324 1
gene 4 2 23 -3.4895 0 124 -3.4895 0
gene 8 4 19 2.77961 0 153 2.77961 1
gene 4 5 47 -5.15417 0 181 -5.15417 1
gene 4 47 27 2.4253 0 182 2.4253 1
gene 7 27 14 -4.46659 0 193 -4.46659 1
gene 4 4 27 -8 0 212 -8 1
gene 1 2 27 -2.18971 0 222 -2.18971 1
gene 4 2 53 -2.71051 0 226 -2.71051 1
gene 4 53 23 -2.267 0 227 -2.267 0
gene 2 53 27 2.31089 0 238 2.31089 1
gene 4 5 64 0.444241 0 277 0.444241 1
gene 4 64 47 -0.0141269 0 278 -0.0141269 0
gene 7 19 47 1.601 0 338 1.601 1
gene 4 7 23 -1.53869 0 366 -1.53869 1
gene 4 3 89 -1.44769 0 375 -1.44769 1
gene 4 89 8 -0.0507689 0 376 -0.0507689 1
gene 6 53 64 -4.99311 0 399 -4.99311 1
gene 5 53 14 -0.338215 0 420 -0.338215 1
gene 4 53 102 3.82196 0 425 3.82196 1
gene 4 102 23 6.75618 0 426 6.75618 1
gene 4 64 109 2.03989 0 449 2.03989 1
gene 4 109 47 -1.7646 0 450 -1.7646 1
gene 4 6 102 1.32633 0 462 1.32633 1
genomeend 16

/* Organism #17 Fitness: 0.0003 Error: 0 */
genomestart 17
trait 1 0.1 0 0 0 0 0 0 0 
trait 2 0.2 0 0 0 0 0 0 0 
trait 3 0.3 0 0 0 0 0 0 0 
trait 4 0 0 0 0 0 0 0 0 
trait 5 0.5 0 0 0 0 0 0 0 
trait 6 0.378347 0 0 0.742295 0 0.359265 0 0.227462 
trait 7 0.7 0 0 0 0 0 0 0 
trait 8 0.8 0 0 0 0 0 0 0 
node 1 3 1 3
node 2 5 1 1
node 3 4 1 1
node 4 6 1 1
node 5 3 1 1
node 6 3 1 1
node 7 8 1 1
node 8 1 0 2
node 14 1 0 0
node 19 1 0 0
node 23 2 0 0
node 27 3 0 0
node 47 1 0 0
node 53 1 0 0
node 64 1 0 0
node 89 1 0 0
node 102 1 0 0
node 109 1 0 0
gene 7 1 8 -0.577295 0 1 -0.577295 1
gene 6 2 8 -0.300609 0 2 -0.300609 1
gene 4 3 8 0.654007 0 3 0.654007 0
gene 5 4 8 1.34993 0 4 1.34993 1
gene 5 5 8 -0.012774 0 5 -0.012774 1
gene 3 6 8 7.58711 0 6 7.58711 1
gene 7 7 8 -7.6523 0 7 -7.6523 1
gene 5 5 14 -2.14191 0 18 -2.14191 1
gene 5 14 8 -2.50585 0 19 -2.50585 1
gene 5 1 14 0.409011 0 22 0.409011 1
gene 7 3 14 0.802668 0 24 0.802668 1
gene 4 4 14 -5.86793 0 39 -5.86793 1
gene 4 3 19 -0.743367 0 47 -0.743367 1
gene 4 19 8 5.58561 0 48 5.58561 1
gene 4 6 14 0.602727 0 50 0.602727 1
gene 4 19 23 0.347149 0 63 0.347149 1
gene 4 23 8 -0.47839 0 64 -0.47839 1
gene 2 23 14 -0.377991 0 70 -0.377991 1
gene 4 23 27 0.965403 0 79 0.965403 1
gene 4 27 8 2.50907 0 80 2.50907 1
gene 7 1 19 0.783816 0 83 0.783816 1
gene 4 5 27 3.48556 0 92 3.48556 0
gene 2 2 19 -2.35738 0 108 -2.35738 1
gene 8 6 23 -0.42294 0 115 -0.42294 1
gene 4 2 23 -3.4895 0 124 -3.4895 0
gene 8 4 19 1.96411 0 153 1.96411 1
gene 4 5 47 -2.74335 0 181 -2.74335 1
gene 4 47 27 3.16087 0 182 3.16087 1
gene 7 27 14 -3.68311 0 193 -3.68311 1
gene 4 4 27 -6.20418 0 212 -6.20418 1
gene 1 2 27 1.34973 0 222 1.34973 1
gene 4 2 53 -0.506544 0 226 -0.506544 1
gene 4 53 23 -1.03531 0 227 -1.03531 0
gene 2 53 27 -7.38683 0 238 -7.38683 1
gene 4 5 64 2.21933 0 277 2.21933 1
gene 4 64 47 0.00617992 0 278 0.00617992 0
gene 7 19 47 -0.613823 0 338 -0.613823 1
gene 4 7 23 0.127317 0 366 0.127317 1
gene 4 3 89 -1.76189 0 375 -1.76189 1
gene 4 89 8 1.93035 0 376 1.93035 1
gene 6 53 64 -3.98992 0 399 -3.98992 1
gene 5 53 14 -2.65664 0 420 -2.65664 1
gene 4 53 102 1.33149 0 425 1.33149 1
gene 4 102 23 7.08948 0 426 7.08948 1
gene 4 64 109 1 0 449 0 1
gene 4 109 47 0.00617992 0 450 0 1
gene 4 6 102 0.85771 0 462 0.85771 1
genomeend 17

/* Organism #18 Fitness: 61 Error: 0 */
genomestart 18
trait 1 0.1 0 0 0 0 0 0 0 
trait 2 0.2 0 0 0 0 0 0 0 
trait 3 0.3 0 0 0 0 0 0 0 
trait 4 0 0 0 0 0 0 0 0 
trait 5 0.5 0 0 0 0 0 0 0 
trait 6 0.378347 0 0 0.742295 0 0.359265 0 0.227462 
trait 7 0.7 0 0 0 0 0 0 0 
trait 8 0.8 0 0 0 0 0 0 0 
node 1 3 1 3
node 2 5 1 1
node 3 4 1 1
node 4 6 1 1
node 5 3 1 1
node 6 3 1 1
node 7 8 1 1
node 8 1 0 2
node 14 1 0 0
node 19 1 0 0
node 23 2 0 0
node 27 3 0 0
node 47 1 0 0
node 53 1 0 0
node 64 1 0 0
node 89 1 0 0
node 102 1 0 0
node 109 1 0 0
node 113 1 0 0
gene 7 1 8 -0.577295 0 1 -0.577295 1
gene 6 2 8 -0.300609 0 2 -0.300609 1
gene 4 3 8 0.654007 0 3 0.654007 0
gene 5 4 8 1.34993 0 4 1.34993 1
gene 5 5 8 -0.012774 0 5 -0.012774 1
gene 3 6 8 7.58711 0 6 7.58711 1
gene 7 7 8 -7.6523 0 7 -7.6523 1
gene 5 5 14 -2.14191 0 18 -2.14191 1
gene 5 14 8 -2.50585 0 19 -2.50585 1
gene 5 1 14 0.409011 0 22 0.409011 1
gene 7 3 14 0.802668 0 24 0.802668 1
gene 4 4 14 -5.86793 0 39 -5.86793 1
gene 4 3 19 -0.743367 0 47 -0.743367 1
gene 4 19 8 5.58561 0 48 5.58561 1
gene 4 6 14 0.602727 0 50 0.602727 1
gene 4 19 23 0.347149 0 63 0.347149 1
gene 4 23 8 -0.47839 0 64 -0.47839 1
gene 2 23 14 -0.377991 0 70 -0.377991 1
gene 4 23 27 0.965403 0 79 0.965403 1
gene 4 27 8 2.50907 0 80 2.50907 0
gene 7 1 19 0.783816 0 83 0.783816 1
gene 4 5 27 3.48556 0 92 3.48556 0
gene 2 2 19 -2.35738 0 108 -2.35738 1
gene 8 6 23 -0.42294 0 115 -0.42294 1
gene 4 2 23 -3.4895 0 124 -3.4895 0
gene 8 4 19 1.96411 0 153 1.96411 1
gene 4 5 47 -2.74335 0 181 -2.74335 1
gene 4 47 27 3.16087 0 182 3.16087 1
gene 7 27 14 -3.68311 0 193 -3.68311 1
gene 4 4 27 -6.20418 0 212 -6.20418 1
gene 1 2 27 1.34973 0 222 1.34973 1
gene 4 2 53 -0.506544 0 226 -0.506544 1
gene 4 53 23 -1.03531 0 227 -1.03531 0
gene 2 53 27 -7.38683 0 238 -7.38683 1
gene 4 5 64 2.21933 0 277 2.21933 1
gene 4 64 47 0.00617992 0 278 0.00617992 0
gene 7 19 47 -0.613823 0 338 -0.613823 1
gene 4 7 23 0.127317 0 366 0.127317 1
gene 4 3 89 -1.76189 0 375 -1.76189 1
gene 4 89 8 1.93035 0 376 1.93035 1
gene 6 53 64 -3.98992 0 399 -3.98992 1
gene 5 53 14 -2.65664 0 420 -2.65664 1
gene 4 53 102 1.33149 0 425 1.33149 1
gene 4 102 23 7.08948 0 426 7.08948 1
gene 4 64 109 1 0 449 0 1
gene 4 109 47 0.00617992 0 450 0 1
gene 4 6 102 0.85771 0 462 0.85771 1
gene 4 27 113 1 0 468 0 1
gene 4 113 8 2.50907 0 469 0 1
genomeend 18

/* Organism #19 Fitness: 0 Error: 0 */
genomestart 19
trait 1 0.1 0 0 0 0 0 0 0 
trait 2 0.2 0 0 0 0 0 0 0 
trait 3 0.3 0 0 0 0 0 0 0 
trait 4 0 0 0 0 0 0 0 0 
trait 5 0.5 0 0 0 0 0 0 0 
trait 6 0.378347 0 0 0.742295 0 0.359265 0 0.227462 
trait 7 0.7 0 0 0 0 0 0 0 
trait 8 0.8 0 0 0 0 0 0 0 
node 1 3 1 3
node 2 5 1 1
node 3 4 1 1
node 4 6 1 1
node 5 3 1 1
node 6 3 1 1
node 7 8 1 1
node 8 1 0 2
node 14 1 0 0
node 19 1 0 0
node 23 2 0 0
node 27 3 0 0
node 47 1 0 0
node 53 1 0 0
node 64 1 0 0
node 89 1 0 0
node 102 1 0 0
node 109 1 0 0
gene 7 1 8 -0.577295 0 1 -0.577295 1
gene 6 2 8 -0.300609 0 2 -0.300609 1
gene 4 3 8 0.654007 0 3 0.654007 0
gene 5 4 8 1.34993 0 4 1.34993 1
gene 5 5 8 -0.012774 0 5 -0.012774 1
gene 3 6 8 7.58711 0 6 7.58711 1
gene 7 7 8 -7.6523 0 7 -7.6523 1
gene 5 5 14 -2.14191 0 18 -2.14191 1
gene 5 14 8 -2.50585 0 19 -2.50585 1
gene 5 1 14 0.409011 0 22 0.409011 1
gene 7 3 14 0.802668 0 24 0.802668 1
gene 4 4 14 -5.86793 0 39 -5.86793 1
gene 4 3 19 -0.743367 0 47 -0.743367 1
gene 4 19 8 5.58561 0 48 5.58561 1
gene 4 6 14 0.602727 0 50 0.602727 1
gene 4 19 23 0.347149 0 63 0.347149 1
gene 4 23 8 -0.47839 0 64 -0.47839 1
gene 2 23 14 -0.377991 0 70 -0.377991 1
gene 4 23 27 0.965403 0 79 0.965403 1
gene 4 27 8 2.50907 0 80 2.50907 1
gene 7 1 19 0.783816 0 83 0.783816 1
gene 4 5 27 3.48556 0 92 3.48556 0
gene 2 2 19 -2.35738 0 108 -2.35738 1
gene 8 6 23 -0.42294 0 115 -0.42294 1
gene 4 2 23 -3.4895 0 124 -3.4895 0
gene 8 4 19 1.96411 0 153 1.96411 1
gene 4 5 47 -2.74335 0 181 -2.74335 1
gene 4 47 27 3.16087 0 182 3.16087 1
gene 7 27 14 -3.68311 0 193 -3.68311 1
gene 4 4 27 -6.20418 0 212 -6.20418 1
gene 1 2 27 1.34973 0 222 1.34973 1
gene 4 2 53 -0.506544 0 226 -0.506544 1
gene 4 53 23 -1.03531 0 227 -1.03531 0
gene 2 53 27 -7.38683 0 238 -7.38683 1
gene 4 5 64 2.21933 0 277 2.21933 1
gene 4 64 47 0.00617992 0 278 0.00617992 0
gene 7 19 47 -0.613823 0 338 -0.613823 1
gene 4 7 23 0.127317 0 366 0.127317 1
gene 4 3 89 -1.76189 0 375 -1.76189 1
gene 4 89 8 1.93035 0 376 1.93035 1
gene 6 53 64 -3.98992 0 399 -3.98992 1
gene 5 53 14 -2.65664 0 420 -2.65664 1
gene 4 53 102 1.33149 0 425 1.33149 1
gene 4 102 23 7.08948 0 426 7.08948 1
gene 4 64 109 1 0 449 0 1
gene 4 109 47 0.00617992 0 450 0 1
gene 4 6 102 0.85771 0 462 0.85771 1
gene 5 1 89 0.829743 0 470 0.829743 1
genomeend 19
