
/* Species #38 : (Size 20) (AF 47.5501) (Age 5)  */


/* Organism #0 Fitness: 0 Error: 0 */
genomestart 0
trait 1 0.1 0 0 0 0 0 0 0 
trait 2 0.2 0 0 0 0 0 0 0 
trait 3 0.3 0 0 0 0 0 0 0 
trait 4 0 0 0 0 0 0 0 0 
trait 5 0.5 0 0 0 0 0 0 0 
trait 6 0.378347 0 0 0.742295 0 0.359265 0 0.227462 
trait 7 0.7 0 0 0 0 0 0 0 
trait 8 0.8 0 0 0 0 0 0 0 
node 1 3 1 3
node 2 5 1 1
node 3 4 1 1
node 4 6 1 1
node 5 3 1 1
node 6 3 1 1
node 7 8 1 1
node 8 1 0 2
node 14 1 0 0
node 19 1 0 0
node 23 2 0 0
node 27 3 0 0
node 47 1 0 0
node 53 1 0 0
node 64 1 0 0
node 89 1 0 0
gene 7 1 8 -0.300578 0 1 -0.300578 1
gene 6 2 8 -2.1114 0 2 -2.1114 1
gene 4 3 8 -0.201626 0 3 -0.201626 0
gene 5 4 8 0.742571 0 4 0.742571 1
gene 5 5 8 -8 0 5 -8 1
gene 3 6 8 6.23827 0 6 6.23827 1
gene 7 7 8 -4.67998 0 7 -4.67998 1
gene 5 5 14 1.01295 0 18 1.01295 1
gene 5 14 8 -1.04166 0 19 -1.04166 1
gene 5 1 14 -1.67828 0 22 -1.67828 1
gene 7 3 14 3.14092 0 24 3.14092 1
gene 4 4 14 -6.83577 0 39 -6.83577 1
gene 4 3 19 2.19119 0 47 2.19119 1
gene 4 19 8 5.606 0 48 5.606 1
gene 4 6 14 0.994119 0 50 0.994119 1
gene 4 19 23 -1.0715 0 63 -1.0715 1
gene 4 23 8 -0.803505 0 64 -0.803505 1
gene 2 23 14 -0.882206 0 70 -0.882206 1
gene 4 23 27 4.61614 0 79 4.61614 1
gene 4 27 8 1.91196 0 80 1.91196 1
gene 7 1 19 1.37536 0 83 1.37536 1
gene 4 5 27 8 0 92 8 0
gene 2 2 19 1.49938 0 108 1.49938 1
gene 8 6 23 0.658066 0 115 0.658066 1
gene 4 2 23 -3.88852 0 124 -3.88852 0
gene 8 4 19 -1.64777 0 153 -1.64777 1
gene 4 5 47 -2.48356 0 181 -2.48356 0
gene 4 47 27 0.668333 0 182 0.668333 1
gene 7 27 14 -3.60958 0 193 -3.60958 1
gene 4 4 27 -1.80112 0 212 -1.80112 1
gene 1 2 27 3.68051 0 222 3.68051 1
gene 4 2 53 -3.13066 0 226 -3.13066 1
gene 4 53 23 5.0128 0 227 5.0128 1
gene 2 53 27 -2.64456 0 238 -2.64456 1
gene 4 5 64 2.73905 0 277 2.73905 1
gene 4 64 47 1.58782 0 278 1.58782 1
gene 7 19 47 -1.29707 0 338 -1.29707 1
gene 4 7 23 0.757289 0 366 0.757289 1
gene 4 3 89 -2.03131 0 375 -2.03131 1
gene 4 89 8 -0.365265 0 376 -0.365265 1
gene 6 53 64 0.663328 0 399 0 1
genomeend 0

/* Organism #1 Fitness: 116 Error: 0 */
/* ##------$ WINNER 1 SPECIES #38 $------## */
genomestart 1
trait 1 0.1 0 0 0 0 0 0 0 
trait 2 0.2 0 0 0 0 0 0 0 
trait 3 0.3 0 0 0 0 0 0 0 
trait 4 0 0 0 0 0 0 0 0 
trait 5 0.5 0 0 0 0 0 0 0 
trait 6 0.378347 0 0 0.742295 0 0.359265 0 0.227462 
trait 7 0.7 0 0 0 0 0 0 0 
trait 8 0.8 0 0 0 0 0 0 0 
node 1 3 1 3
node 2 5 1 1
node 3 4 1 1
node 4 6 1 1
node 5 3 1 1
node 6 3 1 1
node 7 8 1 1
node 8 7 0 2
node 14 1 0 0
node 19 1 0 0
node 23 2 0 0
node 27 3 0 0
node 47 1 0 0
node 53 1 0 0
node 64 1 0 0
node 89 1 0 0
gene 7 1 8 -0.300578 0 1 -0.300578 1
gene 6 2 8 -2.1114 0 2 -2.1114 1
gene 4 3 8 -0.201626 0 3 -0.201626 0
gene 5 4 8 0.742571 0 4 0.742571 1
gene 5 5 8 -8 0 5 -8 1
gene 3 6 8 6.23827 0 6 6.23827 1
gene 7 7 8 -4.67998 0 7 -4.67998 1
gene 5 5 14 1.01295 0 18 1.01295 1
gene 5 14 8 -1.04166 0 19 -1.04166 1
gene 5 1 14 -1.67828 0 22 -1.67828 1
gene 7 3 14 3.14092 0 24 3.14092 1
gene 4 4 14 -6.83577 0 39 -6.83577 1
gene 4 3 19 2.19119 0 47 2.19119 1
gene 4 19 8 5.606 0 48 5.606 1
gene 4 6 14 0.994119 0 50 0.994119 1
gene 4 19 23 -1.0715 0 63 -1.0715 1
gene 4 23 8 -0.803505 0 64 -0.803505 1
gene 2 23 14 -0.882206 0 70 -0.882206 1
gene 4 23 27 4.61614 0 79 4.61614 1
gene 4 27 8 1.91196 0 80 1.91196 1
gene 7 1 19 1.37536 0 83 1.37536 1
gene 4 5 27 8 0 92 8 0
gene 2 2 19 1.49938 0 108 1.49938 1
gene 8 6 23 0.658066 0 115 0.658066 1
gene 4 2 23 -3.88852 0 124 -3.88852 0
gene 8 4 19 -1.64777 0 153 -1.64777 1
gene 4 5 47 -2.48356 0 181 -2.48356 0
gene 4 47 27 0.668333 0 182 0.668333 1
gene 7 27 14 -3.60958 0 193 -3.60958 1
gene 4 4 27 -1.80112 0 212 -1.80112 1
gene 1 2 27 3.68051 0 222 3.68051 1
gene 4 2 53 -3.13066 0 226 -3.13066 1
gene 4 53 23 5.0128 0 227 5.0128 1
gene 2 53 27 -2.64456 0 238 -2.64456 1
gene 4 5 64 2.73905 0 277 2.73905 1
gene 4 64 47 1.58782 0 278 1.58782 1
gene 7 19 47 -1.29707 0 338 -1.29707 1
gene 4 7 23 0.757289 0 366 0.757289 1
gene 4 3 89 -2.03131 0 375 -2.03131 1
gene 4 89 8 -0.365265 0 376 -0.365265 1
gene 6 53 64 0.663328 0 399 0 1
genomeend 1

/* Organism #2 Fitness: 0.0002 Error: 0 */
genomestart 2
trait 1 0.1 0 0 0 0 0 0 0 
trait 2 0.2 0 0 0 0 0 0 0 
trait 3 0.3 0 0 0 0 0 0 0 
trait 4 0 0 0 0 0 0 0 0 
trait 5 0.5 0 0 0 0 0 0 0 
trait 6 0.378347 0 0 0.742295 0 0.359265 0 0.227462 
trait 7 0.7 0 0 0 0 0 0 0 
trait 8 0.8 0 0 0 0 0 0 0 
node 1 3 1 3
node 2 5 1 1
node 3 4 1 1
node 4 6 1 1
node 5 3 1 1
node 6 3 1 1
node 7 8 1 1
node 8 1 0 2
node 14 1 0 0
node 19 1 0 0
node 23 2 0 0
node 27 3 0 0
node 47 1 0 0
node 53 1 0 0
node 64 1 0 0
node 89 1 0 0
gene 7 1 8 -2.78364 0 1 -2.78364 1
gene 6 2 8 0.361457 0 2 0.361457 1
gene 4 3 8 -1.04065 0 3 -1.04065 0
gene 5 4 8 0.158535 0 4 0.158535 1
gene 5 5 8 -5.86858 0 5 -5.86858 1
gene 3 6 8 6.03056 0 6 6.03056 1
gene 7 7 8 -2.58242 0 7 -2.58242 1
gene 5 5 14 2.30456 0 18 2.30456 1
gene 5 14 8 -2.07326 0 19 -2.07326 1
gene 5 1 14 -0.121414 0 22 -0.121414 1
gene 7 3 14 4.75977 0 24 4.75977 1
gene 4 4 14 -6.14515 0 39 -6.14515 1
gene 4 3 19 0.612434 0 47 0.612434 1
gene 4 19 8 7.29813 0 48 7.29813 1
gene 4 6 14 2.3624 0 50 2.3624 1
gene 4 19 23 1.21576 0 63 1.21576 1
gene 4 23 8 -0.0479942 0 64 -0.0479942 1
gene 2 23 14 0.400199 0 70 0.400199 1
gene 4 23 27 6.30546 0 79 6.30546 1
gene 4 27 8 3.07488 0 80 3.07488 1
gene 7 1 19 1.31488 0 83 1.31488 1
gene 4 5 27 7.92326 0 92 7.92326 0
gene 2 2 19 -0.935721 0 108 -0.935721 1
gene 8 6 23 -0.918708 0 115 -0.918708 1
gene 4 2 23 -3.00296 0 124 -3.00296 0
gene 8 4 19 -0.14455 0 153 -0.14455 1
gene 4 5 47 -3.58426 0 181 -3.58426 0
gene 4 47 27 0.900828 0 182 0.900828 1
gene 7 27 14 -3.50685 0 193 -3.50685 1
gene 4 4 27 -2.09719 0 212 -2.09719 1
gene 1 2 27 2.43176 0 222 2.43176 1
gene 4 2 53 -1.86181 0 226 -1.86181 1
gene 4 53 23 5.37206 0 227 5.37206 1
gene 2 53 27 -4.50704 0 238 -4.50704 1
gene 4 5 64 2.73905 0 277 2.73905 1
gene 4 64 47 1.58782 0 278 1.58782 1
gene 7 19 47 -1.29707 0 338 -1.29707 1
gene 4 7 23 2.26201 0 366 2.26201 1
gene 4 3 89 -3.71549 0 375 -3.71549 1
gene 4 89 8 -0.365265 0 376 -0.365265 1
gene 6 53 64 0.663328 0 399 0.663328 1
genomeend 2

/* Organism #3 Fitness: 0.0002 Error: 0 */
genomestart 3
trait 1 0.1 0 0 0 0 0 0 0 
trait 2 0.2 0 0 0 0 0 0 0 
trait 3 0.3 0 0 0 0 0 0 0 
trait 4 0 0 0 0 0 0 0 0 
trait 5 0.5 0 0 0 0 0 0 0 
trait 6 0.378347 0 0 0.742295 0 0.359265 0 0.227462 
trait 7 0.7 0 0 0 0 0 0 0 
trait 8 0.8 0 0 0 0 0 0 0 
node 1 3 1 3
node 2 5 1 1
node 3 4 1 1
node 4 6 1 1
node 5 3 1 1
node 6 3 1 1
node 7 8 1 1
node 8 1 0 2
node 14 1 0 0
node 19 1 0 0
node 23 2 0 0
node 27 3 0 0
node 47 1 0 0
node 53 1 0 0
node 64 1 0 0
node 89 1 0 0
gene 7 1 8 0.439749 0 1 0.439749 1
gene 6 2 8 0.228869 0 2 0.228869 1
gene 4 3 8 0.0716432 0 3 0.0716432 0
gene 5 4 8 3.23073 0 4 3.23073 1
gene 5 5 8 -7.6241 0 5 -7.6241 1
gene 3 6 8 7.02504 0 6 7.02504 1
gene 7 7 8 -2.2065 0 7 -2.2065 1
gene 5 5 14 2.11622 0 18 2.11622 1
gene 5 14 8 -1.72648 0 19 -1.72648 1
gene 5 1 14 0.783675 0 22 0.783675 1
gene 7 3 14 2.36704 0 24 2.36704 1
gene 4 4 14 -5.59868 0 39 -5.59868 1
gene 4 3 19 3.02054 0 47 3.02054 1
gene 4 19 8 5.40912 0 48 5.40912 1
gene 4 6 14 0.626214 0 50 0.626214 1
gene 4 19 23 -3.54997 0 63 -3.54997 1
gene 4 23 8 -1.66583 0 64 -1.66583 1
gene 2 23 14 -2.08798 0 70 -2.08798 1
gene 4 23 27 4.15844 0 79 4.15844 1
gene 4 27 8 -0.087178 0 80 -0.087178 1
gene 7 1 19 0.428915 0 83 0.428915 1
gene 4 5 27 6.95639 0 92 6.95639 0
gene 2 2 19 1.02668 0 108 1.02668 1
gene 8 6 23 -0.328545 0 115 -0.328545 1
gene 4 2 23 -5.78212 0 124 -5.78212 0
gene 8 4 19 -1.2865 0 153 -1.2865 1
gene 4 5 47 -2.32826 0 181 -2.32826 0
gene 4 47 27 -1.61697 0 182 -1.61697 1
gene 7 27 14 -2.18442 0 193 -2.18442 1
gene 4 4 27 -3.96942 0 212 -3.96942 1
gene 1 2 27 3.74073 0 222 3.74073 1
gene 4 2 53 -2.67025 0 226 -2.67025 1
gene 4 53 23 3.50337 0 227 3.50337 1
gene 2 53 27 -4.51525 0 238 -4.51525 1
gene 4 5 64 2.5494 0 277 2.5494 1
gene 4 64 47 1.79123 0 278 1.79123 1
gene 7 19 47 -0.272122 0 338 -0.272122 1
gene 4 7 23 -2.45011 0 366 -2.45011 1
gene 4 3 89 -2.03131 0 375 -2.03131 1
gene 4 89 8 1.29917 0 376 1.29917 1
gene 6 53 64 0.101194 0 399 0.101194 1
genomeend 3

/* Organism #4 Fitness: 0.0001 Error: 0 */
genomestart 4
trait 1 0.1 0 0 0 0 0 0 0 
trait 2 0.2 0 0 0 0 0 0 0 
trait 3 0.3 0 0 0 0 0 0 0 
trait 4 0 0 0 0 0 0 0 0 
trait 5 0.5 0 0 0 0 0 0 0 
trait 6 0.378347 0 0 0.742295 0 0.359265 0 0.227462 
trait 7 0.7 0 0 0 0 0 0 0 
trait 8 0.8 0 0 0 0 0 0 0 
node 1 3 1 3
node 2 5 1 1
node 3 4 1 1
node 4 6 1 1
node 5 3 1 1
node 6 3 1 1
node 7 8 1 1
node 8 1 0 2
node 14 1 0 0
node 19 1 0 0
node 23 2 0 0
node 27 3 0 0
node 47 1 0 0
node 53 1 0 0
node 64 1 0 0
node 89 1 0 0
gene 7 1 8 -0.300578 0 1 -0.300578 1
gene 6 2 8 -3.48744 0 2 -3.48744 1
gene 4 3 8 -0.672055 0 3 -0.672055 0
gene 5 4 8 -1.49235 0 4 -1.49235 1
gene 5 5 8 -5.81744 0 5 -5.81744 1
gene 3 6 8 6.75204 0 6 6.75204 1
gene 7 7 8 -2.74283 0 7 -2.74283 1
gene 5 5 14 1.08009 0 18 1.08009 1
gene 5 14 8 -3.2482 0 19 -3.2482 1
gene 5 1 14 -1.67828 0 22 -1.67828 1
gene 7 3 14 2.72454 0 24 2.72454 1
gene 4 4 14 -4.51624 0 39 -4.51624 1
gene 4 3 19 1.94356 0 47 1.94356 1
gene 4 19 8 4.98015 0 48 4.98015 1
gene 4 6 14 -0.922946 0 50 -0.922946 1
gene 4 19 23 -1.09071 0 63 -1.09071 1
gene 4 23 8 -2.1776 0 64 -2.1776 1
gene 2 23 14 0.358548 0 70 0.358548 1
gene 4 23 27 4.61614 0 79 4.61614 1
gene 4 27 8 -0.391537 0 80 -0.391537 1
gene 7 1 19 3.42863 0 83 3.42863 1
gene 4 5 27 5.9815 0 92 5.9815 0
gene 2 2 19 1.83699 0 108 1.83699 1
gene 8 6 23 0.658066 0 115 0.658066 1
gene 4 2 23 -1.9953 0 124 -1.9953 0
gene 8 4 19 -3.95675 0 153 -3.95675 1
gene 4 5 47 -1.12227 0 181 -1.12227 0
gene 4 47 27 -0.20581 0 182 -0.20581 1
gene 7 27 14 2.00141 0 193 2.00141 1
gene 4 4 27 -1.80112 0 212 -1.80112 1
gene 1 2 27 1.97338 0 222 1.97338 1
gene 4 2 53 -2.77298 0 226 -2.77298 1
gene 4 53 23 5.35041 0 227 5.35041 1
gene 2 53 27 2.11734 0 238 2.11734 1
gene 4 5 64 0.549847 0 277 0.549847 1
gene 4 64 47 1.35203 0 278 1.35203 1
gene 7 19 47 -3.06793 0 338 -3.06793 1
gene 4 7 23 -0.474271 0 366 -0.474271 1
gene 4 3 89 -0.846262 0 375 -0.846262 1
gene 4 89 8 -1.70311 0 376 -1.70311 1
gene 6 53 64 1.06992 0 399 1.06992 1
genomeend 4

/* Organism #5 Fitness: 96 Error: 0 */
genomestart 5
trait 1 0.1 0 0 0 0 0 0 0 
trait 2 0.2 0 0 0 0 0 0 0 
trait 3 0.3 0 0 0 0 0 0 0 
trait 4 0 0 0 0 0 0 0 0 
trait 5 0.5 0 0 0 0 0 0 0 
trait 6 0.378347 0 0 0.742295 0 0.359265 0 0.227462 
trait 7 0.7 0 0 0 0 0 0 0 
trait 8 0.8 0 0 0 0 0 0 0 
node 1 3 1 3
node 2 5 1 1
node 3 4 1 1
node 4 6 1 1
node 5 3 1 1
node 6 3 1 1
node 7 8 1 1
node 8 1 0 2
node 14 1 0 0
node 19 1 0 0
node 23 2 0 0
node 27 3 0 0
node 47 1 0 0
node 53 1 0 0
node 64 1 0 0
node 89 1 0 0
gene 7 1 8 -1.01751 0 1 -1.01751 1
gene 6 2 8 -2.55029 0 2 -2.55029 1
gene 4 3 8 -0.27609 0 3 -0.27609 0
gene 5 4 8 1.39618 0 4 1.39618 1
gene 5 5 8 -5.90007 0 5 -5.90007 1
gene 3 6 8 6.46788 0 6 6.46788 1
gene 7 7 8 -5.12647 0 7 -5.12647 1
gene 5 5 14 1.88508 0 18 1.88508 1
gene 5 14 8 -1.24032 0 19 -1.24032 1
gene 5 1 14 0.367098 0 22 0.367098 1
gene 7 3 14 3.10056 0 24 3.10056 1
gene 4 4 14 -8 0 39 -8 1
gene 4 3 19 1.83087 0 47 1.83087 1
gene 4 19 8 6.49666 0 48 6.49666 1
gene 4 6 14 0.780252 0 50 0.780252 1
gene 4 19 23 -3.14573 0 63 -3.14573 1
gene 4 23 8 1.22378 0 64 1.22378 1
gene 2 23 14 0.84125 0 70 0.84125 1
gene 4 23 27 4.99806 0 79 4.99806 1
gene 4 27 8 0.892944 0 80 0.892944 1
gene 7 1 19 1.05133 0 83 1.05133 1
gene 4 5 27 8 0 92 8 0
gene 2 2 19 3.95752 0 108 3.95752 1
gene 8 6 23 1.24051 0 115 1.24051 1
gene 4 2 23 -2.84646 0 124 -2.84646 0
gene 8 4 19 0.786368 0 153 0.786368 1
gene 4 5 47 -0.00843705 0 181 -0.00843705 0
gene 4 47 27 2.64608 0 182 2.64608 1
gene 7 27 14 -1.29935 0 193 -1.29935 1
gene 4 4 27 -3.05839 0 212 -3.05839 1
gene 1 2 27 2.87417 0 222 2.87417 1
gene 4 2 53 -3.69946 0 226 -3.69946 1
gene 4 53 23 2.74404 0 227 2.74404 1
gene 2 53 27 2.20289 0 238 2.20289 1
gene 4 5 64 -0.0189522 0 277 -0.0189522 1
gene 4 64 47 1.51405 0 278 1.51405 1
gene 7 19 47 0.0270396 0 338 0.0270396 1
gene 4 7 23 -1.13434 0 366 -1.13434 1
gene 4 3 89 -0.394258 0 375 -0.394258 1
gene 4 89 8 0.546093 0 376 0.546093 1
gene 6 53 64 2.11081 0 399 2.11081 1
genomeend 5

/* Organism #6 Fitness: 0 Error: 0 */
genomestart 6
trait 1 0.1 0 0 0 0 0 0 0 
trait 2 0.2 0 0 0 0 0 0 0 
trait 3 0.3 0 0 0 0 0 0 0 
trait 4 0 0 0 0 0 0 0 0 
trait 5 0.5 0 0 0 0 0 0 0 
trait 6 0.378347 0 0 0.742295 0 0.359265 0 0.227462 
trait 7 0.7 0 0 0 0 0 0 0 
trait 8 0.8 0 0 0 0 0 0 0 
node 1 3 1 3
node 2 5 1 1
node 3 4 1 1
node 4 6 1 1
node 5 3 1 1
node 6 3 1 1
node 7 8 1 1
node 8 1 0 2
node 14 1 0 0
node 19 1 0 0
node 23 2 0 0
node 27 3 0 0
node 47 1 0 0
node 53 1 0 0
node 64 1 0 0
node 89 1 0 0
gene 7 1 8 1.21846 0 1 1.21846 1
gene 6 2 8 0.743543 0 2 0.743543 1
gene 4 3 8 -0.0595249 0 3 -0.0595249 0
gene 5 4 8 2.12597 0 4 2.12597 1
gene 5 5 8 -6.61803 0 5 -6.61803 1
gene 3 6 8 6.14232 0 6 6.14232 1
gene 7 7 8 -2.62227 0 7 -2.62227 1
gene 5 5 14 1.57253 0 18 1.57253 1
gene 5 14 8 -0.185545 0 19 -0.185545 1
gene 5 1 14 -4.02087 0 22 -4.02087 1
gene 7 3 14 1.79291 0 24 1.79291 1
gene 4 4 14 -6.40856 0 39 -6.40856 1
gene 4 3 19 1.36067 0 47 1.36067 1
gene 4 19 8 -2.36818 0 48 -2.36818 1
gene 4 6 14 0.451239 0 50 0.451239 1
gene 4 19 23 -2.83518 0 63 -2.83518 1
gene 4 23 8 -2.73545 0 64 -2.73545 1
gene 2 23 14 1.6165 0 70 1.6165 1
gene 4 23 27 7.0443 0 79 7.0443 1
gene 4 27 8 3.15529 0 80 3.15529 1
gene 7 1 19 1.37536 0 83 1.37536 1
gene 4 5 27 -0.494088 0 92 -0.494088 0
gene 2 2 19 -0.693688 0 108 -0.693688 1
gene 8 6 23 -1.57892 0 115 -1.57892 1
gene 4 2 23 -5.70319 0 124 -5.70319 0
gene 8 4 19 -0.964561 0 153 -0.964561 1
gene 4 5 47 1.90607 0 181 1.90607 0
gene 4 47 27 -1.76715 0 182 -1.76715 1
gene 7 27 14 -2.88736 0 193 -2.88736 1
gene 4 4 27 -2.69906 0 212 -2.69906 1
gene 1 2 27 0.650138 0 222 0.650138 1
gene 4 2 53 -1.93339 0 226 -1.93339 1
gene 4 53 23 -0.782899 0 227 -0.782899 1
gene 2 53 27 -2.0491 0 238 -2.0491 1
gene 4 5 64 1.35976 0 277 1.35976 1
gene 4 64 47 -0.155427 0 278 -0.155427 1
gene 7 19 47 -2.27053 0 338 -2.27053 1
gene 4 7 23 -0.133791 0 366 -0.133791 1
gene 4 3 89 1.48084 0 375 1.48084 1
gene 4 89 8 0.733594 0 376 0.733594 1
gene 6 53 64 -1.42439 0 399 -1.42439 1
genomeend 6

/* Organism #7 Fitness: 91 Error: 0 */
/* ##------$ WINNER 7 SPECIES #38 $------## */
genomestart 7
trait 1 0.1 0 0 0 0 0 0 0 
trait 2 0.2 0 0 0 0 0 0 0 
trait 3 0.3 0 0 0 0 0 0 0 
trait 4 0 0 0 0 0 0 0 0 
trait 5 0.5 0 0 0 0 0 0 0 
trait 6 0.378347 0 0 0.742295 0 0.359265 0 0.227462 
trait 7 0.7 0 0 0 0 0 0 0 
trait 8 0.8 0 0 0 0 0 0 0 
node 1 3 1 3
node 2 5 1 1
node 3 4 1 1
node 4 6 1 1
node 5 3 1 1
node 6 3 1 1
node 7 8 1 1
node 8 1 0 2
node 14 1 0 0
node 19 1 0 0
node 23 2 0 0
node 27 3 0 0
node 47 1 0 0
node 53 1 0 0
node 64 1 0 0
node 89 1 0 0
node 97 1 0 0
gene 7 1 8 -0.300578 0 1 -0.300578 1
gene 6 2 8 -2.1114 0 2 -2.1114 1
gene 4 3 8 -0.201626 0 3 -0.201626 0
gene 5 4 8 0.742571 0 4 0.742571 1
gene 5 5 8 -8 0 5 -8 1
gene 3 6 8 6.23827 0 6 6.23827 1
gene 7 7 8 -4.67998 0 7 -4.67998 1
gene 5 5 14 1.01295 0 18 1.01295 1
gene 5 14 8 -1.04166 0 19 -1.04166 1
gene 5 1 14 -1.67828 0 22 -1.67828 1
gene 7 3 14 3.14092 0 24 3.14092 1
gene 4 4 14 -6.83577 0 39 -6.83577 1
gene 4 3 19 2.19119 0 47 2.19119 1
gene 4 19 8 5.606 0 48 5.606 1
gene 4 6 14 0.994119 0 50 0.994119 1
gene 4 19 23 -1.0715 0 63 -1.0715 1
gene 4 23 8 -0.803505 0 64 -0.803505 1
gene 2 23 14 -0.882206 0 70 -0.882206 1
gene 4 23 27 4.61614 0 79 4.61614 0
gene 4 27 8 1.91196 0 80 1.91196 1
gene 7 1 19 1.37536 0 83 1.37536 1
gene 4 5 27 8 0 92 8 0
gene 2 2 19 1.49938 0 108 1.49938 1
gene 8 6 23 0.658066 0 115 0.658066 1
gene 4 2 23 -3.88852 0 124 -3.88852 0
gene 8 4 19 -1.64777 0 153 -1.64777 1
gene 4 5 47 -2.48356 0 181 -2.48356 0
gene 4 47 27 0.668333 0 182 0.668333 1
gene 7 27 14 -3.60958 0 193 -3.60958 1
gene 4 4 27 -1.80112 0 212 -1.80112 1
gene 1 2 27 3.68051 0 222 3.68051 1
gene 4 2 53 -3.13066 0 226 -3.13066 1
gene 4 53 23 5.0128 0 227 5.0128 1
gene 2 53 27 -2.64456 0 238 -2.64456 1
gene 4 5 64 2.73905 0 277 2.73905 1
gene 4 64 47 1.58782 0 278 1.58782 1
gene 7 19 47 -1.29707 0 338 -1.29707 1
gene 4 7 23 0.757289 0 366 0.757289 1
gene 4 3 89 -2.03131 0 375 -2.03131 1
gene 4 89 8 -0.365265 0 376 -0.365265 1
gene 6 53 64 0.663328 0 399 0 1
gene 4 23 97 1 0 406 0 1
gene 4 97 27 4.61614 0 407 0 1
genomeend 7

/* Organism #8 Fitness: 40 Error: 0 */
/* ##------$ WINNER 8 SPECIES #38 $------## */
genomestart 8
trait 1 0.1 0 0 0 0 0 0 0 
trait 2 0.2 0 0 0 0 0 0 0 
trait 3 0.3 0 0 0 0 0 0 0 
trait 4 0 0 0 0 0 0 0 0 
trait 5 0.5 0 0 0 0 0 0 0 
trait 6 0.378347 0 0 0.742295 0 0.359265 0 0.227462 
trait 7 0.7 0 0 0 0 0 0 0 
trait 8 0.8 0 0 0 0 0 0 0 
node 1 3 1 3
node 2 5 1 1
node 3 4 1 1
node 4 6 1 1
node 5 3 1 1
node 6 3 1 1
node 7 8 1 1
node 8 1 0 2
node 14 1 0 0
node 19 1 0 0
node 23 2 0 0
node 27 3 0 0
node 47 1 0 0
node 53 1 0 0
node 64 1 0 0
node 89 1 0 0
gene 7 1 8 -0.300578 0 1 -0.300578 1
gene 6 2 8 -2.1114 0 2 -2.1114 1
gene 4 3 8 -0.201626 0 3 -0.201626 0
gene 5 4 8 0.742571 0 4 0.742571 1
gene 5 5 8 -8 0 5 -8 1
gene 3 6 8 6.23827 0 6 6.23827 1
gene 7 7 8 -4.67998 0 7 -4.67998 1
gene 5 5 14 1.01295 0 18 1.01295 1
gene 5 14 8 -1.04166 0 19 -1.04166 1
gene 5 1 14 -1.67828 0 22 -1.67828 1
gene 7 3 14 3.14092 0 24 3.14092 1
gene 4 4 14 -6.83577 0 39 -6.83577 1
gene 4 3 19 2.19119 0 47 2.19119 1
gene 4 19 8 5.606 0 48 5.606 1
gene 4 6 14 0.994119 0 50 0.994119 1
gene 4 19 23 -1.0715 0 63 -1.0715 1
gene 4 23 8 -0.803505 0 64 -0.803505 1
gene 2 23 14 -0.882206 0 70 -0.882206 1
gene 4 23 27 4.61614 0 79 4.61614 1
gene 4 27 8 1.91196 0 80 1.91196 1
gene 7 1 19 1.37536 0 83 1.37536 1
gene 4 5 27 8 0 92 8 0
gene 2 2 19 1.49938 0 108 1.49938 1
gene 8 6 23 0.658066 0 115 0.658066 1
gene 4 2 23 -3.88852 0 124 -3.88852 0
gene 8 4 19 -1.64777 0 153 -1.64777 1
gene 4 5 47 -2.48356 0 181 -2.48356 0
gene 4 47 27 0.668333 0 182 0.668333 1
gene 7 27 14 -3.60958 0 193 -3.60958 1
gene 4 4 27 -1.80112 0 212 -1.80112 1
gene 1 2 27 3.68051 0 222 3.68051 1
gene 4 2 53 -3.13066 0 226 -3.13066 1
gene 4 53 23 5.0128 0 227 5.0128 1
gene 2 53 27 -2.64456 0 238 -2.64456 1
gene 4 5 64 2.73905 0 277 2.73905 1
gene 4 64 47 1.58782 0 278 1.58782 1
gene 7 19 47 -1.29707 0 338 -1.29707 1
gene 4 7 23 0.757289 0 366 0.757289 1
gene 4 3 89 -2.03131 0 375 -2.03131 1
gene 4 89 8 -0.365265 0 376 -0.365265 1
gene 6 53 64 0.663328 0 399 0 1
gene 1 19 64 0.972682 0 408 0.972682 1
genomeend 8

/* Organism #9 Fitness: 97 Error: 0 */
genomestart 9
trait 1 0.1 0 0 0 0 0 0 0 
trait 2 0.2 0 0 0 0 0 0 0 
trait 3 0.3 0 0 0 0 0 0 0 
trait 4 0 0 0 0 0 0 0 0 
trait 5 0.5 0 0 0 0 0 0 0 
trait 6 0.378347 0 0 0.742295 0 0.359265 0 0.227462 
trait 7 0.7 0 0 0 0 0 0 0 
trait 8 0.8 0 0 0 0 0 0 0 
node 1 3 1 3
node 2 5 1 1
node 3 4 1 1
node 4 6 1 1
node 5 3 1 1
node 6 3 1 1
node 7 8 1 1
node 8 1 0 2
node 14 1 0 0
node 19 1 0 0
node 23 2 0 0
node 27 3 0 0
node 47 1 0 0
node 53 1 0 0
node 64 1 0 0
node 89 1 0 0
gene 7 1 8 -0.300578 0 1 -0.300578 1
gene 6 2 8 -2.1114 0 2 -2.1114 1
gene 4 3 8 -0.201626 0 3 -0.201626 0
gene 5 4 8 0.742571 0 4 0.742571 1
gene 5 5 8 -8 0 5 -8 1
gene 3 6 8 6.23827 0 6 6.23827 1
gene 7 7 8 -4.67998 0 7 -4.67998 1
gene 5 5 14 1.01295 0 18 1.01295 1
gene 5 14 8 -1.04166 0 19 -1.04166 1
gene 5 1 14 -1.67828 0 22 -1.67828 1
gene 7 3 14 3.14092 0 24 3.14092 1
gene 4 4 14 -6.83577 0 39 -6.83577 1
gene 4 3 19 2.19119 0 47 2.19119 1
gene 4 19 8 5.606 0 48 5.606 1
gene 4 6 14 0.994119 0 50 0.994119 1
gene 4 19 23 -1.0715 0 63 -1.0715 1
gene 4 23 8 -0.803505 0 64 -0.803505 1
gene 2 23 14 -0.882206 0 70 -0.882206 1
gene 4 23 27 4.61614 0 79 4.61614 1
gene 4 27 8 1.91196 0 80 1.91196 1
gene 7 1 19 1.37536 0 83 1.37536 1
gene 4 5 27 8 0 92 8 0
gene 2 2 19 1.49938 0 108 1.49938 1
gene 8 6 23 0.658066 0 115 0.658066 1
gene 4 2 23 -3.88852 0 124 -3.88852 0
gene 8 4 19 -1.64777 0 153 -1.64777 1
gene 4 5 47 -2.48356 0 181 -2.48356 0
gene 4 47 27 0.668333 0 182 0.668333 1
gene 7 27 14 -3.60958 0 193 -3.60958 1
gene 4 4 27 -1.80112 0 212 -1.80112 1
gene 1 2 27 3.68051 0 222 3.68051 1
gene 4 2 53 -3.13066 0 226 -3.13066 1
gene 4 53 23 5.0128 0 227 5.0128 1
gene 2 53 27 -2.64456 0 238 -2.64456 1
gene 4 5 64 2.73905 0 277 2.73905 1
gene 4 64 47 1.58782 0 278 1.58782 1
gene 7 19 47 -1.29707 0 338 -1.29707 1
gene 4 7 23 0.757289 0 366 0.757289 1
gene 4 3 89 -2.03131 0 375 -2.03131 1
gene 4 89 8 -0.365265 0 376 -0.365265 1
gene 6 53 64 0.663328 0 399 0 1
genomeend 9

/* Organism #10 Fitness: 0.0002 Error: 0 */
genomestart 10
trait 1 0.1 0 0 0 0 0 0 0 
trait 2 0.2 0 0 0 0 0 0 0 
trait 3 0.3 0 0 0 0 0 0 0 
trait 4 0 0 0 0 0 0 0 0 
trait 5 0.5 0 0 0 0 0 0 0 
trait 6 0.378347 0 0 0.742295 0 0.359265 0 0.227462 
trait 7 0.7 0 0 0 0 0 0 0 
trait 8 0.8 0 0 0 0 0 0 0 
node 1 3 1 3
node 2 5 1 1
node 3 4 1 1
node 4 6 1 1
node 5 3 1 1
node 6 3 1 1
node 7 8 1 1
node 8 1 0 2
node 14 1 0 0
node 19 1 0 0
node 23 2 0 0
node 27 3 0 0
node 47 1 0 0
node 53 1 0 0
node 64 1 0 0
node 89 1 0 0
gene 7 1 8 -0.300578 0 1 -0.300578 1
gene 6 2 8 -2.1114 0 2 -2.1114 1
gene 4 3 8 -0.201626 0 3 -0.201626 0
gene 5 4 8 0.742571 0 4 0.742571 1
gene 5 5 8 -8 0 5 -8 1
gene 3 6 8 6.23827 0 6 6.23827 1
gene 7 7 8 -4.67998 0 7 -4.67998 1
gene 5 5 14 1.01295 0 18 1.01295 1
gene 5 14 8 -1.04166 0 19 -1.04166 1
gene 5 1 14 -1.67828 0 22 -1.67828 1
gene 7 3 14 3.14092 0 24 3.14092 1
gene 4 4 14 -6.83577 0 39 -6.83577 1
gene 4 3 19 2.19119 0 47 2.19119 1
gene 4 19 8 5.606 0 48 5.606 1
gene 4 6 14 0.994119 0 50 0.994119 1
gene 4 19 23 -1.0715 0 63 -1.0715 1
gene 4 23 8 -0.803505 0 64 -0.803505 1
gene 2 23 14 -0.882206 0 70 -0.882206 1
gene 4 23 27 4.61614 0 79 4.61614 1
gene 4 27 8 1.91196 0 80 1.91196 1
gene 7 1 19 1.37536 0 83 1.37536 1
gene 4 5 27 8 0 92 8 0
gene 2 2 19 1.49938 0 108 1.49938 1
gene 8 6 23 0.658066 0 115 0.658066 1
gene 4 2 23 -3.88852 0 124 -3.88852 0
gene 8 4 19 -1.64777 0 153 -1.64777 1
gene 4 5 47 -2.48356 0 181 -2.48356 0
gene 4 47 27 0.668333 0 182 0.668333 1
gene 7 27 14 -3.60958 0 193 -3.60958 1
gene 4 4 27 -1.80112 0 212 -1.80112 1
gene 1 2 27 3.68051 0 222 3.68051 1
gene 4 2 53 -3.13066 0 226 -3.13066 1
gene 4 53 23 5.0128 0 227 5.0128 1
gene 2 53 27 -2.64456 0 238 -2.64456 1
gene 4 5 64 2.73905 0 277 2.73905 1
gene 4 64 47 1.58782 0 278 1.58782 1
gene 7 19 47 -1.29707 0 338 -1.29707 1
gene 4 7 23 0.757289 0 366 0.757289 1
gene 4 3 89 -2.03131 0 375 -2.03131 1
gene 4 89 8 -0.365265 0 376 -0.365265 1
gene 6 53 64 0.663328 0 399 0 1
gene 7 5 23 0.357215 0 409 0.357215 1
genomeend 10

/* Organism #11 Fitness: 190 Error: 0 */
/* ##------$ WINNER 11 SPECIES #38 $------## */
genomestart 11
trait 1 0.1 0 0 0 0 0 0 0 
trait 2 0.2 0 0 0 0 0 0 0 
trait 3 0.3 0 0 0 0 0 0 0 
trait 4 0 0 0 0 0 0 0 0 
trait 5 0.5 0 0 0 0 0 0 0 
trait 6 0.378347 0 0 0.742295 0 0.359265 0 0.227462 
trait 7 0.7 0 0 0 0 0 0 0 
trait 8 0.8 0 0 0 0 0 0 0 
node 1 3 1 3
node 2 5 1 1
node 3 4 1 1
node 4 6 1 1
node 5 3 1 1
node 6 3 1 1
node 7 8 1 1
node 8 1 0 2
node 14 1 0 0
node 19 1 0 0
node 23 2 0 0
node 27 3 0 0
node 47 1 0 0
node 53 1 0 0
node 64 1 0 0
node 89 1 0 0
gene 7 1 8 -0.300578 0 1 -0.300578 1
gene 6 2 8 -2.1114 0 2 -2.1114 1
gene 4 3 8 -0.201626 0 3 -0.201626 0
gene 5 4 8 0.742571 0 4 0.742571 1
gene 5 5 8 -8 0 5 -8 1
gene 3 6 8 6.23827 0 6 6.23827 1
gene 7 7 8 -4.67998 0 7 -4.67998 1
gene 5 5 14 1.01295 0 18 1.01295 1
gene 5 14 8 -1.04166 0 19 -1.04166 1
gene 5 1 14 -1.67828 0 22 -1.67828 1
gene 7 3 14 3.14092 0 24 3.14092 1
gene 4 4 14 -6.83577 0 39 -6.83577 1
gene 4 3 19 2.19119 0 47 2.19119 1
gene 4 19 8 5.606 0 48 5.606 1
gene 4 6 14 0.994119 0 50 0.994119 1
gene 4 19 23 -1.0715 0 63 -1.0715 1
gene 4 23 8 -0.803505 0 64 -0.803505 1
gene 2 23 14 -0.882206 0 70 -0.882206 1
gene 4 23 27 4.61614 0 79 4.61614 1
gene 4 27 8 1.91196 0 80 1.91196 1
gene 7 1 19 1.37536 0 83 1.37536 1
gene 4 5 27 8 0 92 8 0
gene 2 2 19 1.49938 0 108 1.49938 1
gene 8 6 23 0.658066 0 115 0.658066 1
gene 4 2 23 -3.88852 0 124 -3.88852 0
gene 8 4 19 -1.64777 0 153 -1.64777 1
gene 4 5 47 -2.48356 0 181 -2.48356 0
gene 4 47 27 0.668333 0 182 0.668333 1
gene 7 27 14 -3.60958 0 193 -3.60958 1
gene 4 4 27 -1.80112 0 212 -1.80112 1
gene 1 2 27 3.68051 0 222 3.68051 1
gene 4 2 53 -3.13066 0 226 -3.13066 1
gene 4 53 23 5.0128 0 227 5.0128 1
gene 2 53 27 -2.64456 0 238 -2.64456 1
gene 4 5 64 2.73905 0 277 2.73905 1
gene 4 64 47 1.58782 0 278 1.58782 1
gene 7 19 47 -1.29707 0 338 -1.29707 1
gene 4 7 23 0.757289 0 366 0.757289 1
gene 4 3 89 -2.03131 0 375 -2.03131 1
gene 4 89 8 -0.365265 0 376 -0.365265 1
gene 6 53 64 0.663328 0 399 0 1
gene 1 1 23 0.770472 0 410 0.770472 1
genomeend 11

/* Organism #12 Fitness: 0.0007 Error: 0 */
genomestart 12
trait 1 0.1 0 0 0 0 0 0 0 
trait 2 0.2 0 0 0 0 0 0 0 
trait 3 0.3 0 0 0 0 0 0 0 
trait 4 0 0 0 0 0 0 0 0 
trait 5 0.5 0 0 0 0 0 0 0 
trait 6 0.378347 0 0 0.742295 0 0.359265 0 0.227462 
trait 7 0.7 0 0 0 0 0 0 0 
trait 8 0.8 0 0 0 0 0 0 0 
node 1 3 1 3
node 2 5 1 1
node 3 4 1 1
node 4 6 1 1
node 5 3 1 1
node 6 3 1 1
node 7 8 1 1
node 8 1 0 2
node 14 1 0 0
node 19 1 0 0
node 23 2 0 0
node 27 3 0 0
node 47 1 0 0
node 53 1 0 0
node 64 1 0 0
node 89 1 0 0
gene 7 1 8 -0.300578 0 1 -0.300578 1
gene 6 2 8 -2.1114 0 2 -2.1114 1
gene 4 3 8 -0.201626 0 3 -0.201626 0
gene 5 4 8 0.742571 0 4 0.742571 1
gene 5 5 8 -8 0 5 -8 1
gene 3 6 8 6.23827 0 6 6.23827 1
gene 7 7 8 -4.67998 0 7 -4.67998 1
gene 5 5 14 1.01295 0 18 1.01295 1
gene 5 14 8 -1.04166 0 19 -1.04166 1
gene 5 1 14 -1.67828 0 22 -1.67828 1
gene 7 3 14 3.14092 0 24 3.14092 1
gene 4 4 14 -6.83577 0 39 -6.83577 1
gene 4 3 19 2.19119 0 47 2.19119 1
gene 4 19 8 5.606 0 48 5.606 1
gene 4 6 14 0.994119 0 50 0.994119 1
gene 4 19 23 -1.0715 0 63 -1.0715 1
gene 4 23 8 -0.803505 0 64 -0.803505 1
gene 2 23 14 -0.882206 0 70 -0.882206 1
gene 4 23 27 4.61614 0 79 4.61614 1
gene 4 27 8 1.91196 0 80 1.91196 1
gene 7 1 19 1.37536 0 83 1.37536 1
gene 4 5 27 8 0 92 8 0
gene 2 2 19 1.49938 0 108 1.49938 1
gene 8 6 23 0.658066 0 115 0.658066 1
gene 4 2 23 -3.88852 0 124 -3.88852 0
gene 8 4 19 -1.64777 0 153 -1.64777 1
gene 4 5 47 -2.48356 0 181 -2.48356 0
gene 4 47 27 0.668333 0 182 0.668333 1
gene 7 27 14 -3.60958 0 193 -3.60958 1
gene 4 4 27 -1.80112 0 212 -1.80112 1
gene 1 2 27 3.68051 0 222 3.68051 1
gene 4 2 53 -3.13066 0 226 -3.13066 1
gene 4 53 23 5.0128 0 227 5.0128 1
gene 2 53 27 -2.64456 0 238 -2.64456 1
gene 4 5 64 2.73905 0 277 2.73905 1
gene 4 64 47 1.58782 0 278 1.58782 1
gene 7 19 47 -1.29707 0 338 -1.29707 1
gene 4 7 23 0.757289 0 366 0.757289 1
gene 4 3 89 -2.03131 0 375 -2.03131 1
gene 4 89 8 -0.365265 0 376 -0.365265 1
gene 6 53 64 0.663328 0 399 0 1
genomeend 12

/* Organism #13 Fitness: 84 Error: 0 */
genomestart 13
trait 1 0.1 0 0 0 0 0 0 0 
trait 2 0.2 0 0 0 0 0 0 0 
trait 3 0.3 0 0 0 0 0 0 0 
trait 4 0 0 0 0 0 0 0 0 
trait 5 0.5 0 0 0 0 0 0 0 
trait 6 0.378347 0 0 0.742295 0 0.359265 0 0.227462 
trait 7 0.7 0 0 0 0 0 0 0 
trait 8 0.8 0 0 0 0 0 0 0 
node 1 3 1 3
node 2 5 1 1
node 3 4 1 1
node 4 6 1 1
node 5 3 1 1
node 6 3 1 1
node 7 8 1 1
node 8 1 0 2
node 14 1 0 0
node 19 1 0 0
node 23 2 0 0
node 27 3 0 0
node 47 1 0 0
node 53 1 0 0
node 64 1 0 0
node 89 1 0 0
gene 7 1 8 -0.300578 0 1 -0.300578 1
gene 6 2 8 -2.1114 0 2 -2.1114 1
gene 4 3 8 -0.201626 0 3 -0.201626 0
gene 5 4 8 0.742571 0 4 0.742571 1
gene 5 5 8 -8 0 5 -8 1
gene 3 6 8 6.23827 0 6 6.23827 1
gene 7 7 8 -4.67998 0 7 -4.67998 1
gene 5 5 14 1.01295 0 18 1.01295 1
gene 5 14 8 -1.04166 0 19 -1.04166 1
gene 5 1 14 -1.67828 0 22 -1.67828 1
gene 7 3 14 3.14092 0 24 3.14092 1
gene 4 4 14 -6.83577 0 39 -6.83577 1
gene 4 3 19 2.19119 0 47 2.19119 1
gene 4 19 8 5.606 0 48 5.606 1
gene 4 6 14 0.994119 0 50 0.994119 1
gene 4 19 23 -1.0715 0 63 -1.0715 1
gene 4 23 8 -0.803505 0 64 -0.803505 1
gene 2 23 14 -0.882206 0 70 -0.882206 1
gene 4 23 27 4.61614 0 79 4.61614 1
gene 4 27 8 1.91196 0 80 1.91196 1
gene 7 1 19 1.37536 0 83 1.37536 1
gene 4 5 27 8 0 92 8 0
gene 2 2 19 1.49938 0 108 1.49938 1
gene 8 6 23 0.658066 0 115 0.658066 1
gene 4 2 23 -3.88852 0 124 -3.88852 0
gene 8 4 19 -1.64777 0 153 -1.64777 1
gene 4 5 47 -2.48356 0 181 -2.48356 0
gene 4 47 27 0.668333 0 182 0.668333 1
gene 7 27 14 -3.60958 0 193 -3.60958 1
gene 4 4 27 -1.80112 0 212 -1.80112 1
gene 1 2 27 3.68051 0 222 3.68051 1
gene 4 2 53 -3.13066 0 226 -3.13066 1
gene 4 53 23 5.0128 0 227 5.0128 1
gene 2 53 27 -2.64456 0 238 -2.64456 1
gene 4 5 64 2.73905 0 277 2.73905 1
gene 4 64 47 1.58782 0 278 1.58782 1
gene 7 19 47 -1.29707 0 338 -1.29707 1
gene 4 7 23 0.757289 0 366 0.757289 1
gene 4 3 89 -2.03131 0 375 -2.03131 1
gene 4 89 8 -0.365265 0 376 -0.365265 1
gene 6 53 64 0.663328 0 399 0 1
genomeend 13

/* Organism #14 Fitness: 113 Error: 0 */
/* ##------$ WINNER 14 SPECIES #38 $------## */
genomestart 14
trait 1 0.1 0 0 0 0 0 0 0 
trait 2 0.2 0 0 0 0 0 0 0 
trait 3 0.3 0 0 0 0 0 0 0 
trait 4 0 0 0 0 0 0 0 0 
trait 5 0.5 0 0 0 0 0 0 0 
trait 6 0.378347 0 0 0.742295 0 0.359265 0 0.227462 
trait 7 0.7 0 0 0 0 0 0 0 
trait 8 0.8 0 0 0 0 0 0 0 
node 1 3 1 3
node 2 5 1 1
node 3 4 1 1
node 4 6 1 1
node 5 3 1 1
node 6 3 1 1
node 7 8 1 1
node 8 1 0 2
node 14 1 0 0
node 19 1 0 0
node 23 2 0 0
node 27 3 0 0
node 47 1 0 0
node 53 1 0 0
node 64 1 0 0
node 89 1 0 0
node 98 1 0 0
gene 7 1 8 -0.300578 0 1 -0.300578 1
gene 6 2 8 -2.1114 0 2 -2.1114 1
gene 4 3 8 -0.201626 0 3 -0.201626 0
gene 5 4 8 0.742571 0 4 0.742571 1
gene 5 5 8 -8 0 5 -8 1
gene 3 6 8 6.23827 0 6 6.23827 1
gene 7 7 8 -4.67998 0 7 -4.67998 1
gene 5 5 14 1.01295 0 18 1.01295 1
gene 5 14 8 -1.04166 0 19 -1.04166 0
gene 5 1 14 -1.67828 0 22 -1.67828 1
gene 7 3 14 3.14092 0 24 3.14092 1
gene 4 4 14 -6.83577 0 39 -6.83577 1
gene 4 3 19 2.19119 0 47 2.19119 1
gene 4 19 8 5.606 0 48 5.606 1
gene 4 6 14 0.994119 0 50 0.994119 1
gene 4 19 23 -1.0715 0 63 -1.0715 1
gene 4 23 8 -0.803505 0 64 -0.803505 1
gene 2 23 14 -0.882206 0 70 -0.882206 1
gene 4 23 27 4.61614 0 79 4.61614 1
gene 4 27 8 1.91196 0 80 1.91196 1
gene 7 1 19 1.37536 0 83 1.37536 1
gene 4 5 27 8 0 92 8 0
gene 2 2 19 1.49938 0 108 1.49938 1
gene 8 6 23 0.658066 0 115 0.658066 1
gene 4 2 23 -3.88852 0 124 -3.88852 0
gene 8 4 19 -1.64777 0 153 -1.64777 1
gene 4 5 47 -2.48356 0 181 -2.48356 0
gene 4 47 27 0.668333 0 182 0.668333 1
gene 7 27 14 -3.60958 0 193 -3.60958 1
gene 4 4 27 -1.80112 0 212 -1.80112 1
gene 1 2 27 3.68051 0 222 3.68051 1
gene 4 2 53 -3.13066 0 226 -3.13066 1
gene 4 53 23 5.0128 0 227 5.0128 1
gene 2 53 27 -2.64456 0 238 -2.64456 1
gene 4 5 64 2.73905 0 277 2.73905 1
gene 4 64 47 1.58782 0 278 1.58782 1
gene 7 19 47 -1.29707 0 338 -1.29707 1
gene 4 7 23 0.757289 0 366 0.757289 1
gene 4 3 89 -2.03131 0 375 -2.03131 1
gene 4 89 8 -0.365265 0 376 -0.365265 1
gene 6 53 64 0.663328 0 399 0 1
gene 5 14 98 1 0 411 0 1
gene 5 98 8 -1.04166 0 412 0 1
genomeend 14

/* Organism #15 Fitness: 0 Error: 0 */
genomestart 15
trait 1 0.1 0 0 0 0 0 0 0 
trait 2 0.2 0 0 0 0 0 0 0 
trait 3 0.3 0 0 0 0 0 0 0 
trait 4 0 0 0 0 0 0 0 0 
trait 5 0.5 0 0 0 0 0 0 0 
trait 6 0.378347 0 0 0.742295 0 0.359265 0 0.227462 
trait 7 0.7 0 0 0 0 0 0 0 
trait 8 0.8 0 0 0 0 0 0 0 
node 1 3 1 3
node 2 5 1 1
node 3 4 1 1
node 4 6 1 1
node 5 3 1 1
node 6 3 1 1
node 7 8 1 1
node 8 1 0 2
node 14 1 0 0
node 19 1 0 0
node 23 2 0 0
node 27 3 0 0
node 47 1 0 0
node 53 1 0 0
node 64 1 0 0
node 89 1 0 0
gene 7 1 8 1.43286 0 1 1.43286 1
gene 6 2 8 -3.00028 0 2 -3.00028 1
gene 4 3 8 -2.5801 0 3 -2.5801 0
gene 5 4 8 -1.45196 0 4 -1.45196 1
gene 5 5 8 -8 0 5 -8 1
gene 3 6 8 6.11466 0 6 6.11466 1
gene 7 7 8 -4.68896 0 7 -4.68896 1
gene 5 5 14 -0.544481 0 18 -0.544481 1
gene 5 14 8 -3.07076 0 19 -3.07076 1
gene 5 1 14 -2.19558 0 22 -2.19558 1
gene 7 3 14 3.36695 0 24 3.36695 1
gene 4 4 14 -4.43997 0 39 -4.43997 1
gene 4 3 19 3.7569 0 47 3.7569 1
gene 4 19 8 3.98973 0 48 3.98973 1
gene 4 6 14 -0.787569 0 50 -0.787569 1
gene 4 19 23 -0.853275 0 63 -0.853275 1
gene 4 23 8 1.45547 0 64 1.45547 1
gene 2 23 14 -0.00428511 0 70 -0.00428511 1
gene 4 23 27 6.27566 0 79 6.27566 1
gene 4 27 8 2.10907 0 80 2.10907 1
gene 7 1 19 -0.20231 0 83 -0.20231 1
gene 4 5 27 8 0 92 8 0
gene 2 2 19 3.44518 0 108 3.44518 1
gene 8 6 23 -0.716121 0 115 -0.716121 1
gene 4 2 23 -4.72893 0 124 -4.72893 0
gene 8 4 19 -3.23157 0 153 -3.23157 1
gene 4 5 47 -2.40453 0 181 -2.40453 0
gene 4 47 27 -0.951889 0 182 -0.951889 1
gene 7 27 14 -5.90372 0 193 -5.90372 1
gene 4 4 27 -2.01178 0 212 -2.01178 1
gene 1 2 27 4.28342 0 222 4.28342 1
gene 4 2 53 -4.33976 0 226 -4.33976 1
gene 4 53 23 5.82128 0 227 5.82128 1
gene 2 53 27 -5.03685 0 238 -5.03685 1
gene 4 5 64 3.37468 0 277 3.37468 1
gene 4 64 47 2.02211 0 278 2.02211 1
gene 7 19 47 -0.4327 0 338 -0.4327 1
gene 4 7 23 1.4158 0 366 1.4158 1
gene 4 3 89 -2.54937 0 375 -2.54937 1
gene 4 89 8 1.85945 0 376 1.85945 1
gene 6 53 64 1.61759 0 399 1.61759 1
genomeend 15

/* Organism #16 Fitness: 51 Error: 0 */
/* ##------$ WINNER 16 SPECIES #38 $------## */
genomestart 16
trait 1 0.1 0 0 0 0 0 0 0 
trait 2 0.2 0 0 0 0 0 0 0 
trait 3 0.3 0 0 0 0 0 0 0 
trait 4 0 0 0 0 0 0 0 0 
trait 5 0.5 0 0 0 0 0 0 0 
trait 6 0.378347 0 0 0.742295 0 0.359265 0 0.227462 
trait 7 0.7 0 0 0 0 0 0 0 
trait 8 0.8 0 0 0 0 0 0 0 
node 1 3 1 3
node 2 5 1 1
node 3 4 1 1
node 4 6 1 1
node 5 3 1 1
node 6 3 1 1
node 7 8 1 1
node 8 1 0 2
node 14 1 0 0
node 19 1 0 0
node 23 2 0 0
node 27 3 0 0
node 47 1 0 0
node 53 1 0 0
node 64 1 0 0
node 89 1 0 0
gene 7 1 8 -0.300578 0 1 -0.300578 1
gene 6 2 8 -2.1114 0 2 -2.1114 1
gene 4 3 8 -0.201626 0 3 -0.201626 0
gene 5 4 8 0.742571 0 4 0.742571 1
gene 5 5 8 -8 0 5 -8 1
gene 3 6 8 6.23827 0 6 6.23827 1
gene 7 7 8 -4.67998 0 7 -4.67998 1
gene 5 5 14 1.01295 0 18 1.01295 1
gene 5 14 8 -1.04166 0 19 -1.04166 1
gene 5 1 14 -1.67828 0 22 -1.67828 1
gene 7 3 14 3.14092 0 24 3.14092 1
gene 4 4 14 -6.83577 0 39 -6.83577 1
gene 4 3 19 2.19119 0 47 2.19119 1
gene 4 19 8 5.606 0 48 5.606 1
gene 4 6 14 0.994119 0 50 0.994119 1
gene 4 19 23 -1.0715 0 63 -1.0715 1
gene 4 23 8 -0.803505 0 64 -0.803505 1
gene 2 23 14 -0.882206 0 70 -0.882206 1
gene 4 23 27 4.61614 0 79 4.61614 1
gene 4 27 8 1.91196 0 80 1.91196 1
gene 7 1 19 1.37536 0 83 1.37536 1
gene 4 5 27 8 0 92 8 0
gene 2 2 19 1.49938 0 108 1.49938 1
gene 8 6 23 0.658066 0 115 0.658066 1
gene 4 2 23 -3.88852 0 124 -3.88852 0
gene 8 4 19 -1.64777 0 153 -1.64777 1
gene 4 5 47 -2.48356 0 181 -2.48356 0
gene 4 47 27 0.668333 0 182 0.668333 1
gene 7 27 14 -3.60958 0 193 -3.60958 1
gene 4 4 27 -1.80112 0 212 -1.80112 1
gene 1 2 27 3.68051 0 222 3.68051 1
gene 4 2 53 -3.13066 0 226 -3.13066 1
gene 4 53 23 5.0128 0 227 5.0128 1
gene 2 53 27 -2.64456 0 238 -2.64456 1
gene 4 5 64 2.73905 0 277 2.73905 1
gene 4 64 47 1.58782 0 278 1.58782 1
gene 7 19 47 -1.29707 0 338 -1.29707 1
gene 4 7 23 0.757289 0 366 0.757289 1
gene 4 3 89 -2.03131 0 375 -2.03131 1
gene 4 89 8 -0.365265 0 376 -0.365265 1
gene 6 53 64 0.663328 0 399 0 1
gene 3 64 27 0.193243 0 413 0.193243 1
genomeend 16

/* Organism #17 Fitness: 21 Error: 0 */
genomestart 17
trait 1 0.1 0 0 0 0 0 0 0 
trait 2 0.2 0 0 0 0 0 0 0 
trait 3 0.3 0 0 0 0 0 0 0 
trait 4 0 0 0 0 0 0 0 0 
trait 5 0.5 0 0 0 0 0 0 0 
trait 6 0.378347 0 0 0.742295 0 0.359265 0 0.227462 
trait 7 0.7 0 0 0 0 0 0 0 
trait 8 0.8 0 0 0 0 0 0 0 
node 1 3 1 3
node 2 5 1 1
node 3 4 1 1
node 4 6 1 1
node 5 3 1 1
node 6 3 1 1
node 7 8 1 1
node 8 1 0 2
node 14 1 0 0
node 19 1 0 0
node 23 2 0 0
node 27 3 0 0
node 47 1 0 0
node 53 1 0 0
node 64 1 0 0
node 89 1 0 0
gene 7 1 8 1.08586 0 1 1.08586 1
gene 6 2 8 -1.84877 0 2 -1.84877 1
gene 4 3 8 -0.939912 0 3 -0.939912 0
gene 5 4 8 -0.777886 0 4 -0.777886 1
gene 5 5 8 -8 0 5 -8 1
gene 3 6 8 8 0 6 8 1
gene 7 7 8 -4.28205 0 7 -4.28205 1
gene 5 5 14 2.1023 0 18 2.1023 1
gene 5 14 8 0.961343 0 19 0.961343 1
gene 5 1 14 -1.38197 0 22 -1.38197 1
gene 7 3 14 2.55691 0 24 2.55691 1
gene 4 4 14 -6.96066 0 39 -6.96066 1
gene 4 3 19 2.5611 0 47 2.5611 1
gene 4 19 8 6.07684 0 48 6.07684 1
gene 4 6 14 1.97567 0 50 1.97567 1
gene 4 19 23 -0.0163241 0 63 -0.0163241 1
gene 4 23 8 -0.287362 0 64 -0.287362 1
gene 2 23 14 1.48752 0 70 1.48752 1
gene 4 23 27 6.42535 0 79 6.42535 1
gene 4 27 8 0.37775 0 80 0.37775 1
gene 7 1 19 2.42102 0 83 2.42102 1
gene 4 5 27 6.87249 0 92 6.87249 0
gene 2 2 19 2.99103 0 108 2.99103 1
gene 8 6 23 -1.68309 0 115 -1.68309 1
gene 4 2 23 -3.20486 0 124 -3.20486 0
gene 8 4 19 0.777191 0 153 0.777191 1
gene 4 5 47 -2.10462 0 181 -2.10462 0
gene 4 47 27 1.22227 0 182 1.22227 1
gene 7 27 14 -2.55567 0 193 -2.55567 1
gene 4 4 27 -1.75957 0 212 -1.75957 1
gene 1 2 27 1.18955 0 222 1.18955 1
gene 4 2 53 -5.32773 0 226 -5.32773 1
gene 4 53 23 4.39891 0 227 4.39891 1
gene 2 53 27 -2.10572 0 238 -2.10572 1
gene 4 5 64 5.01207 0 277 5.01207 1
gene 4 64 47 0.646534 0 278 0.646534 1
gene 7 19 47 -1.29707 0 338 -1.29707 1
gene 4 7 23 0.262377 0 366 0.262377 1
gene 4 3 89 -2.4438 0 375 -2.4438 1
gene 4 89 8 -0.365265 0 376 -0.365265 1
gene 6 53 64 0.86803 0 399 0.86803 1
genomeend 17

/* Organism #18 Fitness: 0.0003 Error: 0 */
genomestart 18
trait 1 0.1 0 0 0 0 0 0 0 
trait 2 0.2 0 0 0 0 0 0 0 
trait 3 0.3 0 0 0 0 0 0 0 
trait 4 0 0 0 0 0 0 0 0 
trait 5 0.5 0 0 0 0 0 0 0 
trait 6 0.378347 0 0 0.742295 0 0.359265 0 0.227462 
trait 7 0.7 0 0 0 0 0 0 0 
trait 8 1 0.465763 0 0 0 0.962907 0 0 
node 1 3 1 3
node 2 5 1 1
node 3 4 1 1
node 4 6 1 1
node 5 3 1 1
node 6 3 1 1
node 7 8 1 1
node 8 1 0 2
node 14 1 0 0
node 19 1 0 0
node 23 2 0 0
node 27 3 0 0
node 47 1 0 0
node 53 1 0 0
node 64 1 0 0
node 89 1 0 0
gene 7 1 8 -0.200718 0 1 -0.200718 1
gene 6 2 8 -1.51347 0 2 -1.51347 1
gene 4 3 8 -1.1368 0 3 -1.1368 0
gene 5 4 8 0.195648 0 4 0.195648 1
gene 5 5 8 -7.49949 0 5 -7.49949 1
gene 3 6 8 3.87091 0 6 3.87091 1
gene 7 7 8 -6.04368 0 7 -6.04368 1
gene 5 5 14 2.24806 0 18 2.24806 1
gene 5 14 8 1.44082 0 19 1.44082 1
gene 5 1 14 0.204012 0 22 0.204012 1
gene 7 3 14 5.03803 0 24 5.03803 1
gene 4 4 14 -7.98803 0 39 -7.98803 1
gene 4 3 19 4.34142 0 47 4.34142 1
gene 4 19 8 4.54919 0 48 4.54919 1
gene 4 6 14 0.30229 0 50 0.30229 1
gene 4 19 23 -0.383443 0 63 -0.383443 1
gene 4 23 8 -0.298317 0 64 -0.298317 1
gene 2 23 14 -2.98222 0 70 -2.98222 1
gene 4 23 27 2.93775 0 79 2.93775 1
gene 4 27 8 0.128621 0 80 0.128621 1
gene 7 1 19 -1.02591 0 83 -1.02591 1
gene 4 5 27 8 0 92 8 0
gene 2 2 19 0.488604 0 108 0.488604 1
gene 8 6 23 2.99196 0 115 2.99196 1
gene 4 2 23 -4.2777 0 124 -4.2777 0
gene 8 4 19 -2.84661 0 153 -2.84661 1
gene 4 5 47 -2.4366 0 181 -2.4366 0
gene 4 47 27 0.128057 0 182 0.128057 1
gene 7 27 14 -4.37101 0 193 -4.37101 1
gene 4 4 27 -1.58881 0 212 -1.58881 1
gene 1 2 27 4.95117 0 222 4.95117 1
gene 4 2 53 -4.57576 0 226 -4.57576 1
gene 4 53 23 6.42442 0 227 6.42442 1
gene 2 53 27 -2.53409 0 238 -2.53409 1
gene 4 5 64 3.22676 0 277 3.22676 1
gene 4 64 47 0.392242 0 278 0.392242 1
gene 7 19 47 0.089795 0 338 0.089795 1
gene 4 7 23 2.90559 0 366 2.90559 1
gene 4 3 89 -0.623468 0 375 -0.623468 1
gene 4 89 8 -0.365265 0 376 -0.365265 1
gene 6 53 64 -1.92363 0 399 -1.92363 1
genomeend 18

/* Organism #19 Fitness: 52 Error: 0 */
genomestart 19
trait 1 0.1 0 0 0 0 0 0 0 
trait 2 0.2 0 0 0 0 0 0 0 
trait 3 0.3 0 0 0 0 0 0 0 
trait 4 0 0 0 0 0 0 0 0 
trait 5 0.5 0 0 0 0 0 0 0 
trait 6 0.378347 0 0 0.742295 0 0.359265 0 0.227462 
trait 7 0.7 0 0 0 0 0 0 0 
trait 8 0.8 0 0 0 0 0 0 0 
node 1 3 1 3
node 2 5 1 1
node 3 4 1 1
node 4 6 1 1
node 5 3 1 1
node 6 3 1 1
node 7 8 1 1
node 8 1 0 2
node 14 1 0 0
node 19 1 0 0
node 23 2 0 0
node 27 3 0 0
node 47 1 0 0
node 53 1 0 0
node 64 1 0 0
node 89 1 0 0
node 99 1 0 0
gene 7 1 8 -0.300578 0 1 -0.300578 1
gene 6 2 8 -2.1114 0 2 -2.1114 1
gene 4 3 8 -0.201626 0 3 -0.201626 0
gene 5 4 8 0.742571 0 4 0.742571 1
gene 5 5 8 -8 0 5 -8 1
gene 3 6 8 6.23827 0 6 6.23827 1
gene 7 7 8 -4.67998 0 7 -4.67998 1
gene 5 5 14 1.01295 0 18 1.01295 1
gene 5 14 8 -1.04166 0 19 -1.04166 1
gene 5 1 14 -1.67828 0 22 -1.67828 1
gene 7 3 14 3.14092 0 24 3.14092 1
gene 4 4 14 -6.83577 0 39 -6.83577 1
gene 4 3 19 2.19119 0 47 2.19119 1
gene 4 19 8 5.606 0 48 5.606 1
gene 4 6 14 0.994119 0 50 0.994119 1
gene 4 19 23 -1.0715 0 63 -1.0715 1
gene 4 23 8 -0.803505 0 64 -0.803505 1
gene 2 23 14 -0.882206 0 70 -0.882206 1
gene 4 23 27 4.61614 0 79 4.61614 1
gene 4 27 8 1.91196 0 80 1.91196 1
gene 7 1 19 1.37536 0 83 1.37536 1
gene 4 5 27 8 0 92 8 0
gene 2 2 19 1.49938 0 108 1.49938 1
gene 8 6 23 0.658066 0 115 0.658066 1
gene 4 2 23 -3.88852 0 124 -3.88852 0
gene 8 4 19 -1.64777 0 153 -1.64777 1
gene 4 5 47 -2.48356 0 181 -2.48356 0
gene 4 47 27 0.668333 0 182 0.668333 1
gene 7 27 14 -3.60958 0 193 -3.60958 1
gene 4 4 27 -1.80112 0 212 -1.80112 1
gene 1 2 27 3.68051 0 222 3.68051 1
gene 4 2 53 -3.13066 0 226 -3.13066 1
gene 4 53 23 5.0128 0 227 5.0128 0
gene 2 53 27 -2.64456 0 238 -2.64456 1
gene 4 5 64 2.73905 0 277 2.73905 1
gene 4 64 47 1.58782 0 278 1.58782 1
gene 7 19 47 -1.29707 0 338 -1.29707 1
gene 4 7 23 0.757289 0 366 0.757289 1
gene 4 3 89 -2.03131 0 375 -2.03131 1
gene 4 89 8 -0.365265 0 376 -0.365265 1
gene 6 53 64 0.663328 0 399 0 1
gene 4 53 99 1 0 414 0 1
gene 4 99 23 5.0128 0 415 0 1
genomeend 19
