
/* Species #41 : (Size 10) (AF 17.1) (Age 4)  */


/* Organism #0 Fitness: 22 Error: 0 */
genomestart 0
trait 1 0.1 0 0 0 0 0 0 0 
trait 2 0.2 0 0 0 0 0 0 0 
trait 3 0.3 0 0 0 0 0 0 0 
trait 4 0 0 0 0 0 0 0 0 
trait 5 0.5 0 0 0 0 0 0 0 
trait 6 0.378347 0 0 0.742295 0 0.359265 0 0.227462 
trait 7 0.7 0 0 0 0 0 0 0 
trait 8 0.8 0 0 0 0 0 0 0 
node 1 3 1 3
node 2 5 1 1
node 3 4 1 1
node 4 6 1 1
node 5 3 1 1
node 6 3 1 1
node 7 8 1 1
node 8 1 0 2
node 14 1 0 0
node 19 1 0 0
node 23 2 0 0
node 27 3 0 0
node 47 1 0 0
node 53 1 0 0
node 64 1 0 0
node 89 1 0 0
node 98 1 0 0
gene 7 1 8 -2.2742 0 1 -2.2742 1
gene 6 2 8 -0.346232 0 2 -0.346232 1
gene 4 3 8 -0.559239 0 3 -0.559239 0
gene 5 4 8 -1.71317 0 4 -1.71317 1
gene 5 5 8 2.31268 0 5 2.31268 1
gene 3 6 8 -1.5274 0 6 -1.5274 1
gene 7 7 8 -8 0 7 -8 1
gene 5 5 14 4.40364 0 18 4.40364 1
gene 5 14 8 -3.64301 0 19 -3.64301 0
gene 5 1 14 -2.80523 0 22 -2.80523 1
gene 7 3 14 5.19847 0 24 5.19847 1
gene 4 4 14 -7.70813 0 39 -7.70813 1
gene 4 3 19 -3.76281 0 47 -3.76281 1
gene 4 19 8 8 0 48 8 1
gene 4 6 14 -1.82813 0 50 -1.82813 1
gene 4 19 23 -0.311521 0 63 -0.311521 1
gene 4 23 8 -3.0137 0 64 -3.0137 1
gene 2 23 14 -5.01574 0 70 -5.01574 1
gene 4 23 27 2.94536 0 79 2.94536 1
gene 4 27 8 3.38817 0 80 3.38817 1
gene 7 1 19 4.89625 0 83 4.89625 1
gene 4 5 27 2.69698 0 92 2.69698 0
gene 2 2 19 -0.474415 0 108 -0.474415 1
gene 8 6 23 0.609602 0 115 0.609602 1
gene 4 2 23 -3.11928 0 124 -3.11928 0
gene 8 4 19 1.56212 0 153 1.56212 1
gene 4 5 47 0.944028 0 181 0.944028 0
gene 4 47 27 -1.49184 0 182 -1.49184 1
gene 7 27 14 -3.06015 0 193 -3.06015 1
gene 4 4 27 -3.08558 0 212 -3.08558 1
gene 1 2 27 2.15931 0 222 2.15931 1
gene 4 2 53 -1.53735 0 226 -1.53735 1
gene 4 53 23 3.15388 0 227 3.15388 1
gene 2 53 27 -2.20604 0 238 -2.20604 1
gene 4 5 64 -4.61773 0 277 -4.61773 1
gene 4 64 47 0.0667738 0 278 0.0667738 1
gene 7 19 47 0.503237 0 338 0.503237 1
gene 4 7 23 -2.01679 0 366 -2.01679 1
gene 4 3 89 1.72659 0 375 1.72659 1
gene 4 89 8 0.839805 0 376 0.839805 1
gene 6 53 64 -1.82257 0 399 -1.82257 1
gene 5 14 98 2.72685 0 411 2.72685 1
gene 5 98 8 3.7947 0 412 3.7947 1
genomeend 0

/* Organism #1 Fitness: 60 Error: 0 */
genomestart 1
trait 1 0.1 0 0 0 0 0 0 0 
trait 2 0.2 0 0 0 0 0 0 0 
trait 3 0.3 0 0 0 0 0 0 0 
trait 4 0 0 0 0 0 0 0 0 
trait 5 0.5 0 0 0 0 0 0 0 
trait 6 0.378347 0 0 0.742295 0 0.359265 0 0.227462 
trait 7 0.7 0 0 0 0 0 0 0 
trait 8 0.8 0 0 0 0 0 0 0 
node 1 3 1 3
node 2 5 1 1
node 3 4 1 1
node 4 6 1 1
node 5 3 1 1
node 6 3 1 1
node 7 8 1 1
node 8 1 0 2
node 14 1 0 0
node 19 1 0 0
node 23 2 0 0
node 27 3 0 0
node 47 1 0 0
node 53 1 0 0
node 64 1 0 0
node 89 1 0 0
node 98 1 0 0
gene 7 1 8 -1.21584 0 1 -1.21584 1
gene 6 2 8 -2.29015 0 2 -2.29015 1
gene 4 3 8 -0.356451 0 3 -0.356451 0
gene 5 4 8 0.739698 0 4 0.739698 1
gene 5 5 8 0.36187 0 5 0.36187 1
gene 3 6 8 -1.89784 0 6 -1.89784 1
gene 7 7 8 -8 0 7 -8 1
gene 5 5 14 2.08747 0 18 2.08747 1
gene 5 14 8 -1.3797 0 19 -1.3797 0
gene 5 1 14 -0.503059 0 22 -0.503059 1
gene 7 3 14 4.19571 0 24 4.19571 1
gene 4 4 14 -8 0 39 -8 1
gene 4 3 19 -3.25294 0 47 -3.25294 1
gene 4 19 8 8 0 48 8 1
gene 4 6 14 -0.0537416 0 50 -0.0537416 1
gene 4 19 23 -1.53019 0 63 -1.53019 1
gene 4 23 8 -1.64257 0 64 -1.64257 1
gene 2 23 14 -2.68931 0 70 -2.68931 1
gene 4 23 27 3.21145 0 79 3.21145 1
gene 4 27 8 2.3454 0 80 2.3454 1
gene 7 1 19 4.16125 0 83 4.16125 1
gene 4 5 27 0.511554 0 92 0.511554 0
gene 2 2 19 2.01058 0 108 2.01058 1
gene 8 6 23 2.91727 0 115 2.91727 1
gene 4 2 23 -2.02641 0 124 -2.02641 0
gene 8 4 19 3.21308 0 153 3.21308 1
gene 4 5 47 0.473014 0 181 0.473014 0
gene 4 47 27 -1.02785 0 182 -1.02785 1
gene 7 27 14 -3.16192 0 193 -3.16192 1
gene 4 4 27 -1.20372 0 212 -1.20372 1
gene 1 2 27 1.34445 0 222 1.34445 1
gene 4 2 53 -3.85021 0 226 -3.85021 1
gene 4 53 23 3.02292 0 227 3.02292 1
gene 2 53 27 -2.02224 0 238 -2.02224 1
gene 4 5 64 -2.51085 0 277 -2.51085 1
gene 4 64 47 0.137645 0 278 0.137645 1
gene 7 19 47 1.77311 0 338 1.77311 1
gene 4 7 23 -0.986965 0 366 -0.986965 1
gene 4 3 89 1.72659 0 375 1.72659 1
gene 4 89 8 0.456636 0 376 0.456636 1
gene 6 53 64 -2.82827 0 399 -2.82827 1
gene 5 14 98 2.72685 0 411 2.72685 1
gene 5 98 8 1.83426 0 412 1.83426 1
gene 3 23 89 -0.838225 0 434 -0.838225 1
genomeend 1

/* Organism #2 Fitness: 41 Error: 0 */
genomestart 2
trait 1 0.1 0 0 0 0 0 0 0 
trait 2 0.2 0 0 0 0 0 0 0 
trait 3 0.3 0 0 0 0 0 0 0 
trait 4 0 0 0 0 0 0 0 0 
trait 5 0.5 0 0 0 0 0 0 0 
trait 6 0.378347 0 0 0.742295 0 0.359265 0 0.227462 
trait 7 0.7 0 0 0 0 0 0 0 
trait 8 0.8 0 0 0 0 0 0 0 
node 1 3 1 3
node 2 5 1 1
node 3 4 1 1
node 4 6 1 1
node 5 3 1 1
node 6 3 1 1
node 7 8 1 1
node 8 1 0 2
node 14 1 0 0
node 19 1 0 0
node 23 2 0 0
node 27 3 0 0
node 47 1 0 0
node 53 1 0 0
node 64 1 0 0
node 89 1 0 0
node 98 1 0 0
gene 7 1 8 -1.21584 0 1 -1.21584 1
gene 6 2 8 -2.29015 0 2 -2.29015 1
gene 4 3 8 -0.356451 0 3 -0.356451 0
gene 5 4 8 0.739698 0 4 0.739698 1
gene 5 5 8 0.36187 0 5 0.36187 1
gene 3 6 8 -1.89784 0 6 -1.89784 1
gene 7 7 8 -8 0 7 -8 1
gene 5 5 14 2.08747 0 18 2.08747 1
gene 5 14 8 -1.3797 0 19 -1.3797 0
gene 5 1 14 -0.503059 0 22 -0.503059 1
gene 7 3 14 4.19571 0 24 4.19571 1
gene 4 4 14 -8 0 39 -8 1
gene 4 3 19 -3.25294 0 47 -3.25294 1
gene 4 19 8 8 0 48 8 1
gene 4 6 14 -0.0537416 0 50 -0.0537416 1
gene 4 19 23 -1.53019 0 63 -1.53019 1
gene 4 23 8 -1.64257 0 64 -1.64257 1
gene 2 23 14 -2.68931 0 70 -2.68931 1
gene 4 23 27 3.21145 0 79 3.21145 1
gene 4 27 8 2.3454 0 80 2.3454 1
gene 7 1 19 4.16125 0 83 4.16125 1
gene 4 5 27 0.511554 0 92 0.511554 0
gene 2 2 19 2.01058 0 108 2.01058 1
gene 8 6 23 2.91727 0 115 2.91727 1
gene 4 2 23 -2.02641 0 124 -2.02641 0
gene 8 4 19 3.21308 0 153 3.21308 1
gene 4 5 47 0.473014 0 181 0.473014 0
gene 4 47 27 -1.02785 0 182 -1.02785 1
gene 7 27 14 -3.16192 0 193 -3.16192 1
gene 4 4 27 -1.20372 0 212 -1.20372 1
gene 1 2 27 1.34445 0 222 1.34445 1
gene 4 2 53 -3.85021 0 226 -3.85021 1
gene 4 53 23 3.02292 0 227 3.02292 1
gene 2 53 27 -2.02224 0 238 -2.02224 1
gene 4 5 64 -2.51085 0 277 -2.51085 1
gene 4 64 47 0.137645 0 278 0.137645 1
gene 7 19 47 1.77311 0 338 1.77311 1
gene 4 7 23 -0.986965 0 366 -0.986965 1
gene 4 3 89 1.72659 0 375 1.72659 1
gene 4 89 8 0.456636 0 376 0.456636 1
gene 6 53 64 -2.82827 0 399 -2.82827 1
gene 5 14 98 2.72685 0 411 2.72685 1
gene 5 98 8 1.83426 0 412 1.83426 1
gene 4 89 23 0.818376 0 435 0.818376 1
genomeend 2

/* Organism #3 Fitness: 0.0003 Error: 0 */
genomestart 3
trait 1 0.1 0 0 0 0 0 0 0 
trait 2 0.2 0 0 0 0 0 0 0 
trait 3 0.3 0 0 0 0 0 0 0 
trait 4 0 0 0 0 0 0 0 0 
trait 5 0.5 0 0 0 0 0 0 0 
trait 6 0.378347 0 0 0.742295 0 0.359265 0 0.227462 
trait 7 0.7 0 0 0 0 0 0 0 
trait 8 0.8 0 0 0 0 0 0 0 
node 1 3 1 3
node 2 5 1 1
node 3 4 1 1
node 4 6 1 1
node 5 3 1 1
node 6 3 1 1
node 7 8 1 1
node 8 1 0 2
node 14 1 0 0
node 19 1 0 0
node 23 2 0 0
node 27 3 0 0
node 47 1 0 0
node 53 1 0 0
node 64 1 0 0
node 89 1 0 0
node 98 1 0 0
gene 7 1 8 -1.80581 0 1 -1.80581 1
gene 6 2 8 -3.53197 0 2 -3.53197 1
gene 4 3 8 -2.48422 0 3 -2.48422 0
gene 5 4 8 2.72429 0 4 2.72429 1
gene 5 5 8 0.975056 0 5 0.975056 1
gene 3 6 8 -3.75857 0 6 -3.75857 1
gene 7 7 8 -8 0 7 -8 1
gene 5 5 14 1.24489 0 18 1.24489 1
gene 5 14 8 0.8685 0 19 0.8685 0
gene 5 1 14 -2.38541 0 22 -2.38541 1
gene 7 3 14 1.96007 0 24 1.96007 1
gene 4 4 14 -8 0 39 -8 1
gene 4 3 19 -5.53895 0 47 -5.53895 1
gene 4 19 8 6.85231 0 48 6.85231 1
gene 4 6 14 1.11871 0 50 1.11871 1
gene 4 19 23 -2.71297 0 63 -2.71297 1
gene 4 23 8 0.102976 0 64 0.102976 1
gene 2 23 14 -0.736843 0 70 -0.736843 1
gene 4 23 27 2.55944 0 79 2.55944 1
gene 4 27 8 3.49454 0 80 3.49454 1
gene 7 1 19 4.02676 0 83 4.02676 1
gene 4 5 27 2.1249 0 92 2.1249 0
gene 2 2 19 1.07423 0 108 1.07423 1
gene 8 6 23 2.78326 0 115 2.78326 1
gene 4 2 23 -0.498175 0 124 -0.498175 0
gene 8 4 19 4.29745 0 153 4.29745 1
gene 4 5 47 2.89456 0 181 2.89456 0
gene 4 47 27 -0.741956 0 182 -0.741956 1
gene 7 27 14 -5.61547 0 193 -5.61547 1
gene 4 4 27 -0.549038 0 212 -0.549038 1
gene 1 2 27 0.485243 0 222 0.485243 1
gene 4 2 53 -1.44829 0 226 -1.44829 1
gene 4 53 23 4.75431 0 227 4.75431 1
gene 2 53 27 -3.54794 0 238 -3.54794 1
gene 4 5 64 -3.66766 0 277 -3.66766 1
gene 4 64 47 1.58034 0 278 1.58034 1
gene 7 19 47 -0.0899645 0 338 -0.0899645 1
gene 4 7 23 -0.986965 0 366 -0.986965 1
gene 4 3 89 -0.128563 0 375 -0.128563 1
gene 4 89 8 0.242275 0 376 0.242275 1
gene 6 53 64 -1.62068 0 399 -1.62068 1
gene 5 14 98 2.72685 0 411 2.72685 1
gene 5 98 8 1.83426 0 412 1.83426 1
genomeend 3

/* Organism #4 Fitness: 26 Error: 0 */
genomestart 4
trait 1 0.1 0 0 0 0 0 0 0 
trait 2 0.2 0 0 0 0 0 0 0 
trait 3 0.3 0 0 0 0 0 0 0 
trait 4 0 0 0 0 0 0 0 0 
trait 5 0.5 0 0 0 0 0 0 0 
trait 6 0.378347 0 0 0.742295 0 0.359265 0 0.227462 
trait 7 0.7 0 0 0 0 0 0 0 
trait 8 0.8 0 0 0 0 0 0 0 
node 1 3 1 3
node 2 5 1 1
node 3 4 1 1
node 4 6 1 1
node 5 3 1 1
node 6 3 1 1
node 7 8 1 1
node 8 1 0 2
node 14 1 0 0
node 19 1 0 0
node 23 2 0 0
node 27 3 0 0
node 47 1 0 0
node 53 1 0 0
node 64 1 0 0
node 89 1 0 0
node 98 1 0 0
gene 7 1 8 0.926981 0 1 0.926981 1
gene 6 2 8 0.551807 0 2 0.551807 1
gene 4 3 8 1.52663 0 3 1.52663 0
gene 5 4 8 0.0717899 0 4 0.0717899 1
gene 5 5 8 -0.657762 0 5 -0.657762 1
gene 3 6 8 -1.89784 0 6 -1.89784 1
gene 7 7 8 2.08199 0 7 2.08199 1
gene 5 5 14 2.92932 0 18 2.92932 1
gene 5 14 8 -1.03187 0 19 -1.03187 0
gene 5 1 14 -1.6358 0 22 -1.6358 1
gene 7 3 14 1.31326 0 24 1.31326 1
gene 4 4 14 -8 0 39 -8 1
gene 4 3 19 -0.430619 0 47 -0.430619 1
gene 4 19 8 7.92628 0 48 7.92628 1
gene 4 6 14 -0.836174 0 50 -0.836174 1
gene 4 19 23 0.846297 0 63 0.846297 1
gene 4 23 8 -0.518042 0 64 -0.518042 1
gene 2 23 14 -0.110338 0 70 -0.110338 1
gene 4 23 27 2.53492 0 79 2.53492 1
gene 4 27 8 -1.20333 0 80 -1.20333 1
gene 7 1 19 4.87769 0 83 4.87769 1
gene 4 5 27 -0.151579 0 92 -0.151579 0
gene 2 2 19 0.949238 0 108 0.949238 1
gene 8 6 23 4.35213 0 115 4.35213 1
gene 4 2 23 0.895189 0 124 0.895189 0
gene 8 4 19 4.9216 0 153 4.9216 1
gene 4 5 47 0.473014 0 181 0.473014 0
gene 4 47 27 -1.02785 0 182 -1.02785 1
gene 7 27 14 -5.60175 0 193 -5.60175 1
gene 4 4 27 -2.71446 0 212 -2.71446 1
gene 1 2 27 -0.120848 0 222 -0.120848 1
gene 4 2 53 -2.15305 0 226 -2.15305 1
gene 4 53 23 4.81438 0 227 4.81438 1
gene 2 53 27 -4.3091 0 238 -4.3091 1
gene 4 5 64 -3.86211 0 277 -3.86211 1
gene 4 64 47 0.133376 0 278 0.133376 1
gene 7 19 47 0.303146 0 338 0.303146 1
gene 4 7 23 0.330316 0 366 0.330316 1
gene 4 3 89 -2.42718 0 375 -2.42718 1
gene 4 89 8 1.74907 0 376 1.74907 1
gene 6 53 64 -2.26945 0 399 -2.26945 1
gene 5 14 98 1.18728 0 411 1.18728 1
gene 5 98 8 -1.88531 0 412 -1.88531 1
genomeend 4

/* Organism #5 Fitness: 22 Error: 0 */
genomestart 5
trait 1 0.1 0 0 0 0 0 0 0 
trait 2 0.2 0 0 0 0 0 0 0 
trait 3 0.3 0 0 0 0 0 0 0 
trait 4 0 0 0 0 0 0 0 0 
trait 5 0.5 0 0 0 0 0 0 0 
trait 6 0.378347 0 0 0.742295 0 0.359265 0 0.227462 
trait 7 0.7 0 0 0 0 0 0 0 
trait 8 0.8 0 0 0 0 0 0 0 
node 1 3 1 3
node 2 5 1 1
node 3 4 1 1
node 4 6 1 1
node 5 3 1 1
node 6 3 1 1
node 7 8 1 1
node 8 1 0 2
node 14 1 0 0
node 19 1 0 0
node 23 2 0 0
node 27 3 0 0
node 47 1 0 0
node 53 1 0 0
node 64 1 0 0
node 89 1 0 0
node 98 1 0 0
gene 7 1 8 1.18599 0 1 1.18599 1
gene 6 2 8 -2.29015 0 2 -2.29015 1
gene 4 3 8 -0.73425 0 3 -0.73425 0
gene 5 4 8 2.44185 0 4 2.44185 1
gene 5 5 8 2.42169 0 5 2.42169 1
gene 3 6 8 2.35733 0 6 2.35733 1
gene 7 7 8 -6.33443 0 7 -6.33443 1
gene 5 5 14 0.992809 0 18 0.992809 1
gene 5 14 8 0.8412 0 19 0.8412 0
gene 5 1 14 -0.138613 0 22 -0.138613 1
gene 7 3 14 4.19571 0 24 4.19571 1
gene 4 4 14 -8 0 39 -8 1
gene 4 3 19 -4.21206 0 47 -4.21206 1
gene 4 19 8 6.51083 0 48 6.51083 1
gene 4 6 14 2.29581 0 50 2.29581 1
gene 4 19 23 -0.893077 0 63 -0.893077 1
gene 4 23 8 -1.64257 0 64 -1.64257 1
gene 2 23 14 -2.33339 0 70 -2.33339 1
gene 4 23 27 1.17716 0 79 1.17716 1
gene 4 27 8 1.74742 0 80 1.74742 1
gene 7 1 19 5.34955 0 83 5.34955 1
gene 4 5 27 -0.80435 0 92 -0.80435 0
gene 2 2 19 3.65376 0 108 3.65376 1
gene 8 6 23 1.08671 0 115 1.08671 1
gene 4 2 23 -1.66105 0 124 -1.66105 0
gene 8 4 19 2.06255 0 153 2.06255 1
gene 4 5 47 1.69736 0 181 1.69736 0
gene 4 47 27 -3.44842 0 182 -3.44842 1
gene 7 27 14 -2.55541 0 193 -2.55541 1
gene 4 4 27 -1.34547 0 212 -1.34547 1
gene 1 2 27 2.43961 0 222 2.43961 1
gene 4 2 53 -1.44831 0 226 -1.44831 1
gene 4 53 23 1.20873 0 227 1.20873 1
gene 2 53 27 -1.05426 0 238 -1.05426 1
gene 4 5 64 -0.686588 0 277 -0.686588 1
gene 4 64 47 -1.18404 0 278 -1.18404 1
gene 7 19 47 3.26401 0 338 3.26401 1
gene 4 7 23 -2.8974 0 366 -2.8974 1
gene 4 3 89 2.76388 0 375 2.76388 1
gene 4 89 8 0.456636 0 376 0.456636 1
gene 6 53 64 -2.82827 0 399 -2.82827 1
gene 5 14 98 4.97307 0 411 4.97307 1
gene 5 98 8 2.42147 0 412 2.42147 1
genomeend 5

/* Organism #6 Fitness: 0.0001 Error: 0 */
genomestart 6
trait 1 0.1 0 0 0 0 0 0 0 
trait 2 0.2 0 0 0 0 0 0 0 
trait 3 0.3 0 0 0 0 0 0 0 
trait 4 0 0 0 0 0 0 0 0 
trait 5 0.5 0 0 0 0 0 0 0 
trait 6 0.378347 0 0 0.742295 0 0.359265 0 0.227462 
trait 7 0.7 0 0 0 0 0 0 0 
trait 8 0.8 0 0 0 0 0 0 0 
node 1 3 1 3
node 2 5 1 1
node 3 4 1 1
node 4 6 1 1
node 5 3 1 1
node 6 3 1 1
node 7 8 1 1
node 8 1 0 2
node 14 1 0 0
node 19 1 0 0
node 23 2 0 0
node 27 3 0 0
node 47 1 0 0
node 53 1 0 0
node 64 1 0 0
node 89 1 0 0
node 98 1 0 0
gene 7 1 8 0.34698 0 1 0.34698 1
gene 6 2 8 -3.14039 0 2 -3.14039 1
gene 4 3 8 0.344781 0 3 0.344781 0
gene 5 4 8 -0.187714 0 4 -0.187714 1
gene 5 5 8 1.7431 0 5 1.7431 1
gene 3 6 8 -1.61907 0 6 -1.61907 1
gene 7 7 8 -6.1091 0 7 -6.1091 1
gene 5 5 14 4.21275 0 18 4.21275 1
gene 5 14 8 0.668386 0 19 0.668386 0
gene 5 1 14 -0.526051 0 22 -0.526051 1
gene 7 3 14 6.60546 0 24 6.60546 1
gene 4 4 14 -8 0 39 -8 1
gene 4 3 19 -4.3445 0 47 -4.3445 1
gene 4 19 8 6.31466 0 48 6.31466 1
gene 4 6 14 -2.08107 0 50 -2.08107 1
gene 4 19 23 -2.5746 0 63 -2.5746 1
gene 4 23 8 -2.16403 0 64 -2.16403 1
gene 2 23 14 -0.646544 0 70 -0.646544 1
gene 4 23 27 2.4901 0 79 2.4901 1
gene 4 27 8 2.80765 0 80 2.80765 1
gene 7 1 19 5.24377 0 83 5.24377 1
gene 4 5 27 -1.50591 0 92 -1.50591 0
gene 2 2 19 2.71982 0 108 2.71982 1
gene 8 6 23 4.44882 0 115 4.44882 1
gene 4 2 23 -2.6295 0 124 -2.6295 0
gene 8 4 19 5.28036 0 153 5.28036 1
gene 4 5 47 1.41704 0 181 1.41704 0
gene 4 47 27 0.761177 0 182 0.761177 1
gene 7 27 14 -4.53328 0 193 -4.53328 1
gene 4 4 27 -0.772802 0 212 -0.772802 1
gene 1 2 27 -0.434031 0 222 -0.434031 1
gene 4 2 53 -5.51936 0 226 -5.51936 1
gene 4 53 23 4.09989 0 227 4.09989 1
gene 2 53 27 -0.195571 0 238 -0.195571 1
gene 4 5 64 -0.606358 0 277 -0.606358 1
gene 4 64 47 -1.05587 0 278 -1.05587 1
gene 7 19 47 1.77311 0 338 1.77311 1
gene 4 7 23 -3.19142 0 366 -3.19142 1
gene 4 3 89 3.41453 0 375 3.41453 1
gene 4 89 8 1.42307 0 376 1.42307 1
gene 6 53 64 1.77646 0 399 1.77646 1
gene 5 14 98 2.13951 0 411 2.13951 1
gene 5 98 8 0.100018 0 412 0.100018 1
genomeend 6

/* Organism #7 Fitness: 0 Error: 0 */
genomestart 7
trait 1 0.1 0 0 0 0 0 0 0 
trait 2 0.2 0 0 0 0 0 0 0 
trait 3 0.3 0 0 0 0 0 0 0 
trait 4 0 0 0 0 0 0 0 0 
trait 5 0.5 0 0 0 0 0 0 0 
trait 6 0.378347 0 0 0.742295 0 0.359265 0 0.227462 
trait 7 0.7 0 0 0 0 0 0 0 
trait 8 0.8 0 0 0 0 0 0 0 
node 1 3 1 3
node 2 5 1 1
node 3 4 1 1
node 4 6 1 1
node 5 3 1 1
node 6 3 1 1
node 7 8 1 1
node 8 1 0 2
node 14 1 0 0
node 19 1 0 0
node 23 2 0 0
node 27 3 0 0
node 47 1 0 0
node 53 1 0 0
node 64 1 0 0
node 89 1 0 0
node 98 1 0 0
gene 7 1 8 -0.83555 0 1 -0.83555 1
gene 6 2 8 -4.39323 0 2 -4.39323 1
gene 4 3 8 0.92171 0 3 0.92171 0
gene 5 4 8 -1.08492 0 4 -1.08492 1
gene 5 5 8 1.12176 0 5 1.12176 1
gene 3 6 8 0.23096 0 6 0.23096 1
gene 7 7 8 -8 0 7 -8 1
gene 5 5 14 2.38527 0 18 2.38527 1
gene 5 14 8 -2.61883 0 19 -2.61883 0
gene 5 1 14 -2.09854 0 22 -2.09854 1
gene 7 3 14 6.67013 0 24 6.67013 1
gene 4 4 14 -2.25479 0 39 -2.25479 1
gene 4 3 19 -3.98163 0 47 -3.98163 1
gene 4 19 8 7.23237 0 48 7.23237 1
gene 4 6 14 0.457293 0 50 0.457293 1
gene 4 19 23 -3.47257 0 63 -3.47257 1
gene 4 23 8 -1.84016 0 64 -1.84016 1
gene 2 23 14 -1.67491 0 70 -1.67491 1
gene 4 23 27 5.53959 0 79 5.53959 1
gene 4 27 8 3.58731 0 80 3.58731 1
gene 7 1 19 2.07889 0 83 2.07889 1
gene 4 5 27 0.631731 0 92 0.631731 0
gene 2 2 19 -0.0217557 0 108 -0.0217557 1
gene 8 6 23 2.45588 0 115 2.45588 1
gene 4 2 23 -3.93846 0 124 -3.93846 0
gene 8 4 19 -1.35304 0 153 -1.35304 1
gene 4 5 47 0.844188 0 181 0.844188 0
gene 4 47 27 -2.48047 0 182 -2.48047 1
gene 7 27 14 2.32355 0 193 2.32355 1
gene 4 4 27 -2.9908 0 212 -2.9908 1
gene 1 2 27 3.13504 0 222 3.13504 1
gene 4 2 53 -3.63584 0 226 -3.63584 1
gene 4 53 23 1.3614 0 227 1.3614 1
gene 2 53 27 0.387927 0 238 0.387927 1
gene 4 5 64 1.78494 0 277 1.78494 1
gene 4 64 47 0.683384 0 278 0.683384 1
gene 7 19 47 2.59446 0 338 2.59446 1
gene 4 7 23 0.753545 0 366 0.753545 1
gene 4 3 89 2.82761 0 375 2.82761 1
gene 4 89 8 0.142006 0 376 0.142006 1
gene 6 53 64 -1.86626 0 399 -1.86626 1
gene 5 14 98 1.6914 0 411 1.6914 1
gene 5 98 8 1.71715 0 412 1.71715 1
genomeend 7

/* Organism #8 Fitness: 0 Error: 0 */
genomestart 8
trait 1 0.1 0 0 0 0 0 0 0 
trait 2 0.2 0 0 0 0 0 0 0 
trait 3 0.3 0 0 0 0 0 0 0 
trait 4 0 0 0 0 0 0 0 0 
trait 5 0.5 0 0 0 0 0 0 0 
trait 6 0.378347 0 0 0.742295 0 0.359265 0 0.227462 
trait 7 0.7 0 0 0 0 0 0 0 
trait 8 0.8 0 0 0 0 0 0 0 
node 1 3 1 3
node 2 5 1 1
node 3 4 1 1
node 4 6 1 1
node 5 3 1 1
node 6 3 1 1
node 7 8 1 1
node 8 1 0 2
node 14 1 0 0
node 19 1 0 0
node 23 2 0 0
node 27 3 0 0
node 47 1 0 0
node 53 1 0 0
node 64 1 0 0
node 89 1 0 0
node 98 1 0 0
gene 7 1 8 -2.88712 0 1 -2.88712 1
gene 6 2 8 -0.133508 0 2 -0.133508 1
gene 4 3 8 -1.8515 0 3 -1.8515 0
gene 5 4 8 -0.464929 0 4 -0.464929 1
gene 5 5 8 -2.00496 0 5 -2.00496 1
gene 3 6 8 -2.75042 0 6 -2.75042 1
gene 7 7 8 -6.87458 0 7 -6.87458 1
gene 5 5 14 -0.688832 0 18 -0.688832 1
gene 5 14 8 -1.84632 0 19 -1.84632 0
gene 5 1 14 1.90592 0 22 1.90592 1
gene 7 3 14 3.44033 0 24 3.44033 1
gene 4 4 14 -6.61021 0 39 -6.61021 1
gene 4 3 19 0.0699291 0 47 0.0699291 1
gene 4 19 8 5.92858 0 48 5.92858 1
gene 4 6 14 0.75969 0 50 0.75969 1
gene 4 19 23 -1.53019 0 63 -1.53019 1
gene 4 23 8 -1.00108 0 64 -1.00108 1
gene 2 23 14 -1.10078 0 70 -1.10078 1
gene 4 23 27 2.14043 0 79 2.14043 1
gene 4 27 8 3.01602 0 80 3.01602 1
gene 7 1 19 4.16125 0 83 4.16125 1
gene 4 5 27 1.51157 0 92 1.51157 0
gene 2 2 19 3.40219 0 108 3.40219 1
gene 8 6 23 1.73992 0 115 1.73992 1
gene 4 2 23 -2.97839 0 124 -2.97839 0
gene 8 4 19 3.21308 0 153 3.21308 1
gene 4 5 47 1.73776 0 181 1.73776 0
gene 4 47 27 -2.25517 0 182 -2.25517 1
gene 7 27 14 -4.14887 0 193 -4.14887 1
gene 4 4 27 -0.706557 0 212 -0.706557 1
gene 1 2 27 0.355931 0 222 0.355931 1
gene 4 2 53 -1.61568 0 226 -1.61568 1
gene 4 53 23 -0.789602 0 227 -0.789602 1
gene 2 53 27 -2.00603 0 238 -2.00603 1
gene 4 5 64 -2.51085 0 277 -2.51085 1
gene 4 64 47 -1.32706 0 278 -1.32706 1
gene 7 19 47 3.67914 0 338 3.67914 1
gene 4 7 23 1.06835 0 366 1.06835 1
gene 4 3 89 3.86708 0 375 3.86708 1
gene 4 89 8 1.04572 0 376 1.04572 1
gene 6 53 64 -2.00823 0 399 -2.00823 1
gene 5 14 98 3.81558 0 411 3.81558 1
gene 5 98 8 1.83426 0 412 1.83426 1
genomeend 8

/* Organism #9 Fitness: 0 Error: 0 */
genomestart 9
trait 1 0.1 0 0 0 0 0 0 0 
trait 2 0.2 0 0 0 0 0 0 0 
trait 3 0.3 0 0 0 0 0 0 0 
trait 4 0 0 0 0 0 0 0 0 
trait 5 0.5 0 0 0 0 0 0 0 
trait 6 0.378347 0 0 0.742295 0 0.359265 0 0.227462 
trait 7 0.7 0 0 0 0 0 0 0 
trait 8 0.8 0 0 0 0 0 0 0 
node 1 3 1 3
node 2 5 1 1
node 3 4 1 1
node 4 6 1 1
node 5 3 1 1
node 6 3 1 1
node 7 8 1 1
node 8 1 0 2
node 14 1 0 0
node 19 1 0 0
node 23 2 0 0
node 27 3 0 0
node 47 1 0 0
node 53 1 0 0
node 64 1 0 0
node 89 1 0 0
node 98 1 0 0
gene 7 1 8 -1.21584 0 1 -1.21584 1
gene 6 2 8 -2.29015 0 2 -2.29015 1
gene 4 3 8 -0.356451 0 3 -0.356451 0
gene 5 4 8 0.739698 0 4 0.739698 1
gene 5 5 8 0.36187 0 5 0.36187 1
gene 3 6 8 -1.89784 0 6 -1.89784 1
gene 7 7 8 -8 0 7 -8 1
gene 5 5 14 2.08747 0 18 2.08747 1
gene 5 14 8 -1.3797 0 19 -1.3797 0
gene 5 1 14 -0.503059 0 22 -0.503059 1
gene 7 3 14 4.19571 0 24 4.19571 1
gene 4 4 14 -8 0 39 -8 1
gene 4 3 19 -3.25294 0 47 -3.25294 1
gene 4 19 8 8 0 48 8 1
gene 4 6 14 -0.0537416 0 50 -0.0537416 1
gene 4 19 23 -1.53019 0 63 -1.53019 1
gene 4 23 8 -1.64257 0 64 -1.64257 1
gene 2 23 14 -2.68931 0 70 -2.68931 1
gene 4 23 27 3.21145 0 79 3.21145 1
gene 4 27 8 2.3454 0 80 2.3454 1
gene 7 1 19 4.16125 0 83 4.16125 1
gene 4 5 27 0.511554 0 92 0.511554 0
gene 2 2 19 2.01058 0 108 2.01058 1
gene 8 6 23 2.91727 0 115 2.91727 1
gene 4 2 23 -2.02641 0 124 -2.02641 0
gene 8 4 19 3.21308 0 153 3.21308 1
gene 4 5 47 0.473014 0 181 0.473014 0
gene 4 47 27 -1.02785 0 182 -1.02785 1
gene 7 27 14 -3.16192 0 193 -3.16192 1
gene 4 4 27 -1.20372 0 212 -1.20372 1
gene 1 2 27 1.34445 0 222 1.34445 1
gene 4 2 53 -3.85021 0 226 -3.85021 1
gene 4 53 23 3.02292 0 227 3.02292 1
gene 2 53 27 -2.02224 0 238 -2.02224 1
gene 4 5 64 -2.51085 0 277 -2.51085 1
gene 4 64 47 0.137645 0 278 0.137645 1
gene 7 19 47 1.77311 0 338 1.77311 1
gene 4 7 23 -0.986965 0 366 -0.986965 1
gene 4 3 89 1.72659 0 375 1.72659 1
gene 4 89 8 0.456636 0 376 0.456636 1
gene 6 53 64 -2.82827 0 399 -2.82827 1
gene 5 14 98 2.72685 0 411 2.72685 1
gene 5 98 8 1.83426 0 412 1.83426 1
genomeend 9

/* Species #42 : (Size 10) (AF 43.3002) (Age 3)  */


/* Organism #10 Fitness: 92 Error: 0 */
genomestart 10
trait 1 0.1 0 0 0 0 0 0 0 
trait 2 0.2 0 0 0 0 0 0 0 
trait 3 0.3 0 0 0 0 0 0 0 
trait 4 0 0 0 0 0 0 0 0 
trait 5 0.5 0 0 0 0 0 0 0 
trait 6 0.378347 0 0 0.742295 0 0.359265 0 0.227462 
trait 7 0.7 0 0 0 0 0 0 0 
trait 8 0.8 0 0 0 0 0 0 0 
node 1 3 1 3
node 2 5 1 1
node 3 4 1 1
node 4 6 1 1
node 5 3 1 1
node 6 3 1 1
node 7 8 1 1
node 8 1 0 2
node 14 1 0 0
node 19 1 0 0
node 23 2 0 0
node 27 3 0 0
node 47 1 0 0
node 53 1 0 0
node 64 1 0 0
node 89 1 0 0
node 102 1 0 0
gene 7 1 8 -0.728024 0 1 -0.728024 1
gene 6 2 8 -1.14947 0 2 -1.14947 1
gene 4 3 8 1.20759 0 3 1.20759 0
gene 5 4 8 -0.234149 0 4 -0.234149 1
gene 5 5 8 -6.11684 0 5 -6.11684 1
gene 3 6 8 5.22325 0 6 5.22325 1
gene 7 7 8 -5.96431 0 7 -5.96431 1
gene 5 5 14 0.68478 0 18 0.68478 1
gene 5 14 8 -1.51666 0 19 -1.51666 1
gene 5 1 14 -0.874077 0 22 -0.874077 1
gene 7 3 14 5.50466 0 24 5.50466 1
gene 4 4 14 -4.49355 0 39 -4.49355 1
gene 4 3 19 1.37456 0 47 1.37456 1
gene 4 19 8 4.55108 0 48 4.55108 1
gene 4 6 14 -0.103858 0 50 -0.103858 1
gene 4 19 23 -0.598934 0 63 -0.598934 1
gene 4 23 8 -0.47839 0 64 -0.47839 1
gene 2 23 14 0.68784 0 70 0.68784 1
gene 4 23 27 4.40681 0 79 4.40681 1
gene 4 27 8 3.13888 0 80 3.13888 1
gene 7 1 19 2.53496 0 83 2.53496 1
gene 4 5 27 5.69897 0 92 5.69897 0
gene 2 2 19 2.46103 0 108 2.46103 1
gene 8 6 23 0.662106 0 115 0.662106 1
gene 4 2 23 -3.60749 0 124 -3.60749 0
gene 8 4 19 -2.41859 0 153 -2.41859 1
gene 4 5 47 -3.77395 0 181 -3.77395 1
gene 4 47 27 3.16087 0 182 3.16087 1
gene 7 27 14 -2.79788 0 193 -2.79788 1
gene 4 4 27 -3.99912 0 212 -3.99912 1
gene 1 2 27 2.96957 0 222 2.96957 1
gene 4 2 53 -2.28685 0 226 -2.28685 1
gene 4 53 23 3.27088 0 227 3.27088 0
gene 2 53 27 -4.9484 0 238 -4.9484 1
gene 4 5 64 4.55893 0 277 4.55893 1
gene 4 64 47 -0.74543 0 278 -0.74543 1
gene 7 19 47 -0.652121 0 338 -0.652121 1
gene 4 7 23 2.01497 0 366 2.01497 1
gene 4 3 89 -1.76189 0 375 -1.76189 1
gene 4 89 8 1.24104 0 376 1.24104 1
gene 6 53 64 -2.45012 0 399 -2.45012 1
gene 5 53 14 -0.860913 0 420 -0.860913 1
gene 4 53 102 1 0 425 1 1
gene 4 102 23 5.32447 0 426 5.32447 1
gene 5 23 47 0.201747 0 436 0.201747 1
genomeend 10

/* Organism #11 Fitness: 0.0001 Error: 0 */
genomestart 11
trait 1 0.1 0 0 0 0 0 0 0 
trait 2 0.2 0 0 0 0 0 0 0 
trait 3 0.3 0 0 0 0 0 0 0 
trait 4 0 0 0 0 0 0 0 0 
trait 5 0.5 0 0 0 0 0 0 0 
trait 6 0.378347 0 0 0.742295 0 0.359265 0 0.227462 
trait 7 0.7 0 0 0 0 0 0 0 
trait 8 0.8 0 0 0 0 0 0 0 
node 1 3 1 3
node 2 5 1 1
node 3 4 1 1
node 4 6 1 1
node 5 3 1 1
node 6 3 1 1
node 7 8 1 1
node 8 1 0 2
node 14 1 0 0
node 19 1 0 0
node 23 2 0 0
node 27 3 0 0
node 47 1 0 0
node 53 1 0 0
node 64 1 0 0
node 89 1 0 0
node 102 1 0 0
gene 7 1 8 -1.13218 0 1 -1.13218 1
gene 6 2 8 0.301631 0 2 0.301631 1
gene 4 3 8 -1.01371 0 3 -1.01371 0
gene 5 4 8 0.452813 0 4 0.452813 1
gene 5 5 8 -7.02802 0 5 -7.02802 1
gene 3 6 8 4.20718 0 6 4.20718 1
gene 7 7 8 -5.1016 0 7 -5.1016 1
gene 5 5 14 1.16877 0 18 1.16877 1
gene 5 14 8 -0.618401 0 19 -0.618401 1
gene 5 1 14 1.54969 0 22 1.54969 1
gene 7 3 14 3.90801 0 24 3.90801 1
gene 4 4 14 -2.30608 0 39 -2.30608 1
gene 4 3 19 2.28707 0 47 2.28707 1
gene 4 19 8 2.90209 0 48 2.90209 1
gene 4 6 14 -0.0241194 0 50 -0.0241194 1
gene 4 19 23 -1.63349 0 63 -1.63349 1
gene 4 23 8 -2.05118 0 64 -2.05118 1
gene 2 23 14 -1.34006 0 70 -1.34006 1
gene 4 23 27 6.13661 0 79 6.13661 1
gene 4 27 8 4.00536 0 80 4.00536 1
gene 7 1 19 3.24839 0 83 3.24839 1
gene 4 5 27 5.90868 0 92 5.90868 0
gene 2 2 19 2.7978 0 108 2.7978 1
gene 8 6 23 -1.19111 0 115 -1.19111 1
gene 4 2 23 -4.24579 0 124 -4.24579 0
gene 8 4 19 -2.75282 0 153 -2.75282 1
gene 4 5 47 -3.28607 0 181 -3.28607 1
gene 4 47 27 1.1046 0 182 1.1046 1
gene 7 27 14 -2.45036 0 193 -2.45036 1
gene 4 4 27 -6.39877 0 212 -6.39877 1
gene 1 2 27 2.78109 0 222 2.78109 1
gene 4 2 53 -0.781959 0 226 -0.781959 1
gene 4 53 23 0.772649 0 227 0.772649 0
gene 2 53 27 -3.49396 0 238 -3.49396 1
gene 4 5 64 5.35794 0 277 5.35794 1
gene 4 64 47 0.629578 0 278 0.629578 1
gene 7 19 47 1.72252 0 338 1.72252 1
gene 4 7 23 2.01497 0 366 2.01497 1
gene 4 3 89 -0.626417 0 375 -0.626417 1
gene 4 89 8 1.24104 0 376 1.24104 1
gene 6 53 64 -1.11897 0 399 -1.11897 1
gene 5 53 14 0.113424 0 420 0.113424 1
gene 4 53 102 1 0 425 1 1
gene 4 102 23 5.32447 0 426 5.32447 1
genomeend 11

/* Organism #12 Fitness: 80 Error: 0 */
/* ##------$ WINNER 12 SPECIES #42 $------## */
genomestart 12
trait 1 0.1 0 0 0 0 0 0 0 
trait 2 0.2 0 0 0 0 0 0 0 
trait 3 0.3 0 0 0 0 0 0 0 
trait 4 0 0 0 0 0 0 0 0 
trait 5 0.5 0 0 0 0 0 0 0 
trait 6 0.378347 0 0 0.742295 0 0.359265 0 0.227462 
trait 7 0.7 0 0 0 0 0 0 0 
trait 8 0.8 0 0 0 0 0 0 0 
node 1 3 1 3
node 2 5 1 1
node 3 4 1 1
node 4 6 1 1
node 5 3 1 1
node 6 3 1 1
node 7 8 1 1
node 8 1 0 2
node 14 1 0 0
node 19 1 0 0
node 23 2 0 0
node 27 3 0 0
node 47 1 0 0
node 53 1 0 0
node 64 1 0 0
node 89 1 0 0
node 102 1 0 0
gene 7 1 8 -0.728024 0 1 -0.728024 1
gene 6 2 8 -1.14947 0 2 -1.14947 1
gene 4 3 8 1.20759 0 3 1.20759 0
gene 5 4 8 -0.234149 0 4 -0.234149 1
gene 5 5 8 -6.11684 0 5 -6.11684 1
gene 3 6 8 5.22325 0 6 5.22325 1
gene 7 7 8 -5.96431 0 7 -5.96431 1
gene 5 5 14 0.68478 0 18 0.68478 1
gene 5 14 8 -1.51666 0 19 -1.51666 1
gene 5 1 14 -0.874077 0 22 -0.874077 1
gene 7 3 14 5.50466 0 24 5.50466 1
gene 4 4 14 -4.49355 0 39 -4.49355 1
gene 4 3 19 1.37456 0 47 1.37456 1
gene 4 19 8 4.55108 0 48 4.55108 1
gene 4 6 14 -0.103858 0 50 -0.103858 1
gene 4 19 23 -0.598934 0 63 -0.598934 1
gene 4 23 8 -0.47839 0 64 -0.47839 1
gene 2 23 14 0.68784 0 70 0.68784 1
gene 4 23 27 4.40681 0 79 4.40681 1
gene 4 27 8 3.13888 0 80 3.13888 1
gene 7 1 19 2.53496 0 83 2.53496 1
gene 4 5 27 5.69897 0 92 5.69897 0
gene 2 2 19 2.46103 0 108 2.46103 1
gene 8 6 23 0.662106 0 115 0.662106 1
gene 4 2 23 -3.60749 0 124 -3.60749 0
gene 8 4 19 -2.41859 0 153 -2.41859 1
gene 4 5 47 -3.77395 0 181 -3.77395 1
gene 4 47 27 3.16087 0 182 3.16087 1
gene 7 27 14 -2.79788 0 193 -2.79788 1
gene 4 4 27 -3.99912 0 212 -3.99912 1
gene 1 2 27 2.96957 0 222 2.96957 1
gene 4 2 53 -2.28685 0 226 -2.28685 1
gene 4 53 23 3.27088 0 227 3.27088 0
gene 2 53 27 -4.9484 0 238 -4.9484 1
gene 4 5 64 4.55893 0 277 4.55893 1
gene 4 64 47 -0.74543 0 278 -0.74543 1
gene 7 19 47 -0.652121 0 338 -0.652121 1
gene 4 7 23 2.01497 0 366 2.01497 1
gene 4 3 89 -1.76189 0 375 -1.76189 1
gene 4 89 8 1.24104 0 376 1.24104 1
gene 6 53 64 -2.45012 0 399 -2.45012 1
gene 5 53 14 -0.860913 0 420 -0.860913 1
gene 4 53 102 1 0 425 1 1
gene 4 102 23 5.32447 0 426 5.32447 1
gene 8 19 102 0.651697 0 437 0.651697 1
genomeend 12

/* Organism #13 Fitness: 0 Error: 0 */
genomestart 13
trait 1 0.1 0 0 0 0 0 0 0 
trait 2 0.2 0 0 0 0 0 0 0 
trait 3 0.3 0 0 0 0 0 0 0 
trait 4 0 0 0 0 0 0 0 0 
trait 5 0.5 0 0 0 0 0 0 0 
trait 6 0.378347 0 0 0.742295 0 0.359265 0 0.227462 
trait 7 0.7 0 0 0 0 0 0 0 
trait 8 0.8 0 0 0 0 0 0 0 
node 1 3 1 3
node 2 5 1 1
node 3 4 1 1
node 4 6 1 1
node 5 3 1 1
node 6 3 1 1
node 7 8 1 1
node 8 1 0 2
node 14 1 0 0
node 19 1 0 0
node 23 2 0 0
node 27 3 0 0
node 47 1 0 0
node 53 1 0 0
node 64 1 0 0
node 89 1 0 0
node 102 1 0 0
gene 7 1 8 -0.728024 0 1 -0.728024 1
gene 6 2 8 -2.97312 0 2 -2.97312 1
gene 4 3 8 3.04608 0 3 3.04608 0
gene 5 4 8 -0.234149 0 4 -0.234149 1
gene 5 5 8 -7.80704 0 5 -7.80704 1
gene 3 6 8 7.17088 0 6 7.17088 1
gene 7 7 8 -3.86277 0 7 -3.86277 1
gene 5 5 14 1.31804 0 18 1.31804 1
gene 5 14 8 -0.976684 0 19 -0.976684 1
gene 5 1 14 -3.0433 0 22 -3.0433 1
gene 7 3 14 5.50466 0 24 5.50466 1
gene 4 4 14 -5.10717 0 39 -5.10717 1
gene 4 3 19 3.84985 0 47 3.84985 1
gene 4 19 8 -0.668109 0 48 -0.668109 1
gene 4 6 14 -2.43912 0 50 -2.43912 1
gene 4 19 23 -2.88507 0 63 -2.88507 1
gene 4 23 8 1.14244 0 64 1.14244 1
gene 2 23 14 1.82618 0 70 1.82618 1
gene 4 23 27 4.40681 0 79 4.40681 1
gene 4 27 8 5.55148 0 80 5.55148 1
gene 7 1 19 1.98359 0 83 1.98359 1
gene 4 5 27 4.32541 0 92 4.32541 0
gene 2 2 19 1.63008 0 108 1.63008 1
gene 8 6 23 2.57911 0 115 2.57911 1
gene 4 2 23 -3.01462 0 124 -3.01462 0
gene 8 4 19 -3.12858 0 153 -3.12858 1
gene 4 5 47 -3.84815 0 181 -3.84815 1
gene 4 47 27 2.2272 0 182 2.2272 1
gene 7 27 14 1.33328 0 193 1.33328 1
gene 4 4 27 -0.747956 0 212 -0.747956 1
gene 1 2 27 4.89319 0 222 4.89319 1
gene 4 2 53 -1.50999 0 226 -1.50999 1
gene 4 53 23 4.9022 0 227 4.9022 0
gene 2 53 27 -4.9484 0 238 -4.9484 1
gene 4 5 64 2.93433 0 277 2.93433 1
gene 4 64 47 -2.4643 0 278 -2.4643 1
gene 7 19 47 0.403781 0 338 0.403781 1
gene 4 7 23 0.27772 0 366 0.27772 1
gene 4 3 89 0.134292 0 375 0.134292 1
gene 4 89 8 3.3137 0 376 3.3137 1
gene 6 53 64 -4.38604 0 399 -4.38604 1
gene 5 53 14 -0.79676 0 420 -0.79676 1
gene 4 53 102 -1.07099 0 425 -1.07099 1
gene 4 102 23 5.32447 0 426 5.32447 1
genomeend 13

/* Organism #14 Fitness: 43 Error: 0 */
genomestart 14
trait 1 0.1 0 0 0 0 0 0 0 
trait 2 0.2 0 0 0 0 0 0 0 
trait 3 0.3 0 0 0 0 0 0 0 
trait 4 0 0 0 0 0 0 0 0 
trait 5 0.5 0 0 0 0 0 0 0 
trait 6 0.378347 0 0 0.742295 0 0.359265 0 0.227462 
trait 7 0.7 0 0 0 0 0 0 0 
trait 8 0.8 0 0 0 0 0 0 0 
node 1 3 1 3
node 2 5 1 1
node 3 4 1 1
node 4 6 1 1
node 5 3 1 1
node 6 3 1 1
node 7 8 1 1
node 8 1 0 2
node 14 1 0 0
node 19 1 0 0
node 23 2 0 0
node 27 3 0 0
node 47 1 0 0
node 53 1 0 0
node 64 1 0 0
node 89 1 0 0
node 102 1 0 0
gene 7 1 8 -0.728024 0 1 -0.728024 1
gene 6 2 8 -1.14947 0 2 -1.14947 1
gene 4 3 8 1.20759 0 3 1.20759 0
gene 5 4 8 -0.234149 0 4 -0.234149 1
gene 5 5 8 -6.11684 0 5 -6.11684 1
gene 3 6 8 5.22325 0 6 5.22325 1
gene 7 7 8 -5.96431 0 7 -5.96431 1
gene 5 5 14 0.68478 0 18 0.68478 1
gene 5 14 8 -1.51666 0 19 -1.51666 1
gene 5 1 14 -0.874077 0 22 -0.874077 1
gene 7 3 14 5.50466 0 24 5.50466 1
gene 4 4 14 -4.49355 0 39 -4.49355 1
gene 4 3 19 1.37456 0 47 1.37456 1
gene 4 19 8 4.55108 0 48 4.55108 1
gene 4 6 14 -0.103858 0 50 -0.103858 1
gene 4 19 23 -0.598934 0 63 -0.598934 1
gene 4 23 8 -0.47839 0 64 -0.47839 1
gene 2 23 14 0.68784 0 70 0.68784 1
gene 4 23 27 4.40681 0 79 4.40681 1
gene 4 27 8 3.13888 0 80 3.13888 1
gene 7 1 19 2.53496 0 83 2.53496 1
gene 4 5 27 5.69897 0 92 5.69897 0
gene 2 2 19 2.46103 0 108 2.46103 1
gene 8 6 23 0.662106 0 115 0.662106 1
gene 4 2 23 -3.60749 0 124 -3.60749 0
gene 8 4 19 -2.41859 0 153 -2.41859 1
gene 4 5 47 -3.77395 0 181 -3.77395 1
gene 4 47 27 3.16087 0 182 3.16087 1
gene 7 27 14 -2.79788 0 193 -2.79788 1
gene 4 4 27 -3.99912 0 212 -3.99912 1
gene 1 2 27 2.96957 0 222 2.96957 1
gene 4 2 53 -2.28685 0 226 -2.28685 1
gene 4 53 23 3.27088 0 227 3.27088 0
gene 2 53 27 -4.9484 0 238 -4.9484 1
gene 4 5 64 4.55893 0 277 4.55893 1
gene 4 64 47 -0.74543 0 278 -0.74543 1
gene 7 19 47 -0.652121 0 338 -0.652121 1
gene 4 7 23 2.01497 0 366 2.01497 1
gene 4 3 89 -1.76189 0 375 -1.76189 1
gene 4 89 8 1.24104 0 376 1.24104 1
gene 6 53 64 -2.45012 0 399 -2.45012 1
gene 5 53 14 -0.860913 0 420 -0.860913 1
gene 4 53 102 1 0 425 1 1
gene 4 102 23 5.32447 0 426 5.32447 1
gene 3 47 89 0.85225 0 438 0.85225 1
genomeend 14

/* Organism #15 Fitness: 0.0009 Error: 0 */
genomestart 15
trait 1 0.1 0 0 0 0 0 0 0 
trait 2 0.2 0 0 0 0 0 0 0 
trait 3 0.3 0 0 0 0 0 0 0 
trait 4 0 0 0 0 0 0 0 0 
trait 5 0.5 0 0 0 0 0 0 0 
trait 6 0.378347 0 0 0.742295 0 0.359265 0 0.227462 
trait 7 0.7 0 0 0 0 0 0 0 
trait 8 0.8 0 0 0 0 0 0 0 
node 1 3 1 3
node 2 5 1 1
node 3 4 1 1
node 4 6 1 1
node 5 3 1 1
node 6 3 1 1
node 7 8 1 1
node 8 1 0 2
node 14 1 0 0
node 19 1 0 0
node 23 2 0 0
node 27 3 0 0
node 47 1 0 0
node 53 1 0 0
node 64 1 0 0
node 89 1 0 0
node 102 1 0 0
gene 7 1 8 -0.908876 0 1 -0.908876 1
gene 6 2 8 -2.23488 0 2 -2.23488 1
gene 4 3 8 -1.80884 0 3 -1.80884 0
gene 5 4 8 -1.04057 0 4 -1.04057 1
gene 5 5 8 0.580865 0 5 0.580865 1
gene 3 6 8 3.23663 0 6 3.23663 1
gene 7 7 8 -3.74644 0 7 -3.74644 1
gene 5 5 14 -0.888947 0 18 -0.888947 1
gene 5 14 8 -1.36821 0 19 -1.36821 1
gene 5 1 14 -3.15315 0 22 -3.15315 1
gene 7 3 14 6.65161 0 24 6.65161 1
gene 4 4 14 -1.91101 0 39 -1.91101 1
gene 4 3 19 -0.873168 0 47 -0.873168 1
gene 4 19 8 -2.02036 0 48 -2.02036 1
gene 4 6 14 -1.961 0 50 -1.961 1
gene 4 19 23 0.665984 0 63 0.665984 1
gene 4 23 8 -1.10442 0 64 -1.10442 1
gene 2 23 14 2.4462 0 70 2.4462 1
gene 4 23 27 4.87356 0 79 4.87356 1
gene 4 27 8 2.02591 0 80 2.02591 1
gene 7 1 19 0.844646 0 83 0.844646 1
gene 4 5 27 5.69897 0 92 5.69897 0
gene 2 2 19 4.32268 0 108 4.32268 1
gene 8 6 23 0.212579 0 115 0.212579 1
gene 4 2 23 -4.29939 0 124 -4.29939 0
gene 8 4 19 -1.17946 0 153 -1.17946 1
gene 4 5 47 -5.28055 0 181 -5.28055 1
gene 4 47 27 -1.09163 0 182 -1.09163 1
gene 7 27 14 -3.16436 0 193 -3.16436 1
gene 4 4 27 -5.18736 0 212 -5.18736 1
gene 1 2 27 2.96957 0 222 2.96957 1
gene 4 2 53 -1.15706 0 226 -1.15706 1
gene 4 53 23 2.37753 0 227 2.37753 0
gene 2 53 27 -4.37585 0 238 -4.37585 1
gene 4 5 64 5.53277 0 277 5.53277 1
gene 4 64 47 0.178053 0 278 0.178053 1
gene 7 19 47 -0.823958 0 338 -0.823958 1
gene 4 7 23 2.68803 0 366 2.68803 1
gene 4 3 89 -1.00644 0 375 -1.00644 1
gene 4 89 8 0.673596 0 376 0.673596 1
gene 6 53 64 -4.83826 0 399 -4.83826 1
gene 5 53 14 -2.36447 0 420 -2.36447 1
gene 4 53 102 -1.40746 0 425 -1.40746 1
gene 4 102 23 3.05964 0 426 3.05964 1
genomeend 15

/* Organism #16 Fitness: 105 Error: 0 */
genomestart 16
trait 1 0.1 0 0 0 0 0 0 0 
trait 2 0.2 0 0 0 0 0 0 0 
trait 3 0.3 0 0 0 0 0 0 0 
trait 4 0 0 0 0 0 0 0 0 
trait 5 0.5 0 0 0 0 0 0 0 
trait 6 0.378347 0 0 0.742295 0 0.359265 0 0.227462 
trait 7 0.7 0 0 0 0 0 0 0 
trait 8 0.8 0 0 0 0 0 0 0 
node 1 3 1 3
node 2 5 1 1
node 3 4 1 1
node 4 6 1 1
node 5 3 1 1
node 6 3 1 1
node 7 8 1 1
node 8 1 0 2
node 14 1 0 0
node 19 1 0 0
node 23 2 0 0
node 27 3 0 0
node 47 1 0 0
node 53 1 0 0
node 64 1 0 0
node 89 1 0 0
node 102 1 0 0
gene 7 1 8 -0.577295 0 1 -0.577295 1
gene 6 2 8 -0.300609 0 2 -0.300609 1
gene 4 3 8 0.654007 0 3 0.654007 0
gene 5 4 8 1.34993 0 4 1.34993 1
gene 5 5 8 -0.012774 0 5 -0.012774 1
gene 3 6 8 7.58711 0 6 7.58711 1
gene 7 7 8 -7.6523 0 7 -7.6523 1
gene 5 5 14 -2.14191 0 18 -2.14191 1
gene 5 14 8 -2.50585 0 19 -2.50585 1
gene 5 1 14 0.409011 0 22 0.409011 1
gene 7 3 14 0.802668 0 24 0.802668 1
gene 4 4 14 -5.86793 0 39 -5.86793 1
gene 4 3 19 -0.743367 0 47 -0.743367 1
gene 4 19 8 5.58561 0 48 5.58561 1
gene 4 6 14 0.602727 0 50 0.602727 1
gene 4 19 23 0.347149 0 63 0.347149 1
gene 4 23 8 -0.47839 0 64 -0.47839 1
gene 2 23 14 -0.377991 0 70 -0.377991 1
gene 4 23 27 0.965403 0 79 0.965403 1
gene 4 27 8 2.50907 0 80 2.50907 1
gene 7 1 19 0.783816 0 83 0.783816 1
gene 4 5 27 3.48556 0 92 3.48556 0
gene 2 2 19 -2.35738 0 108 -2.35738 1
gene 8 6 23 -0.42294 0 115 -0.42294 1
gene 4 2 23 -3.4895 0 124 -3.4895 0
gene 8 4 19 1.96411 0 153 1.96411 1
gene 4 5 47 -2.74335 0 181 -2.74335 1
gene 4 47 27 3.16087 0 182 3.16087 1
gene 7 27 14 -3.68311 0 193 -3.68311 1
gene 4 4 27 -6.20418 0 212 -6.20418 1
gene 1 2 27 1.34973 0 222 1.34973 1
gene 4 2 53 -0.506544 0 226 -0.506544 1
gene 4 53 23 -1.03531 0 227 -1.03531 0
gene 2 53 27 -7.38683 0 238 -7.38683 1
gene 4 5 64 2.21933 0 277 2.21933 1
gene 4 64 47 0.00617992 0 278 0.00617992 1
gene 7 19 47 -0.613823 0 338 -0.613823 1
gene 4 7 23 0.127317 0 366 0.127317 1
gene 4 3 89 -1.76189 0 375 -1.76189 1
gene 4 89 8 1.93035 0 376 1.93035 1
gene 6 53 64 -3.98992 0 399 -3.98992 1
gene 5 53 14 -2.65664 0 420 -2.65664 1
gene 4 53 102 1.33149 0 425 1.33149 1
gene 4 102 23 7.08948 0 426 7.08948 1
genomeend 16

/* Organism #17 Fitness: 82 Error: 0 */
/* ##------$ WINNER 17 SPECIES #42 $------## */
genomestart 17
trait 1 0.1 0 0 0 0 0 0 0 
trait 2 0.2 0 0 0 0 0 0 0 
trait 3 0.3 0 0 0 0 0 0 0 
trait 4 0 0 0 0 0 0 0 0 
trait 5 0.5 0 0 0 0 0 0 0 
trait 6 0.378347 0 0 0.742295 0 0.359265 0 0.227462 
trait 7 0.7 0 0 0 0 0 0 0 
trait 8 0.8 0 0 0 0 0 0 0 
node 1 3 1 3
node 2 5 1 1
node 3 4 1 1
node 4 6 1 1
node 5 3 1 1
node 6 3 1 1
node 7 8 1 1
node 8 1 0 2
node 14 1 0 0
node 19 1 0 0
node 23 2 0 0
node 27 3 0 0
node 47 1 0 0
node 53 1 0 0
node 64 1 0 0
node 89 1 0 0
node 102 1 0 0
gene 7 1 8 -0.728024 0 1 -0.728024 1
gene 6 2 8 -1.14947 0 2 -1.14947 1
gene 4 3 8 1.20759 0 3 1.20759 0
gene 5 4 8 -0.234149 0 4 -0.234149 1
gene 5 5 8 -6.11684 0 5 -6.11684 1
gene 3 6 8 5.22325 0 6 5.22325 1
gene 7 7 8 -5.96431 0 7 -5.96431 1
gene 5 5 14 0.68478 0 18 0.68478 1
gene 5 14 8 -1.51666 0 19 -1.51666 1
gene 5 1 14 -0.874077 0 22 -0.874077 1
gene 7 3 14 5.50466 0 24 5.50466 1
gene 4 4 14 -4.49355 0 39 -4.49355 1
gene 4 3 19 1.37456 0 47 1.37456 1
gene 4 19 8 4.55108 0 48 4.55108 1
gene 4 6 14 -0.103858 0 50 -0.103858 1
gene 4 19 23 -0.598934 0 63 -0.598934 1
gene 4 23 8 -0.47839 0 64 -0.47839 1
gene 2 23 14 0.68784 0 70 0.68784 1
gene 4 23 27 4.40681 0 79 4.40681 1
gene 4 27 8 3.13888 0 80 3.13888 1
gene 7 1 19 2.53496 0 83 2.53496 1
gene 4 5 27 5.69897 0 92 5.69897 0
gene 2 2 19 2.46103 0 108 2.46103 1
gene 8 6 23 0.662106 0 115 0.662106 1
gene 4 2 23 -3.60749 0 124 -3.60749 0
gene 8 4 19 -2.41859 0 153 -2.41859 1
gene 4 5 47 -3.77395 0 181 -3.77395 1
gene 4 47 27 3.16087 0 182 3.16087 1
gene 7 27 14 -2.79788 0 193 -2.79788 1
gene 4 4 27 -3.99912 0 212 -3.99912 1
gene 1 2 27 2.96957 0 222 2.96957 1
gene 4 2 53 -2.28685 0 226 -2.28685 1
gene 4 53 23 3.27088 0 227 3.27088 0
gene 2 53 27 -4.9484 0 238 -4.9484 1
gene 4 5 64 4.55893 0 277 4.55893 1
gene 4 64 47 -0.74543 0 278 -0.74543 1
gene 7 19 47 -0.652121 0 338 -0.652121 1
gene 4 7 23 2.01497 0 366 2.01497 1
gene 4 3 89 -1.76189 0 375 -1.76189 1
gene 4 89 8 1.24104 0 376 1.24104 1
gene 6 53 64 -2.45012 0 399 -2.45012 1
gene 5 53 14 -0.860913 0 420 -0.860913 1
gene 4 53 102 1 0 425 1 1
gene 4 102 23 5.32447 0 426 5.32447 1
gene 1 7 14 0.960687 0 439 0.960687 1
genomeend 17

/* Organism #18 Fitness: 31 Error: 0 */
/* ##------$ WINNER 18 SPECIES #42 $------## */
genomestart 18
trait 1 0.1 0 0 0 0 0 0 0 
trait 2 0.2 0 0 0 0 0 0 0 
trait 3 0.3 0 0 0 0 0 0 0 
trait 4 0 0 0 0 0 0 0 0 
trait 5 0.5 0 0 0 0 0 0 0 
trait 6 0.378347 0 0 0.742295 0 0.359265 0 0.227462 
trait 7 0.7 0 0 0 0 0 0 0 
trait 8 0.8 0 0 0 0 0 0 0 
node 1 3 1 3
node 2 5 1 1
node 3 4 1 1
node 4 6 1 1
node 5 3 1 1
node 6 3 1 1
node 7 8 1 1
node 8 1 0 2
node 14 1 0 0
node 19 1 0 0
node 23 2 0 0
node 27 3 0 0
node 47 1 0 0
node 53 1 0 0
node 64 1 0 0
node 89 1 0 0
node 102 1 0 0
gene 7 1 8 1.27872 0 1 1.27872 1
gene 6 2 8 -3.34946 0 2 -3.34946 1
gene 4 3 8 3.3059 0 3 3.3059 0
gene 5 4 8 -1.11648 0 4 -1.11648 1
gene 5 5 8 -1.91494 0 5 -1.91494 1
gene 3 6 8 3.97453 0 6 3.97453 1
gene 7 7 8 0.520919 0 7 0.520919 1
gene 5 5 14 -1.44795 0 18 -1.44795 1
gene 5 14 8 -1.51666 0 19 -1.51666 1
gene 5 1 14 1.89786 0 22 1.89786 1
gene 7 3 14 4.31743 0 24 4.31743 1
gene 4 4 14 -3.07535 0 39 -3.07535 1
gene 4 3 19 3.71303 0 47 3.71303 1
gene 4 19 8 4.55108 0 48 4.55108 1
gene 4 6 14 1.45047 0 50 1.45047 1
gene 4 19 23 0.542681 0 63 0.542681 1
gene 4 23 8 2.01552 0 64 2.01552 1
gene 2 23 14 -0.289163 0 70 -0.289163 1
gene 4 23 27 -1.59557 0 79 -1.59557 1
gene 4 27 8 5.5781 0 80 5.5781 1
gene 7 1 19 1.77871 0 83 1.77871 1
gene 4 5 27 5.69897 0 92 5.69897 0
gene 2 2 19 1.5695 0 108 1.5695 1
gene 8 6 23 2.51698 0 115 2.51698 1
gene 4 2 23 -2.64472 0 124 -2.64472 0
gene 8 4 19 -1.86584 0 153 -1.86584 1
gene 4 5 47 -2.66997 0 181 -2.66997 1
gene 4 47 27 5.4832 0 182 5.4832 1
gene 7 27 14 -2.03954 0 193 -2.03954 1
gene 4 4 27 -5.77045 0 212 -5.77045 1
gene 1 2 27 -0.560024 0 222 -0.560024 1
gene 4 2 53 -0.655688 0 226 -0.655688 1
gene 4 53 23 2.18474 0 227 2.18474 0
gene 2 53 27 -6.76747 0 238 -6.76747 1
gene 4 5 64 2.9083 0 277 2.9083 1
gene 4 64 47 -1.83981 0 278 -1.83981 1
gene 7 19 47 0.74689 0 338 0.74689 1
gene 4 7 23 1.42952 0 366 1.42952 1
gene 4 3 89 0.786437 0 375 0.786437 1
gene 4 89 8 2.73915 0 376 2.73915 1
gene 6 53 64 -2.11832 0 399 -2.11832 1
gene 5 53 14 -2.19522 0 420 -2.19522 1
gene 4 53 102 0.435714 0 425 0.435714 1
gene 4 102 23 3.17776 0 426 3.17776 1
genomeend 18

/* Organism #19 Fitness: 0.0007 Error: 0 */
genomestart 19
trait 1 0.1 0 0 0 0 0 0 0 
trait 2 0.2 0 0 0 0 0 0 0 
trait 3 0.3 0 0 0 0 0 0 0 
trait 4 0 0 0 0 0 0 0 0 
trait 5 0.5 0 0 0 0 0 0 0 
trait 6 0.378347 0 0 0.742295 0 0.359265 0 0.227462 
trait 7 0.7 0 0 0 0 0 0 0 
trait 8 0.8 0 0 0 0 0 0 0 
node 1 3 1 3
node 2 5 1 1
node 3 4 1 1
node 4 6 1 1
node 5 3 1 1
node 6 3 1 1
node 7 8 1 1
node 8 1 0 2
node 14 1 0 0
node 19 1 0 0
node 23 2 0 0
node 27 3 0 0
node 47 1 0 0
node 53 1 0 0
node 64 1 0 0
node 89 1 0 0
node 102 1 0 0
gene 7 1 8 -0.728024 0 1 -0.728024 1
gene 6 2 8 -1.14947 0 2 -1.14947 1
gene 4 3 8 1.20759 0 3 1.20759 0
gene 5 4 8 -0.234149 0 4 -0.234149 1
gene 5 5 8 -6.11684 0 5 -6.11684 1
gene 3 6 8 5.22325 0 6 5.22325 1
gene 7 7 8 -5.96431 0 7 -5.96431 1
gene 5 5 14 0.68478 0 18 0.68478 1
gene 5 14 8 -1.51666 0 19 -1.51666 1
gene 5 1 14 -0.874077 0 22 -0.874077 1
gene 7 3 14 5.50466 0 24 5.50466 1
gene 4 4 14 -4.49355 0 39 -4.49355 1
gene 4 3 19 1.37456 0 47 1.37456 1
gene 4 19 8 4.55108 0 48 4.55108 1
gene 4 6 14 -0.103858 0 50 -0.103858 1
gene 4 19 23 -0.598934 0 63 -0.598934 1
gene 4 23 8 -0.47839 0 64 -0.47839 1
gene 2 23 14 0.68784 0 70 0.68784 1
gene 4 23 27 4.40681 0 79 4.40681 1
gene 4 27 8 3.13888 0 80 3.13888 1
gene 7 1 19 2.53496 0 83 2.53496 1
gene 4 5 27 5.69897 0 92 5.69897 0
gene 2 2 19 2.46103 0 108 2.46103 1
gene 8 6 23 0.662106 0 115 0.662106 1
gene 4 2 23 -3.60749 0 124 -3.60749 0
gene 8 4 19 -2.41859 0 153 -2.41859 1
gene 4 5 47 -3.77395 0 181 -3.77395 1
gene 4 47 27 3.16087 0 182 3.16087 1
gene 7 27 14 -2.79788 0 193 -2.79788 1
gene 4 4 27 -3.99912 0 212 -3.99912 1
gene 1 2 27 2.96957 0 222 2.96957 1
gene 4 2 53 -2.28685 0 226 -2.28685 1
gene 4 53 23 3.27088 0 227 3.27088 0
gene 2 53 27 -4.9484 0 238 -4.9484 1
gene 4 5 64 4.55893 0 277 4.55893 1
gene 4 64 47 -0.74543 0 278 -0.74543 1
gene 7 19 47 -0.652121 0 338 -0.652121 1
gene 4 7 23 2.01497 0 366 2.01497 1
gene 4 3 89 -1.76189 0 375 -1.76189 1
gene 4 89 8 1.24104 0 376 1.24104 1
gene 6 53 64 -2.45012 0 399 -2.45012 1
gene 5 53 14 -0.860913 0 420 -0.860913 1
gene 4 53 102 1 0 425 1 1
gene 4 102 23 5.32447 0 426 5.32447 1
genomeend 19
