
/* Species #38 : (Size 11) (AF 12.091) (Age 7)  */


/* Organism #0 Fitness: 21 Error: 0 */
genomestart 0
trait 1 0.1 0 0 0 0 0 0 0 
trait 2 0.2 0 0 0 0 0 0 0 
trait 3 0.3 0 0 0 0 0 0 0 
trait 4 0 0 0 0 0 0 0 0 
trait 5 0.5 0 0 0 0 0 0 0 
trait 6 0.378347 0 0 0.742295 0 0.359265 0 0.227462 
trait 7 0.7 0 0 0 0 0 0 0 
trait 8 0.8 0 0 0 0 0 0 0 
node 1 3 1 3
node 2 5 1 1
node 3 4 1 1
node 4 6 1 1
node 5 3 1 1
node 6 3 1 1
node 7 8 1 1
node 8 1 0 2
node 14 1 0 0
node 19 1 0 0
node 23 2 0 0
node 27 3 0 0
node 47 1 0 0
node 53 1 0 0
node 64 1 0 0
node 89 1 0 0
gene 7 1 8 -0.300578 0 1 -0.300578 1
gene 6 2 8 -2.55029 0 2 -2.55029 1
gene 4 3 8 -0.27609 0 3 -0.27609 0
gene 5 4 8 0.742571 0 4 0.742571 1
gene 5 5 8 -5.90007 0 5 -5.90007 1
gene 3 6 8 6.46788 0 6 6.46788 1
gene 7 7 8 -5.12647 0 7 -5.12647 1
gene 5 5 14 1.01295 0 18 1.01295 1
gene 5 14 8 -1.24032 0 19 -1.24032 1
gene 5 1 14 0.367098 0 22 0.367098 1
gene 7 3 14 3.10056 0 24 3.10056 1
gene 4 4 14 -6.83577 0 39 -6.83577 1
gene 4 3 19 1.83087 0 47 1.83087 1
gene 4 19 8 5.606 0 48 5.606 1
gene 4 6 14 0.780252 0 50 0.780252 1
gene 4 19 23 -1.0715 0 63 -1.0715 1
gene 4 23 8 1.22378 0 64 1.22378 1
gene 2 23 14 -0.882206 0 70 -0.882206 1
gene 4 23 27 4.61614 0 79 4.61614 1
gene 4 27 8 1.91196 0 80 1.91196 1
gene 7 1 19 1.05133 0 83 1.05133 1
gene 4 5 27 8 0 92 8 0
gene 2 2 19 1.49938 0 108 1.49938 1
gene 8 6 23 0.658066 0 115 0.658066 1
gene 4 2 23 -2.84646 0 124 -2.84646 0
gene 8 4 19 0.786368 0 153 0.786368 1
gene 4 5 47 -0.00843705 0 181 -0.00843705 0
gene 4 47 27 0.668333 0 182 0.668333 1
gene 7 27 14 -1.29935 0 193 -1.29935 1
gene 4 4 27 -1.80112 0 212 -1.80112 1
gene 1 2 27 3.68051 0 222 3.68051 1
gene 4 2 53 -3.69946 0 226 -3.69946 1
gene 4 53 23 5.0128 0 227 5.0128 1
gene 2 53 27 2.20289 0 238 2.20289 1
gene 4 5 64 2.73905 0 277 2.73905 1
gene 4 64 47 1.58782 0 278 1.58782 1
gene 7 19 47 0.0270396 0 338 0.0270396 1
gene 4 7 23 0.757289 0 366 0.757289 1
gene 4 3 89 -0.394258 0 375 -0.394258 1
gene 4 89 8 -0.365265 0 376 -0.365265 1
gene 6 53 64 0.663328 0 399 0 1
gene 1 1 23 0.770472 0 410 0.770472 1
genomeend 0

/* Organism #1 Fitness: 0.0002 Error: 0 */
genomestart 1
trait 1 0.1 0 0 0 0 0 0 0 
trait 2 0.2 0 0 0 0 0 0 0 
trait 3 0.3 0 0 0 0 0 0 0 
trait 4 0 0 0 0 0 0 0 0 
trait 5 0.5 0 0 0 0 0 0 0 
trait 6 0.378347 0 0 0.742295 0 0.359265 0 0.227462 
trait 7 0.7 0 0 0 0 0 0 0 
trait 8 0.8 0 0 0 0 0 0 0 
node 1 3 1 3
node 2 5 1 1
node 3 4 1 1
node 4 6 1 1
node 5 3 1 1
node 6 3 1 1
node 7 8 1 1
node 8 1 0 2
node 14 1 0 0
node 19 1 0 0
node 23 2 0 0
node 27 3 0 0
node 47 1 0 0
node 53 1 0 0
node 64 1 0 0
node 89 1 0 0
gene 7 1 8 1.47223 0 1 1.47223 1
gene 6 2 8 -4.61737 0 2 -4.61737 1
gene 4 3 8 1.54317 0 3 1.54317 0
gene 5 4 8 -0.41295 0 4 -0.41295 1
gene 5 5 8 -6.98522 0 5 -6.98522 1
gene 3 6 8 7.37153 0 6 7.37153 1
gene 1 7 8 -6.71711 0 7 -6.71711 1
gene 5 5 14 -1.36311 0 18 -1.36311 1
gene 5 14 8 -2.44927 0 19 -2.44927 1
gene 5 1 14 1.6262 0 22 1.6262 1
gene 7 3 14 5.34181 0 24 5.34181 1
gene 4 4 14 -4.87727 0 39 -4.87727 1
gene 4 3 19 -0.202752 0 47 -0.202752 1
gene 4 19 8 7.2603 0 48 7.2603 1
gene 4 6 14 3.41813 0 50 3.41813 1
gene 4 19 23 -1.04964 0 63 -1.04964 1
gene 4 23 8 -0.355781 0 64 -0.355781 1
gene 2 23 14 -2.51146 0 70 -2.51146 1
gene 4 23 27 2.8761 0 79 2.8761 1
gene 4 27 8 1.07342 0 80 1.07342 1
gene 7 1 19 3.74121 0 83 3.74121 1
gene 4 5 27 7.13218 0 92 7.13218 0
gene 2 2 19 3.16138 0 108 3.16138 1
gene 8 6 23 -0.896967 0 115 -0.896967 1
gene 4 2 23 -5.01729 0 124 -5.01729 0
gene 8 4 19 -0.576063 0 153 -0.576063 1
gene 4 5 47 -2.12169 0 181 -2.12169 0
gene 4 47 27 -1.53123 0 182 -1.53123 1
gene 7 27 14 -2.14958 0 193 -2.14958 1
gene 4 4 27 -2.79537 0 212 -2.79537 1
gene 1 2 27 1.31207 0 222 1.31207 1
gene 4 2 53 -3.84211 0 226 -3.84211 1
gene 4 53 23 4.54186 0 227 4.54186 1
gene 2 53 27 1.64678 0 238 1.64678 1
gene 4 5 64 2.5697 0 277 2.5697 1
gene 4 64 47 2.20897 0 278 2.20897 1
gene 7 19 47 -1.77838 0 338 -1.77838 1
gene 4 7 23 2.77705 0 366 2.77705 1
gene 4 3 89 0.514017 0 375 0.514017 1
gene 4 89 8 0.670269 0 376 0.670269 1
gene 6 53 64 0.673709 0 399 0.673709 1
gene 1 1 23 2.46383 0 410 2.46383 1
genomeend 1

/* Organism #2 Fitness: 20 Error: 0 */
genomestart 2
trait 1 0.1 0 0 0 0 0 0 0 
trait 2 0.2 0 0 0 0 0 0 0 
trait 3 0.3 0 0 0 0 0 0 0 
trait 4 0 0 0 0 0 0 0 0 
trait 5 0.5 0 0 0 0 0 0 0 
trait 6 0.378347 0 0 0.742295 0 0.359265 0 0.227462 
trait 7 0.7 0 0 0 0 0 0 0 
trait 8 0.8 0 0 0 0 0 0 0 
node 1 3 1 3
node 2 5 1 1
node 3 4 1 1
node 4 6 1 1
node 5 3 1 1
node 6 3 1 1
node 7 8 1 1
node 8 1 0 2
node 14 1 0 0
node 19 1 0 0
node 23 2 0 0
node 27 3 0 0
node 47 1 0 0
node 53 1 0 0
node 64 1 0 0
node 89 1 0 0
gene 7 1 8 1.90496 0 1 1.90496 1
gene 6 2 8 -3.57455 0 2 -3.57455 1
gene 4 3 8 0.928522 0 3 0.928522 0
gene 5 4 8 -1.38735 0 4 -1.38735 1
gene 5 5 8 -5.20031 0 5 -5.20031 1
gene 3 6 8 5.77479 0 6 5.77479 1
gene 7 7 8 1.61264 0 7 1.61264 1
gene 5 5 14 3.18096 0 18 3.18096 1
gene 5 14 8 -0.460829 0 19 -0.460829 1
gene 5 1 14 2.42742 0 22 2.42742 1
gene 7 3 14 4.56286 0 24 4.56286 1
gene 4 4 14 -0.16969 0 39 -0.16969 1
gene 4 3 19 2.72771 0 47 2.72771 1
gene 4 19 8 7.74402 0 48 7.74402 1
gene 4 6 14 -0.769205 0 50 -0.769205 1
gene 4 19 23 -2.04278 0 63 -2.04278 1
gene 4 23 8 1.58071 0 64 1.58071 1
gene 2 23 14 -0.704862 0 70 -0.704862 1
gene 4 23 27 6.59131 0 79 6.59131 1
gene 4 27 8 2.01674 0 80 2.01674 1
gene 7 1 19 0.430869 0 83 0.430869 1
gene 4 5 27 -2.07055 0 92 -2.07055 0
gene 2 2 19 -0.991823 0 108 -0.991823 1
gene 8 6 23 1.53632 0 115 1.53632 1
gene 4 2 23 -2.84646 0 124 -2.84646 0
gene 8 4 19 2.22089 0 153 2.22089 1
gene 4 5 47 -0.849025 0 181 -0.849025 0
gene 4 47 27 1.52466 0 182 1.52466 1
gene 7 27 14 0.422981 0 193 0.422981 1
gene 4 4 27 0.0359943 0 212 0.0359943 1
gene 1 2 27 2.02759 0 222 2.02759 1
gene 4 2 53 -4.57476 0 226 -4.57476 1
gene 4 53 23 5.54129 0 227 5.54129 1
gene 2 53 27 3.74393 0 238 3.74393 1
gene 4 5 64 1.69622 0 277 1.69622 1
gene 4 64 47 1.58782 0 278 1.58782 1
gene 7 19 47 -0.77957 0 338 -0.77957 1
gene 4 7 23 -0.117017 0 366 -0.117017 1
gene 4 3 89 -2.49903 0 375 -2.49903 1
gene 4 89 8 -0.277487 0 376 -0.277487 1
gene 6 53 64 -1.78945 0 399 -1.78945 1
gene 1 1 23 0.0929391 0 410 0.0929391 1
genomeend 2

/* Organism #3 Fitness: 0.0002 Error: 0 */
genomestart 3
trait 1 0.1 0 0 0 0 0 0 0 
trait 2 0.2 0 0 0 0 0 0 0 
trait 3 0.3 0 0 0 0 0 0 0 
trait 4 0 0 0 0 0 0 0 0 
trait 5 0.5 0 0 0 0 0 0 0 
trait 6 0.378347 0 0 0.742295 0 0.359265 0 0.227462 
trait 7 0.7 0 0 0 0 0 0 0 
trait 8 0.8 0 0 0 0 0 0 0 
node 1 3 1 3
node 2 5 1 1
node 3 4 1 1
node 4 6 1 1
node 5 3 1 1
node 6 3 1 1
node 7 8 1 1
node 8 1 0 2
node 14 1 0 0
node 19 1 0 0
node 23 2 0 0
node 27 3 0 0
node 47 1 0 0
node 53 1 0 0
node 64 1 0 0
node 89 1 0 0
gene 7 1 8 0.937999 0 1 0.937999 1
gene 6 2 8 -1.808 0 2 -1.808 1
gene 4 3 8 -0.253502 0 3 -0.253502 1
gene 5 4 8 1.77194 0 4 1.77194 1
gene 5 5 8 -8 0 5 -8 1
gene 3 6 8 6.40465 0 6 6.40465 1
gene 7 7 8 -4.29945 0 7 -4.29945 1
gene 5 5 14 0.523805 0 18 0.523805 1
gene 5 14 8 -0.0201843 0 19 -0.0201843 0
gene 5 1 14 -2.55271 0 22 -2.55271 1
gene 7 3 14 3.22261 0 24 3.22261 1
gene 4 4 14 -5.91315 0 39 -5.91315 1
gene 4 3 19 1.49336 0 47 1.49336 1
gene 4 19 8 4.60532 0 48 4.60532 1
gene 4 6 14 -0.0318603 0 50 -0.0318603 1
gene 4 19 23 -0.514833 0 63 -0.514833 1
gene 4 23 8 -1.59627 0 64 -1.59627 1
gene 2 23 14 -1.19862 0 70 -1.19862 1
gene 4 23 27 5.63769 0 79 5.63769 1
gene 4 27 8 1.79854 0 80 1.79854 1
gene 7 1 19 0.840328 0 83 0.840328 1
gene 4 5 27 8 0 92 8 1
gene 2 2 19 2.12244 0 108 2.12244 1
gene 8 6 23 1.62837 0 115 1.62837 1
gene 4 2 23 -4.67724 0 124 -4.67724 0
gene 8 4 19 -1.76834 0 153 -1.76834 1
gene 4 5 47 -2.72135 0 181 -2.72135 0
gene 4 47 27 -0.510659 0 182 -0.510659 1
gene 7 27 14 -2.6736 0 193 -2.6736 1
gene 4 4 27 -1.6639 0 212 -1.6639 1
gene 1 2 27 2.48981 0 222 2.48981 1
gene 4 2 53 -1.91632 0 226 -1.91632 1
gene 4 53 23 5.37159 0 227 5.37159 1
gene 2 53 27 -1.76642 0 238 -1.76642 1
gene 4 5 64 2.73905 0 277 2.73905 1
gene 4 64 47 1.58782 0 278 1.58782 1
gene 7 19 47 -0.518965 0 338 -0.518965 1
gene 4 7 23 0.757289 0 366 0.757289 1
gene 4 3 89 -2.636 0 375 -2.636 1
gene 4 89 8 -0.480238 0 376 -0.480238 1
gene 6 53 64 1.46831 0 399 1.13665 1
gene 1 1 23 0.267595 0 410 0.267595 1
genomeend 3

/* Organism #4 Fitness: 50 Error: 0 */
genomestart 4
trait 1 0.1 0 0 0 0 0 0 0 
trait 2 0.2 0 0 0 0 0 0 0 
trait 3 0.3 0 0 0 0 0 0 0 
trait 4 0 0 0 0 0 0 0 0 
trait 5 0.5 0 0 0 0 0 0 0 
trait 6 0.378347 0 0 0.742295 0 0.359265 0 0.227462 
trait 7 0.7 0 0 0 0 0 0 0 
trait 8 0.8 0 0 0 0 0 0 0 
node 1 3 1 3
node 2 5 1 1
node 3 4 1 1
node 4 6 1 1
node 5 3 1 1
node 6 3 1 1
node 7 8 1 1
node 8 1 0 2
node 14 1 0 0
node 19 1 0 0
node 23 2 0 0
node 27 3 0 0
node 47 1 0 0
node 53 1 0 0
node 64 1 0 0
node 89 1 0 0
node 101 1 0 0
gene 7 1 8 2.17658 0 1 2.17658 1
gene 6 2 8 -1.50459 0 2 -1.50459 1
gene 4 3 8 -0.305378 0 3 -0.305378 0
gene 5 4 8 2.80132 0 4 2.80132 1
gene 5 5 8 -8 0 5 -8 1
gene 3 6 8 6.57103 0 6 6.57103 1
gene 7 7 8 -3.91891 0 7 -3.91891 1
gene 5 5 14 0.0346572 0 18 0.0346572 1
gene 5 14 8 1.00129 0 19 1.00129 0
gene 5 1 14 -3.42714 0 22 -3.42714 1
gene 7 3 14 3.3043 0 24 3.3043 1
gene 4 4 14 -4.99053 0 39 -4.99053 1
gene 4 3 19 0.795524 0 47 0.795524 1
gene 4 19 8 3.60463 0 48 3.60463 1
gene 4 6 14 -1.05784 0 50 -1.05784 1
gene 4 19 23 0.0418339 0 63 0.0418339 1
gene 4 23 8 -2.38904 0 64 -2.38904 1
gene 2 23 14 -1.51504 0 70 -1.51504 1
gene 4 23 27 6.65923 0 79 6.65923 1
gene 4 27 8 1.68513 0 80 1.68513 1
gene 7 1 19 0.305294 0 83 0.305294 1
gene 4 5 27 8 0 92 8 0
gene 2 2 19 2.74551 0 108 2.74551 1
gene 8 6 23 2.59868 0 115 2.59868 1
gene 4 2 23 -5.46596 0 124 -5.46596 0
gene 8 4 19 -1.88892 0 153 -1.88892 1
gene 4 5 47 -2.95913 0 181 -2.95913 0
gene 4 47 27 -1.68965 0 182 -1.68965 1
gene 7 27 14 -1.73763 0 193 -1.73763 1
gene 4 4 27 -1.52668 0 212 -1.52668 1
gene 1 2 27 1.29911 0 222 1.29911 1
gene 4 2 53 -0.701977 0 226 -0.701977 0
gene 4 53 23 5.73038 0 227 5.73038 1
gene 2 53 27 -0.88827 0 238 -0.88827 1
gene 4 5 64 2.73905 0 277 2.73905 1
gene 4 64 47 1.58782 0 278 1.58782 1
gene 7 19 47 0.259144 0 338 0.259144 1
gene 4 7 23 0.757289 0 366 0.757289 1
gene 4 3 89 -3.24069 0 375 -3.24069 1
gene 4 89 8 -0.595211 0 376 -0.595211 1
gene 6 53 64 2.2733 0 399 2.2733 1
gene 1 1 23 -0.235281 0 410 -0.235281 1
gene 4 2 101 1 0 423 0 1
gene 4 101 53 -0.701977 0 424 0 1
genomeend 4

/* Organism #5 Fitness: 21 Error: 0 */
genomestart 5
trait 1 0.1 0 0 0 0 0 0 0 
trait 2 0.2 0 0 0 0 0 0 0 
trait 3 0.3 0 0 0 0 0 0 0 
trait 4 0 0 0 0 0 0 0 0 
trait 5 0.5 0 0 0 0 0 0 0 
trait 6 0.378347 0 0 0.742295 0 0.359265 0 0.227462 
trait 7 0.7 0 0 0 0 0 0 0 
trait 8 0.8 0 0 0 0 0 0 0 
node 1 3 1 3
node 2 5 1 1
node 3 4 1 1
node 4 6 1 1
node 5 3 1 1
node 6 3 1 1
node 7 8 1 1
node 8 7 0 2
node 14 1 0 0
node 19 1 0 0
node 23 2 0 0
node 27 3 0 0
node 47 1 0 0
node 53 1 0 0
node 64 1 0 0
node 89 1 0 0
gene 7 1 8 0.990637 0 1 0.990637 1
gene 6 2 8 0.0858535 0 2 0.0858535 1
gene 4 3 8 -2.68242 0 3 -2.68242 0
gene 5 4 8 0.742571 0 4 0.742571 1
gene 5 5 8 -8 0 5 -8 1
gene 3 6 8 7.54361 0 6 7.54361 1
gene 7 7 8 -6.06186 0 7 -6.06186 1
gene 5 5 14 -0.896907 0 18 -0.896907 1
gene 5 14 8 0.219675 0 19 0.219675 0
gene 5 1 14 2.41487 0 22 2.41487 1
gene 7 3 14 3.34422 0 24 3.34422 1
gene 4 4 14 -5.17819 0 39 -5.17819 1
gene 4 3 19 2.84733 0 47 2.84733 1
gene 4 19 8 4.55005 0 48 4.55005 1
gene 4 6 14 0.994119 0 50 0.994119 1
gene 4 19 23 -1.54856 0 63 -1.54856 1
gene 4 23 8 -0.210758 0 64 -0.210758 1
gene 2 23 14 -1.74912 0 70 -1.74912 1
gene 4 23 27 4.35657 0 79 4.35657 1
gene 4 27 8 0.760271 0 80 0.760271 1
gene 7 1 19 -0.419621 0 83 -0.419621 1
gene 4 5 27 8 0 92 8 0
gene 2 2 19 3.79548 0 108 3.79548 1
gene 8 6 23 -0.425871 0 115 -0.425871 1
gene 4 2 23 -3.88852 0 124 -3.88852 0
gene 8 4 19 -1.39351 0 153 -1.39351 1
gene 4 5 47 -1.14693 0 181 -1.14693 0
gene 4 47 27 3.02085 0 182 3.02085 1
gene 7 27 14 -2.82566 0 193 -2.82566 1
gene 4 4 27 -1.51125 0 212 -1.51125 1
gene 1 2 27 4.02238 0 222 4.02238 1
gene 4 2 53 -2.0637 0 226 -2.0637 1
gene 4 53 23 6.28522 0 227 6.28522 1
gene 2 53 27 -2.64456 0 238 -2.64456 1
gene 4 5 64 2.73905 0 277 2.73905 1
gene 4 64 47 1.86042 0 278 1.86042 1
gene 7 19 47 0.116399 0 338 0.116399 1
gene 4 7 23 -0.228539 0 366 -0.228539 1
gene 4 3 89 -2.05018 0 375 -2.05018 1
gene 4 89 8 -0.365265 0 376 -0.365265 1
gene 6 53 64 -2.33304 0 399 -2.33304 1
gene 5 53 14 -3.33594 0 420 -3.33594 1
genomeend 5

/* Organism #6 Fitness: 0 Error: 0 */
genomestart 6
trait 1 0.1 0 0 0 0 0 0 0 
trait 2 0.2 0 0 0 0 0 0 0 
trait 3 0.3 0 0 0 0 0 0 0 
trait 4 0 0 0 0 0 0 0 0 
trait 5 0.5 0 0 0 0 0 0 0 
trait 6 0.378347 0 0 0.742295 0 0.359265 0 0.227462 
trait 7 0.7 0 0 0 0 0 0 0 
trait 8 0.8 0 0 0 0 0 0 0 
node 1 3 1 3
node 2 5 1 1
node 3 4 1 1
node 4 6 1 1
node 5 3 1 1
node 6 3 1 1
node 7 8 1 1
node 8 1 0 2
node 14 1 0 0
node 19 1 0 0
node 23 2 0 0
node 27 3 0 0
node 47 1 0 0
node 53 1 0 0
node 64 1 0 0
node 89 1 0 0
gene 7 1 8 1.86639 0 1 1.86639 1
gene 6 2 8 -1.41191 0 2 -1.41191 1
gene 4 3 8 1.52188 0 3 1.52188 0
gene 5 4 8 -1.4304 0 4 -1.4304 1
gene 5 5 8 -4.18599 0 5 -4.18599 1
gene 3 6 8 4.89668 0 6 4.89668 1
gene 7 7 8 -3.54184 0 7 -3.54184 1
gene 5 5 14 2.43097 0 18 2.43097 1
gene 5 14 8 -1.24126 0 19 -1.24126 1
gene 5 1 14 -0.766399 0 22 -0.766399 1
gene 7 3 14 0.766256 0 24 0.766256 1
gene 4 4 14 -5.89412 0 39 -5.89412 1
gene 4 3 19 2.76071 0 47 2.76071 1
gene 4 19 8 8 0 48 8 1
gene 4 6 14 2.41438 0 50 2.41438 1
gene 4 19 23 -0.904929 0 63 -0.904929 1
gene 4 23 8 -0.702059 0 64 -0.702059 1
gene 2 23 14 1.12683 0 70 1.12683 1
gene 4 23 27 4.92217 0 79 4.92217 1
gene 4 27 8 2.34272 0 80 2.34272 1
gene 7 1 19 -0.516778 0 83 -0.516778 1
gene 4 5 27 6.08491 0 92 6.08491 0
gene 2 2 19 1.71434 0 108 1.71434 1
gene 8 6 23 -0.503353 0 115 -0.503353 1
gene 4 2 23 -2.23739 0 124 -2.23739 0
gene 8 4 19 0.327066 0 153 0.327066 1
gene 4 5 47 0.434508 0 181 0.434508 0
gene 4 47 27 -0.132831 0 182 -0.132831 1
gene 7 27 14 0.722626 0 193 0.722626 1
gene 4 4 27 -2.03656 0 212 -2.03656 1
gene 1 2 27 5.34389 0 222 5.34389 1
gene 4 2 53 -1.37335 0 226 -1.37335 1
gene 4 53 23 4.27595 0 227 4.27595 1
gene 2 53 27 3.89893 0 238 3.89893 1
gene 4 5 64 2.13898 0 277 2.13898 1
gene 4 64 47 1.07512 0 278 1.07512 1
gene 7 19 47 0.274059 0 338 0.274059 1
gene 4 7 23 0.757289 0 366 0.757289 1
gene 4 3 89 1.18417 0 375 1.18417 1
gene 4 89 8 -2.3941 0 376 -2.3941 1
gene 6 53 64 0.302567 0 399 0.302567 1
gene 1 1 23 0.770472 0 410 0.770472 1
genomeend 6

/* Organism #7 Fitness: 0 Error: 0 */
genomestart 7
trait 1 0.1 0 0 0 0 0 0 0 
trait 2 0.2 0 0 0 0 0 0 0 
trait 3 0.3 0 0 0 0 0 0 0 
trait 4 0 0 0 0 0 0 0 0 
trait 5 0.5 0 0 0 0 0 0 0 
trait 6 0.378347 0 0 0.742295 0 0.359265 0 0.227462 
trait 7 0.7 0 0 0 0 0 0 0 
trait 8 0.8 0 0 0 0 0 0 0 
node 1 3 1 3
node 2 5 1 1
node 3 4 1 1
node 4 6 1 1
node 5 3 1 1
node 6 3 1 1
node 7 4 1 1
node 8 1 0 2
node 14 1 0 0
node 19 1 0 0
node 23 2 0 0
node 27 3 0 0
node 47 1 0 0
node 53 1 0 0
node 64 1 0 0
node 89 1 0 0
gene 7 1 8 3.16444 0 1 3.16444 1
gene 6 2 8 -0.122696 0 2 -0.122696 1
gene 4 3 8 -1.70305 0 3 -1.70305 0
gene 5 4 8 1.76477 0 4 1.76477 1
gene 5 5 8 -8 0 5 -8 1
gene 3 6 8 4.81938 0 6 4.81938 1
gene 7 7 8 -5.04641 0 7 -5.04641 1
gene 5 5 14 -0.392129 0 18 -0.392129 1
gene 5 14 8 0.0185982 0 19 0.0185982 0
gene 5 1 14 -1.86449 0 22 -1.86449 1
gene 7 3 14 3.46438 0 24 3.46438 1
gene 4 4 14 -4.33192 0 39 -4.33192 1
gene 4 3 19 -0.42001 0 47 -0.42001 1
gene 4 19 8 4.43466 0 48 4.43466 1
gene 4 6 14 -0.704415 0 50 -0.704415 1
gene 4 19 23 -1.87922 0 63 -1.87922 1
gene 4 23 8 -1.1447 0 64 -1.1447 1
gene 2 23 14 -2.41222 0 70 -2.41222 1
gene 4 23 27 8 0 79 8 1
gene 4 27 8 3.46187 0 80 3.46187 1
gene 7 1 19 0.627302 0 83 0.627302 1
gene 4 5 27 8 0 92 8 0
gene 2 2 19 3.46339 0 108 3.46339 1
gene 8 6 23 3.60918 0 115 3.60918 1
gene 4 2 23 -5.65436 0 124 -5.65436 0
gene 8 4 19 -2.52737 0 153 -2.52737 1
gene 4 5 47 -0.559666 0 181 -0.559666 0
gene 4 47 27 -4.18953 0 182 -4.18953 1
gene 7 27 14 -0.649048 0 193 -0.649048 1
gene 4 4 27 -2.12941 0 212 -2.12941 1
gene 1 2 27 0.0447961 0 222 0.0447961 1
gene 4 2 53 0.953594 0 226 0.953594 1
gene 4 53 23 6.04365 0 227 6.04365 1
gene 2 53 27 -0.47758 0 238 -0.47758 1
gene 4 5 64 3.04921 0 277 3.04921 1
gene 4 64 47 3.57418 0 278 3.57418 1
gene 7 19 47 1.91397 0 338 1.91397 1
gene 4 7 23 -1.52546 0 366 -1.52546 1
gene 4 3 89 -0.385475 0 375 -0.385475 1
gene 4 89 8 -2.3013 0 376 -2.3013 1
gene 6 53 64 2.93894 0 399 2.93894 1
gene 1 1 23 -0.403159 0 410 -0.403159 1
genomeend 7

/* Organism #8 Fitness: 0.0001 Error: 0 */
genomestart 8
trait 1 0.1 0 0 0 0 0 0 0 
trait 2 0.2 0 0 0 0 0 0 0 
trait 3 0.3 0 0 0 0 0 0 0 
trait 4 0 0 0.681505 0 0 0.409451 0 0.853245 
trait 5 0.5 0 0 0 0 0 0 0 
trait 6 0.378347 0 0 0.742295 0 0.359265 0 0.227462 
trait 7 0.7 0 0 0 0 0 0 0 
trait 8 0.8 0 0 0 0 0 0 0 
node 1 3 1 3
node 2 5 1 1
node 3 4 1 1
node 4 6 1 1
node 5 3 1 1
node 6 3 1 1
node 7 8 1 1
node 8 1 0 2
node 14 1 0 0
node 19 1 0 0
node 23 2 0 0
node 27 3 0 0
node 47 1 0 0
node 53 1 0 0
node 64 1 0 0
node 89 1 0 0
gene 7 1 8 1.31714 0 1 1.31714 1
gene 6 2 8 0.0216744 0 2 0.0216744 1
gene 4 3 8 -0.584272 0 3 -0.584272 0
gene 5 4 8 -0.0305573 0 4 -0.0305573 1
gene 5 5 8 -7.28384 0 5 -7.28384 1
gene 3 6 8 7.18145 0 6 7.18145 1
gene 7 7 8 -6.39756 0 7 -6.39756 1
gene 5 5 14 0.58354 0 18 0.58354 1
gene 5 14 8 -0.301382 0 19 -0.301382 0
gene 5 1 14 0.836278 0 22 0.836278 1
gene 7 3 14 4.63146 0 24 4.63146 1
gene 4 4 14 -5.9186 0 39 -5.9186 1
gene 4 3 19 3.38602 0 47 3.38602 1
gene 4 19 8 1.19007 0 48 1.19007 1
gene 4 6 14 -1.75572 0 50 -1.75572 1
gene 4 19 23 -1.42112 0 63 -1.42112 1
gene 4 23 8 0.953992 0 64 0.953992 1
gene 2 23 14 -1.35753 0 70 -1.35753 1
gene 4 23 27 3.77674 0 79 3.77674 1
gene 4 27 8 3.3208 0 80 3.3208 1
gene 7 1 19 2.3891 0 83 2.3891 1
gene 4 5 27 7.39839 0 92 7.39839 0
gene 2 2 19 0.144671 0 108 0.144671 1
gene 8 6 23 2.75185 0 115 2.75185 1
gene 4 2 23 -4.74366 0 124 -4.74366 0
gene 8 4 19 -3.70899 0 153 -3.70899 1
gene 4 5 47 2.08102 0 181 2.08102 0
gene 4 47 27 -0.470634 0 182 -0.470634 1
gene 7 27 14 -1.35237 0 193 -1.35237 1
gene 4 4 27 0.34744 0 212 0.34744 1
gene 1 2 27 -0.453603 0 222 -0.453603 1
gene 4 2 53 -2.90367 0 226 -2.90367 1
gene 4 53 23 6.41489 0 227 6.41489 1
gene 2 53 27 0.25148 0 238 0.25148 1
gene 4 5 64 -0.729208 0 277 -0.729208 1
gene 4 64 47 -0.139687 0 278 -0.139687 1
gene 7 19 47 -0.430657 0 338 -0.430657 1
gene 4 7 23 2.28165 0 366 2.28165 1
gene 4 3 89 -2.32447 0 375 -2.32447 1
gene 4 89 8 -0.798747 0 376 -0.798747 1
gene 6 53 64 -0.641081 0 399 -0.641081 1
gene 1 1 23 -0.235281 0 410 -0.235281 1
genomeend 8

/* Organism #9 Fitness: 21 Error: 0 */
genomestart 9
trait 1 0.1 0 0 0 0 0 0 0 
trait 2 0.2 0 0 0 0 0 0 0 
trait 3 0.3 0 0 0 0 0 0 0 
trait 4 0 0 0 0 0 0 0 0 
trait 5 0.5 0 0 0 0 0 0 0 
trait 6 0.378347 0 0 0.742295 0 0.359265 0 0.227462 
trait 7 0.7 0 0 0 0 0 0 0 
trait 8 0.8 0 0 0 0 0 0 0 
node 1 3 1 3
node 2 5 1 1
node 3 4 1 1
node 4 6 1 1
node 5 3 1 1
node 6 3 1 1
node 7 8 1 1
node 8 1 0 2
node 14 1 0 0
node 19 1 0 0
node 23 2 0 0
node 27 3 0 0
node 47 1 0 0
node 53 1 0 0
node 64 1 0 0
node 89 1 0 0
gene 7 1 8 -0.300578 0 1 -0.300578 1
gene 6 2 8 -2.0724 0 2 -2.0724 1
gene 4 3 8 -2.62153 0 3 -2.62153 0
gene 5 4 8 -0.878784 0 4 -0.878784 1
gene 5 5 8 -5.23128 0 5 -5.23128 1
gene 3 6 8 4.64023 0 6 4.64023 1
gene 7 7 8 -5.12647 0 7 -5.12647 1
gene 5 5 14 1.01295 0 18 1.01295 1
gene 5 14 8 -1.32379 0 19 -1.32379 1
gene 5 1 14 2.41131 0 22 2.41131 1
gene 7 3 14 0.0283023 0 24 0.0283023 1
gene 4 4 14 -7.58579 0 39 -7.58579 1
gene 4 3 19 3.89424 0 47 3.89424 1
gene 4 19 8 5.606 0 48 5.606 1
gene 4 6 14 0.025504 0 50 0.025504 1
gene 4 19 23 -1.0715 0 63 -1.0715 1
gene 4 23 8 3.43776 0 64 3.43776 1
gene 2 23 14 -1.30539 0 70 -1.30539 1
gene 4 23 27 3.85708 0 79 3.85708 1
gene 4 27 8 3.92053 0 80 3.92053 1
gene 7 1 19 3.21536 0 83 3.21536 1
gene 4 5 27 8 0 92 8 0
gene 2 2 19 3.92043 0 108 3.92043 1
gene 8 6 23 -1.43432 0 115 -1.43432 1
gene 4 2 23 -1.85792 0 124 -1.85792 0
gene 8 4 19 0.786368 0 153 0.786368 1
gene 4 5 47 1.26418 0 181 1.26418 0
gene 4 47 27 -0.803651 0 182 -0.803651 1
gene 7 27 14 -0.876876 0 193 -0.876876 1
gene 4 4 27 1.19871 0 212 1.19871 1
gene 1 2 27 3.68051 0 222 3.68051 1
gene 4 2 53 -3.69946 0 226 -3.69946 1
gene 4 53 23 5.7395 0 227 5.7395 1
gene 2 53 27 4.61583 0 238 4.61583 1
gene 4 5 64 -1.64469 0 277 -1.64469 1
gene 4 64 47 3.17856 0 278 3.17856 1
gene 7 19 47 1.60579 0 338 1.60579 1
gene 4 7 23 0.481689 0 366 0.481689 1
gene 4 3 89 -1.49815 0 375 -1.49815 1
gene 4 89 8 -2.01237 0 376 -2.01237 1
gene 6 53 64 2.11277 0 399 2.11277 1
gene 1 1 23 0.231247 0 410 0.231247 1
genomeend 9

/* Organism #10 Fitness: 0 Error: 0 */
genomestart 10
trait 1 0.1 0 0 0 0 0 0 0 
trait 2 0.2 0 0 0 0 0 0 0 
trait 3 0.3 0 0 0 0 0 0 0 
trait 4 0 0 0 0 0 0 0 0 
trait 5 0.5 0 0 0 0 0 0 0 
trait 6 0.378347 0 0 0.742295 0 0.359265 0 0.227462 
trait 7 0.7 0 0 0 0 0 0 0 
trait 8 0.8 0 0 0 0 0 0 0 
node 1 3 1 3
node 2 5 1 1
node 3 4 1 1
node 4 6 1 1
node 5 3 1 1
node 6 3 1 1
node 7 8 1 1
node 8 1 0 2
node 14 1 0 0
node 19 1 0 0
node 23 2 0 0
node 27 3 0 0
node 47 1 0 0
node 53 1 0 0
node 64 1 0 0
node 89 1 0 0
gene 7 1 8 -0.300578 0 1 -0.300578 1
gene 6 2 8 -2.55029 0 2 -2.55029 1
gene 4 3 8 -0.201626 0 3 -0.201626 0
gene 5 4 8 0.742571 0 4 0.742571 1
gene 5 5 8 -5.90007 0 5 -5.90007 1
gene 3 6 8 6.23827 0 6 6.23827 1
gene 7 7 8 -5.12647 0 7 -5.12647 1
gene 5 5 14 1.01295 0 18 1.01295 1
gene 5 14 8 -1.24032 0 19 -1.24032 0
gene 5 1 14 0.367098 0 22 0.367098 1
gene 7 3 14 3.14092 0 24 3.14092 1
gene 4 4 14 -6.83577 0 39 -6.83577 1
gene 4 3 19 1.83087 0 47 1.83087 1
gene 4 19 8 5.606 0 48 5.606 1
gene 4 6 14 0.994119 0 50 0.994119 1
gene 4 19 23 -1.0715 0 63 -1.0715 1
gene 4 23 8 -0.803505 0 64 -0.803505 1
gene 2 23 14 -0.882206 0 70 -0.882206 1
gene 4 23 27 4.61614 0 79 4.61614 1
gene 4 27 8 1.91196 0 80 1.91196 1
gene 7 1 19 1.37536 0 83 1.37536 1
gene 4 5 27 8 0 92 8 0
gene 2 2 19 1.49938 0 108 1.49938 1
gene 8 6 23 0.658066 0 115 0.658066 1
gene 4 2 23 -2.84646 0 124 -2.84646 0
gene 8 4 19 0.786368 0 153 0.786368 1
gene 4 5 47 -2.48356 0 181 -2.48356 0
gene 4 47 27 0.668333 0 182 0.668333 1
gene 7 27 14 -1.29935 0 193 -1.29935 1
gene 4 4 27 -1.80112 0 212 -1.80112 1
gene 1 2 27 3.68051 0 222 3.68051 1
gene 4 2 53 -3.69946 0 226 -3.69946 1
gene 4 53 23 5.0128 0 227 5.0128 1
gene 2 53 27 2.20289 0 238 2.20289 1
gene 4 5 64 2.73905 0 277 2.73905 1
gene 4 64 47 1.58782 0 278 1.58782 1
gene 7 19 47 -1.29707 0 338 -1.29707 1
gene 4 7 23 0.757289 0 366 0.757289 1
gene 4 3 89 -0.394258 0 375 -0.394258 1
gene 4 89 8 -0.365265 0 376 -0.365265 1
gene 6 53 64 0.663328 0 399 0 1
gene 1 1 23 0.770472 0 410 0.770472 1
gene 1 47 23 -0.333887 0 427 -0.333887 1
genomeend 10

/* Species #41 : (Size 8) (AF 51.875) (Age 2)  */


/* Organism #11 Fitness: 0 Error: 0 */
genomestart 11
trait 1 0.1 0 0 0 0 0 0 0 
trait 2 0.2 0 0 0 0 0 0 0 
trait 3 0.3 0 0 0 0 0 0 0 
trait 4 0 0 0 0 0 0 0 0 
trait 5 0.5 0 0 0 0 0 0 0 
trait 6 0.378347 0 0 0.742295 0 0.359265 0 0.227462 
trait 7 0.7 0 0 0 0 0 0 0 
trait 8 0.8 0 0 0 0 0 0 0 
node 1 3 1 3
node 2 5 1 1
node 3 4 1 1
node 4 6 1 1
node 5 3 1 1
node 6 3 1 1
node 7 8 1 1
node 8 1 0 2
node 14 1 0 0
node 19 1 0 0
node 23 2 0 0
node 27 3 0 0
node 47 1 0 0
node 53 1 0 0
node 64 1 0 0
node 89 1 0 0
node 98 1 0 0
gene 7 1 8 -2.08445 0 1 -2.08445 1
gene 6 2 8 -3.80899 0 2 -3.80899 1
gene 4 3 8 -0.356451 0 3 -0.356451 0
gene 5 4 8 2.16675 0 4 2.16675 1
gene 5 5 8 0.627291 0 5 0.627291 1
gene 3 6 8 7.64351 0 6 7.64351 1
gene 7 7 8 -7.10231 0 7 -7.10231 1
gene 5 5 14 2.08747 0 18 2.08747 1
gene 5 14 8 -1.89658 0 19 -1.89658 0
gene 5 1 14 0.990659 0 22 0.990659 1
gene 7 3 14 1.80965 0 24 1.80965 1
gene 4 4 14 -8 0 39 -8 1
gene 4 3 19 -1.51489 0 47 -1.51489 1
gene 4 19 8 6.49666 0 48 6.49666 1
gene 4 6 14 0.53501 0 50 0.53501 1
gene 4 19 23 -2.12491 0 63 -2.12491 1
gene 4 23 8 0.854089 0 64 0.854089 1
gene 2 23 14 -0.246337 0 70 -0.246337 1
gene 4 23 27 3.54647 0 79 3.54647 1
gene 4 27 8 0.892944 0 80 0.892944 1
gene 7 1 19 2.41154 0 83 2.41154 1
gene 4 5 27 -0.0284581 0 92 -0.0284581 0
gene 2 2 19 1.67541 0 108 1.67541 1
gene 8 6 23 2.76324 0 115 2.76324 1
gene 4 2 23 -3.88852 0 124 -3.88852 0
gene 8 4 19 2.37326 0 153 2.37326 1
gene 4 5 47 0.045753 0 181 0.045753 0
gene 4 47 27 0.854272 0 182 0.854272 1
gene 7 27 14 -3.16192 0 193 -3.16192 1
gene 4 4 27 -3.09628 0 212 -3.09628 1
gene 1 2 27 2.87417 0 222 2.87417 1
gene 4 2 53 -3.13066 0 226 -3.13066 1
gene 4 53 23 4.0038 0 227 4.0038 1
gene 2 53 27 -3.18148 0 238 -3.18148 1
gene 4 5 64 -2.32917 0 277 -2.32917 1
gene 4 64 47 -0.675981 0 278 -0.675981 1
gene 7 19 47 1.77311 0 338 1.77311 1
gene 4 7 23 1.45558 0 366 1.45558 1
gene 4 3 89 -0.208452 0 375 -0.208452 1
gene 4 89 8 -0.365265 0 376 -0.365265 1
gene 6 53 64 -1.60606 0 399 -1.60606 1
gene 5 14 98 2.41329 0 411 2.41329 1
gene 5 98 8 0.00048506 0 412 0.00048506 1
genomeend 11

/* Organism #12 Fitness: 0 Error: 0 */
genomestart 12
trait 1 0.1 0 0 0 0 0 0 0 
trait 2 0.2 0 0 0 0 0 0 0 
trait 3 0.3 0 0 0 0 0 0 0 
trait 4 0 0 0 0 0 0 0 0 
trait 5 0.5 0 0 0 0 0 0 0 
trait 6 0.378347 0 0 0.742295 0 0.359265 0 0.227462 
trait 7 1 0 0 0 0 0 0 0 
trait 8 0.8 0 0 0 0 0 0 0 
node 1 3 1 3
node 2 5 1 1
node 3 4 1 1
node 4 6 1 1
node 5 3 1 1
node 6 3 1 1
node 7 8 1 1
node 8 1 0 2
node 14 1 0 0
node 19 1 0 0
node 23 2 0 0
node 27 3 0 0
node 47 1 0 0
node 53 1 0 0
node 64 1 0 0
node 89 1 0 0
node 98 1 0 0
gene 7 1 8 -1.47284 0 1 -1.47284 1
gene 6 2 8 -2.36267 0 2 -2.36267 1
gene 4 3 8 -1.69921 0 3 -1.69921 0
gene 5 4 8 2.01802 0 4 2.01802 1
gene 5 5 8 -1.01581 0 5 -1.01581 1
gene 3 6 8 -0.463231 0 6 -0.463231 1
gene 7 7 8 -8 0 7 -8 1
gene 5 5 14 2.08747 0 18 2.08747 1
gene 5 14 8 -0.528524 0 19 -0.528524 0
gene 5 1 14 1.59204 0 22 1.59204 1
gene 7 3 14 -2.41903 0 24 -2.41903 1
gene 4 4 14 -5.98071 0 39 -5.98071 1
gene 4 3 19 -0.311869 0 47 -0.311869 1
gene 4 19 8 6.99553 0 48 6.99553 1
gene 4 6 14 0.53501 0 50 0.53501 1
gene 4 19 23 -0.296526 0 63 -0.296526 1
gene 4 23 8 1.03804 0 64 1.03804 1
gene 2 23 14 2.33983 0 70 2.33983 1
gene 4 23 27 2.73803 0 79 2.73803 1
gene 4 27 8 0.892944 0 80 0.892944 1
gene 7 1 19 2.41154 0 83 2.41154 1
gene 4 5 27 -1.97337 0 92 -1.97337 0
gene 2 2 19 -0.782357 0 108 -0.782357 1
gene 8 6 23 4.32311 0 115 4.32311 1
gene 4 2 23 -1.58083 0 124 -1.58083 0
gene 8 4 19 -1.43677 0 153 -1.43677 1
gene 4 5 47 -1.53958 0 181 -1.53958 0
gene 4 47 27 -1.5699 0 182 -1.5699 1
gene 7 27 14 -1.48546 0 193 -1.48546 1
gene 4 4 27 -0.254847 0 212 -0.254847 1
gene 1 2 27 1.61733 0 222 1.61733 1
gene 4 2 53 -0.294045 0 226 -0.294045 1
gene 4 53 23 -1.31278 0 227 -1.31278 1
gene 2 53 27 -3.83728 0 238 -3.83728 1
gene 4 5 64 -3.30101 0 277 -3.30101 1
gene 4 64 47 -2.07998 0 278 -2.07998 1
gene 7 19 47 -0.642393 0 338 -0.642393 1
gene 4 7 23 -0.459886 0 366 -0.459886 1
gene 4 3 89 -1.85599 0 375 -1.85599 1
gene 4 89 8 -0.365265 0 376 -0.365265 1
gene 6 53 64 -2.26422 0 399 -2.26422 1
gene 5 14 98 3.91483 0 411 3.91483 1
gene 5 98 8 -1.89595 0 412 -1.89595 1
genomeend 12

/* Organism #13 Fitness: 141 Error: 0 */
/* ##------$ WINNER 13 SPECIES #41 $------## */
genomestart 13
trait 1 0.1 0 0 0 0 0 0 0 
trait 2 0.2 0 0 0 0 0 0 0 
trait 3 0.3 0 0 0 0 0 0 0 
trait 4 0 0 0 0 0 0 0 0 
trait 5 0.5 0 0 0 0 0 0 0 
trait 6 0.378347 0 0 0.742295 0 0.359265 0 0.227462 
trait 7 0.7 0 0 0 0 0 0 0 
trait 8 0.8 0 0 0 0 0 0 0 
node 1 3 1 3
node 2 5 1 1
node 3 4 1 1
node 4 6 1 1
node 5 3 1 1
node 6 3 1 1
node 7 8 1 1
node 8 1 0 2
node 14 1 0 0
node 19 1 0 0
node 23 2 0 0
node 27 3 0 0
node 47 1 0 0
node 53 1 0 0
node 64 1 0 0
node 89 1 0 0
node 98 1 0 0
gene 7 1 8 -1.21584 0 1 -1.21584 1
gene 6 2 8 -2.29015 0 2 -2.29015 1
gene 4 3 8 -0.356451 0 3 -0.356451 0
gene 5 4 8 0.739698 0 4 0.739698 1
gene 5 5 8 0.36187 0 5 0.36187 1
gene 3 6 8 -1.89784 0 6 -1.89784 1
gene 7 7 8 -8 0 7 -8 1
gene 5 5 14 2.08747 0 18 2.08747 1
gene 5 14 8 -1.3797 0 19 -1.3797 0
gene 5 1 14 -0.503059 0 22 -0.503059 1
gene 7 3 14 4.19571 0 24 4.19571 1
gene 4 4 14 -8 0 39 -8 1
gene 4 3 19 -3.25294 0 47 -3.25294 1
gene 4 19 8 8 0 48 8 1
gene 4 6 14 -0.0537416 0 50 -0.0537416 1
gene 4 19 23 -1.53019 0 63 -1.53019 1
gene 4 23 8 -1.64257 0 64 -1.64257 1
gene 2 23 14 -2.68931 0 70 -2.68931 1
gene 4 23 27 3.21145 0 79 3.21145 1
gene 4 27 8 2.3454 0 80 2.3454 1
gene 7 1 19 4.16125 0 83 4.16125 1
gene 4 5 27 0.511554 0 92 0.511554 0
gene 2 2 19 2.01058 0 108 2.01058 1
gene 8 6 23 2.91727 0 115 2.91727 1
gene 4 2 23 -2.02641 0 124 -2.02641 0
gene 8 4 19 3.21308 0 153 3.21308 1
gene 4 5 47 0.473014 0 181 0.473014 0
gene 4 47 27 -1.02785 0 182 -1.02785 1
gene 7 27 14 -3.16192 0 193 -3.16192 1
gene 4 4 27 -1.20372 0 212 -1.20372 1
gene 1 2 27 1.34445 0 222 1.34445 1
gene 4 2 53 -3.85021 0 226 -3.85021 1
gene 4 53 23 3.02292 0 227 3.02292 1
gene 2 53 27 -2.02224 0 238 -2.02224 1
gene 4 5 64 -2.51085 0 277 -2.51085 1
gene 4 64 47 0.137645 0 278 0.137645 1
gene 7 19 47 1.77311 0 338 1.77311 1
gene 4 7 23 -0.986965 0 366 -0.986965 1
gene 4 3 89 1.72659 0 375 1.72659 1
gene 4 89 8 0.456636 0 376 0.456636 1
gene 6 53 64 -2.82827 0 399 -2.82827 1
gene 5 14 98 2.72685 0 411 2.72685 1
gene 5 98 8 1.83426 0 412 1.83426 1
genomeend 13

/* Organism #14 Fitness: 42 Error: 0 */
genomestart 14
trait 1 0.1 0 0 0 0 0 0 0 
trait 2 0.2 0 0 0 0 0 0 0 
trait 3 0.3 0 0 0 0 0 0 0 
trait 4 0 0 0 0 0 0 0 0 
trait 5 0.5 0 0 0 0 0 0 0 
trait 6 0.378347 0 0 0.742295 0 0.359265 0 0.227462 
trait 7 0.7 0 0 0 0 0 0 0 
trait 8 0.8 0 0 0 0 0 0 0 
node 1 3 1 3
node 2 5 1 1
node 3 4 1 1
node 4 6 1 1
node 5 3 1 1
node 6 3 1 1
node 7 8 1 1
node 8 1 0 2
node 14 1 0 0
node 19 1 0 0
node 23 2 0 0
node 27 3 0 0
node 47 1 0 0
node 53 1 0 0
node 64 1 0 0
node 89 1 0 0
node 98 1 0 0
gene 7 1 8 -0.128267 0 1 -0.128267 1
gene 6 2 8 -3.44961 0 2 -3.44961 1
gene 4 3 8 -1.69184 0 3 -1.69184 0
gene 5 4 8 2.64755 0 4 2.64755 1
gene 5 5 8 2.49109 0 5 2.49109 1
gene 3 6 8 8 0 6 8 1
gene 7 7 8 -8 0 7 -8 1
gene 5 5 14 1.00999 0 18 1.00999 1
gene 5 14 8 -2.29733 0 19 -2.29733 0
gene 5 1 14 -0.794936 0 22 -0.794936 1
gene 7 3 14 2.77119 0 24 2.77119 1
gene 4 4 14 -7.10792 0 39 -7.10792 1
gene 4 3 19 0.243838 0 47 0.243838 1
gene 4 19 8 4.36436 0 48 4.36436 1
gene 4 6 14 1.35586 0 50 1.35586 1
gene 4 19 23 -1.74678 0 63 -1.74678 1
gene 4 23 8 1.55067 0 64 1.55067 1
gene 2 23 14 -0.574687 0 70 -0.574687 1
gene 4 23 27 5.17311 0 79 5.17311 1
gene 4 27 8 2.0192 0 80 2.0192 1
gene 7 1 19 2.13425 0 83 2.13425 1
gene 4 5 27 1.09959 0 92 1.09959 0
gene 2 2 19 1.8283 0 108 1.8283 1
gene 8 6 23 0.359868 0 115 0.359868 1
gene 4 2 23 -2.29553 0 124 -2.29553 0
gene 8 4 19 1.47147 0 153 1.47147 1
gene 4 5 47 1.60415 0 181 1.60415 0
gene 4 47 27 -0.259201 0 182 -0.259201 1
gene 7 27 14 -4.86471 0 193 -4.86471 1
gene 4 4 27 -1.36707 0 212 -1.36707 1
gene 1 2 27 4.2899 0 222 4.2899 1
gene 4 2 53 -0.724524 0 226 -0.724524 1
gene 4 53 23 5.57577 0 227 5.57577 1
gene 2 53 27 -4.36797 0 238 -4.36797 1
gene 4 5 64 -2.40431 0 277 -2.40431 1
gene 4 64 47 -0.675981 0 278 -0.675981 1
gene 7 19 47 1.85248 0 338 1.85248 1
gene 4 7 23 0.0758661 0 366 0.0758661 1
gene 4 3 89 -2.12468 0 375 -2.12468 1
gene 4 89 8 -0.831951 0 376 -0.831951 1
gene 6 53 64 -1.60606 0 399 -1.60606 1
gene 5 14 98 0.843183 0 411 0.843183 1
gene 5 98 8 0.00048506 0 412 0.00048506 1
genomeend 14

/* Organism #15 Fitness: 92 Error: 0 */
/* ##------$ WINNER 15 SPECIES #41 $------## */
genomestart 15
trait 1 0.1 0 0 0 0 0 0 0 
trait 2 0.2 0 0 0 0 0 0 0 
trait 3 0.3 0 0 0 0 0 0 0 
trait 4 0 0 0 0 0 0 0 0 
trait 5 0.5 0 0 0 0 0 0 0 
trait 6 0.378347 0 0 0.742295 0 0.359265 0 0.227462 
trait 7 0.7 0 0 0 0 0 0 0 
trait 8 0.8 0 0 0 0 0 0 0 
node 1 3 1 3
node 2 5 1 1
node 3 4 1 1
node 4 6 1 1
node 5 3 1 1
node 6 3 1 1
node 7 8 1 1
node 8 1 0 2
node 14 1 0 0
node 19 1 0 0
node 23 2 0 0
node 27 3 0 0
node 47 1 0 0
node 53 1 0 0
node 64 1 0 0
node 89 1 0 0
node 98 1 0 0
gene 7 1 8 -1.61441 0 1 -1.61441 1
gene 6 2 8 -3.4342 0 2 -3.4342 1
gene 4 3 8 -0.29717 0 3 -0.29717 0
gene 5 4 8 2.16675 0 4 2.16675 1
gene 5 5 8 -0.961005 0 5 -0.961005 1
gene 3 6 8 6.33851 0 6 6.33851 1
gene 7 7 8 -5.16011 0 7 -5.16011 1
gene 5 5 14 -1.71109 0 18 -1.71109 1
gene 5 14 8 -0.341454 0 19 -0.341454 0
gene 5 1 14 0.902892 0 22 0.902892 1
gene 7 3 14 0.609867 0 24 0.609867 1
gene 4 4 14 -8 0 39 -8 1
gene 4 3 19 -1.51489 0 47 -1.51489 1
gene 4 19 8 7.33605 0 48 7.33605 1
gene 4 6 14 0.53501 0 50 0.53501 1
gene 4 19 23 0.066502 0 63 0.066502 1
gene 4 23 8 0.630311 0 64 0.630311 1
gene 2 23 14 -0.246337 0 70 -0.246337 1
gene 4 23 27 5.85323 0 79 5.85323 1
gene 4 27 8 -1.13888 0 80 -1.13888 1
gene 7 1 19 1.1883 0 83 1.1883 1
gene 4 5 27 -1.48492 0 92 -1.48492 0
gene 2 2 19 0.429599 0 108 0.429599 1
gene 8 6 23 0.847931 0 115 0.847931 1
gene 4 2 23 -3.42099 0 124 -3.42099 0
gene 8 4 19 0.840907 0 153 0.840907 1
gene 4 5 47 2.08786 0 181 2.08786 0
gene 4 47 27 -1.61599 0 182 -1.61599 1
gene 7 27 14 -3.95439 0 193 -3.95439 1
gene 4 4 27 -3.06251 0 212 -3.06251 1
gene 1 2 27 1.09027 0 222 1.09027 1
gene 4 2 53 -1.19865 0 226 -1.19865 1
gene 4 53 23 -0.433792 0 227 -0.433792 1
gene 2 53 27 -1.52659 0 238 -1.52659 1
gene 4 5 64 -0.86314 0 277 -0.86314 1
gene 4 64 47 -2.13148 0 278 -2.13148 1
gene 7 19 47 -0.428308 0 338 -0.428308 1
gene 4 7 23 -0.326658 0 366 -0.326658 1
gene 4 3 89 -0.57009 0 375 -0.57009 1
gene 4 89 8 -2.45364 0 376 -2.45364 1
gene 6 53 64 -2.20068 0 399 -2.20068 1
gene 5 14 98 4.49347 0 411 4.49347 1
gene 5 98 8 0.237043 0 412 0.237043 1
genomeend 15

/* Organism #16 Fitness: 47 Error: 0 */
genomestart 16
trait 1 0.1 0 0 0 0 0 0 0 
trait 2 0.2 0 0 0 0 0 0 0 
trait 3 0.3 0 0 0 0 0 0 0 
trait 4 0 0 0 0 0 0 0 0 
trait 5 0.5 0 0 0 0 0 0 0 
trait 6 0.378347 0 0 0.742295 0 0.359265 0 0.227462 
trait 7 0.7 0 0 0 0 0 0 0 
trait 8 0.8 0 0 0 0 0 0 0 
node 1 3 1 3
node 2 5 1 1
node 3 4 1 1
node 4 6 1 1
node 5 3 1 1
node 6 3 1 1
node 7 8 1 1
node 8 1 0 2
node 14 1 0 0
node 19 1 0 0
node 23 2 0 0
node 27 3 0 0
node 47 1 0 0
node 53 1 0 0
node 64 1 0 0
node 89 1 0 0
node 98 1 0 0
gene 7 1 8 -2.08445 0 1 -2.08445 1
gene 6 2 8 -3.80899 0 2 -3.80899 1
gene 4 3 8 -0.356451 0 3 -0.356451 0
gene 5 4 8 2.16675 0 4 2.16675 1
gene 5 5 8 0.627291 0 5 0.627291 1
gene 3 6 8 7.64351 0 6 7.64351 1
gene 7 7 8 -7.10231 0 7 -7.10231 1
gene 5 5 14 2.08747 0 18 2.08747 1
gene 5 14 8 -1.89658 0 19 -1.89658 0
gene 5 1 14 0.990659 0 22 0.990659 1
gene 7 3 14 1.80965 0 24 1.80965 1
gene 4 4 14 -8 0 39 -8 1
gene 4 3 19 -1.51489 0 47 -1.51489 1
gene 4 19 8 6.49666 0 48 6.49666 1
gene 4 6 14 0.53501 0 50 0.53501 1
gene 4 19 23 -2.12491 0 63 -2.12491 1
gene 4 23 8 0.854089 0 64 0.854089 1
gene 2 23 14 -0.246337 0 70 -0.246337 1
gene 4 23 27 3.54647 0 79 3.54647 1
gene 4 27 8 0.892944 0 80 0.892944 1
gene 7 1 19 2.41154 0 83 2.41154 1
gene 4 5 27 -0.0284581 0 92 -0.0284581 0
gene 2 2 19 1.67541 0 108 1.67541 1
gene 8 6 23 2.76324 0 115 2.76324 1
gene 4 2 23 -3.88852 0 124 -3.88852 0
gene 8 4 19 2.37326 0 153 2.37326 1
gene 4 5 47 0.045753 0 181 0.045753 0
gene 4 47 27 0.854272 0 182 0.854272 1
gene 7 27 14 -3.16192 0 193 -3.16192 1
gene 4 4 27 -3.09628 0 212 -3.09628 1
gene 1 2 27 2.87417 0 222 2.87417 1
gene 4 2 53 -3.13066 0 226 -3.13066 1
gene 4 53 23 4.0038 0 227 4.0038 1
gene 2 53 27 -3.18148 0 238 -3.18148 1
gene 4 5 64 -2.32917 0 277 -2.32917 1
gene 4 64 47 -0.675981 0 278 -0.675981 1
gene 7 19 47 1.77311 0 338 1.77311 1
gene 4 7 23 1.45558 0 366 1.45558 1
gene 4 3 89 -0.208452 0 375 -0.208452 1
gene 4 89 8 -0.365265 0 376 -0.365265 1
gene 6 53 64 -1.60606 0 399 -1.60606 1
gene 5 14 98 2.41329 0 411 2.41329 1
gene 5 98 8 0.00048506 0 412 0.00048506 1
gene 8 4 64 0.858213 0 428 0.858213 1
genomeend 16

/* Organism #17 Fitness: 61 Error: 0 */
/* ##------$ WINNER 17 SPECIES #41 $------## */
genomestart 17
trait 1 0.1 0 0 0 0 0 0 0 
trait 2 0.2 0 0 0 0 0 0 0 
trait 3 0.3 0 0 0 0 0 0 0 
trait 4 0 0 0 0 0 0 0 0 
trait 5 0.5 0 0 0 0 0 0 0 
trait 6 0.378347 0 0 0.742295 0 0.359265 0 0.227462 
trait 7 0.7 0 0 0 0 0 0 0 
trait 8 0.8 0 0 0 0 0 0 0 
node 1 3 1 3
node 2 5 1 1
node 3 4 1 1
node 4 6 1 1
node 5 3 1 1
node 6 3 1 1
node 7 8 1 1
node 8 1 0 2
node 14 1 0 0
node 19 1 0 0
node 23 2 0 0
node 27 3 0 0
node 47 1 0 0
node 53 1 0 0
node 64 1 0 0
node 89 1 0 0
node 98 1 0 0
gene 7 1 8 -2.08445 0 1 -2.08445 1
gene 6 2 8 -3.80899 0 2 -3.80899 1
gene 4 3 8 -0.356451 0 3 -0.356451 0
gene 5 4 8 2.16675 0 4 2.16675 1
gene 5 5 8 0.627291 0 5 0.627291 1
gene 3 6 8 7.64351 0 6 7.64351 1
gene 7 7 8 -7.10231 0 7 -7.10231 1
gene 5 5 14 2.08747 0 18 2.08747 1
gene 5 14 8 -1.89658 0 19 -1.89658 0
gene 5 1 14 0.990659 0 22 0.990659 1
gene 7 3 14 1.80965 0 24 1.80965 1
gene 4 4 14 -8 0 39 -8 1
gene 4 3 19 -1.51489 0 47 -1.51489 1
gene 4 19 8 6.49666 0 48 6.49666 1
gene 4 6 14 0.53501 0 50 0.53501 1
gene 4 19 23 -2.12491 0 63 -2.12491 1
gene 4 23 8 0.854089 0 64 0.854089 1
gene 2 23 14 -0.246337 0 70 -0.246337 1
gene 4 23 27 3.54647 0 79 3.54647 1
gene 4 27 8 0.892944 0 80 0.892944 1
gene 7 1 19 2.41154 0 83 2.41154 1
gene 4 5 27 -0.0284581 0 92 -0.0284581 0
gene 2 2 19 1.67541 0 108 1.67541 1
gene 8 6 23 2.76324 0 115 2.76324 1
gene 4 2 23 -3.88852 0 124 -3.88852 0
gene 8 4 19 2.37326 0 153 2.37326 1
gene 4 5 47 0.045753 0 181 0.045753 0
gene 4 47 27 0.854272 0 182 0.854272 1
gene 7 27 14 -3.16192 0 193 -3.16192 1
gene 4 4 27 -3.09628 0 212 -3.09628 1
gene 1 2 27 2.87417 0 222 2.87417 1
gene 4 2 53 -3.13066 0 226 -3.13066 1
gene 4 53 23 4.0038 0 227 4.0038 1
gene 2 53 27 -3.18148 0 238 -3.18148 1
gene 4 5 64 -2.32917 0 277 -2.32917 1
gene 4 64 47 -0.675981 0 278 -0.675981 1
gene 7 19 47 1.77311 0 338 1.77311 1
gene 4 7 23 1.45558 0 366 1.45558 1
gene 4 3 89 -0.208452 0 375 -0.208452 1
gene 4 89 8 -0.365265 0 376 -0.365265 1
gene 6 53 64 -1.60606 0 399 -1.60606 1
gene 5 14 98 2.41329 0 411 2.41329 1
gene 5 98 8 0.00048506 0 412 0.00048506 1
gene 2 89 47 -0.206728 0 429 -0.206728 1
genomeend 17

/* Organism #18 Fitness: 32 Error: 0 */
/* ##------$ WINNER 18 SPECIES #41 $------## */
genomestart 18
trait 1 0.1 0 0 0 0 0 0 0 
trait 2 0.2 0 0 0 0 0 0 0 
trait 3 0.3 0 0 0 0 0 0 0 
trait 4 0 0 0 0 0 0 0 0 
trait 5 0.5 0 0 0 0 0 0 0 
trait 6 0.378347 0 0 0.742295 0 0.359265 0 0.227462 
trait 7 0.7 0 0 0 0 0 0 0 
trait 8 0.8 0 0 0 0 0 0 0 
node 1 3 1 3
node 2 5 1 1
node 3 4 1 1
node 4 6 1 1
node 5 3 1 1
node 6 3 1 1
node 7 8 1 1
node 8 1 0 2
node 14 1 0 0
node 19 1 0 0
node 23 2 0 0
node 27 3 0 0
node 47 1 0 0
node 53 1 0 0
node 64 1 0 0
node 89 1 0 0
node 98 1 0 0
node 103 1 0 0
gene 7 1 8 -2.08445 0 1 -2.08445 1
gene 6 2 8 -3.80899 0 2 -3.80899 1
gene 4 3 8 -0.356451 0 3 -0.356451 0
gene 5 4 8 2.16675 0 4 2.16675 1
gene 5 5 8 0.627291 0 5 0.627291 1
gene 3 6 8 7.64351 0 6 7.64351 1
gene 7 7 8 -7.10231 0 7 -7.10231 1
gene 5 5 14 2.08747 0 18 2.08747 1
gene 5 14 8 -1.89658 0 19 -1.89658 0
gene 5 1 14 0.990659 0 22 0.990659 1
gene 7 3 14 1.80965 0 24 1.80965 1
gene 4 4 14 -8 0 39 -8 1
gene 4 3 19 -1.51489 0 47 -1.51489 1
gene 4 19 8 6.49666 0 48 6.49666 1
gene 4 6 14 0.53501 0 50 0.53501 1
gene 4 19 23 -2.12491 0 63 -2.12491 1
gene 4 23 8 0.854089 0 64 0.854089 1
gene 2 23 14 -0.246337 0 70 -0.246337 1
gene 4 23 27 3.54647 0 79 3.54647 1
gene 4 27 8 0.892944 0 80 0.892944 1
gene 7 1 19 2.41154 0 83 2.41154 1
gene 4 5 27 -0.0284581 0 92 -0.0284581 0
gene 2 2 19 1.67541 0 108 1.67541 1
gene 8 6 23 2.76324 0 115 2.76324 1
gene 4 2 23 -3.88852 0 124 -3.88852 0
gene 8 4 19 2.37326 0 153 2.37326 1
gene 4 5 47 0.045753 0 181 0.045753 0
gene 4 47 27 0.854272 0 182 0.854272 1
gene 7 27 14 -3.16192 0 193 -3.16192 1
gene 4 4 27 -3.09628 0 212 -3.09628 1
gene 1 2 27 2.87417 0 222 2.87417 1
gene 4 2 53 -3.13066 0 226 -3.13066 1
gene 4 53 23 4.0038 0 227 4.0038 1
gene 2 53 27 -3.18148 0 238 -3.18148 1
gene 4 5 64 -2.32917 0 277 -2.32917 1
gene 4 64 47 -0.675981 0 278 -0.675981 1
gene 7 19 47 1.77311 0 338 1.77311 1
gene 4 7 23 1.45558 0 366 1.45558 1
gene 4 3 89 -0.208452 0 375 -0.208452 0
gene 4 89 8 -0.365265 0 376 -0.365265 1
gene 6 53 64 -1.60606 0 399 -1.60606 1
gene 5 14 98 2.41329 0 411 2.41329 1
gene 5 98 8 0.00048506 0 412 0.00048506 1
gene 4 3 103 1 0 430 0 1
gene 4 103 89 -0.208452 0 431 0 1
genomeend 18

/* Species #42 : (Size 1) (AF 71) (Age 1)  */


/* Organism #19 Fitness: 71 Error: 0 */
genomestart 19
trait 1 0.1 0 0 0 0 0 0 0 
trait 2 0.2 0 0 0 0 0 0 0 
trait 3 0.3 0 0 0 0 0 0 0 
trait 4 0 0 0 0 0 0 0 0 
trait 5 0.5 0 0 0 0 0 0 0 
trait 6 0.378347 0 0 0.742295 0 0.359265 0 0.227462 
trait 7 0.7 0 0 0 0 0 0 0 
trait 8 0.8 0 0 0 0 0 0 0 
node 1 3 1 3
node 2 5 1 1
node 3 4 1 1
node 4 6 1 1
node 5 3 1 1
node 6 3 1 1
node 7 8 1 1
node 8 1 0 2
node 14 1 0 0
node 19 1 0 0
node 23 2 0 0
node 27 3 0 0
node 47 1 0 0
node 53 1 0 0
node 64 1 0 0
node 89 1 0 0
node 102 1 0 0
gene 7 1 8 -0.300578 0 1 -0.300578 1
gene 6 2 8 -2.1114 0 2 -2.1114 1
gene 4 3 8 -0.201626 0 3 -0.201626 0
gene 5 4 8 0.742571 0 4 0.742571 1
gene 5 5 8 -8 0 5 -8 1
gene 3 6 8 6.23827 0 6 6.23827 1
gene 7 7 8 -4.67998 0 7 -4.67998 1
gene 5 5 14 1.01295 0 18 1.01295 1
gene 5 14 8 -1.04166 0 19 -1.04166 1
gene 5 1 14 -1.67828 0 22 -1.67828 1
gene 7 3 14 3.14092 0 24 3.14092 1
gene 4 4 14 -6.83577 0 39 -6.83577 1
gene 4 3 19 2.19119 0 47 2.19119 1
gene 4 19 8 5.606 0 48 5.606 1
gene 4 6 14 0.994119 0 50 0.994119 1
gene 4 19 23 -1.0715 0 63 -1.0715 1
gene 4 23 8 -0.803505 0 64 -0.803505 1
gene 2 23 14 -0.882206 0 70 -0.882206 1
gene 4 23 27 4.61614 0 79 4.61614 1
gene 4 27 8 1.91196 0 80 1.91196 1
gene 7 1 19 1.37536 0 83 1.37536 1
gene 4 5 27 8 0 92 8 0
gene 2 2 19 1.49938 0 108 1.49938 1
gene 8 6 23 0.658066 0 115 0.658066 1
gene 4 2 23 -3.88852 0 124 -3.88852 0
gene 8 4 19 -1.64777 0 153 -1.64777 1
gene 4 5 47 -2.48356 0 181 -2.48356 1
gene 4 47 27 0.668333 0 182 0.668333 1
gene 7 27 14 -3.60958 0 193 -3.60958 1
gene 4 4 27 -1.80112 0 212 -1.80112 1
gene 1 2 27 3.68051 0 222 3.68051 1
gene 4 2 53 -3.13066 0 226 -3.13066 1
gene 4 53 23 5.0128 0 227 5.0128 0
gene 2 53 27 -2.64456 0 238 -2.64456 1
gene 4 5 64 2.73905 0 277 2.73905 1
gene 4 64 47 1.58782 0 278 1.58782 1
gene 7 19 47 -1.29707 0 338 -1.29707 1
gene 4 7 23 0.757289 0 366 0.757289 1
gene 4 3 89 -2.03131 0 375 -2.03131 1
gene 4 89 8 -0.365265 0 376 -0.365265 1
gene 6 53 64 0.663328 0 399 0 1
gene 5 53 14 -0.860913 0 420 -0.860913 1
gene 4 53 102 1 0 425 0 1
gene 4 102 23 5.0128 0 426 0 1
genomeend 19
