
/* Species #41 : (Size 3) (AF 17) (Age 11)  */


/* Organism #0 Fitness: 0.0001 Error: 0 */
genomestart 0
trait 1 0.1 0 0 0 0 0 0 0 
trait 2 0.2 0 0 0 0 0 0 0 
trait 3 0.3 0 0 0 0 0 0 0 
trait 4 0 0 0 0 0 0 0 0 
trait 5 0.5 0 0 0 0 0 0 0 
trait 6 0.378347 0 0 0.742295 0 0.359265 0 0.227462 
trait 7 0.7 0 0.0249665 0 0.010062 0 0 0 
trait 8 0.8 0 0 0 0 0 0 0 
node 1 3 1 3
node 2 5 1 1
node 3 4 1 1
node 4 6 1 1
node 5 3 1 1
node 6 3 1 1
node 7 8 1 1
node 8 1 0 2
node 14 1 0 0
node 19 1 0 0
node 23 2 0 0
node 27 3 0 0
node 47 1 0 0
node 53 1 0 0
node 64 1 0 0
node 89 1 0 0
node 98 1 0 0
node 110 1 0 0
gene 7 1 8 3.44643 0 1 3.44643 1
gene 6 2 8 -2.58023 0 2 -2.58023 1
gene 4 3 8 -3.02231 0 3 -3.02231 0
gene 5 4 8 6.59244 0 4 6.59244 1
gene 5 5 8 0.19819 0 5 0.19819 1
gene 3 6 8 -2.73427 0 6 -2.73427 1
gene 7 7 8 -2.21987 0 7 -2.21987 1
gene 5 5 14 2.44249 0 18 2.44249 1
gene 5 14 8 -0.652477 0 19 -0.652477 0
gene 5 1 14 1.47716 0 22 1.47716 1
gene 7 3 14 1.32139 0 24 1.32139 1
gene 4 4 14 -2.10263 0 39 -2.10263 1
gene 4 3 19 -1.80363 0 47 -1.80363 1
gene 4 19 8 0.00700993 0 48 0.00700993 1
gene 4 6 14 0.230773 0 50 0.230773 1
gene 4 19 23 -7.15235 0 63 -7.15235 1
gene 4 23 8 0.838925 0 64 0.838925 0
gene 2 23 14 -2.43763 0 70 -2.43763 1
gene 4 23 27 -1.47117 0 79 -1.47117 1
gene 4 27 8 2.07299 0 80 2.07299 1
gene 7 1 19 7.48568 0 83 7.48568 1
gene 4 5 27 0.188635 0 92 0.188635 0
gene 7 2 19 -1.68513 0 108 -1.68513 1
gene 8 6 23 -0.287831 0 115 -0.287831 1
gene 4 2 23 3.74778 0 124 3.74778 0
gene 8 4 19 0.370571 0 153 0.370571 1
gene 4 5 47 3.89297 0 181 3.89297 0
gene 4 47 27 2.659 0 182 2.659 1
gene 7 27 14 -5.99657 0 193 -5.99657 1
gene 4 4 27 2.44696 0 212 2.44696 1
gene 1 2 27 1.35368 0 222 1.35368 1
gene 4 2 53 -0.965361 0 226 -0.965361 1
gene 4 53 23 -0.969527 0 227 -0.969527 1
gene 2 53 27 -0.889234 0 238 -0.889234 1
gene 4 5 64 -2.67822 0 277 -2.67822 1
gene 4 64 47 -1.20204 0 278 -1.20204 1
gene 7 19 47 0.075887 0 338 0.075887 1
gene 4 7 23 1.73908 0 366 1.73908 1
gene 4 3 89 1.71938 0 375 1.71938 1
gene 4 89 8 0.205245 0 376 0.205245 1
gene 6 53 64 5.13395 0 399 5.13395 1
gene 5 14 98 1.11556 0 411 1.11556 1
gene 5 98 8 -0.310275 0 412 -0.310275 1
gene 3 23 89 0.15776 0 434 0.15776 1
gene 6 5 53 1.53461 0 442 1.53461 1
gene 4 23 110 -0.0216129 0 454 -0.0216129 1
gene 4 110 8 -4.24577 0 455 -4.24577 1
genomeend 0

/* Organism #1 Fitness: 21 Error: 0 */
genomestart 1
trait 1 0.1 0 0 0 0 0 0 0 
trait 2 0.2 0 0 0 0 0 0 0 
trait 3 0.3 0 0 0 0 0 0 0 
trait 4 0 0 0 0 0 0 0 0 
trait 5 0.5 0 0 0 0 0 0 0 
trait 6 0.378347 0 0 0.742295 0 0.359265 0 0.227462 
trait 7 0.7 0 0.0249665 0 0.010062 0 0 0 
trait 8 0.8 0 0 0 0 0 0 0 
node 1 3 1 3
node 2 5 1 1
node 3 4 1 1
node 4 6 1 1
node 5 3 1 1
node 6 3 1 1
node 7 8 1 1
node 8 1 0 2
node 14 1 0 0
node 19 1 0 0
node 23 2 0 0
node 27 3 0 0
node 47 1 0 0
node 53 1 0 0
node 64 1 0 0
node 89 1 0 0
node 98 1 0 0
node 110 1 0 0
gene 7 1 8 4.09503 0 1 4.09503 1
gene 6 2 8 -3.2478 0 2 -3.2478 1
gene 4 3 8 -4.20319 0 3 -4.20319 0
gene 5 4 8 4.8445 0 4 4.8445 1
gene 5 5 8 1.57866 0 5 1.57866 1
gene 3 6 8 -3.1242 0 6 -3.1242 1
gene 7 7 8 -0.164211 0 7 -0.164211 1
gene 5 5 14 -3.90896 0 18 -3.90896 1
gene 5 14 8 -0.139299 0 19 -0.139299 0
gene 5 1 14 0.594068 0 22 0.594068 1
gene 7 3 14 3.06711 0 24 3.06711 1
gene 4 4 14 -2.10263 0 39 -2.10263 1
gene 4 3 19 -4.03469 0 47 -4.03469 1
gene 4 19 8 6.77737 0 48 6.77737 1
gene 4 6 14 -0.649463 0 50 -0.649463 1
gene 4 19 23 -5.08531 0 63 -5.08531 1
gene 4 23 8 -2.61342 0 64 -2.61342 0
gene 2 23 14 -1.51411 0 70 -1.51411 1
gene 4 23 27 -0.384536 0 79 -0.384536 1
gene 4 27 8 1.41473 0 80 1.41473 1
gene 7 1 19 5.13604 0 83 5.13604 1
gene 4 5 27 0.165745 0 92 0.165745 0
gene 7 2 19 1.82481 0 108 1.82481 1
gene 8 6 23 1.35805 0 115 1.35805 1
gene 4 2 23 3.65441 0 124 3.65441 0
gene 8 4 19 4.38201 0 153 4.38201 1
gene 4 5 47 2.28782 0 181 2.28782 0
gene 4 47 27 1.32819 0 182 1.32819 1
gene 7 27 14 -4.45163 0 193 -4.45163 1
gene 4 4 27 -3.20993 0 212 -3.20993 1
gene 1 2 27 1.35368 0 222 1.35368 1
gene 4 2 53 -1.03606 0 226 -1.03606 1
gene 4 53 23 -3.36743 0 227 -3.36743 1
gene 2 53 27 -0.873152 0 238 -0.873152 1
gene 4 5 64 -3.24605 0 277 -3.24605 1
gene 4 64 47 -1.20204 0 278 -1.20204 1
gene 7 19 47 1.53242 0 338 1.53242 1
gene 4 7 23 1.53508 0 366 1.53508 1
gene 4 3 89 1.67792 0 375 1.67792 1
gene 4 89 8 2.22141 0 376 2.22141 1
gene 6 53 64 4.0877 0 399 4.0877 1
gene 5 14 98 1.11556 0 411 1.11556 1
gene 5 98 8 -0.310275 0 412 -0.310275 1
gene 3 23 89 0.15776 0 434 0.15776 1
gene 6 5 53 -1.5692 0 442 -1.5692 1
gene 4 23 110 -2.13426 0 454 -2.13426 1
gene 4 110 8 -3.692 0 455 -3.692 1
gene 5 47 89 0.462962 0 503 0.462962 1
genomeend 1

/* Organism #2 Fitness: 30 Error: 0 */
/* ##------$ WINNER 2 SPECIES #41 $------## */
genomestart 2
trait 1 0.1 0 0 0 0 0 0 0 
trait 2 0.2 0 0 0 0 0 0 0 
trait 3 0.3 0 0 0 0 0 0 0 
trait 4 0 0 0 0 0 0 0 0 
trait 5 0.5 0 0 0 0 0 0 0 
trait 6 0.378347 0 0 0.742295 0 0.359265 0 0.227462 
trait 7 0.7 0 0.0249665 0 0.010062 0 0 0 
trait 8 0.8 0 0 0 0 0 0 0 
node 1 3 1 3
node 2 5 1 1
node 3 4 1 1
node 4 6 1 1
node 5 3 1 1
node 6 3 1 1
node 7 8 1 1
node 8 1 0 2
node 14 1 0 0
node 19 1 0 0
node 23 2 0 0
node 27 3 0 0
node 47 1 0 0
node 53 1 0 0
node 64 1 0 0
node 89 1 0 0
node 98 1 0 0
node 110 1 0 0
node 120 1 0 0
gene 7 1 8 4.09503 0 1 4.09503 1
gene 6 2 8 -3.2478 0 2 -3.2478 1
gene 4 3 8 -4.20319 0 3 -4.20319 0
gene 5 4 8 4.8445 0 4 4.8445 1
gene 5 5 8 1.57866 0 5 1.57866 1
gene 3 6 8 -3.1242 0 6 -3.1242 1
gene 7 7 8 -0.164211 0 7 -0.164211 1
gene 5 5 14 -3.90896 0 18 -3.90896 1
gene 5 14 8 -0.139299 0 19 -0.139299 0
gene 5 1 14 0.594068 0 22 0.594068 1
gene 7 3 14 3.06711 0 24 3.06711 1
gene 4 4 14 -2.10263 0 39 -2.10263 0
gene 4 3 19 -4.03469 0 47 -4.03469 1
gene 4 19 8 6.77737 0 48 6.77737 1
gene 4 6 14 -0.649463 0 50 -0.649463 1
gene 4 19 23 -5.08531 0 63 -5.08531 1
gene 4 23 8 -2.61342 0 64 -2.61342 0
gene 2 23 14 -1.51411 0 70 -1.51411 1
gene 4 23 27 -0.384536 0 79 -0.384536 1
gene 4 27 8 1.41473 0 80 1.41473 1
gene 7 1 19 5.13604 0 83 5.13604 1
gene 4 5 27 0.165745 0 92 0.165745 0
gene 7 2 19 1.82481 0 108 1.82481 1
gene 8 6 23 1.35805 0 115 1.35805 1
gene 4 2 23 3.65441 0 124 3.65441 0
gene 8 4 19 4.38201 0 153 4.38201 1
gene 4 5 47 2.28782 0 181 2.28782 0
gene 4 47 27 1.32819 0 182 1.32819 1
gene 7 27 14 -4.45163 0 193 -4.45163 1
gene 4 4 27 -3.20993 0 212 -3.20993 1
gene 1 2 27 1.35368 0 222 1.35368 1
gene 4 2 53 -1.03606 0 226 -1.03606 1
gene 4 53 23 -3.36743 0 227 -3.36743 1
gene 2 53 27 -0.873152 0 238 -0.873152 1
gene 4 5 64 -3.24605 0 277 -3.24605 1
gene 4 64 47 -1.20204 0 278 -1.20204 1
gene 7 19 47 1.53242 0 338 1.53242 1
gene 4 7 23 1.53508 0 366 1.53508 1
gene 4 3 89 1.67792 0 375 1.67792 1
gene 4 89 8 2.22141 0 376 2.22141 1
gene 6 53 64 4.0877 0 399 4.0877 1
gene 5 14 98 1.11556 0 411 1.11556 1
gene 5 98 8 -0.310275 0 412 -0.310275 1
gene 3 23 89 0.15776 0 434 0.15776 1
gene 6 5 53 -1.5692 0 442 -1.5692 1
gene 4 23 110 -2.13426 0 454 -2.13426 1
gene 4 110 8 -3.692 0 455 -3.692 1
gene 4 4 120 1 0 504 0 1
gene 4 120 14 -2.10263 0 505 0 1
genomeend 2

/* Species #44 : (Size 4) (AF 26.75) (Age 7)  */


/* Organism #3 Fitness: 31 Error: 0 */
/* ##------$ WINNER 3 SPECIES #44 $------## */
genomestart 3
trait 1 0.1 0 0 0 0 0 0 0 
trait 2 0.2 0 0 0 0 0 0 0 
trait 3 0.3 0 0 0 0 0 0 0 
trait 4 0 0 0 0 0 0 0 0 
trait 5 0.5 0 0 0 0 0 0 0 
trait 6 0.378347 0 0 0.742295 0 0.359265 0 0.227462 
trait 7 0.7 0 0 0 0 0 0 0 
trait 8 0.8 0 0 0 0 0 0 0 
node 1 3 1 3
node 2 5 1 1
node 3 4 1 1
node 4 6 1 1
node 5 3 1 1
node 6 3 1 1
node 7 8 1 1
node 8 1 0 2
node 14 1 0 0
node 19 1 0 0
node 23 2 0 0
node 27 3 0 0
node 47 1 0 0
node 53 1 0 0
node 64 1 0 0
node 89 1 0 0
node 98 1 0 0
node 106 1 0 0
node 116 1 0 0
node 117 1 0 0
gene 7 1 8 2.98153 0 1 2.98153 1
gene 6 2 8 4.3834 0 2 4.3834 0
gene 4 3 8 0.933199 0 3 0.933199 0
gene 5 4 8 -1.95256 0 4 -1.95256 1
gene 5 5 8 0.338318 0 5 0.338318 1
gene 3 6 8 -0.874091 0 6 -0.874091 1
gene 7 7 8 -0.671606 0 7 -0.671606 1
gene 5 5 14 0.514239 0 18 0.514239 1
gene 5 14 8 -2.86221 0 19 -2.86221 1
gene 5 1 14 -1.93452 0 22 -1.93452 1
gene 7 3 14 3.73329 0 24 3.73329 1
gene 4 4 14 -8 0 39 -8 1
gene 4 3 19 -0.894837 0 47 -0.894837 1
gene 4 19 8 8 0 48 8 1
gene 4 6 14 -1.91604 0 50 -1.91604 1
gene 4 19 23 4.81799 0 63 4.81799 1
gene 4 23 8 0.0418158 0 64 0.0418158 1
gene 2 23 14 -3.05925 0 70 -3.05925 1
gene 4 23 27 4.13273 0 79 4.13273 1
gene 4 27 8 0.493647 0 80 0.493647 1
gene 7 1 19 1.57608 0 83 1.57608 1
gene 4 5 27 -0.694079 0 92 -0.694079 1
gene 2 2 19 0.346004 0 108 0.346004 1
gene 8 6 23 4.12547 0 115 4.12547 1
gene 4 2 23 -3.26591 0 124 -3.26591 0
gene 8 4 19 2.52838 0 153 2.52838 1
gene 4 5 47 -2.53541 0 181 -2.53541 0
gene 4 47 27 1.48298 0 182 1.48298 1
gene 7 27 14 -0.213865 0 193 -0.213865 1
gene 4 4 27 -1.31178 0 212 -1.31178 1
gene 1 2 27 3.02055 0 222 3.02055 1
gene 4 2 53 -4.51559 0 226 -4.51559 1
gene 4 53 23 4.94364 0 227 4.94364 1
gene 2 53 27 -0.957266 0 238 -0.957266 1
gene 4 5 64 -5.54138 0 277 -5.54138 0
gene 4 64 47 2.88694 0 278 2.88694 1
gene 7 19 47 -0.21243 0 338 -0.21243 1
gene 4 7 23 -0.0066761 0 366 -0.0066761 1
gene 4 3 89 0.971093 0 375 0.971093 1
gene 4 89 8 0.722456 0 376 0.722456 1
gene 6 53 64 -1.99929 0 399 -1.99929 1
gene 5 14 98 1.18572 0 411 1.18572 1
gene 5 98 8 -1.29186 0 412 -1.29186 1
gene 4 89 23 -0.314002 0 435 -0.314002 1
gene 6 2 106 -2.17249 0 443 -2.17249 1
gene 6 106 8 -1.28161 0 444 -1.28161 1
gene 6 47 14 1.79019 0 465 1.79019 1
gene 4 5 116 -0.609244 0 482 -0.609244 0
gene 4 116 64 -4.15971 0 483 -4.15971 1
gene 4 5 117 1 0 488 1 1
gene 4 117 116 -1.19365 0 489 -1.19365 1
gene 5 1 47 -0.842714 0 506 -0.842714 1
genomeend 3

/* Organism #4 Fitness: 46 Error: 0 */
/* ##------$ WINNER 4 SPECIES #44 $------## */
genomestart 4
trait 1 0.1 0 0 0 0 0 0 0 
trait 2 0.2 0 0 0 0 0 0 0 
trait 3 0.3 0 0 0 0 0 0 0 
trait 4 0 0 0 0 0 0 0 0 
trait 5 0.5 0 0 0 0 0 0 0 
trait 6 0.378347 0 0 0.742295 0 0.359265 0 0.227462 
trait 7 0.7 0 0 0 0 0 0 0 
trait 8 0.8 0 0 0 0 0 0 0 
node 1 3 1 3
node 2 5 1 1
node 3 4 1 1
node 4 6 1 1
node 5 3 1 1
node 6 3 1 1
node 7 8 1 1
node 8 1 0 2
node 14 1 0 0
node 19 1 0 0
node 23 2 0 0
node 27 3 0 0
node 47 1 0 0
node 53 1 0 0
node 64 1 0 0
node 89 1 0 0
node 98 1 0 0
node 106 1 0 0
node 116 1 0 0
node 117 1 0 0
node 121 1 0 0
gene 7 1 8 2.98153 0 1 2.98153 1
gene 6 2 8 4.3834 0 2 4.3834 0
gene 4 3 8 0.933199 0 3 0.933199 0
gene 5 4 8 -1.95256 0 4 -1.95256 1
gene 5 5 8 0.338318 0 5 0.338318 1
gene 3 6 8 -0.874091 0 6 -0.874091 1
gene 7 7 8 -0.671606 0 7 -0.671606 1
gene 5 5 14 0.514239 0 18 0.514239 1
gene 5 14 8 -2.86221 0 19 -2.86221 1
gene 5 1 14 -1.93452 0 22 -1.93452 1
gene 7 3 14 3.73329 0 24 3.73329 1
gene 4 4 14 -8 0 39 -8 1
gene 4 3 19 -0.894837 0 47 -0.894837 1
gene 4 19 8 8 0 48 8 1
gene 4 6 14 -1.91604 0 50 -1.91604 0
gene 4 19 23 4.81799 0 63 4.81799 1
gene 4 23 8 0.0418158 0 64 0.0418158 1
gene 2 23 14 -3.05925 0 70 -3.05925 1
gene 4 23 27 4.13273 0 79 4.13273 1
gene 4 27 8 0.493647 0 80 0.493647 1
gene 7 1 19 1.57608 0 83 1.57608 1
gene 4 5 27 -0.694079 0 92 -0.694079 1
gene 2 2 19 0.346004 0 108 0.346004 1
gene 8 6 23 4.12547 0 115 4.12547 1
gene 4 2 23 -3.26591 0 124 -3.26591 0
gene 8 4 19 2.52838 0 153 2.52838 1
gene 4 5 47 -2.53541 0 181 -2.53541 0
gene 4 47 27 1.48298 0 182 1.48298 1
gene 7 27 14 -0.213865 0 193 -0.213865 1
gene 4 4 27 -1.31178 0 212 -1.31178 1
gene 1 2 27 3.02055 0 222 3.02055 1
gene 4 2 53 -4.51559 0 226 -4.51559 1
gene 4 53 23 4.94364 0 227 4.94364 1
gene 2 53 27 -0.957266 0 238 -0.957266 1
gene 4 5 64 -5.54138 0 277 -5.54138 0
gene 4 64 47 2.88694 0 278 2.88694 1
gene 7 19 47 -0.21243 0 338 -0.21243 1
gene 4 7 23 -0.0066761 0 366 -0.0066761 1
gene 4 3 89 0.971093 0 375 0.971093 1
gene 4 89 8 0.722456 0 376 0.722456 1
gene 6 53 64 -1.99929 0 399 -1.99929 1
gene 5 14 98 1.18572 0 411 1.18572 1
gene 5 98 8 -1.29186 0 412 -1.29186 1
gene 4 89 23 -0.314002 0 435 -0.314002 1
gene 6 2 106 -2.17249 0 443 -2.17249 1
gene 6 106 8 -1.28161 0 444 -1.28161 1
gene 6 47 14 1.79019 0 465 1.79019 1
gene 4 5 116 -0.609244 0 482 -0.609244 0
gene 4 116 64 -4.15971 0 483 -4.15971 1
gene 4 5 117 1 0 488 1 1
gene 4 117 116 -1.19365 0 489 -1.19365 1
gene 4 6 121 1 0 507 0 1
gene 4 121 14 -1.91604 0 508 0 1
genomeend 4

/* Organism #5 Fitness: 30 Error: 0 */
/* ##------$ WINNER 5 SPECIES #44 $------## */
genomestart 5
trait 1 0.1 0 0 0 0 0 0 0 
trait 2 0.2 0 0 0 0 0 0 0 
trait 3 0.3 0 0 0 0 0 0 0 
trait 4 0 0 0 0 0 0 0 0 
trait 5 0.5 0 0 0 0 0 0 0 
trait 6 0.378347 0.350545 0 0 0 0.359265 0.451454 0.227462 
trait 7 0.7 0 0 0 0 0 0 0 
trait 8 0.8 0 0 0 0 0 0 0 
node 1 3 1 3
node 2 5 1 1
node 3 4 1 1
node 4 6 1 1
node 5 3 1 1
node 6 3 1 1
node 7 8 1 1
node 8 1 0 2
node 14 1 0 0
node 19 1 0 0
node 23 2 0 0
node 27 3 0 0
node 47 1 0 0
node 53 1 0 0
node 64 1 0 0
node 89 1 0 0
node 98 1 0 0
node 106 1 0 0
node 116 1 0 0
node 117 1 0 0
gene 7 1 8 5.45814 0 1 5.45814 1
gene 6 2 8 3.33721 0 2 3.33721 0
gene 4 3 8 -1.4722 0 3 -1.4722 0
gene 5 4 8 -3.96338 0 4 -3.96338 1
gene 5 5 8 2.70526 0 5 2.70526 1
gene 3 6 8 -0.533083 0 6 -0.533083 1
gene 7 7 8 -3.07272 0 7 -3.07272 1
gene 5 5 14 0.563442 0 18 0.563442 1
gene 5 14 8 -4.9001 0 19 -4.9001 1
gene 5 1 14 -1.24716 0 22 -1.24716 1
gene 7 3 14 4.68399 0 24 4.68399 1
gene 4 4 14 -6.48188 0 39 -6.48188 1
gene 4 3 19 -1.42814 0 47 -1.42814 1
gene 4 19 8 6.24986 0 48 6.24986 1
gene 4 6 14 -2.08899 0 50 -2.08899 1
gene 4 19 23 3.71233 0 63 3.71233 1
gene 4 23 8 0.123884 0 64 0.123884 1
gene 2 23 14 -2.21127 0 70 -2.21127 1
gene 4 23 27 3.95702 0 79 3.95702 1
gene 4 27 8 1.15837 0 80 1.15837 1
gene 7 1 19 0.726713 0 83 0.726713 1
gene 4 5 27 -0.670958 0 92 -0.670958 1
gene 2 2 19 2.67519 0 108 2.67519 1
gene 8 6 23 5.29068 0 115 5.29068 1
gene 4 2 23 -2.23924 0 124 -2.23924 0
gene 8 4 19 4.38206 0 153 4.38206 1
gene 4 5 47 -1.45468 0 181 -1.45468 0
gene 4 47 27 0.185185 0 182 0.185185 1
gene 7 27 14 1.11783 0 193 1.11783 1
gene 4 4 27 0.620302 0 212 0.620302 1
gene 1 2 27 2.47396 0 222 2.47396 1
gene 4 2 53 -4.65086 0 226 -4.65086 1
gene 4 53 23 7.02415 0 227 7.02415 1
gene 2 53 27 -0.102567 0 238 -0.102567 1
gene 4 5 64 -5.39793 0 277 -5.39793 0
gene 4 64 47 1.39798 0 278 1.39798 1
gene 7 19 47 1.42775 0 338 1.42775 1
gene 4 7 23 2.32581 0 366 2.32581 1
gene 4 3 89 0.775653 0 375 0.775653 1
gene 4 89 8 3.0266 0 376 3.0266 1
gene 6 53 64 -1.97351 0 399 -1.97351 1
gene 5 14 98 -0.880476 0 411 -0.880476 1
gene 5 98 8 -1.60777 0 412 -1.60777 1
gene 4 89 23 -0.314002 0 435 -0.314002 1
gene 6 2 106 -1.55131 0 443 -1.55131 1
gene 6 106 8 -3.54297 0 444 -3.54297 1
gene 6 47 14 2.62382 0 465 2.62382 1
gene 4 5 116 -1.77641 0 482 -1.77641 0
gene 4 116 64 -5.85652 0 483 -5.85652 1
gene 4 5 117 -0.50096 0 488 -0.50096 1
gene 4 117 116 -0.308032 0 489 -0.308032 1
genomeend 5

/* Organism #6 Fitness: 0 Error: 0 */
genomestart 6
trait 1 0.1 0 0 0 0 0 0 0 
trait 2 0.2 0 0 0 0 0 0 0 
trait 3 0.3 0 0 0 0 0 0 0 
trait 4 0 0 0 0 0 0 0 0 
trait 5 0.5 0 0 0 0 0 0 0 
trait 6 0.378347 0 0 0.742295 0 0.359265 0 0.227462 
trait 7 0.7 0 0 0 0 0 0 0 
trait 8 0.8 0 0 0 0 0 0 0 
node 1 3 1 3
node 2 5 1 1
node 3 4 1 1
node 4 6 1 1
node 5 3 1 1
node 6 3 1 1
node 7 8 1 1
node 8 1 0 2
node 14 1 0 0
node 19 1 0 0
node 23 2 0 0
node 27 3 0 0
node 47 1 0 0
node 53 1 0 0
node 64 1 0 0
node 89 1 0 0
node 98 1 0 0
node 106 1 0 0
node 116 1 0 0
node 117 1 0 0
gene 7 1 8 1.78825 0 1 1.78825 1
gene 6 2 8 3.3485 0 2 3.3485 0
gene 4 3 8 0.060471 0 3 0.060471 0
gene 5 4 8 -3.3639 0 4 -3.3639 1
gene 5 5 8 -0.947145 0 5 -0.947145 1
gene 3 6 8 -1.02799 0 6 -1.02799 1
gene 7 7 8 1.48641 0 7 1.48641 1
gene 5 5 14 -1.33317 0 18 -1.33317 1
gene 5 14 8 -1.42642 0 19 -1.42642 1
gene 5 1 14 -3.10138 0 22 -3.10138 1
gene 7 3 14 4.95446 0 24 4.95446 1
gene 4 4 14 -8 0 39 -8 1
gene 4 3 19 1.23745 0 47 1.23745 1
gene 4 19 8 8 0 48 8 1
gene 4 6 14 -3.07278 0 50 -3.07278 1
gene 4 19 23 4.52688 0 63 4.52688 1
gene 4 23 8 -1.51112 0 64 -1.51112 1
gene 2 23 14 -4.30909 0 70 -4.30909 1
gene 4 23 27 6.57473 0 79 6.57473 1
gene 4 27 8 -1.71227 0 80 -1.71227 1
gene 7 1 19 -0.853715 0 83 -0.853715 1
gene 4 5 27 1.44699 0 92 1.44699 1
gene 2 2 19 -1.09701 0 108 -1.09701 1
gene 8 6 23 2.57607 0 115 2.57607 1
gene 4 2 23 -3.34586 0 124 -3.34586 0
gene 8 4 19 0.999422 0 153 0.999422 1
gene 4 5 47 -2.83841 0 181 -2.83841 0
gene 4 47 27 2.23413 0 182 2.23413 1
gene 7 27 14 1.75839 0 193 1.75839 1
gene 4 4 27 -0.453877 0 212 -0.453877 1
gene 1 2 27 1.40121 0 222 1.40121 1
gene 4 2 53 -3.45572 0 226 -3.45572 1
gene 4 53 23 4.78899 0 227 4.78899 1
gene 2 53 27 -1.13198 0 238 -1.13198 1
gene 4 5 64 -5.36669 0 277 -5.36669 0
gene 4 64 47 3.48088 0 278 3.48088 1
gene 7 19 47 -1.01767 0 338 -1.01767 1
gene 4 7 23 1.4711 0 366 1.4711 1
gene 4 3 89 1.27484 0 375 1.27484 1
gene 4 89 8 0.227307 0 376 0.227307 1
gene 6 53 64 -4.12945 0 399 -4.12945 1
gene 5 14 98 -2.30488 0 411 -2.30488 1
gene 5 98 8 -1.57446 0 412 -1.57446 1
gene 4 89 23 0.455227 0 435 0.455227 1
gene 6 2 106 -2.77546 0 443 -2.77546 1
gene 6 106 8 -2.68983 0 444 -2.68983 1
gene 6 47 14 1.79019 0 465 1.79019 1
gene 4 5 116 2.03543 0 482 2.03543 0
gene 4 116 64 -4.12518 0 483 -4.12518 1
gene 4 5 117 1.52968 0 488 1.52968 1
gene 4 117 116 -0.0141664 0 489 -0.0141664 1
genomeend 6

/* Species #45 : (Size 5) (AF 50.0001) (Age 6)  */


/* Organism #7 Fitness: 23 Error: 0 */
genomestart 7
trait 1 0.1 0.210291 0.405875 0 0.499126 0 0 0.299876 
trait 2 0.2 0 0 0 0 0 0 0 
trait 3 0.3 0 0 0 0 0 0 0 
trait 4 0 0 0 0 0 0 0 0 
trait 5 0.5 0 0 0 0 0 0 0 
trait 6 0.378347 0 0 0.742295 0 0.359265 0 0.227462 
trait 7 0.7 0 0 0 0 0 0 0 
trait 8 0.8 0 0 0 0 0 0 0 
node 1 3 1 3
node 2 5 1 1
node 3 4 1 1
node 4 6 1 1
node 5 3 1 1
node 6 3 1 1
node 7 8 1 1
node 8 1 0 2
node 14 1 0 0
node 19 1 0 0
node 23 2 0 0
node 27 3 0 0
node 47 1 0 0
node 53 1 0 0
node 64 1 0 0
node 89 1 0 0
node 102 1 0 0
node 109 1 0 0
gene 7 1 8 2.22618 0 1 2.22618 1
gene 6 2 8 1.00011 0 2 1.00011 1
gene 4 3 8 1.39863 0 3 1.39863 0
gene 5 4 8 2.2855 0 4 2.2855 1
gene 5 5 8 0.220714 0 5 0.220714 1
gene 3 6 8 8 0 6 8 1
gene 7 7 8 -1.51387 0 7 -1.51387 1
gene 5 5 14 -5.81331 0 18 -5.81331 1
gene 5 14 8 -4.76448 0 19 -4.76448 1
gene 5 1 14 -1.00681 0 22 -1.00681 1
gene 7 3 14 -0.708332 0 24 -0.708332 1
gene 4 4 14 -6.36029 0 39 -6.36029 1
gene 4 3 19 -1.27041 0 47 -1.27041 1
gene 4 19 8 2.04558 0 48 2.04558 1
gene 4 6 14 -0.793513 0 50 -0.793513 1
gene 4 19 23 0.782989 0 63 0.782989 1
gene 4 23 8 -1.66991 0 64 -1.66991 1
gene 2 23 14 -1.20394 0 70 -1.20394 1
gene 4 23 27 -0.0511055 0 79 -0.0511055 1
gene 4 27 8 3.29738 0 80 3.29738 1
gene 7 1 19 2.55723 0 83 2.55723 1
gene 4 5 27 2.39678 0 92 2.39678 1
gene 2 2 19 -1.54503 0 108 -1.54503 1
gene 8 6 23 -0.159231 0 115 -0.159231 1
gene 4 2 23 -2.48503 0 124 -2.48503 0
gene 8 4 19 2.33845 0 153 2.33845 1
gene 4 5 47 -0.272061 0 181 -0.272061 1
gene 4 47 27 -1.90713 0 182 -1.90713 1
gene 7 27 14 -2.08396 0 193 -2.08396 1
gene 4 4 27 -8 0 212 -8 1
gene 1 2 27 -0.439614 0 222 -0.439614 1
gene 4 2 53 -3.36409 0 226 -3.36409 1
gene 4 53 23 2.76673 0 227 2.76673 0
gene 2 53 27 -8 0 238 -8 1
gene 4 5 64 2.23607 0 277 2.23607 1
gene 4 64 47 2.31076 0 278 2.31076 0
gene 7 19 47 -0.468964 0 338 -0.468964 1
gene 4 7 23 1.64638 0 366 1.64638 1
gene 4 3 89 -5.35415 0 375 -5.35415 1
gene 4 89 8 2.80456 0 376 2.80456 1
gene 6 53 64 -3.70609 0 399 -3.70609 1
gene 5 53 14 -2.71968 0 420 -2.71968 1
gene 4 53 102 2.39186 0 425 2.39186 1
gene 4 102 23 8 0 426 8 1
gene 4 64 109 -0.273615 0 449 -0.273615 1
gene 4 109 47 -2.27088 0 450 -2.27088 1
gene 4 6 102 1.58611 0 462 1.58611 1
gene 8 89 23 -0.00755111 0 466 -0.00755111 1
genomeend 7

/* Organism #8 Fitness: 113 Error: 0 */
genomestart 8
trait 1 0.1 0 0 0 0 0 0 0 
trait 2 0.2 0 0 0 0 0 0 0 
trait 3 0.3 0 0 0 0 0 0 0 
trait 4 0 0 0 0 0 0 0 0 
trait 5 0.5 0 0 0 0 0 0 0 
trait 6 0.378347 0 0 0.742295 0 0.359265 0 0.227462 
trait 7 0.7 0 0 0 0 0 0 0 
trait 8 0.8 0 0 0 0 0 0 0 
node 1 3 1 3
node 2 5 1 1
node 3 4 1 1
node 4 6 1 1
node 5 3 1 1
node 6 3 1 1
node 7 8 1 1
node 8 1 0 2
node 14 1 0 0
node 19 1 0 0
node 23 2 0 0
node 27 3 0 0
node 47 1 0 0
node 53 1 0 0
node 64 1 0 0
node 89 1 0 0
node 102 1 0 0
node 109 1 0 0
gene 7 1 8 -1.51696 0 1 -1.51696 1
gene 6 2 8 -1.20763 0 2 -1.20763 1
gene 4 3 8 2.93326 0 3 2.93326 0
gene 5 4 8 4.85414 0 4 4.85414 1
gene 5 5 8 -0.82137 0 5 -0.82137 1
gene 3 6 8 1.04745 0 6 1.04745 1
gene 7 7 8 -8 0 7 -8 1
gene 5 5 14 -5.82771 0 18 -5.82771 1
gene 5 14 8 -2.77448 0 19 -2.77448 1
gene 5 1 14 -0.843342 0 22 -0.843342 1
gene 7 3 14 2.61865 0 24 2.61865 1
gene 4 4 14 -6.04928 0 39 -6.04928 1
gene 4 3 19 -1.22347 0 47 -1.22347 1
gene 4 19 8 4.21733 0 48 4.21733 1
gene 4 6 14 -1.90651 0 50 -1.90651 1
gene 4 19 23 4.95563 0 63 4.95563 1
gene 4 23 8 0.379997 0 64 0.379997 1
gene 2 23 14 -2.26393 0 70 -2.26393 1
gene 4 23 27 0.431011 0 79 0.431011 1
gene 4 27 8 3.55425 0 80 3.55425 1
gene 7 1 19 2.98092 0 83 2.98092 1
gene 4 5 27 3.1775 0 92 3.1775 0
gene 2 2 19 -1.91183 0 108 -1.91183 1
gene 8 6 23 -1.87739 0 115 -1.87739 1
gene 4 2 23 -1.48126 0 124 -1.48126 0
gene 8 4 19 4.96072 0 153 4.96072 1
gene 4 5 47 -0.269303 0 181 -0.269303 1
gene 4 47 27 1.19134 0 182 1.19134 1
gene 7 27 14 -0.632621 0 193 -0.632621 1
gene 4 4 27 -7.94511 0 212 -7.94511 1
gene 1 2 27 -1.2413 0 222 -1.2413 1
gene 4 2 53 0.418178 0 226 0.418178 1
gene 4 53 23 0.167286 0 227 0.167286 1
gene 2 53 27 -8 0 238 -8 1
gene 4 5 64 6.27501 0 277 6.27501 1
gene 4 64 47 0.592939 0 278 0.592939 0
gene 7 19 47 0.143601 0 338 0.143601 1
gene 4 7 23 -2.38995 0 366 -2.38995 1
gene 4 3 89 2.24434 0 375 2.24434 1
gene 4 89 8 2.91496 0 376 2.91496 1
gene 6 53 64 -0.588451 0 399 -0.588451 1
gene 5 53 14 0.544498 0 420 0.544498 1
gene 4 53 102 0.959592 0 425 0.959592 1
gene 4 102 23 4.10381 0 426 4.10381 1
gene 4 64 109 -3.35447 0 449 -3.35447 1
gene 4 109 47 -0.200439 0 450 -0.200439 1
gene 4 6 102 0.978206 0 462 0.978206 1
gene 8 89 23 -2.06868 0 466 -2.06868 1
genomeend 8

/* Organism #9 Fitness: 0.0001 Error: 0 */
genomestart 9
trait 1 0.1 0.420581 0.811749 0 0.998253 0 0 0.599752 
trait 2 0.2 0 0 0 0 0 0 0 
trait 3 0.3 0 0 0 0 0 0 0 
trait 4 0 0 0 0 0 0 0 0 
trait 5 0.5 0 0 0 0 0 0 0 
trait 6 0.378347 0 0 0.742295 0 0.359265 0 0.227462 
trait 7 0.7 0 0 0 0 0 0 0 
trait 8 0.8 0 0 0 0 0 0 0 
node 1 3 1 3
node 2 5 1 1
node 3 4 1 1
node 4 6 1 1
node 5 3 1 1
node 6 3 1 1
node 7 8 1 1
node 8 1 0 2
node 14 1 0 0
node 19 1 0 0
node 23 2 0 0
node 27 3 0 0
node 47 1 0 0
node 53 1 0 0
node 64 1 0 0
node 89 1 0 0
node 102 1 0 0
node 109 1 0 0
gene 7 1 8 0.409309 0 1 0.409309 1
gene 6 2 8 -1.42573 0 2 -1.42573 1
gene 4 3 8 -0.872293 0 3 -0.872293 1
gene 5 4 8 -1.85087 0 4 -1.85087 1
gene 5 5 8 2.04342 0 5 2.04342 1
gene 3 6 8 6.44866 0 6 6.44866 1
gene 7 7 8 0.363716 0 7 0.363716 1
gene 5 5 14 1.48916 0 18 1.48916 1
gene 5 14 8 -3.30065 0 19 -3.30065 1
gene 5 1 14 -2.01016 0 22 -2.01016 1
gene 7 3 14 1.71024 0 24 1.71024 1
gene 4 4 14 0.385499 0 39 0.385499 1
gene 4 3 19 2.1637 0 47 2.1637 1
gene 4 19 8 6.75238 0 48 6.75238 1
gene 4 6 14 2.40764 0 50 2.40764 1
gene 4 19 23 1.21676 0 63 1.21676 1
gene 4 23 8 0.43668 0 64 0.43668 1
gene 2 23 14 -2.39875 0 70 -2.39875 1
gene 4 23 27 0.98904 0 79 0.98904 1
gene 4 27 8 2.37644 0 80 2.37644 1
gene 7 1 19 1.86146 0 83 1.86146 1
gene 4 5 27 0.149744 0 92 0.149744 1
gene 2 2 19 -5.49476 0 108 -5.49476 1
gene 8 6 23 -1.91082 0 115 -1.91082 1
gene 4 2 23 -5.49742 0 124 -5.49742 0
gene 8 4 19 0.203807 0 153 0.203807 1
gene 4 5 47 1.01743 0 181 1.01743 1
gene 4 47 27 5.10469 0 182 5.10469 1
gene 7 27 14 -1.04531 0 193 -1.04531 1
gene 4 4 27 -1.29403 0 212 -1.29403 1
gene 1 2 27 0.0609966 0 222 0.0609966 1
gene 4 2 53 -1.81736 0 226 -1.81736 1
gene 4 53 23 -1.04957 0 227 -1.04957 0
gene 2 53 27 -8 0 238 -8 1
gene 4 5 64 2.35617 0 277 2.35617 1
gene 4 64 47 0.0234065 0 278 0.0234065 1
gene 7 19 47 0.141201 0 338 0.141201 1
gene 4 7 23 4.42336 0 366 4.42336 1
gene 4 3 89 -4.5344 0 375 -4.5344 1
gene 4 89 8 2.11719 0 376 2.11719 1
gene 6 53 64 -5.35529 0 399 -5.35529 1
gene 5 53 14 -2.65664 0 420 -2.65664 1
gene 4 53 102 0.357933 0 425 0.357933 1
gene 4 102 23 -0.869177 0 426 -0.869177 1
gene 4 64 109 0.885581 0 449 0.885581 1
gene 4 109 47 1.99141 0 450 1.99141 1
gene 4 6 102 2.2337 0 462 2.2337 1
gene 8 89 23 -2.97712 0 466 -2.97712 1
genomeend 9

/* Organism #10 Fitness: 0.0004 Error: 0 */
genomestart 10
trait 1 0.1 0 0 0 0 0 0 0 
trait 2 0.2 0 0 0 0 0 0 0 
trait 3 0.641808 0 0.466976 0.672966 0 0 0.117296 0 
trait 4 0 0 0 0 0 0 0 0 
trait 5 0.5 0 0 0 0 0 0 0 
trait 6 0.378347 0 0 0.742295 0 0.359265 0 0.227462 
trait 7 0.7 0 0 0 0 0 0 0 
trait 8 0.8 0 0 0 0 0 0 0 
node 1 3 1 3
node 2 5 1 1
node 3 4 1 1
node 4 6 1 1
node 5 3 1 1
node 6 3 1 1
node 7 8 1 1
node 8 1 0 2
node 14 1 0 0
node 19 1 0 0
node 23 2 0 0
node 27 3 0 0
node 47 1 0 0
node 53 1 0 0
node 64 1 0 0
node 89 1 0 0
node 102 1 0 0
node 109 1 0 0
gene 7 1 8 0.363692 0 1 0.363692 1
gene 6 2 8 -0.244297 0 2 -0.244297 1
gene 4 3 8 1.74118 0 3 1.74118 0
gene 5 4 8 1.63746 0 4 1.63746 1
gene 5 5 8 -1.86175 0 5 -1.86175 1
gene 3 6 8 8 0 6 8 1
gene 7 7 8 -8 0 7 -8 1
gene 5 5 14 -2.94034 0 18 -2.94034 1
gene 5 14 8 -4.26162 0 19 -4.26162 1
gene 5 1 14 -0.0358618 0 22 -0.0358618 1
gene 7 3 14 1.1554 0 24 1.1554 1
gene 4 4 14 -4.90528 0 39 -4.90528 1
gene 4 3 19 0.331732 0 47 0.331732 1
gene 4 19 8 7.13478 0 48 7.13478 1
gene 4 6 14 -1.6131 0 50 -1.6131 1
gene 4 19 23 1.55702 0 63 1.55702 1
gene 4 23 8 -0.556728 0 64 -0.556728 1
gene 2 23 14 0.459126 0 70 0.459126 1
gene 4 23 27 0.734739 0 79 0.734739 1
gene 4 27 8 2.7132 0 80 2.7132 1
gene 7 1 19 3.59786 0 83 3.59786 1
gene 4 5 27 2.8309 0 92 2.8309 0
gene 2 2 19 -2.89814 0 108 -2.89814 1
gene 8 6 23 -2.1809 0 115 -2.1809 1
gene 4 2 23 -2.98728 0 124 -2.98728 0
gene 8 4 19 6.64074 0 153 6.64074 1
gene 4 5 47 -1.95288 0 181 -1.95288 1
gene 4 47 27 6.41853 0 182 6.41853 1
gene 7 27 14 -1.98151 0 193 -1.98151 1
gene 4 4 27 -7.2786 0 212 -7.2786 1
gene 1 2 27 3.83105 0 222 3.83105 1
gene 4 2 53 0.445593 0 226 0.445593 1
gene 4 53 23 -0.122062 0 227 -0.122062 0
gene 2 53 27 -5.94068 0 238 -5.94068 1
gene 4 5 64 2.45184 0 277 2.45184 1
gene 4 64 47 -1.22992 0 278 -1.22992 0
gene 7 19 47 -0.179623 0 338 -0.179623 1
gene 4 7 23 -1.74033 0 366 -1.74033 1
gene 4 3 89 -3.79196 0 375 -3.79196 1
gene 4 89 8 1.06348 0 376 1.06348 1
gene 6 53 64 -3.98992 0 399 -3.98992 1
gene 5 53 14 0.544498 0 420 0.544498 1
gene 4 53 102 -0.588365 0 425 -0.588365 1
gene 4 102 23 3.42344 0 426 3.42344 1
gene 4 64 109 0.0835846 0 449 0.0835846 1
gene 4 109 47 0.00617992 0 450 0.00617992 1
gene 4 6 102 -0.195332 0 462 -0.195332 1
gene 8 89 23 -2.62549 0 466 -2.62549 1
genomeend 10

/* Organism #11 Fitness: 114 Error: 0 */
/* ##------$ WINNER 11 SPECIES #45 $------## */
genomestart 11
trait 1 0.1 0.210291 0.405875 0 0.499126 0 0 0.299876 
trait 2 0.2 0 0 0 0 0 0 0 
trait 3 0.3 0 0 0 0 0 0 0 
trait 4 0 0 0 0 0 0 0 0 
trait 5 0.5 0 0 0 0 0 0 0 
trait 6 0.378347 0 0 0.742295 0 0.359265 0 0.227462 
trait 7 0.7 0 0 0 0 0 0 0 
trait 8 0.8 0 0 0 0 0 0 0 
node 1 3 1 3
node 2 5 1 1
node 3 4 1 1
node 4 6 1 1
node 5 3 1 1
node 6 3 1 1
node 7 8 1 1
node 8 1 0 2
node 14 1 0 0
node 19 1 0 0
node 23 2 0 0
node 27 3 0 0
node 47 1 0 0
node 53 1 0 0
node 64 1 0 0
node 89 1 0 0
node 102 1 0 0
node 109 1 0 0
gene 7 1 8 -0.564404 0 1 -0.564404 1
gene 6 2 8 -0.751158 0 2 -0.751158 1
gene 4 3 8 0.247463 0 3 0.247463 0
gene 5 4 8 0.971854 0 4 0.971854 1
gene 5 5 8 0.261549 0 5 0.261549 1
gene 3 6 8 8 0 6 8 1
gene 7 7 8 -8 0 7 -8 1
gene 5 5 14 -3.57642 0 18 -3.57642 1
gene 5 14 8 -2.86649 0 19 -2.86649 1
gene 5 1 14 0.367447 0 22 0.367447 1
gene 7 3 14 2.0487 0 24 2.0487 1
gene 4 4 14 -4.58276 0 39 -4.58276 1
gene 4 3 19 -0.114861 0 47 -0.114861 1
gene 4 19 8 6.42854 0 48 6.42854 1
gene 4 6 14 0.0874088 0 50 0.0874088 1
gene 4 19 23 2.01992 0 63 2.01992 1
gene 4 23 8 -0.0695337 0 64 -0.0695337 1
gene 2 23 14 -2.15651 0 70 -2.15651 1
gene 4 23 27 1.51572 0 79 1.51572 1
gene 4 27 8 3.29738 0 80 3.29738 1
gene 7 1 19 1.19948 0 83 1.19948 1
gene 4 5 27 2.39678 0 92 2.39678 0
gene 2 2 19 -3.88073 0 108 -3.88073 1
gene 8 6 23 -0.267831 0 115 -0.267831 1
gene 4 2 23 -3.28319 0 124 -3.28319 0
gene 8 4 19 2.74569 0 153 2.74569 1
gene 4 5 47 -0.867883 0 181 -0.867883 1
gene 4 47 27 5.38065 0 182 5.38065 1
gene 7 27 14 -4.20468 0 193 -4.20468 1
gene 4 4 27 -7.21036 0 212 -7.21036 1
gene 1 2 27 2.45129 0 222 2.45129 1
gene 4 2 53 -1.92948 0 226 -1.92948 1
gene 4 53 23 0.786761 0 227 0.786761 0
gene 2 53 27 -7.50684 0 238 -7.50684 1
gene 4 5 64 2.23607 0 277 2.23607 1
gene 4 64 47 0.0881901 0 278 0.0881901 0
gene 7 19 47 -0.013831 0 338 -0.013831 1
gene 4 7 23 0.432545 0 366 0.432545 1
gene 4 3 89 -3.66008 0 375 -3.66008 1
gene 4 89 8 1.49691 0 376 1.49691 1
gene 6 53 64 -4.76747 0 399 -4.76747 1
gene 5 53 14 -1.05607 0 420 -1.05607 1
gene 4 53 102 1.09786 0 425 1.09786 1
gene 4 102 23 6.17534 0 426 6.17534 1
gene 4 64 109 -0.356824 0 449 -0.356824 1
gene 4 109 47 0.114529 0 450 0.114529 1
gene 4 6 102 1.42604 0 462 1.42604 1
gene 8 89 23 -1.07242 0 466 -1.07242 1
genomeend 11

/* Species #46 : (Size 8) (AF 2.62509) (Age 3)  */


/* Organism #12 Fitness: 0.0001 Error: 0 */
genomestart 12
trait 1 0.1 0 0 0 0 0 0 0 
trait 2 0.2 0 0 0 0 0 0 0 
trait 3 0.3 0 0 0 0 0 0 0 
trait 4 0 0 0 0 0 0 0 0 
trait 5 0.5 0 0 0 0 0 0 0 
trait 6 0.378347 0 0 0.742295 0 0.359265 0 0.227462 
trait 7 0.7 0 0 0 0 0 0 0 
trait 8 0.8 0 0 0 0 0 0 0 
node 1 3 1 3
node 2 5 1 1
node 3 4 1 1
node 4 6 1 1
node 5 3 1 1
node 6 3 1 1
node 7 8 1 1
node 8 1 0 2
node 14 1 0 0
node 19 1 0 0
node 23 2 0 0
node 27 3 0 0
node 47 1 0 0
node 53 1 0 0
node 64 1 0 0
node 89 1 0 0
node 102 1 0 0
node 109 1 0 0
gene 7 1 8 1.33082 0 1 1.33082 1
gene 6 2 8 -0.179818 0 2 -0.179818 1
gene 4 3 8 -0.535623 0 3 -0.535623 0
gene 5 4 8 -1.78732 0 4 -1.78732 1
gene 5 5 8 0.205953 0 5 0.205953 1
gene 3 6 8 6.45706 0 6 6.45706 1
gene 7 7 8 -6.44126 0 7 -6.44126 1
gene 5 5 14 -4.56914 0 18 -4.56914 1
gene 5 14 8 -1.7033 0 19 -1.7033 1
gene 5 1 14 2.13555 0 22 2.13555 1
gene 7 3 14 -1.37369 0 24 -1.37369 1
gene 4 4 14 -5.86793 0 39 -5.86793 1
gene 4 3 19 -1.72182 0 47 -1.72182 1
gene 4 19 8 -0.664211 0 48 -0.664211 1
gene 4 6 14 1.78189 0 50 1.78189 1
gene 4 19 23 0.0758795 0 63 0.0758795 1
gene 4 23 8 -1.73016 0 64 -1.73016 1
gene 2 23 14 0.0123581 0 70 0.0123581 1
gene 4 23 27 1.01386 0 79 1.01386 1
gene 4 27 8 2.45836 0 80 2.45836 1
gene 7 1 19 2.57515 0 83 2.57515 1
gene 4 5 27 3.48556 0 92 3.48556 0
gene 2 2 19 -1.20295 0 108 -1.20295 1
gene 8 6 23 1.55624 0 115 1.55624 1
gene 4 2 23 0.964899 0 124 0.964899 0
gene 8 4 19 -1.1708 0 153 -1.1708 1
gene 4 5 47 -1.62245 0 181 -1.62245 1
gene 4 47 27 3.53187 0 182 3.53187 1
gene 7 27 14 -3.68311 0 193 -3.68311 1
gene 4 4 27 -6.20418 0 212 -6.20418 1
gene 1 2 27 2.26005 0 222 2.26005 1
gene 4 2 53 0.254974 0 226 0.254974 1
gene 4 53 23 0.730968 0 227 0.730968 0
gene 2 53 27 -5.37852 0 238 -5.37852 1
gene 4 5 64 1.38086 0 277 1.38086 1
gene 4 64 47 1.57352 0 278 1.57352 0
gene 7 19 47 -1.19781 0 338 -1.19781 1
gene 4 7 23 1.61062 0 366 1.61062 1
gene 4 3 89 -1.76189 0 375 -1.76189 1
gene 4 89 8 1.42604 0 376 1.42604 1
gene 6 53 64 -4.56859 0 399 -4.56859 1
gene 5 53 14 -2.25049 0 420 -2.25049 1
gene 4 53 102 -0.231847 0 425 -0.231847 1
gene 4 102 23 -1.99567 0 426 -1.99567 1
gene 4 64 109 -0.711703 0 449 -0.711703 1
gene 4 109 47 -1.88441 0 450 -1.88441 1
gene 4 6 102 1.16132 0 462 1.16132 1
gene 8 3 23 -1.06641 0 467 -1.06641 1
gene 7 53 109 -1.66518 0 485 -1.66518 1
gene 6 5 19 0.130628 0 496 0.130628 1
genomeend 12

/* Organism #13 Fitness: 0 Error: 0 */
genomestart 13
trait 1 0.1 0 0 0 0 0 0 0 
trait 2 0.2 0 0 0 0 0 0 0 
trait 3 0.3 0 0 0 0 0 0 0 
trait 4 0 0 0 0 0 0 0 0 
trait 5 0.5 0 0 0 0 0 0 0 
trait 6 0.378347 0 0 0.742295 0 0.359265 0 0.227462 
trait 7 0.7 0 0 0 0 0 0 0 
trait 8 0.8 0 0 0 0 0 0 0 
node 1 3 1 3
node 2 5 1 1
node 3 4 1 1
node 4 6 1 1
node 5 3 1 1
node 6 3 1 1
node 7 8 1 1
node 8 1 0 2
node 14 1 0 0
node 19 1 0 0
node 23 2 0 0
node 27 3 0 0
node 47 1 0 0
node 53 1 0 0
node 64 1 0 0
node 89 1 0 0
node 102 1 0 0
node 109 1 0 0
gene 7 1 8 1.33082 0 1 1.33082 1
gene 6 2 8 -0.179818 0 2 -0.179818 1
gene 4 3 8 -0.535623 0 3 -0.535623 0
gene 5 4 8 -1.78732 0 4 -1.78732 1
gene 5 5 8 0.205953 0 5 0.205953 1
gene 3 6 8 6.45706 0 6 6.45706 1
gene 7 7 8 -6.44126 0 7 -6.44126 1
gene 5 5 14 -4.56914 0 18 -4.56914 1
gene 5 14 8 -1.7033 0 19 -1.7033 1
gene 5 1 14 2.13555 0 22 2.13555 1
gene 7 3 14 -1.37369 0 24 -1.37369 1
gene 4 4 14 -5.86793 0 39 -5.86793 1
gene 4 3 19 -1.72182 0 47 -1.72182 1
gene 4 19 8 -0.664211 0 48 -0.664211 1
gene 4 6 14 1.78189 0 50 1.78189 1
gene 4 19 23 0.0758795 0 63 0.0758795 1
gene 4 23 8 -1.73016 0 64 -1.73016 1
gene 2 23 14 0.0123581 0 70 0.0123581 1
gene 4 23 27 1.01386 0 79 1.01386 1
gene 4 27 8 2.45836 0 80 2.45836 1
gene 7 1 19 2.57515 0 83 2.57515 1
gene 4 5 27 3.48556 0 92 3.48556 0
gene 2 2 19 -1.20295 0 108 -1.20295 1
gene 8 6 23 1.55624 0 115 1.55624 1
gene 4 2 23 0.964899 0 124 0.964899 0
gene 8 4 19 -1.1708 0 153 -1.1708 1
gene 4 5 47 -1.62245 0 181 -1.62245 1
gene 4 47 27 3.53187 0 182 3.53187 1
gene 7 27 14 -3.68311 0 193 -3.68311 1
gene 4 4 27 -6.20418 0 212 -6.20418 1
gene 1 2 27 2.26005 0 222 2.26005 1
gene 4 2 53 0.254974 0 226 0.254974 1
gene 4 53 23 0.730968 0 227 0.730968 0
gene 2 53 27 -5.37852 0 238 -5.37852 1
gene 4 5 64 1.38086 0 277 1.38086 1
gene 4 64 47 1.57352 0 278 1.57352 0
gene 7 19 47 -1.19781 0 338 -1.19781 1
gene 4 7 23 1.61062 0 366 1.61062 1
gene 4 3 89 -1.76189 0 375 -1.76189 1
gene 4 89 8 1.42604 0 376 1.42604 1
gene 6 53 64 -4.56859 0 399 -4.56859 1
gene 5 53 14 -2.25049 0 420 -2.25049 1
gene 4 53 102 -0.231847 0 425 -0.231847 1
gene 4 102 23 -1.99567 0 426 -1.99567 1
gene 4 64 109 -0.711703 0 449 -0.711703 1
gene 4 109 47 -1.88441 0 450 -1.88441 1
gene 4 6 102 1.16132 0 462 1.16132 1
gene 8 3 23 -1.06641 0 467 -1.06641 1
gene 7 53 109 -1.66518 0 485 -1.66518 1
gene 6 5 19 0.130628 0 496 0.130628 1
gene 2 89 19 -0.388987 0 509 -0.388987 1
genomeend 13

/* Organism #14 Fitness: 0 Error: 0 */
genomestart 14
trait 1 0.1 0 0 0 0 0 0 0 
trait 2 0.2 0 0 0 0 0 0 0 
trait 3 0.3 0 0 0 0 0 0 0 
trait 4 0 0 0 0 0 0 0 0 
trait 5 0.5 0 0 0 0 0 0 0 
trait 6 0.378347 0 0 0.742295 0 0.359265 0 0.227462 
trait 7 0.7 0 0 0 0 0 0 0 
trait 8 0.8 0 0 0 0 0 0 0 
node 1 3 1 3
node 2 5 1 1
node 3 4 1 1
node 4 6 1 1
node 5 3 1 1
node 6 3 1 1
node 7 8 1 1
node 8 1 0 2
node 14 1 0 0
node 19 1 0 0
node 23 2 0 0
node 27 3 0 0
node 47 1 0 0
node 53 1 0 0
node 64 1 0 0
node 89 1 0 0
node 102 1 0 0
node 109 1 0 0
gene 7 1 8 1.33082 0 1 1.33082 1
gene 6 2 8 -0.179818 0 2 -0.179818 1
gene 4 3 8 -0.535623 0 3 -0.535623 0
gene 5 4 8 -1.78732 0 4 -1.78732 1
gene 5 5 8 0.205953 0 5 0.205953 1
gene 3 6 8 6.45706 0 6 6.45706 1
gene 7 7 8 -6.44126 0 7 -6.44126 1
gene 5 5 14 -4.56914 0 18 -4.56914 1
gene 5 14 8 -1.7033 0 19 -1.7033 1
gene 5 1 14 2.13555 0 22 2.13555 1
gene 7 3 14 -1.37369 0 24 -1.37369 1
gene 4 4 14 -5.86793 0 39 -5.86793 1
gene 4 3 19 -1.72182 0 47 -1.72182 1
gene 4 19 8 -0.664211 0 48 -0.664211 1
gene 4 6 14 1.78189 0 50 1.78189 1
gene 4 19 23 0.0758795 0 63 0.0758795 1
gene 4 23 8 -1.73016 0 64 -1.73016 1
gene 2 23 14 0.0123581 0 70 0.0123581 1
gene 4 23 27 1.01386 0 79 1.01386 1
gene 4 27 8 2.45836 0 80 2.45836 1
gene 7 1 19 2.57515 0 83 2.57515 1
gene 4 5 27 3.48556 0 92 3.48556 0
gene 2 2 19 -1.20295 0 108 -1.20295 1
gene 8 6 23 1.55624 0 115 1.55624 1
gene 4 2 23 0.964899 0 124 0.964899 0
gene 8 4 19 -1.1708 0 153 -1.1708 1
gene 4 5 47 -1.62245 0 181 -1.62245 1
gene 4 47 27 3.53187 0 182 3.53187 1
gene 7 27 14 -3.68311 0 193 -3.68311 1
gene 4 4 27 -6.20418 0 212 -6.20418 1
gene 1 2 27 2.26005 0 222 2.26005 1
gene 4 2 53 0.254974 0 226 0.254974 1
gene 4 53 23 0.730968 0 227 0.730968 0
gene 2 53 27 -5.37852 0 238 -5.37852 1
gene 4 5 64 1.38086 0 277 1.38086 1
gene 4 64 47 1.57352 0 278 1.57352 0
gene 7 19 47 -1.19781 0 338 -1.19781 1
gene 4 7 23 1.61062 0 366 1.61062 1
gene 4 3 89 -1.76189 0 375 -1.76189 1
gene 4 89 8 1.42604 0 376 1.42604 1
gene 6 53 64 -4.56859 0 399 -4.56859 1
gene 5 53 14 -2.25049 0 420 -2.25049 1
gene 4 53 102 -0.231847 0 425 -0.231847 1
gene 4 102 23 -1.99567 0 426 -1.99567 1
gene 4 64 109 -0.711703 0 449 -0.711703 1
gene 4 109 47 -1.88441 0 450 -1.88441 1
gene 4 6 102 1.16132 0 462 1.16132 1
gene 8 3 23 -1.06641 0 467 -1.06641 1
gene 7 53 109 -1.66518 0 485 -1.66518 1
gene 6 5 19 0.130628 0 496 0.130628 1
genomeend 14

/* Organism #15 Fitness: 21 Error: 0 */
genomestart 15
trait 1 0.1 0 0 0 0 0 0 0 
trait 2 0.2 0 0 0 0 0 0 0 
trait 3 0.3 0 0 0 0 0 0 0 
trait 4 0 0 0 0 0 0 0 0 
trait 5 0.5 0 0 0 0 0 0 0 
trait 6 0.378347 0 0 0.742295 0 0.359265 0 0.227462 
trait 7 0.7 0 0 0 0 0 0 0 
trait 8 0.8 0 0 0 0 0 0 0 
node 1 3 1 3
node 2 5 1 1
node 3 4 1 1
node 4 6 1 1
node 5 3 1 1
node 6 3 1 1
node 7 8 1 1
node 8 1 0 2
node 14 1 0 0
node 19 1 0 0
node 23 2 0 0
node 27 3 0 0
node 47 1 0 0
node 53 1 0 0
node 64 1 0 0
node 89 1 0 0
node 102 1 0 0
node 109 1 0 0
gene 7 1 8 0.318528 0 1 0.318528 1
gene 6 2 8 -0.179818 0 2 -0.179818 1
gene 4 3 8 -1.1594 0 3 -1.1594 0
gene 5 4 8 0.546527 0 4 0.546527 1
gene 5 5 8 0.205953 0 5 0.205953 1
gene 3 6 8 4.59977 0 6 4.59977 1
gene 7 7 8 -4.28403 0 7 -4.28403 1
gene 5 5 14 -3.12306 0 18 -3.12306 1
gene 5 14 8 -1.7033 0 19 -1.7033 1
gene 5 1 14 2.27391 0 22 2.27391 1
gene 7 3 14 -3.03298 0 24 -3.03298 1
gene 4 4 14 -5.83073 0 39 -5.83073 1
gene 4 3 19 -1.62021 0 47 -1.62021 1
gene 4 19 8 0.788524 0 48 0.788524 1
gene 4 6 14 2.4382 0 50 2.4382 1
gene 4 19 23 1.38759 0 63 1.38759 1
gene 4 23 8 0.463705 0 64 0.463705 1
gene 2 23 14 -1.88209 0 70 -1.88209 1
gene 4 23 27 1.01386 0 79 1.01386 1
gene 4 27 8 2.11375 0 80 2.11375 1
gene 7 1 19 2.05316 0 83 2.05316 1
gene 4 5 27 1.70584 0 92 1.70584 0
gene 2 2 19 -1.95535 0 108 -1.95535 1
gene 8 6 23 1.37202 0 115 1.37202 1
gene 4 2 23 -0.189461 0 124 -0.189461 0
gene 8 4 19 2.27004 0 153 2.27004 1
gene 4 5 47 2.29123 0 181 2.29123 1
gene 4 47 27 5.4186 0 182 5.4186 1
gene 7 27 14 -0.334297 0 193 -0.334297 1
gene 4 4 27 -6.20418 0 212 -6.20418 1
gene 1 2 27 2.03014 0 222 2.03014 1
gene 4 2 53 -2.04461 0 226 -2.04461 1
gene 4 53 23 1.20405 0 227 1.20405 0
gene 2 53 27 -7.78146 0 238 -7.78146 1
gene 4 5 64 2.11096 0 277 2.11096 1
gene 4 64 47 2.56459 0 278 2.56459 0
gene 7 19 47 -1.15468 0 338 -1.15468 1
gene 4 7 23 1.56709 0 366 1.56709 1
gene 4 3 89 0.676425 0 375 0.676425 1
gene 4 89 8 0.0386999 0 376 0.0386999 1
gene 6 53 64 -5.05163 0 399 -5.05163 1
gene 5 53 14 -2.68112 0 420 -2.68112 1
gene 4 53 102 -2.65051 0 425 -2.65051 1
gene 4 102 23 1.54875 0 426 1.54875 1
gene 4 64 109 1.06193 0 449 1.06193 1
gene 4 109 47 -0.634801 0 450 -0.634801 1
gene 4 6 102 2.44973 0 462 2.44973 1
gene 8 3 23 -1.06641 0 467 -1.06641 1
gene 7 53 109 -3.19566 0 485 -3.19566 1
genomeend 15

/* Organism #16 Fitness: 0 Error: 0 */
genomestart 16
trait 1 0.1 0 0 0 0 0 0 0 
trait 2 0.2 0 0 0 0 0 0 0 
trait 3 0.3 0 0 0 0 0 0 0 
trait 4 0 0 0 0 0 0 0 0 
trait 5 0.5 0 0 0 0 0 0 0 
trait 6 0.378347 0 0 0.742295 0 0.359265 0 0.227462 
trait 7 0.7 0 0 0 0 0 0 0 
trait 8 0.8 0 0 0 0 0 0 0 
node 1 3 1 3
node 2 5 1 1
node 3 4 1 1
node 4 6 1 1
node 5 3 1 1
node 6 3 1 1
node 7 8 1 1
node 8 1 0 2
node 14 1 0 0
node 19 1 0 0
node 23 2 0 0
node 27 3 0 0
node 47 1 0 0
node 53 1 0 0
node 64 1 0 0
node 89 1 0 0
node 102 1 0 0
node 109 1 0 0
gene 7 1 8 1.33082 0 1 1.33082 1
gene 6 2 8 -0.179818 0 2 -0.179818 1
gene 4 3 8 -0.535623 0 3 -0.535623 0
gene 5 4 8 -1.78732 0 4 -1.78732 1
gene 5 5 8 0.205953 0 5 0.205953 1
gene 3 6 8 6.45706 0 6 6.45706 1
gene 7 7 8 -6.44126 0 7 -6.44126 1
gene 5 5 14 -4.56914 0 18 -4.56914 1
gene 5 14 8 -1.7033 0 19 -1.7033 1
gene 5 1 14 2.13555 0 22 2.13555 1
gene 7 3 14 -1.37369 0 24 -1.37369 1
gene 4 4 14 -5.86793 0 39 -5.86793 1
gene 4 3 19 -1.72182 0 47 -1.72182 1
gene 4 19 8 -0.664211 0 48 -0.664211 1
gene 4 6 14 1.78189 0 50 1.78189 1
gene 4 19 23 0.0758795 0 63 0.0758795 1
gene 4 23 8 -1.73016 0 64 -1.73016 1
gene 2 23 14 0.0123581 0 70 0.0123581 1
gene 4 23 27 1.01386 0 79 1.01386 1
gene 4 27 8 2.45836 0 80 2.45836 1
gene 7 1 19 2.57515 0 83 2.57515 1
gene 4 5 27 3.48556 0 92 3.48556 0
gene 2 2 19 -1.20295 0 108 -1.20295 1
gene 8 6 23 1.55624 0 115 1.55624 1
gene 4 2 23 0.964899 0 124 0.964899 0
gene 8 4 19 -1.1708 0 153 -1.1708 1
gene 4 5 47 -1.62245 0 181 -1.62245 1
gene 4 47 27 3.53187 0 182 3.53187 1
gene 7 27 14 -3.68311 0 193 -3.68311 1
gene 4 4 27 -6.20418 0 212 -6.20418 1
gene 1 2 27 2.26005 0 222 2.26005 1
gene 4 2 53 0.254974 0 226 0.254974 1
gene 4 53 23 0.730968 0 227 0.730968 0
gene 2 53 27 -5.37852 0 238 -5.37852 1
gene 4 5 64 1.38086 0 277 1.38086 1
gene 4 64 47 1.57352 0 278 1.57352 0
gene 7 19 47 -1.19781 0 338 -1.19781 1
gene 4 7 23 1.61062 0 366 1.61062 1
gene 4 3 89 -1.76189 0 375 -1.76189 1
gene 4 89 8 1.42604 0 376 1.42604 1
gene 6 53 64 -4.56859 0 399 -4.56859 1
gene 5 53 14 -2.25049 0 420 -2.25049 1
gene 4 53 102 -0.231847 0 425 -0.231847 1
gene 4 102 23 -1.99567 0 426 -1.99567 1
gene 4 64 109 -0.711703 0 449 -0.711703 1
gene 4 109 47 -1.88441 0 450 -1.88441 1
gene 4 6 102 1.16132 0 462 1.16132 1
gene 8 3 23 -1.06641 0 467 -1.06641 1
gene 7 53 109 -1.66518 0 485 -1.66518 1
gene 6 5 19 0.130628 0 496 0.130628 1
gene 2 1 53 0.36872 0 510 0.36872 1
genomeend 16

/* Organism #17 Fitness: 0 Error: 0 */
genomestart 17
trait 1 0.1 0 0 0 0 0 0 0 
trait 2 0.2 0 0 0 0 0 0 0 
trait 3 0.3 0 0 0 0 0 0 0 
trait 4 0 0 0 0 0 0 0 0 
trait 5 0.5 0 0 0 0 0 0 0 
trait 6 0.378347 0 0 0.742295 0 0.359265 0 0.227462 
trait 7 0.7 0 0 0 0 0 0 0 
trait 8 0.8 0 0 0 0 0 0 0 
node 1 3 1 3
node 2 5 1 1
node 3 4 1 1
node 4 6 1 1
node 5 3 1 1
node 6 3 1 1
node 7 8 1 1
node 8 1 0 2
node 14 1 0 0
node 19 1 0 0
node 23 2 0 0
node 27 3 0 0
node 47 1 0 0
node 53 1 0 0
node 64 1 0 0
node 89 1 0 0
node 102 1 0 0
node 109 1 0 0
gene 7 1 8 1.33082 0 1 1.33082 1
gene 6 2 8 -0.179818 0 2 -0.179818 1
gene 4 3 8 -0.535623 0 3 -0.535623 0
gene 5 4 8 -1.78732 0 4 -1.78732 1
gene 5 5 8 0.205953 0 5 0.205953 1
gene 3 6 8 6.45706 0 6 6.45706 1
gene 7 7 8 -6.44126 0 7 -6.44126 1
gene 5 5 14 -4.56914 0 18 -4.56914 1
gene 5 14 8 -1.7033 0 19 -1.7033 1
gene 5 1 14 2.13555 0 22 2.13555 1
gene 7 3 14 -1.37369 0 24 -1.37369 1
gene 4 4 14 -5.86793 0 39 -5.86793 1
gene 4 3 19 -1.72182 0 47 -1.72182 1
gene 4 19 8 -0.664211 0 48 -0.664211 1
gene 4 6 14 1.78189 0 50 1.78189 1
gene 4 19 23 0.0758795 0 63 0.0758795 1
gene 4 23 8 -1.73016 0 64 -1.73016 1
gene 2 23 14 0.0123581 0 70 0.0123581 1
gene 4 23 27 1.01386 0 79 1.01386 1
gene 4 27 8 2.45836 0 80 2.45836 1
gene 7 1 19 2.57515 0 83 2.57515 1
gene 4 5 27 3.48556 0 92 3.48556 0
gene 2 2 19 -1.20295 0 108 -1.20295 1
gene 8 6 23 1.55624 0 115 1.55624 1
gene 4 2 23 0.964899 0 124 0.964899 0
gene 8 4 19 -1.1708 0 153 -1.1708 1
gene 4 5 47 -1.62245 0 181 -1.62245 1
gene 4 47 27 3.53187 0 182 3.53187 1
gene 7 27 14 -3.68311 0 193 -3.68311 1
gene 4 4 27 -6.20418 0 212 -6.20418 1
gene 1 2 27 2.26005 0 222 2.26005 1
gene 4 2 53 0.254974 0 226 0.254974 1
gene 4 53 23 0.730968 0 227 0.730968 0
gene 2 53 27 -5.37852 0 238 -5.37852 1
gene 4 5 64 1.38086 0 277 1.38086 1
gene 4 64 47 1.57352 0 278 1.57352 0
gene 7 19 47 -1.19781 0 338 -1.19781 1
gene 4 7 23 1.61062 0 366 1.61062 1
gene 4 3 89 -1.76189 0 375 -1.76189 1
gene 4 89 8 1.42604 0 376 1.42604 1
gene 6 53 64 -4.56859 0 399 -4.56859 1
gene 5 53 14 -2.25049 0 420 -2.25049 1
gene 4 53 102 -0.231847 0 425 -0.231847 1
gene 4 102 23 -1.99567 0 426 -1.99567 1
gene 4 64 109 -0.711703 0 449 -0.711703 1
gene 4 109 47 -1.88441 0 450 -1.88441 1
gene 4 6 102 1.16132 0 462 1.16132 1
gene 8 3 23 -1.06641 0 467 -1.06641 1
gene 7 53 109 -1.66518 0 485 -1.66518 1
genomeend 17

/* Organism #18 Fitness: 0.0006 Error: 0 */
genomestart 18
trait 1 0.1 0 0 0 0 0 0 0 
trait 2 0.2 0 0 0 0 0 0 0 
trait 3 0.3 0 0 0 0 0 0 0 
trait 4 0 0 0 0 0 0 0 0 
trait 5 0.5 0 0 0 0 0 0 0 
trait 6 0.378347 0 0 0.742295 0 0.359265 0 0.227462 
trait 7 0.7 0 0 0 0 0 0 0 
trait 8 0.8 0 0 0 0 0 0 0 
node 1 3 1 3
node 2 5 1 1
node 3 4 1 1
node 4 6 1 1
node 5 3 1 1
node 6 3 1 1
node 7 8 1 1
node 8 1 0 2
node 14 1 0 0
node 19 1 0 0
node 23 2 0 0
node 27 3 0 0
node 47 1 0 0
node 53 1 0 0
node 64 1 0 0
node 89 1 0 0
node 102 1 0 0
node 109 1 0 0
node 122 1 0 0
gene 7 1 8 1.33082 0 1 1.33082 1
gene 6 2 8 -0.179818 0 2 -0.179818 1
gene 4 3 8 -0.535623 0 3 -0.535623 0
gene 5 4 8 -1.78732 0 4 -1.78732 1
gene 5 5 8 0.205953 0 5 0.205953 1
gene 3 6 8 6.45706 0 6 6.45706 1
gene 7 7 8 -6.44126 0 7 -6.44126 1
gene 5 5 14 -4.56914 0 18 -4.56914 1
gene 5 14 8 -1.7033 0 19 -1.7033 1
gene 5 1 14 2.13555 0 22 2.13555 1
gene 7 3 14 -1.37369 0 24 -1.37369 1
gene 4 4 14 -5.86793 0 39 -5.86793 1
gene 4 3 19 -1.72182 0 47 -1.72182 1
gene 4 19 8 -0.664211 0 48 -0.664211 1
gene 4 6 14 1.78189 0 50 1.78189 1
gene 4 19 23 0.0758795 0 63 0.0758795 1
gene 4 23 8 -1.73016 0 64 -1.73016 1
gene 2 23 14 0.0123581 0 70 0.0123581 1
gene 4 23 27 1.01386 0 79 1.01386 1
gene 4 27 8 2.45836 0 80 2.45836 1
gene 7 1 19 2.57515 0 83 2.57515 1
gene 4 5 27 3.48556 0 92 3.48556 0
gene 2 2 19 -1.20295 0 108 -1.20295 1
gene 8 6 23 1.55624 0 115 1.55624 1
gene 4 2 23 0.964899 0 124 0.964899 0
gene 8 4 19 -1.1708 0 153 -1.1708 1
gene 4 5 47 -1.62245 0 181 -1.62245 1
gene 4 47 27 3.53187 0 182 3.53187 1
gene 7 27 14 -3.68311 0 193 -3.68311 1
gene 4 4 27 -6.20418 0 212 -6.20418 1
gene 1 2 27 2.26005 0 222 2.26005 1
gene 4 2 53 0.254974 0 226 0.254974 1
gene 4 53 23 0.730968 0 227 0.730968 0
gene 2 53 27 -5.37852 0 238 -5.37852 1
gene 4 5 64 1.38086 0 277 1.38086 1
gene 4 64 47 1.57352 0 278 1.57352 0
gene 7 19 47 -1.19781 0 338 -1.19781 1
gene 4 7 23 1.61062 0 366 1.61062 1
gene 4 3 89 -1.76189 0 375 -1.76189 1
gene 4 89 8 1.42604 0 376 1.42604 1
gene 6 53 64 -4.56859 0 399 -4.56859 1
gene 5 53 14 -2.25049 0 420 -2.25049 1
gene 4 53 102 -0.231847 0 425 -0.231847 1
gene 4 102 23 -1.99567 0 426 -1.99567 1
gene 4 64 109 -0.711703 0 449 -0.711703 1
gene 4 109 47 -1.88441 0 450 -1.88441 1
gene 4 6 102 1.16132 0 462 1.16132 1
gene 8 3 23 -1.06641 0 467 -1.06641 1
gene 7 53 109 -1.66518 0 485 -1.66518 1
gene 6 5 19 0.130628 0 496 0.130628 0
gene 6 5 122 1 0 511 0 1
gene 6 122 19 0.130628 0 512 0 1
genomeend 18

/* Organism #19 Fitness: 0 Error: 0 */
genomestart 19
trait 1 0.1 0 0 0 0 0 0 0 
trait 2 0.2 0 0 0 0 0 0 0 
trait 3 0.3 0 0 0 0 0 0 0 
trait 4 0 0 0 0 0 0 0 0 
trait 5 0.5 0 0 0 0 0 0 0 
trait 6 0.378347 0 0 0.742295 0 0.359265 0 0.227462 
trait 7 0.7 0 0 0 0 0 0 0 
trait 8 0.8 0 0 0 0 0 0 0 
node 1 3 1 3
node 2 5 1 1
node 3 4 1 1
node 4 6 1 1
node 5 3 1 1
node 6 3 1 1
node 7 8 1 1
node 8 1 0 2
node 14 1 0 0
node 19 1 0 0
node 23 2 0 0
node 27 3 0 0
node 47 1 0 0
node 53 1 0 0
node 64 1 0 0
node 89 1 0 0
node 102 1 0 0
node 109 1 0 0
gene 7 1 8 1.33082 0 1 1.33082 1
gene 6 2 8 -0.179818 0 2 -0.179818 1
gene 4 3 8 -0.535623 0 3 -0.535623 0
gene 5 4 8 -1.78732 0 4 -1.78732 1
gene 5 5 8 0.205953 0 5 0.205953 1
gene 3 6 8 6.45706 0 6 6.45706 1
gene 7 7 8 -6.44126 0 7 -6.44126 1
gene 5 5 14 -4.56914 0 18 -4.56914 1
gene 5 14 8 -1.7033 0 19 -1.7033 1
gene 5 1 14 2.13555 0 22 2.13555 1
gene 7 3 14 -1.37369 0 24 -1.37369 1
gene 4 4 14 -5.86793 0 39 -5.86793 1
gene 4 3 19 -1.72182 0 47 -1.72182 1
gene 4 19 8 -0.664211 0 48 -0.664211 1
gene 4 6 14 1.78189 0 50 1.78189 1
gene 4 19 23 0.0758795 0 63 0.0758795 1
gene 4 23 8 -1.73016 0 64 -1.73016 1
gene 2 23 14 0.0123581 0 70 0.0123581 1
gene 4 23 27 1.01386 0 79 1.01386 1
gene 4 27 8 2.45836 0 80 2.45836 1
gene 7 1 19 2.57515 0 83 2.57515 1
gene 4 5 27 3.48556 0 92 3.48556 0
gene 2 2 19 -1.20295 0 108 -1.20295 1
gene 8 6 23 1.55624 0 115 1.55624 1
gene 4 2 23 0.964899 0 124 0.964899 0
gene 8 4 19 -1.1708 0 153 -1.1708 1
gene 4 5 47 -1.62245 0 181 -1.62245 1
gene 4 47 27 3.53187 0 182 3.53187 1
gene 7 27 14 -3.68311 0 193 -3.68311 1
gene 4 4 27 -6.20418 0 212 -6.20418 1
gene 1 2 27 2.26005 0 222 2.26005 1
gene 4 2 53 0.254974 0 226 0.254974 1
gene 4 53 23 0.730968 0 227 0.730968 0
gene 2 53 27 -5.37852 0 238 -5.37852 1
gene 4 5 64 1.38086 0 277 1.38086 1
gene 4 64 47 1.57352 0 278 1.57352 0
gene 7 19 47 -1.19781 0 338 -1.19781 1
gene 4 7 23 1.61062 0 366 1.61062 1
gene 4 3 89 -1.76189 0 375 -1.76189 1
gene 4 89 8 1.42604 0 376 1.42604 1
gene 6 53 64 -4.56859 0 399 -4.56859 1
gene 5 53 14 -2.25049 0 420 -2.25049 1
gene 4 53 102 -0.231847 0 425 -0.231847 1
gene 4 102 23 -1.99567 0 426 -1.99567 1
gene 4 64 109 -0.711703 0 449 -0.711703 1
gene 4 109 47 -1.88441 0 450 -1.88441 1
gene 4 6 102 1.16132 0 462 1.16132 1
gene 8 3 23 -1.06641 0 467 -1.06641 1
gene 7 53 109 -1.66518 0 485 -1.66518 1
gene 6 5 19 0.130628 0 496 0.130628 1
gene 2 6 53 -0.705201 0 513 -0.705201 1
genomeend 19
