
/* Species #38 : (Size 17) (AF 35.0589) (Age 6)  */


/* Organism #0 Fitness: 71 Error: 0 */
/* ##------$ WINNER 0 SPECIES #38 $------## */
genomestart 0
trait 1 0.1 0 0 0 0 0 0 0 
trait 2 0.2 0 0 0 0 0 0 0 
trait 3 0.3 0 0 0 0 0 0 0 
trait 4 0 0 0 0 0 0 0 0 
trait 5 0.5 0 0 0 0 0 0 0 
trait 6 0.378347 0 0 0.742295 0 0.359265 0 0.227462 
trait 7 0.7 0 0 0 0 0 0 0 
trait 8 0.8 0 0 0 0 0 0 0 
node 1 3 1 3
node 2 5 1 1
node 3 4 1 1
node 4 6 1 1
node 5 3 1 1
node 6 3 1 1
node 7 8 1 1
node 8 1 0 2
node 14 1 0 0
node 19 1 0 0
node 23 2 0 0
node 27 3 0 0
node 47 1 0 0
node 53 1 0 0
node 64 1 0 0
node 89 1 0 0
gene 7 1 8 -0.300578 0 1 -0.300578 1
gene 6 2 8 -2.1114 0 2 -2.1114 1
gene 4 3 8 -0.201626 0 3 -0.201626 0
gene 5 4 8 0.742571 0 4 0.742571 1
gene 5 5 8 -8 0 5 -8 1
gene 3 6 8 6.23827 0 6 6.23827 1
gene 7 7 8 -4.67998 0 7 -4.67998 1
gene 5 5 14 1.01295 0 18 1.01295 1
gene 5 14 8 -1.04166 0 19 -1.04166 1
gene 5 1 14 -1.67828 0 22 -1.67828 1
gene 7 3 14 3.14092 0 24 3.14092 1
gene 4 4 14 -6.83577 0 39 -6.83577 1
gene 4 3 19 2.19119 0 47 2.19119 1
gene 4 19 8 5.606 0 48 5.606 1
gene 4 6 14 0.994119 0 50 0.994119 1
gene 4 19 23 -1.0715 0 63 -1.0715 1
gene 4 23 8 -0.803505 0 64 -0.803505 1
gene 2 23 14 -0.882206 0 70 -0.882206 1
gene 4 23 27 4.61614 0 79 4.61614 1
gene 4 27 8 1.91196 0 80 1.91196 1
gene 7 1 19 1.37536 0 83 1.37536 1
gene 4 5 27 8 0 92 8 0
gene 2 2 19 1.49938 0 108 1.49938 1
gene 8 6 23 0.658066 0 115 0.658066 1
gene 4 2 23 -3.88852 0 124 -3.88852 0
gene 8 4 19 -1.64777 0 153 -1.64777 1
gene 4 5 47 -2.48356 0 181 -2.48356 0
gene 4 47 27 0.668333 0 182 0.668333 1
gene 7 27 14 -3.60958 0 193 -3.60958 1
gene 4 4 27 -1.80112 0 212 -1.80112 1
gene 1 2 27 3.68051 0 222 3.68051 1
gene 4 2 53 -3.13066 0 226 -3.13066 1
gene 4 53 23 5.0128 0 227 5.0128 1
gene 2 53 27 -2.64456 0 238 -2.64456 1
gene 4 5 64 2.73905 0 277 2.73905 1
gene 4 64 47 1.58782 0 278 1.58782 1
gene 7 19 47 -1.29707 0 338 -1.29707 1
gene 4 7 23 0.757289 0 366 0.757289 1
gene 4 3 89 -2.03131 0 375 -2.03131 1
gene 4 89 8 -0.365265 0 376 -0.365265 1
gene 6 53 64 0.663328 0 399 0 1
gene 1 1 23 0.770472 0 410 0.770472 1
genomeend 0

/* Organism #1 Fitness: 21 Error: 0 */
genomestart 1
trait 1 0.1 0 0 0 0 0 0 0 
trait 2 0.2 0 0 0 0 0 0 0 
trait 3 0.3 0 0 0 0 0 0 0 
trait 4 0 0 0 0 0 0 0 0 
trait 5 0.5 0 0 0 0 0 0 0 
trait 6 0.378347 0 0 0.742295 0 0.359265 0 0.227462 
trait 7 0.7 0 0 0 0 0 0 0 
trait 8 0.8 0 0 0 0 0 0 0 
node 1 3 1 3
node 2 5 1 1
node 3 4 1 1
node 4 6 1 1
node 5 3 1 1
node 6 3 1 1
node 7 8 1 1
node 8 1 0 2
node 14 1 0 0
node 19 1 0 0
node 23 2 0 0
node 27 3 0 0
node 47 1 0 0
node 53 1 0 0
node 64 1 0 0
node 89 1 0 0
gene 7 1 8 -1.01751 0 1 -1.01751 1
gene 6 2 8 -2.55029 0 2 -2.55029 1
gene 4 3 8 -0.27609 0 3 -0.27609 0
gene 5 4 8 1.39618 0 4 1.39618 1
gene 5 5 8 -5.90007 0 5 -5.90007 1
gene 3 6 8 6.46788 0 6 6.46788 1
gene 7 7 8 -5.12647 0 7 -5.12647 1
gene 5 5 14 1.88508 0 18 1.88508 1
gene 5 14 8 -1.24032 0 19 -1.24032 1
gene 5 1 14 0.367098 0 22 0.367098 1
gene 7 3 14 3.10056 0 24 3.10056 1
gene 4 4 14 -8 0 39 -8 1
gene 4 3 19 1.83087 0 47 1.83087 1
gene 4 19 8 6.49666 0 48 6.49666 1
gene 4 6 14 0.780252 0 50 0.780252 1
gene 4 19 23 -3.14573 0 63 -3.14573 1
gene 4 23 8 1.22378 0 64 1.22378 1
gene 2 23 14 0.84125 0 70 0.84125 1
gene 4 23 27 4.99806 0 79 4.99806 1
gene 4 27 8 0.892944 0 80 0.892944 1
gene 7 1 19 1.05133 0 83 1.05133 1
gene 4 5 27 8 0 92 8 0
gene 2 2 19 3.95752 0 108 3.95752 1
gene 8 6 23 1.24051 0 115 1.24051 1
gene 4 2 23 -2.84646 0 124 -2.84646 0
gene 8 4 19 0.786368 0 153 0.786368 1
gene 4 5 47 -0.00843705 0 181 -0.00843705 0
gene 4 47 27 2.64608 0 182 2.64608 1
gene 7 27 14 -1.29935 0 193 -1.29935 1
gene 4 4 27 -3.05839 0 212 -3.05839 1
gene 1 2 27 2.87417 0 222 2.87417 1
gene 4 2 53 -3.69946 0 226 -3.69946 1
gene 4 53 23 2.74404 0 227 2.74404 1
gene 2 53 27 2.20289 0 238 2.20289 1
gene 4 5 64 -0.0189522 0 277 -0.0189522 1
gene 4 64 47 1.51405 0 278 1.51405 1
gene 7 19 47 0.0270396 0 338 0.0270396 1
gene 4 7 23 -1.13434 0 366 -1.13434 1
gene 4 3 89 -0.394258 0 375 -0.394258 1
gene 4 89 8 0.546093 0 376 0.546093 1
gene 6 53 64 2.11081 0 399 2.11081 1
gene 2 89 47 0.019452 0 416 0.019452 1
genomeend 1

/* Organism #2 Fitness: 70 Error: 0 */
/* ##------$ WINNER 2 SPECIES #38 $------## */
genomestart 2
trait 1 0.1 0 0 0 0 0 0 0 
trait 2 0.2 0 0 0 0 0 0 0 
trait 3 0.3 0 0 0 0 0 0 0 
trait 4 0 0 0 0 0 0 0 0 
trait 5 0.5 0 0 0 0 0 0 0 
trait 6 0.378347 0 0 0.742295 0 0.359265 0 0.227462 
trait 7 0.7 0 0 0 0 0 0 0 
trait 8 0.8 0 0 0 0 0 0 0 
node 1 3 1 3
node 2 5 1 1
node 3 4 1 1
node 4 6 1 1
node 5 3 1 1
node 6 3 1 1
node 7 8 1 1
node 8 1 0 2
node 14 1 0 0
node 19 1 0 0
node 23 2 0 0
node 27 3 0 0
node 47 1 0 0
node 53 1 0 0
node 64 1 0 0
node 89 1 0 0
gene 7 1 8 2.17658 0 1 2.17658 1
gene 6 2 8 -1.50459 0 2 -1.50459 1
gene 4 3 8 -0.305378 0 3 -0.305378 0
gene 5 4 8 2.80132 0 4 2.80132 1
gene 5 5 8 -8 0 5 -8 1
gene 3 6 8 6.57103 0 6 6.57103 1
gene 7 7 8 -3.91891 0 7 -3.91891 1
gene 5 5 14 0.0346572 0 18 0.0346572 1
gene 5 14 8 1.00129 0 19 1.00129 0
gene 5 1 14 -3.42714 0 22 -3.42714 1
gene 7 3 14 3.3043 0 24 3.3043 1
gene 4 4 14 -4.99053 0 39 -4.99053 1
gene 4 3 19 0.795524 0 47 0.795524 1
gene 4 19 8 3.60463 0 48 3.60463 1
gene 4 6 14 -1.05784 0 50 -1.05784 1
gene 4 19 23 0.0418339 0 63 0.0418339 1
gene 4 23 8 -2.38904 0 64 -2.38904 1
gene 2 23 14 -1.51504 0 70 -1.51504 1
gene 4 23 27 6.65923 0 79 6.65923 1
gene 4 27 8 1.68513 0 80 1.68513 1
gene 7 1 19 0.305294 0 83 0.305294 1
gene 4 5 27 8 0 92 8 0
gene 2 2 19 2.74551 0 108 2.74551 1
gene 8 6 23 2.59868 0 115 2.59868 1
gene 4 2 23 -5.46596 0 124 -5.46596 0
gene 8 4 19 -1.88892 0 153 -1.88892 1
gene 4 5 47 -2.95913 0 181 -2.95913 0
gene 4 47 27 -1.68965 0 182 -1.68965 1
gene 7 27 14 -1.73763 0 193 -1.73763 1
gene 4 4 27 -1.52668 0 212 -1.52668 1
gene 1 2 27 1.29911 0 222 1.29911 1
gene 4 2 53 -0.701977 0 226 -0.701977 1
gene 4 53 23 5.73038 0 227 5.73038 1
gene 2 53 27 -0.88827 0 238 -0.88827 1
gene 4 5 64 2.73905 0 277 2.73905 1
gene 4 64 47 1.58782 0 278 1.58782 1
gene 7 19 47 0.259144 0 338 0.259144 1
gene 4 7 23 0.757289 0 366 0.757289 1
gene 4 3 89 -3.24069 0 375 -3.24069 1
gene 4 89 8 -0.595211 0 376 -0.595211 1
gene 6 53 64 2.2733 0 399 2.2733 1
gene 1 1 23 -0.235281 0 410 -0.235281 1
genomeend 2

/* Organism #3 Fitness: 0.0001 Error: 0 */
genomestart 3
trait 1 0.1 0 0 0 0 0 0 0 
trait 2 0.2 0 0 0 0 0 0 0 
trait 3 0.3 0 0 0 0 0 0 0 
trait 4 0 0 0 0 0 0 0 0 
trait 5 0.5 0 0 0 0 0 0 0 
trait 6 0.378347 0 0 0.742295 0 0.359265 0 0.227462 
trait 7 0.7 0 0 0 0 0 0 0 
trait 8 0.8 0 0 0 0 0 0 0 
node 1 3 1 3
node 2 5 1 1
node 3 4 1 1
node 4 6 1 1
node 5 3 1 1
node 6 3 1 1
node 7 8 1 1
node 8 1 0 2
node 14 1 0 0
node 19 1 0 0
node 23 2 0 0
node 27 3 0 0
node 47 1 0 0
node 53 1 0 0
node 64 1 0 0
node 89 1 0 0
gene 7 1 8 -0.300578 0 1 -0.300578 1
gene 6 2 8 -2.1114 0 2 -2.1114 1
gene 4 3 8 -0.201626 0 3 -0.201626 0
gene 5 4 8 0.742571 0 4 0.742571 1
gene 5 5 8 -8 0 5 -8 1
gene 3 6 8 6.23827 0 6 6.23827 1
gene 7 7 8 -4.67998 0 7 -4.67998 1
gene 5 5 14 1.01295 0 18 1.01295 1
gene 5 14 8 -1.04166 0 19 -1.04166 1
gene 5 1 14 -1.67828 0 22 -1.67828 1
gene 7 3 14 3.14092 0 24 3.14092 1
gene 4 4 14 -6.83577 0 39 -6.83577 1
gene 4 3 19 2.19119 0 47 2.19119 1
gene 4 19 8 5.606 0 48 5.606 1
gene 4 6 14 0.994119 0 50 0.994119 1
gene 4 19 23 -1.0715 0 63 -1.0715 1
gene 4 23 8 -0.803505 0 64 -0.803505 1
gene 2 23 14 -0.882206 0 70 -0.882206 1
gene 4 23 27 4.61614 0 79 4.61614 1
gene 4 27 8 1.91196 0 80 1.91196 1
gene 7 1 19 1.37536 0 83 1.37536 1
gene 4 5 27 8 0 92 8 0
gene 2 2 19 1.49938 0 108 1.49938 1
gene 8 6 23 0.658066 0 115 0.658066 1
gene 4 2 23 -3.88852 0 124 -3.88852 0
gene 8 4 19 -1.64777 0 153 -1.64777 1
gene 4 5 47 -2.48356 0 181 -2.48356 0
gene 4 47 27 0.668333 0 182 0.668333 1
gene 7 27 14 -3.60958 0 193 -3.60958 1
gene 4 4 27 -1.80112 0 212 -1.80112 1
gene 1 2 27 3.68051 0 222 3.68051 1
gene 4 2 53 -3.13066 0 226 -3.13066 1
gene 4 53 23 5.0128 0 227 5.0128 1
gene 2 53 27 -2.64456 0 238 -2.64456 1
gene 4 5 64 2.73905 0 277 2.73905 1
gene 4 64 47 1.58782 0 278 1.58782 1
gene 7 19 47 -1.29707 0 338 -1.29707 1
gene 4 7 23 0.757289 0 366 0.757289 1
gene 4 3 89 -2.03131 0 375 -2.03131 1
gene 4 89 8 -0.365265 0 376 -0.365265 1
gene 6 53 64 0.663328 0 399 0 1
gene 1 1 23 0.770472 0 410 0.770472 1
gene 7 53 8 -0.823763 0 417 -0.823763 1
genomeend 3

/* Organism #4 Fitness: 80 Error: 0 */
/* ##------$ WINNER 4 SPECIES #38 $------## */
genomestart 4
trait 1 0.1 0 0 0 0 0 0 0 
trait 2 0.2 0 0 0 0 0 0 0 
trait 3 0.3 0 0 0 0 0 0 0 
trait 4 0 0 0 0 0 0 0 0 
trait 5 0.5 0 0 0 0 0 0 0 
trait 6 0.378347 0 0 0.742295 0 0.359265 0 0.227462 
trait 7 0.7 0 0 0 0 0 0 0 
trait 8 0.8 0 0 0 0 0 0 0 
node 1 3 1 3
node 2 5 1 1
node 3 4 1 1
node 4 6 1 1
node 5 3 1 1
node 6 3 1 1
node 7 8 1 1
node 8 7 0 2
node 14 1 0 0
node 19 1 0 0
node 23 2 0 0
node 27 3 0 0
node 47 1 0 0
node 53 1 0 0
node 64 1 0 0
node 89 1 0 0
gene 7 1 8 -0.300578 0 1 -0.300578 1
gene 6 2 8 -2.1114 0 2 -2.1114 1
gene 4 3 8 -0.201626 0 3 -0.201626 0
gene 5 4 8 0.742571 0 4 0.742571 1
gene 5 5 8 -8 0 5 -8 1
gene 3 6 8 6.23827 0 6 6.23827 1
gene 7 7 8 -4.67998 0 7 -4.67998 1
gene 5 5 14 1.01295 0 18 1.01295 1
gene 5 14 8 -1.04166 0 19 -1.04166 0
gene 5 1 14 -1.67828 0 22 -1.67828 1
gene 7 3 14 3.14092 0 24 3.14092 1
gene 4 4 14 -6.83577 0 39 -6.83577 1
gene 4 3 19 2.19119 0 47 2.19119 1
gene 4 19 8 5.606 0 48 5.606 1
gene 4 6 14 0.994119 0 50 0.994119 1
gene 4 19 23 -1.0715 0 63 -1.0715 1
gene 4 23 8 -0.803505 0 64 -0.803505 1
gene 2 23 14 -0.882206 0 70 -0.882206 1
gene 4 23 27 4.61614 0 79 4.61614 1
gene 4 27 8 1.91196 0 80 1.91196 1
gene 7 1 19 1.37536 0 83 1.37536 1
gene 4 5 27 8 0 92 8 0
gene 2 2 19 1.49938 0 108 1.49938 1
gene 8 6 23 0.658066 0 115 0.658066 1
gene 4 2 23 -3.88852 0 124 -3.88852 0
gene 8 4 19 -1.64777 0 153 -1.64777 1
gene 4 5 47 -2.48356 0 181 -2.48356 0
gene 4 47 27 0.668333 0 182 0.668333 1
gene 7 27 14 -3.60958 0 193 -3.60958 1
gene 4 4 27 -1.80112 0 212 -1.80112 1
gene 1 2 27 3.68051 0 222 3.68051 1
gene 4 2 53 -3.13066 0 226 -3.13066 1
gene 4 53 23 5.0128 0 227 5.0128 1
gene 2 53 27 -2.64456 0 238 -2.64456 1
gene 4 5 64 2.73905 0 277 2.73905 1
gene 4 64 47 1.58782 0 278 1.58782 1
gene 7 19 47 -1.29707 0 338 -1.29707 1
gene 4 7 23 0.757289 0 366 0.757289 1
gene 4 3 89 -2.03131 0 375 -2.03131 1
gene 4 89 8 -0.365265 0 376 -0.365265 1
gene 6 53 64 0.663328 0 399 0 1
gene 5 53 14 -0.860913 0 420 -0.860913 1
genomeend 4

/* Organism #5 Fitness: 21 Error: 0 */
genomestart 5
trait 1 0.1 0 0 0 0 0 0 0 
trait 2 0.2 0 0 0 0 0 0 0 
trait 3 0.3 0 0 0 0 0 0 0 
trait 4 0 0 0 0 0 0 0 0 
trait 5 0.5 0 0 0 0 0 0 0 
trait 6 0.378347 0 0 0.742295 0 0.359265 0 0.227462 
trait 7 0.7 0 0 0 0 0 0 0 
trait 8 0.8 0 0 0 0 0 0 0 
node 1 3 1 3
node 2 5 1 1
node 3 4 1 1
node 4 6 1 1
node 5 3 1 1
node 6 3 1 1
node 7 8 1 1
node 8 7 0 2
node 14 1 0 0
node 19 1 0 0
node 23 2 0 0
node 27 3 0 0
node 47 1 0 0
node 53 1 0 0
node 64 1 0 0
node 89 1 0 0
gene 7 1 8 -0.300578 0 1 -0.300578 1
gene 6 2 8 -2.1114 0 2 -2.1114 1
gene 4 3 8 -0.201626 0 3 -0.201626 0
gene 5 4 8 0.742571 0 4 0.742571 1
gene 5 5 8 -8 0 5 -8 1
gene 3 6 8 6.23827 0 6 6.23827 1
gene 7 7 8 -4.67998 0 7 -4.67998 1
gene 5 5 14 1.01295 0 18 1.01295 1
gene 5 14 8 -1.04166 0 19 -1.04166 1
gene 5 1 14 -1.67828 0 22 -1.67828 1
gene 7 3 14 3.14092 0 24 3.14092 1
gene 4 4 14 -6.83577 0 39 -6.83577 1
gene 4 3 19 2.19119 0 47 2.19119 1
gene 4 19 8 5.606 0 48 5.606 1
gene 4 6 14 0.994119 0 50 0.994119 1
gene 4 19 23 -1.0715 0 63 -1.0715 1
gene 4 23 8 -0.803505 0 64 -0.803505 1
gene 2 23 14 -0.882206 0 70 -0.882206 1
gene 4 23 27 4.61614 0 79 4.61614 1
gene 4 27 8 1.91196 0 80 1.91196 1
gene 7 1 19 1.37536 0 83 1.37536 1
gene 4 5 27 8 0 92 8 0
gene 2 2 19 1.49938 0 108 1.49938 1
gene 8 6 23 0.658066 0 115 0.658066 1
gene 4 2 23 -3.88852 0 124 -3.88852 0
gene 8 4 19 -1.64777 0 153 -1.64777 1
gene 4 5 47 -2.48356 0 181 -2.48356 0
gene 4 47 27 0.668333 0 182 0.668333 1
gene 7 27 14 -3.60958 0 193 -3.60958 1
gene 4 4 27 -1.80112 0 212 -1.80112 1
gene 1 2 27 3.68051 0 222 3.68051 1
gene 4 2 53 -3.13066 0 226 -3.13066 1
gene 4 53 23 5.0128 0 227 5.0128 1
gene 2 53 27 -2.64456 0 238 -2.64456 1
gene 4 5 64 2.73905 0 277 2.73905 1
gene 4 64 47 1.58782 0 278 1.58782 1
gene 7 19 47 -1.29707 0 338 -1.29707 1
gene 4 7 23 0.757289 0 366 0.757289 1
gene 4 3 89 -2.03131 0 375 -2.03131 1
gene 4 89 8 -0.365265 0 376 -0.365265 1
gene 6 53 64 0.663328 0 399 0 1
gene 1 1 23 0.770472 0 410 0.770472 1
genomeend 5

/* Organism #6 Fitness: 0 Error: 0 */
genomestart 6
trait 1 0.1 0 0 0 0 0 0 0 
trait 2 0.2 0 0 0 0 0 0 0 
trait 3 0.3 0 0 0 0 0 0 0 
trait 4 0 0 0 0 0 0 0 0 
trait 5 0.5 0 0 0 0 0 0 0 
trait 6 0.378347 0 0 0.742295 0 0.359265 0 0.227462 
trait 7 0.7 0 0 0 0 0 0 0 
trait 8 0.8 0 0 0 0 0 0 0 
node 1 3 1 3
node 2 5 1 1
node 3 4 1 1
node 4 6 1 1
node 5 3 1 1
node 6 3 1 1
node 7 8 1 1
node 8 7 0 2
node 14 1 0 0
node 19 1 0 0
node 23 2 0 0
node 27 3 0 0
node 47 1 0 0
node 53 1 0 0
node 64 1 0 0
node 89 1 0 0
gene 7 1 8 0.738873 0 1 0.738873 1
gene 6 2 8 -0.898887 0 2 -0.898887 1
gene 4 3 8 -0.282755 0 3 -0.282755 0
gene 5 4 8 1.67489 0 4 1.67489 1
gene 5 5 8 -8 0 5 -8 1
gene 3 6 8 5.9825 0 6 5.9825 1
gene 7 7 8 -7.01838 0 7 -7.01838 1
gene 5 5 14 -0.88153 0 18 -0.88153 1
gene 5 14 8 -1.2721 0 19 -1.2721 0
gene 5 1 14 -3.88717 0 22 -3.88717 1
gene 7 3 14 1.25596 0 24 1.25596 1
gene 4 4 14 -6.50347 0 39 -6.50347 1
gene 4 3 19 1.52621 0 47 1.52621 1
gene 4 19 8 3.65496 0 48 3.65496 1
gene 4 6 14 0.994119 0 50 0.994119 1
gene 4 19 23 1.43558 0 63 1.43558 1
gene 4 23 8 -0.803505 0 64 -0.803505 1
gene 2 23 14 -0.882683 0 70 -0.882683 1
gene 4 23 27 6.26041 0 79 6.26041 1
gene 4 27 8 3.42853 0 80 3.42853 1
gene 7 1 19 0.240319 0 83 0.240319 1
gene 4 5 27 -1.03435 0 92 -1.03435 0
gene 2 2 19 1.92828 0 108 1.92828 1
gene 8 6 23 0.279794 0 115 0.279794 1
gene 4 2 23 -2.45203 0 124 -2.45203 0
gene 8 4 19 1.82018 0 153 1.82018 1
gene 4 5 47 -2.48356 0 181 -2.48356 0
gene 4 47 27 0.668333 0 182 0.668333 1
gene 7 27 14 -4.88593 0 193 -4.88593 1
gene 4 4 27 -1.32178 0 212 -1.32178 1
gene 1 2 27 2.87948 0 222 2.87948 1
gene 4 2 53 -2.34977 0 226 -2.34977 1
gene 4 53 23 5.0128 0 227 5.0128 1
gene 2 53 27 -1.1354 0 238 -1.1354 1
gene 4 5 64 2.51395 0 277 2.51395 1
gene 4 64 47 3.48401 0 278 3.48401 1
gene 7 19 47 1.40442 0 338 1.40442 1
gene 4 7 23 -0.330889 0 366 -0.330889 1
gene 4 3 89 1.829 0 375 1.829 1
gene 4 89 8 0.992069 0 376 0.992069 1
gene 6 53 64 -1.21873 0 399 -1.21873 1
genomeend 6

/* Organism #7 Fitness: 0.0002 Error: 0 */
genomestart 7
trait 1 0.1 0 0 0 0 0 0 0 
trait 2 0.2 0 0 0 0 0 0 0 
trait 3 0.3 0 0 0 0 0 0 0 
trait 4 0 0 0 0 0 0 0 0 
trait 5 0.5 0 0 0 0 0 0 0 
trait 6 0.378347 0 0 0.742295 0 0.359265 0 0.227462 
trait 7 0.7 0 0 0 0 0 0 0 
trait 8 0.8 0 0 0 0 0 0 0 
node 1 3 1 3
node 2 5 1 1
node 3 4 1 1
node 4 6 1 1
node 5 3 1 1
node 6 3 1 1
node 7 8 1 1
node 8 1 0 2
node 14 1 0 0
node 19 1 0 0
node 23 2 0 0
node 27 3 0 0
node 47 1 0 0
node 53 1 0 0
node 64 1 0 0
node 89 1 0 0
gene 7 1 8 -1.94756 0 1 -1.94756 1
gene 6 2 8 -0.760363 0 2 -0.760363 1
gene 4 3 8 -0.615947 0 3 -0.615947 0
gene 5 4 8 0.0867323 0 4 0.0867323 1
gene 5 5 8 -8 0 5 -8 1
gene 3 6 8 5.01407 0 6 5.01407 1
gene 7 7 8 -2.9761 0 7 -2.9761 1
gene 5 5 14 1.85705 0 18 1.85705 1
gene 5 14 8 0.194833 0 19 0.194833 1
gene 5 1 14 -0.775145 0 22 -0.775145 1
gene 7 3 14 1.85645 0 24 1.85645 1
gene 4 4 14 -4.41524 0 39 -4.41524 1
gene 4 3 19 1.90839 0 47 1.90839 1
gene 4 19 8 6.37131 0 48 6.37131 1
gene 4 6 14 -1.04319 0 50 -1.04319 1
gene 4 19 23 -2.52193 0 63 -2.52193 1
gene 4 23 8 -1.33933 0 64 -1.33933 1
gene 2 23 14 0.833777 0 70 0.833777 1
gene 4 23 27 2.51995 0 79 2.51995 1
gene 4 27 8 0.309426 0 80 0.309426 1
gene 7 1 19 1.02136 0 83 1.02136 1
gene 4 5 27 8 0 92 8 0
gene 2 2 19 1.97338 0 108 1.97338 1
gene 8 6 23 -0.623282 0 115 -0.623282 1
gene 4 2 23 -4.21945 0 124 -4.21945 0
gene 8 4 19 -1.46074 0 153 -1.46074 1
gene 4 5 47 -1.48558 0 181 -1.48558 0
gene 4 47 27 2.18712 0 182 2.18712 1
gene 7 27 14 -4.52309 0 193 -4.52309 1
gene 4 4 27 -1.10951 0 212 -1.10951 1
gene 1 2 27 5.71632 0 222 5.71632 1
gene 4 2 53 -4.67627 0 226 -4.67627 1
gene 4 53 23 4.92558 0 227 4.92558 1
gene 2 53 27 -2.37033 0 238 -2.37033 1
gene 4 5 64 2.73905 0 277 2.73905 1
gene 4 64 47 1.58782 0 278 1.58782 1
gene 7 19 47 -1.89922 0 338 -1.89922 1
gene 4 7 23 0.757289 0 366 0.757289 1
gene 4 3 89 2.02539 0 375 2.02539 1
gene 4 89 8 1.30338 0 376 1.30338 1
gene 6 53 64 0.663328 0 399 0.663328 1
genomeend 7

/* Organism #8 Fitness: 21 Error: 0 */
genomestart 8
trait 1 0.1 0 0 0 0 0 0 0 
trait 2 0.2 0 0 0 0 0 0 0 
trait 3 0.3 0 0 0 0 0 0 0 
trait 4 0 0 0 0 0 0 0 0 
trait 5 0.5 0 0 0 0 0 0 0 
trait 6 0.378347 0 0 0.742295 0 0.359265 0 0.227462 
trait 7 0.7 0 0 0 0 0 0 0 
trait 8 0.8 0 0 0 0 0 0 0 
node 1 3 1 3
node 2 5 1 1
node 3 4 1 1
node 4 6 1 1
node 5 3 1 1
node 6 3 1 1
node 7 8 1 1
node 8 1 0 2
node 14 1 0 0
node 19 1 0 0
node 23 2 0 0
node 27 3 0 0
node 47 1 0 0
node 53 1 0 0
node 64 1 0 0
node 89 1 0 0
gene 7 1 8 -0.300578 0 1 -0.300578 1
gene 6 2 8 -2.1114 0 2 -2.1114 1
gene 4 3 8 -0.201626 0 3 -0.201626 0
gene 5 4 8 0.742571 0 4 0.742571 1
gene 5 5 8 -8 0 5 -8 1
gene 3 6 8 6.23827 0 6 6.23827 1
gene 7 7 8 -4.67998 0 7 -4.67998 1
gene 5 5 14 1.01295 0 18 1.01295 1
gene 5 14 8 -1.04166 0 19 -1.04166 1
gene 5 1 14 -1.67828 0 22 -1.67828 1
gene 7 3 14 3.14092 0 24 3.14092 1
gene 4 4 14 -6.83577 0 39 -6.83577 1
gene 4 3 19 2.19119 0 47 2.19119 1
gene 4 19 8 5.606 0 48 5.606 1
gene 4 6 14 0.994119 0 50 0.994119 1
gene 4 19 23 -1.0715 0 63 -1.0715 1
gene 4 23 8 -0.803505 0 64 -0.803505 1
gene 2 23 14 -0.882206 0 70 -0.882206 1
gene 4 23 27 4.61614 0 79 4.61614 1
gene 4 27 8 1.91196 0 80 1.91196 1
gene 7 1 19 1.37536 0 83 1.37536 1
gene 4 5 27 8 0 92 8 0
gene 2 2 19 1.49938 0 108 1.49938 1
gene 8 6 23 0.658066 0 115 0.658066 1
gene 4 2 23 -3.88852 0 124 -3.88852 0
gene 8 4 19 -1.64777 0 153 -1.64777 1
gene 4 5 47 -2.48356 0 181 -2.48356 0
gene 4 47 27 0.668333 0 182 0.668333 1
gene 7 27 14 -3.60958 0 193 -3.60958 1
gene 4 4 27 -1.80112 0 212 -1.80112 1
gene 1 2 27 3.68051 0 222 3.68051 1
gene 4 2 53 -3.13066 0 226 -3.13066 1
gene 4 53 23 5.0128 0 227 5.0128 1
gene 2 53 27 -2.64456 0 238 -2.64456 1
gene 4 5 64 2.73905 0 277 2.73905 1
gene 4 64 47 1.58782 0 278 1.58782 1
gene 7 19 47 -1.29707 0 338 -1.29707 1
gene 4 7 23 0.757289 0 366 0.757289 1
gene 4 3 89 -2.03131 0 375 -2.03131 1
gene 4 89 8 -0.365265 0 376 -0.365265 1
gene 6 53 64 0.663328 0 399 0 1
gene 1 1 23 0.770472 0 410 0.770472 1
gene 2 19 89 -0.373228 0 421 -0.373228 1
genomeend 8

/* Organism #9 Fitness: 62 Error: 0 */
genomestart 9
trait 1 0.1 0 0 0 0 0 0 0 
trait 2 0.2 0 0 0 0 0 0 0 
trait 3 0.3 0 0 0 0 0 0 0 
trait 4 0 0 0 0 0 0 0 0 
trait 5 0.5 0 0 0 0 0 0 0 
trait 6 0.378347 0 0 0.742295 0 0.359265 0 0.227462 
trait 7 0.7 0 0 0 0 0 0 0 
trait 8 0.8 0 0 0 0 0 0 0 
node 1 3 1 3
node 2 5 1 1
node 3 4 1 1
node 4 6 1 1
node 5 3 1 1
node 6 3 1 1
node 7 8 1 1
node 8 1 0 2
node 14 1 0 0
node 19 1 0 0
node 23 2 0 0
node 27 3 0 0
node 47 1 0 0
node 53 1 0 0
node 64 1 0 0
node 89 1 0 0
gene 7 1 8 -0.300578 0 1 -0.300578 1
gene 6 2 8 -2.1114 0 2 -2.1114 1
gene 4 3 8 -0.201626 0 3 -0.201626 1
gene 5 4 8 0.742571 0 4 0.742571 1
gene 5 5 8 -8 0 5 -8 1
gene 3 6 8 6.23827 0 6 6.23827 1
gene 7 7 8 -4.67998 0 7 -4.67998 1
gene 5 5 14 1.01295 0 18 1.01295 1
gene 5 14 8 -1.04166 0 19 -1.04166 1
gene 5 1 14 -1.67828 0 22 -1.67828 1
gene 7 3 14 3.14092 0 24 3.14092 1
gene 4 4 14 -6.83577 0 39 -6.83577 1
gene 4 3 19 2.19119 0 47 2.19119 1
gene 4 19 8 5.606 0 48 5.606 1
gene 4 6 14 0.994119 0 50 0.994119 1
gene 4 19 23 -1.0715 0 63 -1.0715 1
gene 4 23 8 -0.803505 0 64 -0.803505 1
gene 2 23 14 -0.882206 0 70 -0.882206 1
gene 4 23 27 4.61614 0 79 4.61614 1
gene 4 27 8 1.91196 0 80 1.91196 1
gene 7 1 19 1.37536 0 83 1.37536 1
gene 4 5 27 8 0 92 8 1
gene 2 2 19 1.49938 0 108 1.49938 1
gene 8 6 23 0.658066 0 115 0.658066 1
gene 4 2 23 -3.88852 0 124 -3.88852 0
gene 8 4 19 -1.64777 0 153 -1.64777 1
gene 4 5 47 -2.48356 0 181 -2.48356 0
gene 4 47 27 0.668333 0 182 0.668333 1
gene 7 27 14 -3.60958 0 193 -3.60958 1
gene 4 4 27 -1.80112 0 212 -1.80112 1
gene 1 2 27 3.68051 0 222 3.68051 1
gene 4 2 53 -3.13066 0 226 -3.13066 1
gene 4 53 23 5.0128 0 227 5.0128 1
gene 2 53 27 -2.64456 0 238 -2.64456 1
gene 4 5 64 2.73905 0 277 2.73905 1
gene 4 64 47 1.58782 0 278 1.58782 1
gene 7 19 47 -1.29707 0 338 -1.29707 1
gene 4 7 23 0.757289 0 366 0.757289 1
gene 4 3 89 -2.03131 0 375 -2.03131 1
gene 4 89 8 -0.365265 0 376 -0.365265 1
gene 6 53 64 0.663328 0 399 0 1
gene 1 1 23 0.770472 0 410 0.770472 1
gene 6 6 64 -0.222749 0 422 -0.222749 1
genomeend 9

/* Organism #10 Fitness: 0.0006 Error: 0 */
genomestart 10
trait 1 0.1 0 0 0 0 0 0 0 
trait 2 0.2 0 0 0 0 0 0 0 
trait 3 0.3 0 0 0 0 0 0 0 
trait 4 0 0 0 0 0 0 0 0 
trait 5 0.5 0 0 0 0 0 0 0 
trait 6 0.378347 0 0 0.742295 0 0.359265 0 0.227462 
trait 7 0.7 0 0 0 0 0 0 0 
trait 8 0.8 0 0 0 0 0 0 0 
node 1 3 1 3
node 2 5 1 1
node 3 4 1 1
node 4 6 1 1
node 5 3 1 1
node 6 3 1 1
node 7 8 1 1
node 8 7 0 2
node 14 1 0 0
node 19 1 0 0
node 23 2 0 0
node 27 3 0 0
node 47 1 0 0
node 53 1 0 0
node 64 1 0 0
node 89 1 0 0
gene 7 1 8 -0.300578 0 1 -0.300578 1
gene 6 2 8 -2.1114 0 2 -2.1114 1
gene 4 3 8 -0.201626 0 3 -0.201626 0
gene 5 4 8 0.742571 0 4 0.742571 1
gene 5 5 8 -8 0 5 -8 1
gene 3 6 8 6.23827 0 6 6.23827 1
gene 7 7 8 -4.67998 0 7 -4.67998 1
gene 5 5 14 1.01295 0 18 1.01295 1
gene 5 14 8 -1.04166 0 19 -1.04166 1
gene 5 1 14 -1.67828 0 22 -1.67828 1
gene 7 3 14 3.14092 0 24 3.14092 1
gene 4 4 14 -6.83577 0 39 -6.83577 1
gene 4 3 19 2.19119 0 47 2.19119 1
gene 4 19 8 5.606 0 48 5.606 1
gene 4 6 14 0.994119 0 50 0.994119 1
gene 4 19 23 -1.0715 0 63 -1.0715 1
gene 4 23 8 -0.803505 0 64 -0.803505 1
gene 2 23 14 -0.882206 0 70 -0.882206 1
gene 4 23 27 4.61614 0 79 4.61614 1
gene 4 27 8 1.91196 0 80 1.91196 1
gene 7 1 19 1.37536 0 83 1.37536 1
gene 4 5 27 8 0 92 8 0
gene 2 2 19 1.49938 0 108 1.49938 1
gene 8 6 23 0.658066 0 115 0.658066 1
gene 4 2 23 -3.88852 0 124 -3.88852 0
gene 8 4 19 -1.64777 0 153 -1.64777 1
gene 4 5 47 -2.48356 0 181 -2.48356 0
gene 4 47 27 0.668333 0 182 0.668333 1
gene 7 27 14 -3.60958 0 193 -3.60958 1
gene 4 4 27 -1.80112 0 212 -1.80112 1
gene 1 2 27 3.68051 0 222 3.68051 1
gene 4 2 53 -3.13066 0 226 -3.13066 1
gene 4 53 23 5.0128 0 227 5.0128 1
gene 2 53 27 -2.64456 0 238 -2.64456 1
gene 4 5 64 2.73905 0 277 2.73905 1
gene 4 64 47 1.58782 0 278 1.58782 1
gene 7 19 47 -1.29707 0 338 -1.29707 1
gene 4 7 23 0.757289 0 366 0.757289 1
gene 4 3 89 -2.03131 0 375 -2.03131 1
gene 4 89 8 -0.365265 0 376 -0.365265 1
gene 6 53 64 0.663328 0 399 0 1
gene 7 53 8 -0.823763 0 417 0 1
genomeend 10

/* Organism #11 Fitness: 41 Error: 0 */
genomestart 11
trait 1 0.1 0 0 0 0 0 0 0 
trait 2 0.2 0 0 0 0 0 0 0 
trait 3 0.3 0 0 0 0 0 0 0 
trait 4 0 0 0 0 0 0 0 0 
trait 5 0.5 0 0 0 0 0 0 0 
trait 6 0.378347 0 0 0.742295 0 0.359265 0 0.227462 
trait 7 0.7 0 0 0 0 0 0 0 
trait 8 0.8 0 0 0 0 0 0 0 
node 1 3 1 3
node 2 5 1 1
node 3 4 1 1
node 4 6 1 1
node 5 3 1 1
node 6 3 1 1
node 7 8 1 1
node 8 1 0 2
node 14 1 0 0
node 19 1 0 0
node 23 2 0 0
node 27 3 0 0
node 47 1 0 0
node 53 1 0 0
node 64 1 0 0
node 89 1 0 0
gene 7 1 8 -0.300578 0 1 -0.300578 1
gene 6 2 8 -2.1114 0 2 -2.1114 1
gene 4 3 8 -0.201626 0 3 -0.201626 0
gene 5 4 8 0.742571 0 4 0.742571 1
gene 5 5 8 -8 0 5 -8 1
gene 3 6 8 6.23827 0 6 6.23827 1
gene 7 7 8 -4.67998 0 7 -4.67998 1
gene 5 5 14 1.01295 0 18 1.01295 1
gene 5 14 8 -1.04166 0 19 -1.04166 1
gene 5 1 14 -1.67828 0 22 -1.67828 1
gene 7 3 14 3.14092 0 24 3.14092 1
gene 4 4 14 -6.83577 0 39 -6.83577 1
gene 4 3 19 2.19119 0 47 2.19119 1
gene 4 19 8 5.606 0 48 5.606 1
gene 4 6 14 0.994119 0 50 0.994119 1
gene 4 19 23 -1.0715 0 63 -1.0715 1
gene 4 23 8 -0.803505 0 64 -0.803505 1
gene 2 23 14 -0.882206 0 70 -0.882206 1
gene 4 23 27 4.61614 0 79 4.61614 1
gene 4 27 8 1.91196 0 80 1.91196 1
gene 7 1 19 1.37536 0 83 1.37536 1
gene 4 5 27 8 0 92 8 0
gene 2 2 19 1.49938 0 108 1.49938 1
gene 8 6 23 0.658066 0 115 0.658066 1
gene 4 2 23 -3.88852 0 124 -3.88852 0
gene 8 4 19 -1.64777 0 153 -1.64777 1
gene 4 5 47 -2.48356 0 181 -2.48356 1
gene 4 47 27 0.668333 0 182 0.668333 1
gene 7 27 14 -3.60958 0 193 -3.60958 1
gene 4 4 27 -1.80112 0 212 -1.80112 1
gene 1 2 27 3.68051 0 222 3.68051 1
gene 4 2 53 -3.13066 0 226 -3.13066 1
gene 4 53 23 5.0128 0 227 5.0128 1
gene 2 53 27 -2.64456 0 238 -2.64456 1
gene 4 5 64 2.73905 0 277 2.73905 1
gene 4 64 47 1.58782 0 278 1.58782 1
gene 7 19 47 -1.29707 0 338 -1.29707 1
gene 4 7 23 0.757289 0 366 0.757289 1
gene 4 3 89 -2.03131 0 375 -2.03131 1
gene 4 89 8 -0.365265 0 376 -0.365265 1
gene 6 53 64 0.663328 0 399 0 1
gene 1 1 23 0.770472 0 410 0.770472 1
genomeend 11

/* Organism #12 Fitness: 56 Error: 0 */
/* ##------$ WINNER 12 SPECIES #38 $------## */
genomestart 12
trait 1 0.1 0 0 0 0 0 0 0 
trait 2 0.2 0 0 0 0 0 0 0 
trait 3 0.3 0 0 0 0 0 0 0 
trait 4 0 0 0 0 0 0 0 0 
trait 5 0.5 0 0 0 0 0 0 0 
trait 6 0.378347 0 0 0.742295 0 0.359265 0 0.227462 
trait 7 0.7 0 0 0 0 0 0 0 
trait 8 0.8 0 0 0 0 0 0 0 
node 1 3 1 3
node 2 5 1 1
node 3 4 1 1
node 4 6 1 1
node 5 3 1 1
node 6 3 1 1
node 7 8 1 1
node 8 1 0 2
node 14 1 0 0
node 19 1 0 0
node 23 2 0 0
node 27 3 0 0
node 47 1 0 0
node 53 1 0 0
node 64 1 0 0
node 89 1 0 0
gene 7 1 8 0.370447 0 1 0.370447 1
gene 6 2 8 -1.34518 0 2 -1.34518 1
gene 4 3 8 -0.801086 0 3 -0.801086 0
gene 5 4 8 -0.984795 0 4 -0.984795 1
gene 5 5 8 -8 0 5 -8 1
gene 3 6 8 6.23827 0 6 6.23827 1
gene 7 7 8 -3.24079 0 7 -3.24079 1
gene 5 5 14 0.826311 0 18 0.826311 1
gene 5 14 8 -0.0231538 0 19 -0.0231538 1
gene 5 1 14 2.32548 0 22 2.32548 1
gene 7 3 14 4.12393 0 24 4.12393 1
gene 4 4 14 -6.83577 0 39 -6.83577 1
gene 4 3 19 4.41024 0 47 4.41024 1
gene 4 19 8 5.606 0 48 5.606 1
gene 4 6 14 -0.188189 0 50 -0.188189 1
gene 4 19 23 -2.27855 0 63 -2.27855 1
gene 4 23 8 -1.70491 0 64 -1.70491 1
gene 2 23 14 -3.23942 0 70 -3.23942 1
gene 4 23 27 2.43997 0 79 2.43997 1
gene 4 27 8 1.91196 0 80 1.91196 1
gene 7 1 19 2.63992 0 83 2.63992 1
gene 4 5 27 8 0 92 8 0
gene 2 2 19 3.88856 0 108 3.88856 1
gene 8 6 23 0.658066 0 115 0.658066 1
gene 4 2 23 -4.78808 0 124 -4.78808 0
gene 8 4 19 -0.886013 0 153 -0.886013 1
gene 4 5 47 -1.73744 0 181 -1.73744 0
gene 4 47 27 2.22698 0 182 2.22698 1
gene 7 27 14 -1.66063 0 193 -1.66063 1
gene 4 4 27 1.48284 0 212 1.48284 1
gene 1 2 27 5.19544 0 222 5.19544 1
gene 4 2 53 -3.34689 0 226 -3.34689 1
gene 4 53 23 6.44471 0 227 6.44471 1
gene 2 53 27 -3.60764 0 238 -3.60764 1
gene 4 5 64 2.73905 0 277 2.73905 1
gene 4 64 47 0.291523 0 278 0.291523 1
gene 7 19 47 -3.61298 0 338 -3.61298 1
gene 4 7 23 -0.0351088 0 366 -0.0351088 1
gene 4 3 89 -2.03131 0 375 -2.03131 1
gene 4 89 8 1.78545 0 376 1.78545 1
gene 6 53 64 -2.3911 0 399 -2.3911 1
genomeend 12

/* Organism #13 Fitness: 30 Error: 0 */
/* ##------$ WINNER 13 SPECIES #38 $------## */
genomestart 13
trait 1 0.1 0 0 0 0 0 0 0 
trait 2 0.2 0 0 0 0 0 0 0 
trait 3 0.3 0 0 0 0 0 0 0 
trait 4 0 0 0 0 0 0 0 0 
trait 5 0.5 0 0 0 0 0 0 0 
trait 6 0.378347 0 0 0.742295 0 0.359265 0 0.227462 
trait 7 0.7 0 0 0 0 0 0 0 
trait 8 0.8 0 0 0 0 0 0 0 
node 1 3 1 3
node 2 5 1 1
node 3 4 1 1
node 4 6 1 1
node 5 3 1 1
node 6 3 1 1
node 7 8 1 1
node 8 7 0 2
node 14 1 0 0
node 19 1 0 0
node 23 2 0 0
node 27 3 0 0
node 47 1 0 0
node 53 1 0 0
node 64 1 0 0
node 89 1 0 0
gene 7 1 8 0.800999 0 1 0.800999 1
gene 6 2 8 -2.00804 0 2 -2.00804 1
gene 4 3 8 -0.373695 0 3 -0.373695 0
gene 5 4 8 -0.814165 0 4 -0.814165 1
gene 5 5 8 -6.30087 0 5 -6.30087 1
gene 3 6 8 1.89554 0 6 1.89554 1
gene 7 7 8 -3.16459 0 7 -3.16459 1
gene 5 5 14 1.88508 0 18 1.88508 1
gene 5 14 8 0.209905 0 19 0.209905 1
gene 5 1 14 -1.67828 0 22 -1.67828 1
gene 7 3 14 2.6768 0 24 2.6768 1
gene 4 4 14 -6.80312 0 39 -6.80312 1
gene 4 3 19 3.52711 0 47 3.52711 1
gene 4 19 8 6.49666 0 48 6.49666 1
gene 4 6 14 -0.0692201 0 50 -0.0692201 1
gene 4 19 23 -0.319074 0 63 -0.319074 1
gene 4 23 8 0.116486 0 64 0.116486 1
gene 2 23 14 0.84125 0 70 0.84125 1
gene 4 23 27 2.2469 0 79 2.2469 1
gene 4 27 8 1.75864 0 80 1.75864 1
gene 7 1 19 3.17751 0 83 3.17751 1
gene 4 5 27 8 0 92 8 0
gene 2 2 19 4.52802 0 108 4.52802 1
gene 8 6 23 -2.43637 0 115 -2.43637 1
gene 4 2 23 -2.57583 0 124 -2.57583 0
gene 8 4 19 -4.02715 0 153 -4.02715 1
gene 4 5 47 0.0588245 0 181 0.0588245 0
gene 4 47 27 0.668333 0 182 0.668333 1
gene 7 27 14 -3.60958 0 193 -3.60958 1
gene 4 4 27 -3.05839 0 212 -3.05839 1
gene 1 2 27 3.75954 0 222 3.75954 1
gene 4 2 53 -4.68519 0 226 -4.68519 1
gene 4 53 23 0.819436 0 227 0.819436 1
gene 2 53 27 -1.27053 0 238 -1.27053 1
gene 4 5 64 0.871801 0 277 0.871801 1
gene 4 64 47 3.76172 0 278 3.76172 1
gene 7 19 47 -3.41607 0 338 -3.41607 1
gene 4 7 23 -0.946405 0 366 -0.946405 1
gene 4 3 89 -1.20823 0 375 -1.20823 1
gene 4 89 8 0.993417 0 376 0.993417 1
gene 6 53 64 2.4148 0 399 2.4148 1
genomeend 13

/* Organism #14 Fitness: 92 Error: 0 */
/* ##------$ WINNER 14 SPECIES #38 $------## */
genomestart 14
trait 1 0.1 0 0 0 0 0 0 0 
trait 2 0.2 0 0 0 0 0 0 0 
trait 3 0.3 0 0 0 0 0 0 0 
trait 4 0 0 0 0 0 0 0 0 
trait 5 0.5 0 0 0 0 0 0 0 
trait 6 0.378347 0 0 0.742295 0 0.359265 0 0.227462 
trait 7 0.7 0 0 0 0 0 0 0 
trait 8 0.8 0 0 0 0 0 0 0 
node 1 3 1 3
node 2 5 1 1
node 3 4 1 1
node 4 6 1 1
node 5 3 1 1
node 6 3 1 1
node 7 8 1 1
node 8 1 0 2
node 14 1 0 0
node 19 1 0 0
node 23 2 0 0
node 27 3 0 0
node 47 1 0 0
node 53 1 0 0
node 64 1 0 0
node 89 1 0 0
gene 7 1 8 -0.300578 0 1 -0.300578 1
gene 6 2 8 -2.55029 0 2 -2.55029 1
gene 4 3 8 -0.27609 0 3 -0.27609 0
gene 5 4 8 0.742571 0 4 0.742571 1
gene 5 5 8 -5.90007 0 5 -5.90007 1
gene 3 6 8 6.46788 0 6 6.46788 1
gene 7 7 8 -5.12647 0 7 -5.12647 1
gene 5 5 14 1.01295 0 18 1.01295 1
gene 5 14 8 -1.24032 0 19 -1.24032 1
gene 5 1 14 0.367098 0 22 0.367098 1
gene 7 3 14 3.10056 0 24 3.10056 1
gene 4 4 14 -6.83577 0 39 -6.83577 1
gene 4 3 19 1.83087 0 47 1.83087 1
gene 4 19 8 5.606 0 48 5.606 1
gene 4 6 14 0.780252 0 50 0.780252 1
gene 4 19 23 -1.0715 0 63 -1.0715 1
gene 4 23 8 1.22378 0 64 1.22378 1
gene 2 23 14 -0.882206 0 70 -0.882206 1
gene 4 23 27 4.61614 0 79 4.61614 1
gene 4 27 8 1.91196 0 80 1.91196 1
gene 7 1 19 1.05133 0 83 1.05133 1
gene 4 5 27 8 0 92 8 0
gene 2 2 19 1.49938 0 108 1.49938 1
gene 8 6 23 0.658066 0 115 0.658066 1
gene 4 2 23 -2.84646 0 124 -2.84646 0
gene 8 4 19 0.786368 0 153 0.786368 1
gene 4 5 47 -0.00843705 0 181 -0.00843705 0
gene 4 47 27 0.668333 0 182 0.668333 1
gene 7 27 14 -1.29935 0 193 -1.29935 1
gene 4 4 27 -1.80112 0 212 -1.80112 1
gene 1 2 27 3.68051 0 222 3.68051 1
gene 4 2 53 -3.69946 0 226 -3.69946 1
gene 4 53 23 5.0128 0 227 5.0128 1
gene 2 53 27 2.20289 0 238 2.20289 1
gene 4 5 64 2.73905 0 277 2.73905 1
gene 4 64 47 1.58782 0 278 1.58782 1
gene 7 19 47 0.0270396 0 338 0.0270396 1
gene 4 7 23 0.757289 0 366 0.757289 1
gene 4 3 89 -0.394258 0 375 -0.394258 1
gene 4 89 8 -0.365265 0 376 -0.365265 1
gene 6 53 64 0.663328 0 399 0 1
gene 1 1 23 0.770472 0 410 0.770472 1
genomeend 14

/* Organism #15 Fitness: 0 Error: 0 */
genomestart 15
trait 1 0.1 0 0 0 0 0 0 0 
trait 2 0.2 0 0 0 0 0 0 0 
trait 3 0.3 0 0 0 0 0 0 0 
trait 4 0 0 0 0 0 0 0 0 
trait 5 0.5 0 0 0 0 0 0 0 
trait 6 0.378347 0 0 0.742295 0 0.359265 0 0.227462 
trait 7 0.7 0 0 0 0 0 0 0 
trait 8 0.8 0 0 0 0 0 0 0 
node 1 3 1 3
node 2 5 1 1
node 3 4 1 1
node 4 6 1 1
node 5 3 1 1
node 6 3 1 1
node 7 8 1 1
node 8 7 0 2
node 14 1 0 0
node 19 1 0 0
node 23 2 0 0
node 27 3 0 0
node 47 1 0 0
node 53 1 0 0
node 64 1 0 0
node 89 1 0 0
gene 7 1 8 -1.76002 0 1 -1.76002 1
gene 6 2 8 -0.951592 0 2 -0.951592 1
gene 4 3 8 -0.201626 0 3 -0.201626 0
gene 5 4 8 0.496114 0 4 0.496114 1
gene 5 5 8 -8 0 5 -8 1
gene 3 6 8 -0.127647 0 6 -0.127647 1
gene 7 7 8 -0.92237 0 7 -0.92237 1
gene 5 5 14 2.23528 0 18 2.23528 1
gene 5 14 8 1.16039 0 19 1.16039 1
gene 5 1 14 -1.91969 0 22 -1.91969 1
gene 7 3 14 4.69269 0 24 4.69269 1
gene 4 4 14 -7.51919 0 39 -7.51919 1
gene 4 3 19 2.19119 0 47 2.19119 1
gene 4 19 8 -0.0955535 0 48 -0.0955535 1
gene 4 6 14 -1.60369 0 50 -1.60369 1
gene 4 19 23 -0.0330429 0 63 -0.0330429 1
gene 4 23 8 -0.422617 0 64 -0.422617 1
gene 2 23 14 -2.41655 0 70 -2.41655 1
gene 4 23 27 4.61614 0 79 4.61614 1
gene 4 27 8 2.22 0 80 2.22 1
gene 7 1 19 -0.809941 0 83 -0.809941 1
gene 4 5 27 8 0 92 8 0
gene 2 2 19 0.311252 0 108 0.311252 1
gene 8 6 23 -0.620043 0 115 -0.620043 1
gene 4 2 23 -0.29303 0 124 -0.29303 0
gene 8 4 19 0.227021 0 153 0.227021 1
gene 4 5 47 -0.970533 0 181 -0.970533 0
gene 4 47 27 2.40142 0 182 2.40142 1
gene 7 27 14 -3.19959 0 193 -3.19959 1
gene 4 4 27 -3.01683 0 212 -3.01683 1
gene 1 2 27 -0.370706 0 222 -0.370706 1
gene 4 2 53 -4.96509 0 226 -4.96509 1
gene 4 53 23 1.76667 0 227 1.76667 1
gene 2 53 27 -4.57214 0 238 -4.57214 1
gene 4 5 64 2.80266 0 277 2.80266 1
gene 4 64 47 2.97819 0 278 2.97819 1
gene 7 19 47 -1.29707 0 338 -1.29707 1
gene 4 7 23 3.17867 0 366 3.17867 1
gene 4 3 89 -3.80163 0 375 -3.80163 1
gene 4 89 8 -1.64965 0 376 -1.64965 1
gene 6 53 64 -0.541635 0 399 -0.541635 1
genomeend 15

/* Organism #16 Fitness: 31 Error: 0 */
genomestart 16
trait 1 0.1 0 0 0 0 0 0 0 
trait 2 0.2 0.547402 0 0.701471 0.568974 0 0 0 
trait 3 0.3 0 0 0 0 0 0 0 
trait 4 0 0 0 0 0 0 0 0 
trait 5 0.5 0 0 0 0 0 0 0 
trait 6 0.378347 0 0 0.742295 0 0.359265 0 0.227462 
trait 7 0.7 0 0 0 0 0 0 0 
trait 8 0.8 0 0 0 0 0 0 0 
node 1 3 1 3
node 2 5 1 1
node 3 4 1 1
node 4 6 1 1
node 5 3 1 1
node 6 3 1 1
node 7 8 1 1
node 8 1 0 2
node 14 1 0 0
node 19 1 0 0
node 23 2 0 0
node 27 3 0 0
node 47 1 0 0
node 53 1 0 0
node 64 1 0 0
node 89 1 0 0
gene 7 1 8 -1.67793 0 1 -1.67793 1
gene 6 2 8 -2.33085 0 2 -2.33085 1
gene 4 3 8 -2.29446 0 3 -2.29446 1
gene 5 4 8 -1.14277 0 4 -1.14277 1
gene 5 5 8 -8 0 5 -8 1
gene 3 6 8 -1.32583 0 6 -1.32583 1
gene 7 7 8 -5.70373 0 7 -5.70373 1
gene 5 5 14 -1.05928 0 18 -1.05928 1
gene 5 14 8 -1.06865 0 19 -1.06865 1
gene 5 1 14 -1.26519 0 22 -1.26519 1
gene 7 3 14 -0.19258 0 24 -0.19258 1
gene 4 4 14 -0.309043 0 39 -0.309043 1
gene 4 3 19 0.720782 0 47 0.720782 1
gene 4 19 8 8 0 48 8 1
gene 4 6 14 1.03597 0 50 1.03597 1
gene 4 19 23 1.39341 0 63 1.39341 1
gene 4 23 8 2.10185 0 64 2.10185 1
gene 2 23 14 -1.33293 0 70 -1.33293 1
gene 4 23 27 6.80731 0 79 6.80731 1
gene 4 27 8 -1.06159 0 80 -1.06159 1
gene 7 1 19 1.48607 0 83 1.48607 1
gene 4 5 27 8 0 92 8 1
gene 2 2 19 4.50701 0 108 4.50701 1
gene 8 6 23 -0.754105 0 115 -0.754105 1
gene 4 2 23 -2.06826 0 124 -2.06826 0
gene 8 4 19 -2.36528 0 153 -2.36528 1
gene 4 5 47 -0.918373 0 181 -0.918373 1
gene 4 47 27 0.149008 0 182 0.149008 1
gene 7 27 14 -2.45447 0 193 -2.45447 1
gene 4 4 27 -2.42975 0 212 -2.42975 1
gene 1 2 27 0.949339 0 222 0.949339 1
gene 4 2 53 -2.45983 0 226 -2.45983 1
gene 4 53 23 1.35488 0 227 1.35488 1
gene 2 53 27 1.48303 0 238 1.48303 1
gene 4 5 64 3.07441 0 277 3.07441 1
gene 4 64 47 -0.999462 0 278 -0.999462 1
gene 7 19 47 0.249991 0 338 0.249991 1
gene 4 7 23 -2.36003 0 366 -2.36003 1
gene 4 3 89 -0.294559 0 375 -0.294559 1
gene 4 89 8 -0.693821 0 376 -0.693821 1
gene 6 53 64 -0.720826 0 399 -0.720826 1
gene 1 1 23 0.417449 0 410 0.417449 1
genomeend 16

/* Species #40 : (Size 1) (AF 0) (Age 1)  */


/* Organism #17 Fitness: 0 Error: 0 */
genomestart 17
trait 1 0.1 0 0 0 0 0 0 0 
trait 2 0.2 0 0 0 0 0 0 0 
trait 3 0.3 0 0 0 0 0 0 0 
trait 4 0 0 0 0 0 0 0 0 
trait 5 0.5 0 0 0 0 0 0 0 
trait 6 0.378347 0 0 0.742295 0 0.359265 0 0.227462 
trait 7 0.7 0 0 0 0 0 0 0 
trait 8 0.8 0 0 0 0 0 0 0 
node 1 3 1 3
node 2 5 1 1
node 3 4 1 1
node 4 6 1 1
node 5 3 1 1
node 6 3 1 1
node 7 8 1 1
node 8 1 0 2
node 14 1 0 0
node 19 1 0 0
node 23 2 0 0
node 27 3 0 0
node 47 1 0 0
node 53 1 0 0
node 64 1 0 0
node 89 1 0 0
node 100 1 0 0
gene 7 1 8 -1.01751 0 1 -1.01751 1
gene 6 2 8 -2.55029 0 2 -2.55029 1
gene 4 3 8 -0.27609 0 3 -0.27609 0
gene 5 4 8 1.39618 0 4 1.39618 1
gene 5 5 8 -5.90007 0 5 -5.90007 1
gene 3 6 8 6.46788 0 6 6.46788 1
gene 7 7 8 -5.12647 0 7 -5.12647 0
gene 5 5 14 1.88508 0 18 1.88508 1
gene 5 14 8 -1.24032 0 19 -1.24032 1
gene 5 1 14 0.367098 0 22 0.367098 1
gene 7 3 14 3.10056 0 24 3.10056 1
gene 4 4 14 -8 0 39 -8 1
gene 4 3 19 1.83087 0 47 1.83087 1
gene 4 19 8 6.49666 0 48 6.49666 1
gene 4 6 14 0.780252 0 50 0.780252 1
gene 4 19 23 -3.14573 0 63 -3.14573 1
gene 4 23 8 1.22378 0 64 1.22378 1
gene 2 23 14 0.84125 0 70 0.84125 1
gene 4 23 27 4.99806 0 79 4.99806 1
gene 4 27 8 0.892944 0 80 0.892944 1
gene 7 1 19 1.05133 0 83 1.05133 1
gene 4 5 27 8 0 92 8 0
gene 2 2 19 3.95752 0 108 3.95752 1
gene 8 6 23 1.24051 0 115 1.24051 1
gene 4 2 23 -2.84646 0 124 -2.84646 0
gene 8 4 19 0.786368 0 153 0.786368 1
gene 4 5 47 -0.00843705 0 181 -0.00843705 0
gene 4 47 27 2.64608 0 182 2.64608 1
gene 7 27 14 -1.29935 0 193 -1.29935 1
gene 4 4 27 -3.05839 0 212 -3.05839 1
gene 1 2 27 2.87417 0 222 2.87417 1
gene 4 2 53 -3.69946 0 226 -3.69946 1
gene 4 53 23 2.74404 0 227 2.74404 1
gene 2 53 27 2.20289 0 238 2.20289 1
gene 4 5 64 -0.0189522 0 277 -0.0189522 1
gene 4 64 47 1.51405 0 278 1.51405 1
gene 7 19 47 0.0270396 0 338 0.0270396 1
gene 4 7 23 -1.13434 0 366 -1.13434 1
gene 4 3 89 -0.394258 0 375 -0.394258 1
gene 4 89 8 0.546093 0 376 0.546093 1
gene 6 53 64 2.11081 0 399 2.11081 1
gene 7 7 100 1 0 418 0 1
gene 7 100 8 -5.12647 0 419 0 1
genomeend 17

/* Species #41 : (Size 2) (AF 21.5) (Age 1)  */


/* Organism #18 Fitness: 0 Error: 0 */
genomestart 18
trait 1 0.1 0 0 0 0 0 0 0 
trait 2 0.2 0 0 0 0 0 0 0 
trait 3 0.3 0 0 0 0 0 0 0 
trait 4 0 0 0 0 0 0 0 0 
trait 5 0.5 0 0 0 0 0 0 0 
trait 6 0.378347 0 0 0.742295 0 0.359265 0 0.227462 
trait 7 0.7 0 0 0 0 0 0 0 
trait 8 0.8 0 0 0 0 0 0 0 
node 1 3 1 3
node 2 5 1 1
node 3 4 1 1
node 4 6 1 1
node 5 3 1 1
node 6 3 1 1
node 7 8 1 1
node 8 1 0 2
node 14 1 0 0
node 19 1 0 0
node 23 2 0 0
node 27 3 0 0
node 47 1 0 0
node 53 1 0 0
node 64 1 0 0
node 89 1 0 0
node 98 1 0 0
gene 7 1 8 1.47243 0 1 1.47243 1
gene 6 2 8 -3.30763 0 2 -3.30763 1
gene 4 3 8 -0.356891 0 3 -0.356891 0
gene 5 4 8 3.17403 0 4 3.17403 1
gene 5 5 8 -8 0 5 -8 1
gene 3 6 8 6.88122 0 6 6.88122 1
gene 7 7 8 -3.83304 0 7 -3.83304 1
gene 5 5 14 -0.43896 0 18 -0.43896 1
gene 5 14 8 -0.983286 0 19 -0.983286 0
gene 5 1 14 1.15216 0 22 1.15216 1
gene 7 3 14 3.02948 0 24 3.02948 1
gene 4 4 14 -6.96361 0 39 -6.96361 1
gene 4 3 19 -0.175758 0 47 -0.175758 1
gene 4 19 8 3.18717 0 48 3.18717 1
gene 4 6 14 1.479 0 50 1.479 1
gene 4 19 23 0.580823 0 63 0.580823 1
gene 4 23 8 -1.99889 0 64 -1.99889 1
gene 2 23 14 0.789314 0 70 0.789314 1
gene 4 23 27 7.05423 0 79 7.05423 1
gene 4 27 8 1.91196 0 80 1.91196 1
gene 7 1 19 1.37536 0 83 1.37536 1
gene 4 5 27 -1.66564 0 92 -1.66564 0
gene 2 2 19 1.49938 0 108 1.49938 1
gene 8 6 23 0.658066 0 115 0.658066 1
gene 4 2 23 -1.13518 0 124 -1.13518 0
gene 8 4 19 -1.12819 0 153 -1.12819 1
gene 4 5 47 -0.856688 0 181 -0.856688 0
gene 4 47 27 0.668333 0 182 0.668333 1
gene 7 27 14 -5.15145 0 193 -5.15145 1
gene 4 4 27 -2.3327 0 212 -2.3327 1
gene 1 2 27 6.18027 0 222 6.18027 1
gene 4 2 53 -4.85009 0 226 -4.85009 1
gene 4 53 23 5.0128 0 227 5.0128 1
gene 2 53 27 0.657189 0 238 0.657189 1
gene 4 5 64 3.20106 0 277 3.20106 1
gene 4 64 47 2.73105 0 278 2.73105 1
gene 7 19 47 -0.453237 0 338 -0.453237 1
gene 4 7 23 -0.410757 0 366 -0.410757 1
gene 4 3 89 -3.32721 0 375 -3.32721 1
gene 4 89 8 0.692397 0 376 0.692397 1
gene 6 53 64 1.51152 0 399 1.51152 1
gene 5 14 98 0.221067 0 411 0.221067 1
gene 5 98 8 -0.0639282 0 412 -0.0639282 1
genomeend 18

/* Organism #19 Fitness: 43 Error: 0 */
genomestart 19
trait 1 0.1 0 0 0 0 0 0 0 
trait 2 0.2 0 0 0 0 0 0 0 
trait 3 0.3 0 0 0 0 0 0 0 
trait 4 0 0 0 0 0 0 0 0 
trait 5 0.5 0 0 0 0 0 0 0 
trait 6 0.378347 0 0 0.742295 0 0.359265 0 0.227462 
trait 7 0.7 0 0 0 0 0 0 0 
trait 8 0.8 0 0 0 0 0 0 0 
node 1 3 1 3
node 2 5 1 1
node 3 4 1 1
node 4 6 1 1
node 5 3 1 1
node 6 3 1 1
node 7 8 1 1
node 8 1 0 2
node 14 1 0 0
node 19 1 0 0
node 23 2 0 0
node 27 3 0 0
node 47 1 0 0
node 53 1 0 0
node 64 1 0 0
node 89 1 0 0
node 98 1 0 0
gene 7 1 8 -2.08445 0 1 -2.08445 1
gene 6 2 8 -3.80899 0 2 -3.80899 1
gene 4 3 8 -0.356451 0 3 -0.356451 0
gene 5 4 8 2.16675 0 4 2.16675 1
gene 5 5 8 0.627291 0 5 0.627291 1
gene 3 6 8 7.64351 0 6 7.64351 1
gene 7 7 8 -7.10231 0 7 -7.10231 1
gene 5 5 14 2.08747 0 18 2.08747 1
gene 5 14 8 -1.89658 0 19 -1.89658 0
gene 5 1 14 0.990659 0 22 0.990659 1
gene 7 3 14 1.80965 0 24 1.80965 1
gene 4 4 14 -8 0 39 -8 1
gene 4 3 19 -1.51489 0 47 -1.51489 1
gene 4 19 8 6.49666 0 48 6.49666 1
gene 4 6 14 0.53501 0 50 0.53501 1
gene 4 19 23 -2.12491 0 63 -2.12491 1
gene 4 23 8 0.854089 0 64 0.854089 1
gene 2 23 14 -0.246337 0 70 -0.246337 1
gene 4 23 27 3.54647 0 79 3.54647 1
gene 4 27 8 0.892944 0 80 0.892944 1
gene 7 1 19 2.41154 0 83 2.41154 1
gene 4 5 27 -0.0284581 0 92 -0.0284581 0
gene 2 2 19 1.67541 0 108 1.67541 1
gene 8 6 23 2.76324 0 115 2.76324 1
gene 4 2 23 -3.88852 0 124 -3.88852 0
gene 8 4 19 2.37326 0 153 2.37326 1
gene 4 5 47 0.045753 0 181 0.045753 0
gene 4 47 27 0.854272 0 182 0.854272 1
gene 7 27 14 -3.16192 0 193 -3.16192 1
gene 4 4 27 -3.09628 0 212 -3.09628 1
gene 1 2 27 2.87417 0 222 2.87417 1
gene 4 2 53 -3.13066 0 226 -3.13066 1
gene 4 53 23 4.0038 0 227 4.0038 1
gene 2 53 27 -3.18148 0 238 -3.18148 1
gene 4 5 64 -2.32917 0 277 -2.32917 1
gene 4 64 47 -0.675981 0 278 -0.675981 1
gene 7 19 47 1.77311 0 338 1.77311 1
gene 4 7 23 1.45558 0 366 1.45558 1
gene 4 3 89 -0.208452 0 375 -0.208452 1
gene 4 89 8 -0.365265 0 376 -0.365265 1
gene 6 53 64 -1.60606 0 399 -1.60606 1
gene 5 14 98 2.41329 0 411 2.41329 1
gene 5 98 8 0.00048506 0 412 0.00048506 1
genomeend 19
