
/* Species #41 : (Size 8) (AF 38.125) (Age 3)  */


/* Organism #0 Fitness: 72 Error: 0 */
/* ##------$ WINNER 0 SPECIES #41 $------## */
genomestart 0
trait 1 0.1 0 0 0 0 0 0 0 
trait 2 0.2 0 0 0 0 0 0 0 
trait 3 0.3 0 0 0 0 0 0 0 
trait 4 0 0 0 0 0 0 0 0 
trait 5 0.5 0 0 0 0 0 0 0 
trait 6 0.378347 0 0 0.742295 0 0.359265 0 0.227462 
trait 7 0.7 0 0 0 0 0 0 0 
trait 8 0.8 0 0 0 0 0 0 0 
node 1 3 1 3
node 2 5 1 1
node 3 4 1 1
node 4 6 1 1
node 5 3 1 1
node 6 3 1 1
node 7 8 1 1
node 8 1 0 2
node 14 1 0 0
node 19 1 0 0
node 23 2 0 0
node 27 3 0 0
node 47 1 0 0
node 53 1 0 0
node 64 1 0 0
node 89 1 0 0
node 98 1 0 0
gene 7 1 8 -1.21584 0 1 -1.21584 1
gene 6 2 8 -2.29015 0 2 -2.29015 1
gene 4 3 8 -0.356451 0 3 -0.356451 0
gene 5 4 8 0.739698 0 4 0.739698 1
gene 5 5 8 0.36187 0 5 0.36187 1
gene 3 6 8 -1.89784 0 6 -1.89784 1
gene 7 7 8 -8 0 7 -8 1
gene 5 5 14 2.08747 0 18 2.08747 1
gene 5 14 8 -1.3797 0 19 -1.3797 0
gene 5 1 14 -0.503059 0 22 -0.503059 1
gene 7 3 14 4.19571 0 24 4.19571 1
gene 4 4 14 -8 0 39 -8 1
gene 4 3 19 -3.25294 0 47 -3.25294 1
gene 4 19 8 8 0 48 8 1
gene 4 6 14 -0.0537416 0 50 -0.0537416 1
gene 4 19 23 -1.53019 0 63 -1.53019 1
gene 4 23 8 -1.64257 0 64 -1.64257 1
gene 2 23 14 -2.68931 0 70 -2.68931 1
gene 4 23 27 3.21145 0 79 3.21145 1
gene 4 27 8 2.3454 0 80 2.3454 1
gene 7 1 19 4.16125 0 83 4.16125 1
gene 4 5 27 0.511554 0 92 0.511554 0
gene 2 2 19 2.01058 0 108 2.01058 1
gene 8 6 23 2.91727 0 115 2.91727 1
gene 4 2 23 -2.02641 0 124 -2.02641 0
gene 8 4 19 3.21308 0 153 3.21308 1
gene 4 5 47 0.473014 0 181 0.473014 0
gene 4 47 27 -1.02785 0 182 -1.02785 1
gene 7 27 14 -3.16192 0 193 -3.16192 1
gene 4 4 27 -1.20372 0 212 -1.20372 1
gene 1 2 27 1.34445 0 222 1.34445 1
gene 4 2 53 -3.85021 0 226 -3.85021 1
gene 4 53 23 3.02292 0 227 3.02292 1
gene 2 53 27 -2.02224 0 238 -2.02224 1
gene 4 5 64 -2.51085 0 277 -2.51085 1
gene 4 64 47 0.137645 0 278 0.137645 1
gene 7 19 47 1.77311 0 338 1.77311 1
gene 4 7 23 -0.986965 0 366 -0.986965 1
gene 4 3 89 1.72659 0 375 1.72659 1
gene 4 89 8 0.456636 0 376 0.456636 1
gene 6 53 64 -2.82827 0 399 -2.82827 1
gene 5 14 98 2.72685 0 411 2.72685 1
gene 5 98 8 1.83426 0 412 1.83426 1
genomeend 0

/* Organism #1 Fitness: 22 Error: 0 */
genomestart 1
trait 1 0.1 0 0 0 0 0 0 0 
trait 2 0.2 0 0 0 0 0 0 0 
trait 3 0.3 0 0 0 0 0 0 0 
trait 4 0 0 0 0 0 0 0 0 
trait 5 0.5 0 0 0 0 0 0 0 
trait 6 0.378347 0 0 0.742295 0 0.359265 0 0.227462 
trait 7 0.7 0 0 0 0 0 0 0 
trait 8 0.8 0 0 0 0 0 0 0 
node 1 3 1 3
node 2 5 1 1
node 3 4 1 1
node 4 6 1 1
node 5 3 1 1
node 6 3 1 1
node 7 8 1 1
node 8 1 0 2
node 14 1 0 0
node 19 1 0 0
node 23 2 0 0
node 27 3 0 0
node 47 1 0 0
node 53 1 0 0
node 64 1 0 0
node 89 1 0 0
node 98 1 0 0
gene 7 1 8 -2.31209 0 1 -2.31209 1
gene 6 2 8 -3.77302 0 2 -3.77302 1
gene 4 3 8 -0.0637091 0 3 -0.0637091 0
gene 5 4 8 2.62423 0 4 2.62423 1
gene 5 5 8 0.873436 0 5 0.873436 1
gene 3 6 8 4.36867 0 6 4.36867 1
gene 7 7 8 -2.79475 0 7 -2.79475 1
gene 5 5 14 -2.07158 0 18 -2.07158 1
gene 5 14 8 -0.200322 0 19 -0.200322 0
gene 5 1 14 0.901188 0 22 0.901188 1
gene 7 3 14 1.68858 0 24 1.68858 1
gene 4 4 14 -6.42805 0 39 -6.42805 1
gene 4 3 19 -1.31345 0 47 -1.31345 1
gene 4 19 8 7.66847 0 48 7.66847 1
gene 4 6 14 2.66313 0 50 2.66313 1
gene 4 19 23 -2.19292 0 63 -2.19292 1
gene 4 23 8 -0.29521 0 64 -0.29521 1
gene 2 23 14 1.13947 0 70 1.13947 1
gene 4 23 27 4.47222 0 79 4.47222 1
gene 4 27 8 0.694266 0 80 0.694266 1
gene 7 1 19 1.43672 0 83 1.43672 1
gene 4 5 27 -3.83958 0 92 -3.83958 0
gene 2 2 19 1.3339 0 108 1.3339 1
gene 8 6 23 1.40333 0 115 1.40333 1
gene 4 2 23 -2.87044 0 124 -2.87044 0
gene 8 4 19 0.38728 0 153 0.38728 1
gene 4 5 47 4.14881 0 181 4.14881 0
gene 4 47 27 -3.64205 0 182 -3.64205 1
gene 7 27 14 -5.45262 0 193 -5.45262 1
gene 4 4 27 -2.36191 0 212 -2.36191 1
gene 1 2 27 1.27273 0 222 1.27273 1
gene 4 2 53 -0.373431 0 226 -0.373431 1
gene 4 53 23 -1.7115 0 227 -1.7115 1
gene 2 53 27 -2.22404 0 238 -2.22404 1
gene 4 5 64 0.251475 0 277 0.251475 1
gene 4 64 47 -1.4908 0 278 -1.4908 1
gene 7 19 47 0.415166 0 338 0.415166 1
gene 4 7 23 -1.09716 0 366 -1.09716 1
gene 4 3 89 -0.57009 0 375 -0.57009 1
gene 4 89 8 2.08694 0 376 2.08694 1
gene 6 53 64 -1.87588 0 399 -1.87588 1
gene 5 14 98 4.49347 0 411 4.49347 1
gene 5 98 8 2.40754 0 412 2.40754 1
genomeend 1

/* Organism #2 Fitness: 57 Error: 0 */
/* ##------$ WINNER 2 SPECIES #41 $------## */
genomestart 2
trait 1 0.1 0 0 0 0 0 0 0 
trait 2 0.2 0 0 0 0 0 0 0 
trait 3 0.3 0 0 0 0 0 0 0 
trait 4 0 0 0 0 0 0 0 0 
trait 5 0.5 0 0 0 0 0 0 0 
trait 6 0.378347 0 0 0.742295 0 0.359265 0 0.227462 
trait 7 0.7 0 0 0 0 0 0 0 
trait 8 0.8 0 0 0 0 0 0 0 
node 1 3 1 3
node 2 5 1 1
node 3 4 1 1
node 4 6 1 1
node 5 3 1 1
node 6 3 1 1
node 7 8 1 1
node 8 1 0 2
node 14 1 0 0
node 19 1 0 0
node 23 2 0 0
node 27 3 0 0
node 47 1 0 0
node 53 1 0 0
node 64 1 0 0
node 89 1 0 0
node 98 1 0 0
gene 7 1 8 -1.79317 0 1 -1.79317 1
gene 6 2 8 -3.12362 0 2 -3.12362 1
gene 4 3 8 0.793784 0 3 0.793784 0
gene 5 4 8 -1.32778 0 4 -1.32778 1
gene 5 5 8 -1.79661 0 5 -1.79661 1
gene 3 6 8 5.94557 0 6 5.94557 1
gene 7 7 8 -7.06671 0 7 -7.06671 1
gene 5 5 14 -1.6465 0 18 -1.6465 1
gene 5 14 8 -0.74777 0 19 -0.74777 0
gene 5 1 14 2.7573 0 22 2.7573 1
gene 7 3 14 2.93651 0 24 2.93651 1
gene 4 4 14 -8 0 39 -8 1
gene 4 3 19 -4.20107 0 47 -4.20107 1
gene 4 19 8 6.27188 0 48 6.27188 1
gene 4 6 14 0.469864 0 50 0.469864 1
gene 4 19 23 -2.13401 0 63 -2.13401 1
gene 4 23 8 -1.27756 0 64 -1.27756 1
gene 2 23 14 -2.56053 0 70 -2.56053 1
gene 4 23 27 1.74324 0 79 1.74324 1
gene 4 27 8 3.39961 0 80 3.39961 1
gene 7 1 19 2.82068 0 83 2.82068 1
gene 4 5 27 -3.00358 0 92 -3.00358 0
gene 2 2 19 4.03933 0 108 4.03933 1
gene 8 6 23 2.14219 0 115 2.14219 1
gene 4 2 23 -1.00872 0 124 -1.00872 0
gene 8 4 19 -1.60832 0 153 -1.60832 1
gene 4 5 47 2.81651 0 181 2.81651 0
gene 4 47 27 -1.09246 0 182 -1.09246 1
gene 7 27 14 -1.37987 0 193 -1.37987 1
gene 4 4 27 -3.43275 0 212 -3.43275 1
gene 1 2 27 3.29723 0 222 3.29723 1
gene 4 2 53 -5.68422 0 226 -5.68422 1
gene 4 53 23 3.92574 0 227 3.92574 1
gene 2 53 27 -3.92569 0 238 -3.92569 1
gene 4 5 64 -1.4146 0 277 -1.4146 1
gene 4 64 47 -2.13148 0 278 -2.13148 1
gene 7 19 47 4.08619 0 338 4.08619 1
gene 4 7 23 -0.986965 0 366 -0.986965 1
gene 4 3 89 0.794191 0 375 0.794191 1
gene 4 89 8 -1.95249 0 376 -1.95249 1
gene 6 53 64 1.50236 0 399 1.50236 1
gene 5 14 98 0.705705 0 411 0.705705 1
gene 5 98 8 1.83426 0 412 1.83426 1
genomeend 2

/* Organism #3 Fitness: 0.0002 Error: 0 */
genomestart 3
trait 1 0.1 0 0 0 0 0 0 0 
trait 2 0.2 0 0 0 0 0 0 0 
trait 3 0.3 0 0 0 0 0 0 0 
trait 4 0 0 0 0 0 0 0 0 
trait 5 0.5 0 0 0 0 0 0 0 
trait 6 0.378347 0 0 0.742295 0 0.359265 0 0.227462 
trait 7 0.7 0 0 0 0 0 0 0 
trait 8 0.8 0 0 0 0 0 0 0 
node 1 3 1 3
node 2 5 1 1
node 3 4 1 1
node 4 6 1 1
node 5 3 1 1
node 6 3 1 1
node 7 8 1 1
node 8 1 0 2
node 14 1 0 0
node 19 1 0 0
node 23 2 0 0
node 27 3 0 0
node 47 1 0 0
node 53 1 0 0
node 64 1 0 0
node 89 1 0 0
node 98 1 0 0
gene 7 1 8 -1.21584 0 1 -1.21584 1
gene 6 2 8 -2.29015 0 2 -2.29015 1
gene 4 3 8 -0.356451 0 3 -0.356451 0
gene 5 4 8 0.739698 0 4 0.739698 1
gene 5 5 8 0.36187 0 5 0.36187 1
gene 3 6 8 -1.89784 0 6 -1.89784 1
gene 7 7 8 -8 0 7 -8 1
gene 5 5 14 2.08747 0 18 2.08747 1
gene 5 14 8 -1.3797 0 19 -1.3797 0
gene 5 1 14 -0.503059 0 22 -0.503059 1
gene 7 3 14 4.19571 0 24 4.19571 1
gene 4 4 14 -8 0 39 -8 1
gene 4 3 19 -3.25294 0 47 -3.25294 1
gene 4 19 8 8 0 48 8 1
gene 4 6 14 -0.0537416 0 50 -0.0537416 1
gene 4 19 23 -1.53019 0 63 -1.53019 1
gene 4 23 8 -1.64257 0 64 -1.64257 1
gene 2 23 14 -2.68931 0 70 -2.68931 1
gene 4 23 27 3.21145 0 79 3.21145 1
gene 4 27 8 2.3454 0 80 2.3454 1
gene 7 1 19 4.16125 0 83 4.16125 1
gene 4 5 27 0.511554 0 92 0.511554 0
gene 2 2 19 2.01058 0 108 2.01058 1
gene 8 6 23 2.91727 0 115 2.91727 1
gene 4 2 23 -2.02641 0 124 -2.02641 0
gene 8 4 19 3.21308 0 153 3.21308 1
gene 4 5 47 0.473014 0 181 0.473014 0
gene 4 47 27 -1.02785 0 182 -1.02785 1
gene 7 27 14 -3.16192 0 193 -3.16192 1
gene 4 4 27 -1.20372 0 212 -1.20372 1
gene 1 2 27 1.34445 0 222 1.34445 1
gene 4 2 53 -3.85021 0 226 -3.85021 1
gene 4 53 23 3.02292 0 227 3.02292 1
gene 2 53 27 -2.02224 0 238 -2.02224 1
gene 4 5 64 -2.51085 0 277 -2.51085 1
gene 4 64 47 0.137645 0 278 0.137645 1
gene 7 19 47 1.77311 0 338 1.77311 1
gene 4 7 23 -0.986965 0 366 -0.986965 1
gene 4 3 89 1.72659 0 375 1.72659 1
gene 4 89 8 0.456636 0 376 0.456636 1
gene 6 53 64 -2.82827 0 399 -2.82827 1
gene 5 14 98 2.72685 0 411 2.72685 1
gene 5 98 8 1.83426 0 412 1.83426 1
genomeend 3

/* Organism #4 Fitness: 52 Error: 0 */
/* ##------$ WINNER 4 SPECIES #41 $------## */
genomestart 4
trait 1 0.1 0 0 0 0 0 0 0 
trait 2 0.2 0 0 0 0 0 0 0 
trait 3 0.3 0 0 0 0 0 0 0 
trait 4 0 0 0 0 0 0 0 0 
trait 5 0.429576 0 0.959328 0 0 0 0 0 
trait 6 0.378347 0 0 0.742295 0 0.359265 0 0.227462 
trait 7 0.7 0 0 0 0 0 0 0 
trait 8 0.8 0 0 0 0 0 0 0 
node 1 3 1 3
node 2 5 1 1
node 3 4 1 1
node 4 6 1 1
node 5 3 1 1
node 6 3 1 1
node 7 8 1 1
node 8 1 0 2
node 14 1 0 0
node 19 1 0 0
node 23 2 0 0
node 27 3 0 0
node 47 1 0 0
node 53 1 0 0
node 64 1 0 0
node 89 1 0 0
node 98 1 0 0
gene 7 1 8 -1.61441 0 1 -1.61441 1
gene 6 2 8 -3.4342 0 2 -3.4342 1
gene 4 3 8 -0.29717 0 3 -0.29717 0
gene 5 4 8 2.16675 0 4 2.16675 1
gene 5 5 8 -0.961005 0 5 -0.961005 1
gene 3 6 8 6.33851 0 6 6.33851 1
gene 7 7 8 -5.16011 0 7 -5.16011 1
gene 5 5 14 -1.71109 0 18 -1.71109 1
gene 5 14 8 -0.341454 0 19 -0.341454 0
gene 5 1 14 0.902892 0 22 0.902892 1
gene 7 3 14 0.609867 0 24 0.609867 1
gene 4 4 14 -8 0 39 -8 1
gene 4 3 19 -1.51489 0 47 -1.51489 1
gene 4 19 8 7.33605 0 48 7.33605 1
gene 4 6 14 0.53501 0 50 0.53501 1
gene 4 19 23 0.066502 0 63 0.066502 1
gene 4 23 8 0.630311 0 64 0.630311 1
gene 2 23 14 -0.246337 0 70 -0.246337 1
gene 4 23 27 5.85323 0 79 5.85323 1
gene 4 27 8 -1.13888 0 80 -1.13888 1
gene 7 1 19 1.1883 0 83 1.1883 1
gene 4 5 27 -1.48492 0 92 -1.48492 1
gene 2 2 19 0.429599 0 108 0.429599 1
gene 8 6 23 0.847931 0 115 0.847931 1
gene 4 2 23 -3.42099 0 124 -3.42099 0
gene 8 4 19 0.840907 0 153 0.840907 1
gene 4 5 47 2.08786 0 181 2.08786 0
gene 4 47 27 -1.61599 0 182 -1.61599 1
gene 7 27 14 -3.95439 0 193 -3.95439 1
gene 4 4 27 -3.06251 0 212 -3.06251 1
gene 1 2 27 1.09027 0 222 1.09027 1
gene 4 2 53 -1.19865 0 226 -1.19865 1
gene 4 53 23 -0.433792 0 227 -0.433792 1
gene 2 53 27 -1.52659 0 238 -1.52659 1
gene 4 5 64 -0.86314 0 277 -0.86314 1
gene 4 64 47 -2.13148 0 278 -2.13148 1
gene 7 19 47 -0.428308 0 338 -0.428308 1
gene 4 7 23 -0.326658 0 366 -0.326658 1
gene 4 3 89 -0.57009 0 375 -0.57009 1
gene 4 89 8 -2.45364 0 376 -2.45364 1
gene 6 53 64 -2.20068 0 399 -2.20068 1
gene 5 14 98 4.49347 0 411 4.49347 1
gene 5 98 8 0.237043 0 412 0.237043 1
genomeend 4

/* Organism #5 Fitness: 31 Error: 0 */
/* ##------$ WINNER 5 SPECIES #41 $------## */
genomestart 5
trait 1 0.1 0 0 0 0 0 0 0 
trait 2 0.2 0 0 0 0 0 0 0 
trait 3 0.3 0 0 0 0 0 0 0 
trait 4 0 0 0 0 0 0 0 0 
trait 5 0.5 0 0 0 0 0 0 0 
trait 6 0.378347 0 0 0.742295 0 0.359265 0 0.227462 
trait 7 0.7 0 0 0 0 0 0 0 
trait 8 0.8 0 0 0 0 0 0 0 
node 1 3 1 3
node 2 5 1 1
node 3 4 1 1
node 4 6 1 1
node 5 3 1 1
node 6 3 1 1
node 7 8 1 1
node 8 1 0 2
node 14 1 0 0
node 19 1 0 0
node 23 2 0 0
node 27 3 0 0
node 47 1 0 0
node 53 1 0 0
node 64 1 0 0
node 89 1 0 0
node 98 1 0 0
gene 7 1 8 0.053717 0 1 0.053717 1
gene 6 2 8 -2.28681 0 2 -2.28681 1
gene 4 3 8 1.892 0 3 1.892 0
gene 5 4 8 3.80218 0 4 3.80218 1
gene 5 5 8 -1.75953 0 5 -1.75953 1
gene 3 6 8 8 0 6 8 1
gene 7 7 8 -4.15847 0 7 -4.15847 1
gene 5 5 14 3.59776 0 18 3.59776 1
gene 5 14 8 -0.539272 0 19 -0.539272 0
gene 5 1 14 -0.753912 0 22 -0.753912 1
gene 7 3 14 2.42376 0 24 2.42376 1
gene 4 4 14 -8 0 39 -8 1
gene 4 3 19 -1.52078 0 47 -1.52078 1
gene 4 19 8 6.93213 0 48 6.93213 1
gene 4 6 14 1.59453 0 50 1.59453 1
gene 4 19 23 -0.715349 0 63 -0.715349 1
gene 4 23 8 -0.996033 0 64 -0.996033 1
gene 2 23 14 -1.47214 0 70 -1.47214 1
gene 4 23 27 4.56389 0 79 4.56389 1
gene 4 27 8 3.71396 0 80 3.71396 1
gene 7 1 19 4.88376 0 83 4.88376 1
gene 4 5 27 -3.07459 0 92 -3.07459 0
gene 2 2 19 3.71697 0 108 3.71697 1
gene 8 6 23 2.04544 0 115 2.04544 1
gene 4 2 23 -3.38602 0 124 -3.38602 0
gene 8 4 19 1.92661 0 153 1.92661 1
gene 4 5 47 1.52786 0 181 1.52786 0
gene 4 47 27 -1.58002 0 182 -1.58002 1
gene 7 27 14 -6.4386 0 193 -6.4386 1
gene 4 4 27 -4.72612 0 212 -4.72612 1
gene 1 2 27 -1.02655 0 222 -1.02655 1
gene 4 2 53 -1.60796 0 226 -1.60796 1
gene 4 53 23 -2.1066 0 227 -2.1066 1
gene 2 53 27 -3.00523 0 238 -3.00523 1
gene 4 5 64 -4.55263 0 277 -4.55263 1
gene 4 64 47 2.07774 0 278 2.07774 1
gene 7 19 47 0.336219 0 338 0.336219 1
gene 4 7 23 -0.326658 0 366 -0.326658 1
gene 4 3 89 3.36465 0 375 3.36465 1
gene 4 89 8 -3.70851 0 376 -3.70851 1
gene 6 53 64 -0.759063 0 399 -0.759063 1
gene 5 14 98 2.22757 0 411 2.22757 1
gene 5 98 8 0.237043 0 412 0.237043 1
genomeend 5

/* Organism #6 Fitness: 40 Error: 0 */
genomestart 6
trait 1 0.1 0 0 0 0 0 0 0 
trait 2 0.2 0 0 0 0 0 0 0 
trait 3 0.3 0 0 0 0 0 0 0 
trait 4 0 0 0 0 0 0 0 0 
trait 5 0.5 0 0 0 0 0 0 0 
trait 6 0.378347 0 0 0.742295 0 0.359265 0 0.227462 
trait 7 0.7 0 0 0 0 0 0 0 
trait 8 0.8 0 0 0 0 0 0 0 
node 1 3 1 3
node 2 5 1 1
node 3 4 1 1
node 4 6 1 1
node 5 3 1 1
node 6 3 1 1
node 7 8 1 1
node 8 1 0 2
node 14 1 0 0
node 19 1 0 0
node 23 2 0 0
node 27 3 0 0
node 47 1 0 0
node 53 1 0 0
node 64 1 0 0
node 89 1 0 0
node 98 1 0 0
gene 7 1 8 -1.61441 0 1 -1.61441 1
gene 6 2 8 -3.4342 0 2 -3.4342 1
gene 4 3 8 -0.29717 0 3 -0.29717 0
gene 5 4 8 2.16675 0 4 2.16675 1
gene 5 5 8 -0.961005 0 5 -0.961005 1
gene 3 6 8 6.33851 0 6 6.33851 1
gene 7 7 8 -5.16011 0 7 -5.16011 1
gene 5 5 14 -1.71109 0 18 -1.71109 1
gene 5 14 8 -0.341454 0 19 -0.341454 0
gene 5 1 14 0.902892 0 22 0.902892 1
gene 7 3 14 0.609867 0 24 0.609867 1
gene 4 4 14 -8 0 39 -8 1
gene 4 3 19 -1.51489 0 47 -1.51489 1
gene 4 19 8 7.33605 0 48 7.33605 1
gene 4 6 14 0.53501 0 50 0.53501 1
gene 4 19 23 0.066502 0 63 0.066502 1
gene 4 23 8 0.630311 0 64 0.630311 1
gene 4 23 14 -0.246337 0 70 -0.246337 1
gene 4 23 27 5.85323 0 79 5.85323 1
gene 4 27 8 -1.13888 0 80 -1.13888 1
gene 7 1 19 1.1883 0 83 1.1883 1
gene 4 5 27 -1.48492 0 92 -1.48492 0
gene 2 2 19 0.429599 0 108 0.429599 1
gene 8 6 23 0.847931 0 115 0.847931 1
gene 4 2 23 -3.42099 0 124 -3.42099 0
gene 8 4 19 0.840907 0 153 0.840907 1
gene 4 5 47 2.08786 0 181 2.08786 0
gene 4 47 27 -1.61599 0 182 -1.61599 1
gene 7 27 14 -3.95439 0 193 -3.95439 1
gene 4 4 27 -3.06251 0 212 -3.06251 1
gene 1 2 27 1.09027 0 222 1.09027 1
gene 4 2 53 -1.19865 0 226 -1.19865 1
gene 4 53 23 -0.433792 0 227 -0.433792 1
gene 2 53 27 -1.52659 0 238 -1.52659 1
gene 4 5 64 -0.86314 0 277 -0.86314 1
gene 4 64 47 -2.13148 0 278 -2.13148 1
gene 7 19 47 -0.428308 0 338 -0.428308 1
gene 4 7 23 -0.326658 0 366 -0.326658 1
gene 4 3 89 -0.57009 0 375 -0.57009 1
gene 4 89 8 -2.45364 0 376 -2.45364 1
gene 6 53 64 -2.20068 0 399 -2.20068 1
gene 5 14 98 4.49347 0 411 4.49347 1
gene 5 98 8 0.237043 0 412 0.237043 1
genomeend 6

/* Organism #7 Fitness: 31 Error: 0 */
/* ##------$ WINNER 7 SPECIES #41 $------## */
genomestart 7
trait 1 0.1 0 0 0 0 0 0 0 
trait 2 0.2 0 0 0 0 0 0 0 
trait 3 0.3 0 0 0 0 0 0 0 
trait 4 0 0 0 0 0 0 0 0 
trait 5 0.5 0 0 0 0 0 0 0 
trait 6 0.378347 0 0 0.742295 0 0.359265 0 0.227462 
trait 7 0.7 0 0 0 0 0 0 0 
trait 8 0.8 0 0 0 0 0 0 0 
node 1 3 1 3
node 2 5 1 1
node 3 4 1 1
node 4 6 1 1
node 5 3 1 1
node 6 3 1 1
node 7 8 1 1
node 8 1 0 2
node 14 1 0 0
node 19 1 0 0
node 23 2 0 0
node 27 3 0 0
node 47 1 0 0
node 53 1 0 0
node 64 1 0 0
node 89 1 0 0
node 98 1 0 0
gene 7 1 8 -1.61441 0 1 -1.61441 1
gene 6 2 8 -2.29015 0 2 -2.29015 1
gene 4 3 8 -0.356451 0 3 -0.356451 0
gene 5 4 8 0.739698 0 4 0.739698 1
gene 5 5 8 0.36187 0 5 0.36187 1
gene 3 6 8 6.33851 0 6 6.33851 1
gene 7 7 8 -8 0 7 -8 1
gene 5 5 14 -1.71109 0 18 -1.71109 1
gene 5 14 8 -1.3797 0 19 -1.3797 0
gene 5 1 14 0.902892 0 22 0.902892 1
gene 7 3 14 0.609867 0 24 0.609867 1
gene 4 4 14 -8 0 39 -8 1
gene 4 3 19 -1.51489 0 47 -1.51489 1
gene 4 19 8 8 0 48 8 1
gene 4 6 14 -0.0537416 0 50 -0.0537416 1
gene 4 19 23 0.066502 0 63 0.066502 1
gene 4 23 8 0.630311 0 64 0.630311 1
gene 2 23 14 -2.68931 0 70 -2.68931 1
gene 4 23 27 5.85323 0 79 5.85323 1
gene 4 27 8 -1.13888 0 80 -1.13888 1
gene 7 1 19 4.16125 0 83 4.16125 1
gene 4 5 27 -1.48492 0 92 -1.48492 0
gene 2 2 19 0.429599 0 108 0.429599 1
gene 8 6 23 2.91727 0 115 2.91727 1
gene 4 2 23 -2.02641 0 124 -2.02641 0
gene 8 4 19 0.840907 0 153 0.840907 1
gene 4 5 47 2.08786 0 181 2.08786 0
gene 4 47 27 -1.61599 0 182 -1.61599 1
gene 7 27 14 -3.16192 0 193 -3.16192 1
gene 4 4 27 -3.06251 0 212 -3.06251 1
gene 1 2 27 1.09027 0 222 1.09027 1
gene 4 2 53 -3.85021 0 226 -3.85021 1
gene 4 53 23 -0.433792 0 227 -0.433792 1
gene 2 53 27 -2.02224 0 238 -2.02224 1
gene 4 5 64 -2.51085 0 277 -2.51085 1
gene 4 64 47 0.137645 0 278 0.137645 1
gene 7 19 47 1.77311 0 338 1.77311 1
gene 4 7 23 -0.986965 0 366 -0.986965 1
gene 4 3 89 -0.57009 0 375 -0.57009 1
gene 4 89 8 0.456636 0 376 0.456636 1
gene 6 53 64 -2.20068 0 399 -2.20068 1
gene 5 14 98 2.72685 0 411 2.72685 1
gene 5 98 8 1.83426 0 412 1.83426 1
genomeend 7

/* Species #42 : (Size 12) (AF 40.5001) (Age 2)  */


/* Organism #8 Fitness: 50 Error: 0 */
/* ##------$ WINNER 8 SPECIES #42 $------## */
genomestart 8
trait 1 0.1 0 0 0 0 0 0 0 
trait 2 0.2 0 0 0 0 0 0 0 
trait 3 0.3 0 0 0 0 0 0 0 
trait 4 0 0 0 0 0 0 0 0 
trait 5 0.5 0 0 0 0 0 0 0 
trait 6 0.378347 0 0 0.742295 0 0.359265 0 0.227462 
trait 7 0.7 0 0 0 0 0 0 0 
trait 8 0.8 0 0 0 0 0 0 0 
node 1 3 1 3
node 2 5 1 1
node 3 4 1 1
node 4 6 1 1
node 5 3 1 1
node 6 3 1 1
node 7 8 1 1
node 8 7 0 2
node 14 1 0 0
node 19 1 0 0
node 23 2 0 0
node 27 3 0 0
node 47 1 0 0
node 53 1 0 0
node 64 1 0 0
node 89 1 0 0
gene 7 1 8 2.31833 0 1 2.31833 1
gene 6 2 8 -1.02512 0 2 -1.02512 1
gene 4 3 8 -2.14967 0 3 -2.14967 0
gene 5 4 8 1.04027 0 4 1.04027 1
gene 5 5 8 -7.48589 0 5 -7.48589 1
gene 3 6 8 8 0 6 8 1
gene 7 7 8 -8 0 7 -8 1
gene 5 5 14 -2.88399 0 18 -2.88399 1
gene 5 14 8 0.484252 0 19 0.484252 0
gene 5 1 14 -0.0635458 0 22 -0.0635458 1
gene 7 3 14 3.85524 0 24 3.85524 1
gene 4 4 14 -4.21016 0 39 -4.21016 1
gene 4 3 19 4.26489 0 47 4.26489 1
gene 4 19 8 4.37341 0 48 4.37341 1
gene 4 6 14 1.25797 0 50 1.25797 1
gene 4 19 23 -4.02781 0 63 -4.02781 1
gene 4 23 8 -0.217277 0 64 -0.217277 1
gene 2 23 14 0.37952 0 70 0.37952 1
gene 4 23 27 2.90225 0 79 2.90225 1
gene 4 27 8 0.638632 0 80 0.638632 1
gene 7 1 19 -2.06955 0 83 -2.06955 1
gene 4 5 27 8 0 92 8 0
gene 2 2 19 5.89073 0 108 5.89073 1
gene 8 6 23 1.92747 0 115 1.92747 1
gene 4 2 23 -2.00395 0 124 -2.00395 0
gene 8 4 19 0.664821 0 153 0.664821 1
gene 4 5 47 -1.60908 0 181 -1.60908 0
gene 4 47 27 0.612429 0 182 0.612429 1
gene 7 27 14 -1.05782 0 193 -1.05782 1
gene 4 4 27 -0.320559 0 212 -0.320559 1
gene 1 2 27 1.81333 0 222 1.81333 1
gene 4 2 53 -3.96161 0 226 -3.96161 1
gene 4 53 23 7.90166 0 227 7.90166 1
gene 2 53 27 -4.75253 0 238 -4.75253 1
gene 4 5 64 2.66894 0 277 2.66894 1
gene 4 64 47 1.20652 0 278 1.20652 1
gene 7 19 47 0.276886 0 338 0.276886 1
gene 4 7 23 1.89031 0 366 1.89031 1
gene 4 3 89 -2.85973 0 375 -2.85973 1
gene 4 89 8 1.23022 0 376 1.23022 1
gene 6 53 64 -0.377116 0 399 -0.377116 1
gene 5 53 14 -2.13467 0 420 -2.13467 1
genomeend 8

/* Organism #9 Fitness: 0 Error: 0 */
genomestart 9
trait 1 0.1 0 0 0 0 0 0 0 
trait 2 0.2 0 0 0 0 0 0 0 
trait 3 0.3 0 0 0 0 0 0 0 
trait 4 0 0 0 0 0 0 0 0 
trait 5 0.5 0 0 0 0 0 0 0 
trait 6 0.378347 0 0 0.742295 0 0.359265 0 0.227462 
trait 7 0.7 0 0 0 0 0 0 0 
trait 8 0.8 0 0 0 0 0 0 0 
node 1 3 1 3
node 2 5 1 1
node 3 4 1 1
node 4 6 1 1
node 5 3 1 1
node 6 3 1 1
node 7 8 1 1
node 8 1 0 2
node 14 1 0 0
node 19 1 0 0
node 23 2 0 0
node 27 3 0 0
node 47 1 0 0
node 53 1 0 0
node 64 1 0 0
node 89 1 0 0
node 102 1 0 0
gene 7 1 8 -0.300578 0 1 -0.300578 1
gene 6 2 8 -2.1114 0 2 -2.1114 1
gene 4 3 8 -0.201626 0 3 -0.201626 0
gene 5 4 8 0.742571 0 4 0.742571 1
gene 5 5 8 -8 0 5 -8 1
gene 3 6 8 6.23827 0 6 6.23827 1
gene 7 7 8 -4.67998 0 7 -4.67998 1
gene 5 5 14 1.01295 0 18 1.01295 1
gene 5 14 8 -1.04166 0 19 -1.04166 1
gene 5 1 14 -1.67828 0 22 -1.67828 1
gene 7 3 14 3.14092 0 24 3.14092 1
gene 4 4 14 -6.83577 0 39 -6.83577 1
gene 4 3 19 2.19119 0 47 2.19119 1
gene 4 19 8 5.606 0 48 5.606 1
gene 4 6 14 0.994119 0 50 0.994119 1
gene 4 19 23 -1.0715 0 63 -1.0715 1
gene 4 23 8 -0.803505 0 64 -0.803505 1
gene 2 23 14 -0.882206 0 70 -0.882206 1
gene 4 23 27 4.61614 0 79 4.61614 1
gene 4 27 8 1.91196 0 80 1.91196 1
gene 7 1 19 1.37536 0 83 1.37536 1
gene 4 5 27 8 0 92 8 0
gene 2 2 19 1.49938 0 108 1.49938 1
gene 8 6 23 0.658066 0 115 0.658066 1
gene 4 2 23 -3.88852 0 124 -3.88852 0
gene 8 4 19 -1.64777 0 153 -1.64777 1
gene 4 5 47 -2.48356 0 181 -2.48356 1
gene 4 47 27 0.668333 0 182 0.668333 1
gene 7 27 14 -3.60958 0 193 -3.60958 1
gene 4 4 27 -1.80112 0 212 -1.80112 1
gene 1 2 27 3.68051 0 222 3.68051 1
gene 4 2 53 -3.13066 0 226 -3.13066 1
gene 4 53 23 5.0128 0 227 5.0128 0
gene 2 53 27 -2.64456 0 238 -2.64456 1
gene 4 5 64 2.73905 0 277 2.73905 1
gene 4 64 47 1.58782 0 278 1.58782 1
gene 7 19 47 -1.29707 0 338 -1.29707 1
gene 4 7 23 0.757289 0 366 0.757289 1
gene 4 3 89 -2.03131 0 375 -2.03131 1
gene 4 89 8 -0.365265 0 376 -0.365265 1
gene 6 53 64 0.663328 0 399 0 1
gene 5 53 14 -0.860913 0 420 -0.860913 1
gene 4 53 102 1 0 425 0 1
gene 4 102 23 5.0128 0 426 0 1
genomeend 9

/* Organism #10 Fitness: 21 Error: 0 */
genomestart 10
trait 1 0.1 0 0 0 0 0 0 0 
trait 2 0.2 0 0 0 0 0 0 0 
trait 3 0.3 0 0 0 0 0 0 0 
trait 4 0 0 0 0 0 0 0 0 
trait 5 0.5 0 0 0 0 0 0 0 
trait 6 0.378347 0 0 0.742295 0 0.359265 0 0.227462 
trait 7 0.7 0 0 0 0 0 0 0 
trait 8 0.8 0 0 0 0 0 0 0 
node 1 3 1 3
node 2 5 1 1
node 3 4 1 1
node 4 6 1 1
node 5 3 1 1
node 6 3 1 1
node 7 8 1 1
node 8 7 0 2
node 14 1 0 0
node 19 1 0 0
node 23 2 0 0
node 27 3 0 0
node 47 1 0 0
node 53 1 0 0
node 64 1 0 0
node 89 1 0 0
gene 7 1 8 3.62613 0 1 3.62613 1
gene 6 2 8 1.41221 0 2 1.41221 1
gene 4 3 8 -1.30829 0 3 -1.30829 0
gene 5 4 8 2.66479 0 4 2.66479 1
gene 5 5 8 -6.1642 0 5 -6.1642 1
gene 3 6 8 6.05551 0 6 6.05551 1
gene 7 7 8 -6.00082 0 7 -6.00082 1
gene 5 5 14 -5.31014 0 18 -5.31014 1
gene 5 14 8 1.88989 0 19 1.88989 0
gene 5 1 14 -0.410443 0 22 -0.410443 1
gene 7 3 14 1.514 0 24 1.514 1
gene 4 4 14 -5.20967 0 39 -5.20967 1
gene 4 3 19 1.99325 0 47 1.99325 1
gene 4 19 8 4.23167 0 48 4.23167 1
gene 4 6 14 -0.255711 0 50 -0.255711 1
gene 4 19 23 -5.05939 0 63 -5.05939 1
gene 4 23 8 -0.485251 0 64 -0.485251 1
gene 2 23 14 1.35778 0 70 1.35778 1
gene 4 23 27 1.608 0 79 1.608 1
gene 4 27 8 -1.60456 0 80 -1.60456 1
gene 7 1 19 -1.60809 0 83 -1.60809 1
gene 4 5 27 7.89885 0 92 7.89885 0
gene 2 2 19 5.47827 0 108 5.47827 1
gene 8 6 23 0.978288 0 115 0.978288 1
gene 4 2 23 -0.235363 0 124 -0.235363 0
gene 8 4 19 2.839 0 153 2.839 1
gene 4 5 47 0.755712 0 181 0.755712 0
gene 4 47 27 0.427005 0 182 0.427005 1
gene 7 27 14 -1.63406 0 193 -1.63406 1
gene 4 4 27 -0.348942 0 212 -0.348942 1
gene 1 2 27 2.43171 0 222 2.43171 1
gene 4 2 53 -2.88625 0 226 -2.88625 1
gene 4 53 23 8 0 227 8 1
gene 2 53 27 -5.50446 0 238 -5.50446 1
gene 4 5 64 2.66894 0 277 2.66894 1
gene 4 64 47 1.20652 0 278 1.20652 1
gene 7 19 47 1.84753 0 338 1.84753 1
gene 4 7 23 4.09162 0 366 4.09162 1
gene 4 3 89 2.22969 0 375 2.22969 1
gene 4 89 8 1.40075 0 376 1.40075 1
gene 6 53 64 2.05542 0 399 2.05542 1
gene 5 53 14 -0.321581 0 420 -0.321581 1
genomeend 10

/* Organism #11 Fitness: 72 Error: 0 */
/* ##------$ WINNER 11 SPECIES #42 $------## */
genomestart 11
trait 1 0.1 0 0 0 0 0 0 0 
trait 2 0.2 0 0 0 0 0 0 0 
trait 3 0.3 0 0 0 0 0 0 0 
trait 4 0 0 0 0 0 0 0 0 
trait 5 0.5 0 0 0 0 0 0 0 
trait 6 0.378347 0 0 0.742295 0 0.359265 0 0.227462 
trait 7 0.7 0 0 0 0 0 0 0 
trait 8 0.8 0 0 0 0 0 0 0 
node 1 3 1 3
node 2 5 1 1
node 3 4 1 1
node 4 6 1 1
node 5 3 1 1
node 6 3 1 1
node 7 8 1 1
node 8 7 0 2
node 14 1 0 0
node 19 1 0 0
node 23 2 0 0
node 27 3 0 0
node 47 1 0 0
node 53 1 0 0
node 64 1 0 0
node 89 1 0 0
gene 7 1 8 -1.32018 0 1 -1.32018 1
gene 6 2 8 0.512643 0 2 0.512643 1
gene 4 3 8 -0.626331 0 3 -0.626331 0
gene 5 4 8 2.53394 0 4 2.53394 1
gene 5 5 8 -0.824291 0 5 -0.824291 1
gene 3 6 8 1.90403 0 6 1.90403 1
gene 7 7 8 -6.80389 0 7 -6.80389 1
gene 5 5 14 -0.427964 0 18 -0.427964 1
gene 5 14 8 2.77037 0 19 2.77037 0
gene 5 1 14 0.864144 0 22 0.864144 1
gene 7 3 14 2.64346 0 24 2.64346 1
gene 4 4 14 -2.26861 0 39 -2.26861 1
gene 4 3 19 -0.8231 0 47 -0.8231 1
gene 4 19 8 5.00832 0 48 5.00832 1
gene 4 6 14 1.25797 0 50 1.25797 1
gene 4 19 23 -4.80892 0 63 -4.80892 1
gene 4 23 8 0.616974 0 64 0.616974 1
gene 2 23 14 1.87898 0 70 1.87898 1
gene 4 23 27 -1.47093 0 79 -1.47093 1
gene 4 27 8 0.85282 0 80 0.85282 1
gene 7 1 19 -2.06955 0 83 -2.06955 1
gene 4 5 27 6.22453 0 92 6.22453 0
gene 2 2 19 0.907213 0 108 0.907213 1
gene 8 6 23 2.23433 0 115 2.23433 1
gene 4 2 23 -1.90137 0 124 -1.90137 0
gene 8 4 19 -1.06662 0 153 -1.06662 1
gene 4 5 47 -3.76193 0 181 -3.76193 0
gene 4 47 27 2.17848 0 182 2.17848 1
gene 7 27 14 -1.05782 0 193 -1.05782 1
gene 4 4 27 -0.320559 0 212 -0.320559 1
gene 1 2 27 3.40242 0 222 3.40242 1
gene 4 2 53 -3.96161 0 226 -3.96161 1
gene 4 53 23 8 0 227 8 1
gene 2 53 27 -2.77934 0 238 -2.77934 1
gene 4 5 64 3.58546 0 277 3.58546 1
gene 4 64 47 1.20652 0 278 1.20652 1
gene 7 19 47 -1.17982 0 338 -1.17982 1
gene 4 7 23 0.736605 0 366 0.736605 1
gene 4 3 89 -1.20302 0 375 -1.20302 1
gene 4 89 8 0.978394 0 376 0.978394 1
gene 6 53 64 -0.680326 0 399 -0.680326 1
gene 5 53 14 -2.65731 0 420 -2.65731 1
genomeend 11

/* Organism #12 Fitness: 92 Error: 0 */
/* ##------$ WINNER 12 SPECIES #42 $------## */
genomestart 12
trait 1 0.1 0 0 0 0 0 0 0 
trait 2 0.2 0 0 0 0 0 0 0 
trait 3 0.3 0 0 0 0 0 0 0 
trait 4 0 0 0 0 0 0 0 0 
trait 5 0.5 0 0 0 0 0 0 0 
trait 6 0.378347 0 0 0.742295 0 0.359265 0 0.227462 
trait 7 0.7 0 0 0 0 0 0 0 
trait 8 0.8 0 0 0 0 0 0 0 
node 1 3 1 3
node 2 5 1 1
node 3 4 1 1
node 4 6 1 1
node 5 3 1 1
node 6 3 1 1
node 7 8 1 1
node 8 7 0 2
node 14 1 0 0
node 19 1 0 0
node 23 2 0 0
node 27 3 0 0
node 47 1 0 0
node 53 1 0 0
node 64 1 0 0
node 89 1 0 0
node 102 1 0 0
gene 7 1 8 3.69699 0 1 3.69699 1
gene 6 2 8 -0.634675 0 2 -0.634675 1
gene 4 3 8 -2.23497 0 3 -2.23497 0
gene 5 4 8 -1.18434 0 4 -1.18434 1
gene 5 5 8 -6.36408 0 5 -6.36408 1
gene 3 6 8 7.15278 0 6 7.15278 1
gene 7 7 8 -8 0 7 -8 1
gene 5 5 14 3.28462 0 18 3.28462 1
gene 5 14 8 -0.981558 0 19 -0.981558 0
gene 5 1 14 -1.0581 0 22 -1.0581 1
gene 7 3 14 2.75758 0 24 2.75758 1
gene 4 4 14 -4.71472 0 39 -4.71472 1
gene 4 3 19 1.12618 0 47 1.12618 1
gene 4 19 8 3.64021 0 48 3.64021 1
gene 4 6 14 3.58561 0 50 3.58561 1
gene 4 19 23 -1.77293 0 63 -1.77293 1
gene 4 23 8 -1.08511 0 64 -1.08511 1
gene 2 23 14 -1.55823 0 70 -1.55823 1
gene 4 23 27 1.43138 0 79 1.43138 1
gene 4 27 8 1.16916 0 80 1.16916 1
gene 7 1 19 1.98434 0 83 1.98434 1
gene 4 5 27 7.41415 0 92 7.41415 0
gene 2 2 19 1.45474 0 108 1.45474 1
gene 8 6 23 -0.00476574 0 115 -0.00476574 1
gene 4 2 23 -6.07482 0 124 -6.07482 0
gene 8 4 19 -1.74023 0 153 -1.74023 1
gene 4 5 47 -1.61355 0 181 -1.61355 0
gene 4 47 27 0.366811 0 182 0.366811 1
gene 7 27 14 -3.27176 0 193 -3.27176 1
gene 4 4 27 1.67921 0 212 1.67921 1
gene 1 2 27 1.73497 0 222 1.73497 1
gene 4 2 53 -1.64215 0 226 -1.64215 1
gene 4 53 23 8 0 227 8 0
gene 2 53 27 -4.17044 0 238 -4.17044 1
gene 4 5 64 2.98915 0 277 2.98915 1
gene 4 64 47 2.03304 0 278 2.03304 1
gene 7 19 47 0.540466 0 338 0.540466 1
gene 4 7 23 0.757289 0 366 0.757289 1
gene 4 3 89 -1.3062 0 375 -1.3062 1
gene 4 89 8 -0.365265 0 376 -0.365265 1
gene 6 53 64 -1.26812 0 399 -1.26812 1
gene 5 53 14 0.308263 0 420 0.308263 1
gene 4 53 102 1 0 425 1 1
gene 4 102 23 5.0128 0 426 5.0128 1
genomeend 12

/* Organism #13 Fitness: 50 Error: 0 */
genomestart 13
trait 1 0.1 0 0 0 0 0 0 0 
trait 2 0.2 0 0 0 0 0 0 0 
trait 3 0.3 0 0 0 0 0 0 0 
trait 4 0 0 0 0 0 0 0 0 
trait 5 0.5 0 0 0 0 0 0 0 
trait 6 0.378347 0 0 0.742295 0 0.359265 0 0.227462 
trait 7 0.7 0 0 0 0 0 0 0 
trait 8 0.8 0 0 0 0 0 0 0 
node 1 3 1 3
node 2 5 1 1
node 3 4 1 1
node 4 6 1 1
node 5 3 1 1
node 6 3 1 1
node 7 8 1 1
node 8 7 0 2
node 14 1 0 0
node 19 1 0 0
node 23 2 0 0
node 27 3 0 0
node 47 1 0 0
node 53 1 0 0
node 64 1 0 0
node 89 1 0 0
gene 7 1 8 2.26611 0 1 2.26611 1
gene 6 2 8 0.845834 0 2 0.845834 1
gene 4 3 8 -1.63887 0 3 -1.63887 0
gene 5 4 8 0.574959 0 4 0.574959 1
gene 5 5 8 -8 0 5 -8 1
gene 3 6 8 8 0 6 8 1
gene 7 7 8 -6.61396 0 7 -6.61396 1
gene 5 5 14 -4.141 0 18 -4.141 1
gene 5 14 8 -1.57069 0 19 -1.57069 0
gene 5 1 14 -2.07654 0 22 -2.07654 1
gene 7 3 14 5.61544 0 24 5.61544 1
gene 4 4 14 -4.93215 0 39 -4.93215 1
gene 4 3 19 4.14855 0 47 4.14855 1
gene 4 19 8 2.4159 0 48 2.4159 1
gene 4 6 14 0.202078 0 50 0.202078 1
gene 4 19 23 -4.02781 0 63 -4.02781 1
gene 4 23 8 -2.4763 0 64 -2.4763 1
gene 2 23 14 2.26249 0 70 2.26249 1
gene 4 23 27 5.15362 0 79 5.15362 1
gene 4 27 8 0.0407628 0 80 0.0407628 1
gene 7 1 19 -3.44539 0 83 -3.44539 1
gene 4 5 27 8 0 92 8 0
gene 2 2 19 5.73855 0 108 5.73855 1
gene 8 6 23 -0.194957 0 115 -0.194957 1
gene 4 2 23 -2.85258 0 124 -2.85258 0
gene 8 4 19 2.03514 0 153 2.03514 1
gene 4 5 47 -2.93736 0 181 -2.93736 0
gene 4 47 27 2.84506 0 182 2.84506 1
gene 7 27 14 0.847959 0 193 0.847959 1
gene 4 4 27 0.641919 0 212 0.641919 1
gene 1 2 27 4.06199 0 222 4.06199 1
gene 4 2 53 -4.49205 0 226 -4.49205 1
gene 4 53 23 7.72289 0 227 7.72289 1
gene 2 53 27 -6.45696 0 238 -6.45696 1
gene 4 5 64 2.09619 0 277 2.09619 1
gene 4 64 47 -1.35273 0 278 -1.35273 1
gene 7 19 47 2.556 0 338 2.556 1
gene 4 7 23 -0.347655 0 366 -0.347655 1
gene 4 3 89 -5.34602 0 375 -5.34602 1
gene 4 89 8 1.30924 0 376 1.30924 1
gene 6 53 64 1.65204 0 399 1.65204 1
gene 5 53 14 -2.03778 0 420 -2.03778 1
genomeend 13

/* Organism #14 Fitness: 21 Error: 0 */
genomestart 14
trait 1 0.1 0 0 0 0 0 0 0 
trait 2 0.2 0 0 0 0 0 0 0 
trait 3 0.3 0 0 0 0 0 0 0 
trait 4 0 0 0 0 0 0 0 0 
trait 5 0.5 0 0 0 0 0 0 0 
trait 6 0.378347 0 0 0.742295 0 0.359265 0 0.227462 
trait 7 0.7 0 0 0 0 0 0 0 
trait 8 0.8 0 0 0 0 0 0 0 
node 1 3 1 3
node 2 5 1 1
node 3 4 1 1
node 4 6 1 1
node 5 3 1 1
node 6 3 1 1
node 7 8 1 1
node 8 7 0 2
node 14 1 0 0
node 19 1 0 0
node 23 2 0 0
node 27 3 0 0
node 47 1 0 0
node 53 1 0 0
node 64 1 0 0
node 89 1 0 0
gene 7 1 8 2.68605 0 1 2.68605 1
gene 6 2 8 1.43152 0 2 1.43152 1
gene 4 3 8 2.18976 0 3 2.18976 0
gene 5 4 8 1.04027 0 4 1.04027 1
gene 5 5 8 -5.38125 0 5 -5.38125 1
gene 3 6 8 5.86712 0 6 5.86712 1
gene 7 7 8 -6.48022 0 7 -6.48022 1
gene 5 5 14 -3.07588 0 18 -3.07588 1
gene 5 14 8 2.96257 0 19 2.96257 0
gene 5 1 14 -1.05002 0 22 -1.05002 1
gene 7 3 14 5.67734 0 24 5.67734 1
gene 4 4 14 -1.96879 0 39 -1.96879 1
gene 4 3 19 4.53824 0 47 4.53824 1
gene 4 19 8 4.94207 0 48 4.94207 1
gene 4 6 14 2.0277 0 50 2.0277 1
gene 4 19 23 -4.36691 0 63 -4.36691 1
gene 4 23 8 -0.50934 0 64 -0.50934 1
gene 2 23 14 0.277093 0 70 0.277093 1
gene 4 23 27 4.06726 0 79 4.06726 1
gene 4 27 8 2.18291 0 80 2.18291 1
gene 7 1 19 -1.50481 0 83 -1.50481 1
gene 4 5 27 8 0 92 8 0
gene 2 2 19 2.32679 0 108 2.32679 1
gene 8 6 23 3.22527 0 115 3.22527 1
gene 4 2 23 -2.49862 0 124 -2.49862 0
gene 8 4 19 0.0679153 0 153 0.0679153 1
gene 4 5 47 -1.29921 0 181 -1.29921 0
gene 4 47 27 1.96352 0 182 1.96352 1
gene 7 27 14 -2.08709 0 193 -2.08709 1
gene 4 4 27 -0.320559 0 212 -0.320559 1
gene 1 2 27 3.04327 0 222 3.04327 1
gene 4 2 53 2.26643 0 226 2.26643 1
gene 4 53 23 7.90166 0 227 7.90166 1
gene 2 53 27 -3.61337 0 238 -3.61337 1
gene 4 5 64 1.19066 0 277 1.19066 1
gene 4 64 47 1.66813 0 278 1.66813 1
gene 7 19 47 0.222014 0 338 0.222014 1
gene 4 7 23 4.16959 0 366 4.16959 1
gene 4 3 89 -2.85973 0 375 -2.85973 1
gene 4 89 8 2.56857 0 376 2.56857 1
gene 6 53 64 1.80496 0 399 1.80496 1
gene 5 53 14 0.0472068 0 420 0.0472068 1
genomeend 14

/* Organism #15 Fitness: 0 Error: 0 */
genomestart 15
trait 1 0.1 0 0 0 0 0 0 0 
trait 2 0.2 0 0 0 0 0 0 0 
trait 3 0.3 0 0 0 0 0 0 0 
trait 4 0 0 0 0 0 0 0 0 
trait 5 0.5 0 0 0 0 0 0 0 
trait 6 0.378347 0 0 0.742295 0 0.359265 0 0.227462 
trait 7 0.7 0 0 0 0 0 0 0 
trait 8 0.8 0 0 0 0 0 0 0 
node 1 3 1 3
node 2 5 1 1
node 3 4 1 1
node 4 6 1 1
node 5 3 1 1
node 6 3 1 1
node 7 8 1 1
node 8 7 0 2
node 14 1 0 0
node 19 1 0 0
node 23 2 0 0
node 27 3 0 0
node 47 1 0 0
node 53 1 0 0
node 64 1 0 0
node 89 1 0 0
gene 7 1 8 1.42199 0 1 1.42199 1
gene 6 2 8 1.71451 0 2 1.71451 1
gene 4 3 8 0.858113 0 3 0.858113 0
gene 5 4 8 2.07125 0 4 2.07125 1
gene 5 5 8 0.477311 0 5 0.477311 1
gene 3 6 8 8 0 6 8 1
gene 7 7 8 -8 0 7 -8 1
gene 5 5 14 -4.76253 0 18 -4.76253 1
gene 5 14 8 1.28422 0 19 1.28422 0
gene 5 1 14 -1.19969 0 22 -1.19969 1
gene 7 3 14 5.91625 0 24 5.91625 1
gene 4 4 14 -4.8545 0 39 -4.8545 1
gene 4 3 19 5.77185 0 47 5.77185 1
gene 4 19 8 1.69485 0 48 1.69485 1
gene 4 6 14 1.97906 0 50 1.97906 1
gene 4 19 23 -2.47553 0 63 -2.47553 1
gene 4 23 8 -2.64796 0 64 -2.64796 1
gene 2 23 14 -1.61554 0 70 -1.61554 1
gene 4 23 27 3.05869 0 79 3.05869 1
gene 4 27 8 0.638632 0 80 0.638632 1
gene 7 1 19 -9.90578e-06 0 83 -9.90578e-06 1
gene 4 5 27 1.98425 0 92 1.98425 0
gene 2 2 19 3.41953 0 108 3.41953 1
gene 8 6 23 0.769694 0 115 0.769694 1
gene 4 2 23 -3.70269 0 124 -3.70269 0
gene 8 4 19 0.344422 0 153 0.344422 1
gene 4 5 47 0.716445 0 181 0.716445 0
gene 4 47 27 -0.170936 0 182 -0.170936 1
gene 7 27 14 -1.05782 0 193 -1.05782 1
gene 4 4 27 -0.320559 0 212 -0.320559 1
gene 1 2 27 0.364949 0 222 0.364949 1
gene 4 2 53 -2.63302 0 226 -2.63302 1
gene 4 53 23 8 0 227 8 1
gene 2 53 27 0.681105 0 238 0.681105 1
gene 4 5 64 0.62644 0 277 0.62644 1
gene 4 64 47 -0.808448 0 278 -0.808448 1
gene 7 19 47 2.02895 0 338 2.02895 1
gene 4 7 23 0.350069 0 366 0.350069 1
gene 4 3 89 -5.04724 0 375 -5.04724 1
gene 4 89 8 -0.564361 0 376 -0.564361 1
gene 6 53 64 -2.05743 0 399 -2.05743 1
gene 5 53 14 0.0963655 0 420 0.0963655 1
genomeend 15

/* Organism #16 Fitness: 0.0006 Error: 0 */
genomestart 16
trait 1 0.1 0 0 0 0 0 0 0 
trait 2 0.2 0 0 0 0 0 0 0 
trait 3 0.3 0 0 0 0 0 0 0 
trait 4 0 0 0 0 0 0 0 0 
trait 5 0.5 0 0 0 0 0 0 0 
trait 6 0.378347 0 0 0.742295 0 0.359265 0 0.227462 
trait 7 0.7 0 0 0 0 0 0 0 
trait 8 0.8 0 0 0 0 0 0 0 
node 1 3 1 3
node 2 5 1 1
node 3 4 1 1
node 4 6 1 1
node 5 3 1 1
node 6 3 1 1
node 7 8 1 1
node 8 7 0 2
node 14 1 0 0
node 19 1 0 0
node 23 2 0 0
node 27 3 0 0
node 47 1 0 0
node 53 1 0 0
node 64 1 0 0
node 89 1 0 0
gene 7 1 8 2.61607 0 1 2.61607 1
gene 6 2 8 1.39587 0 2 1.39587 1
gene 4 3 8 -4.59615 0 3 -4.59615 0
gene 5 4 8 0.634087 0 4 0.634087 1
gene 5 5 8 -8 0 5 -8 1
gene 3 6 8 7.19834 0 6 7.19834 1
gene 7 7 8 -8 0 7 -8 1
gene 5 5 14 -2.4292 0 18 -2.4292 1
gene 5 14 8 0.740981 0 19 0.740981 0
gene 5 1 14 0.514605 0 22 0.514605 1
gene 7 3 14 4.09383 0 24 4.09383 1
gene 4 4 14 -2.3979 0 39 -2.3979 1
gene 4 3 19 3.62799 0 47 3.62799 1
gene 4 19 8 5.2909 0 48 5.2909 1
gene 4 6 14 1.0123 0 50 1.0123 1
gene 4 19 23 -1.97344 0 63 -1.97344 1
gene 4 23 8 -2.48948 0 64 -2.48948 1
gene 2 23 14 1.57861 0 70 1.57861 1
gene 4 23 27 0.668127 0 79 0.668127 1
gene 4 27 8 2.75012 0 80 2.75012 1
gene 7 1 19 -2.48525 0 83 -2.48525 1
gene 4 5 27 8 0 92 8 0
gene 2 2 19 7.44784 0 108 7.44784 1
gene 8 6 23 2.36604 0 115 2.36604 1
gene 4 2 23 -2.82165 0 124 -2.82165 0
gene 8 4 19 1.35125 0 153 1.35125 1
gene 4 5 47 -2.24116 0 181 -2.24116 0
gene 4 47 27 2.20448 0 182 2.20448 1
gene 7 27 14 1.1937 0 193 1.1937 1
gene 4 4 27 -2.688 0 212 -2.688 1
gene 1 2 27 3.44761 0 222 3.44761 1
gene 4 2 53 -6.08342 0 226 -6.08342 1
gene 4 53 23 8 0 227 8 1
gene 2 53 27 -6.53337 0 238 -6.53337 1
gene 4 5 64 5.08186 0 277 5.08186 1
gene 4 64 47 1.20652 0 278 1.20652 1
gene 7 19 47 0.276886 0 338 0.276886 1
gene 4 7 23 -0.327307 0 366 -0.327307 1
gene 4 3 89 -2.66498 0 375 -2.66498 1
gene 4 89 8 1.61931 0 376 1.61931 1
gene 6 53 64 -0.377116 0 399 -0.377116 1
gene 5 53 14 -2.13467 0 420 -2.13467 1
genomeend 16

/* Organism #17 Fitness: 107 Error: 0 */
/* ##------$ WINNER 17 SPECIES #42 $------## */
genomestart 17
trait 1 0.1 0 0 0 0 0 0 0 
trait 2 0.2 0 0 0 0 0 0 0 
trait 3 0.3 0 0 0 0 0 0 0 
trait 4 0 0 0 0 0 0 0 0 
trait 5 0.5 0 0 0 0 0 0 0 
trait 6 0.378347 0 0 0.742295 0 0.359265 0 0.227462 
trait 7 0.7 0 0 0 0 0 0 0 
trait 8 0.8 0 0 0 0 0 0 0 
node 1 3 1 3
node 2 5 1 1
node 3 4 1 1
node 4 6 1 1
node 5 3 1 1
node 6 3 1 1
node 7 8 1 1
node 8 1 0 2
node 14 1 0 0
node 19 1 0 0
node 23 2 0 0
node 27 3 0 0
node 47 1 0 0
node 53 1 0 0
node 64 1 0 0
node 89 1 0 0
node 102 1 0 0
gene 7 1 8 -0.728024 0 1 -0.728024 1
gene 6 2 8 -1.14947 0 2 -1.14947 1
gene 4 3 8 1.20759 0 3 1.20759 0
gene 5 4 8 -0.234149 0 4 -0.234149 1
gene 5 5 8 -6.11684 0 5 -6.11684 1
gene 3 6 8 5.22325 0 6 5.22325 1
gene 7 7 8 -5.96431 0 7 -5.96431 1
gene 5 5 14 0.68478 0 18 0.68478 1
gene 5 14 8 -1.51666 0 19 -1.51666 1
gene 5 1 14 -0.874077 0 22 -0.874077 1
gene 7 3 14 5.50466 0 24 5.50466 1
gene 4 4 14 -4.49355 0 39 -4.49355 1
gene 4 3 19 1.37456 0 47 1.37456 1
gene 4 19 8 4.55108 0 48 4.55108 1
gene 4 6 14 -0.103858 0 50 -0.103858 1
gene 4 19 23 -0.598934 0 63 -0.598934 1
gene 4 23 8 -0.47839 0 64 -0.47839 1
gene 2 23 14 0.68784 0 70 0.68784 1
gene 4 23 27 4.40681 0 79 4.40681 1
gene 4 27 8 3.13888 0 80 3.13888 1
gene 7 1 19 2.53496 0 83 2.53496 1
gene 4 5 27 5.69897 0 92 5.69897 0
gene 2 2 19 2.46103 0 108 2.46103 1
gene 8 6 23 0.662106 0 115 0.662106 1
gene 4 2 23 -3.60749 0 124 -3.60749 0
gene 8 4 19 -2.41859 0 153 -2.41859 1
gene 4 5 47 -3.77395 0 181 -3.77395 1
gene 4 47 27 3.16087 0 182 3.16087 1
gene 7 27 14 -2.79788 0 193 -2.79788 1
gene 4 4 27 -3.99912 0 212 -3.99912 1
gene 1 2 27 2.96957 0 222 2.96957 1
gene 4 2 53 -2.28685 0 226 -2.28685 1
gene 4 53 23 3.27088 0 227 3.27088 0
gene 2 53 27 -4.9484 0 238 -4.9484 1
gene 4 5 64 4.55893 0 277 4.55893 1
gene 4 64 47 -0.74543 0 278 -0.74543 1
gene 7 19 47 -0.652121 0 338 -0.652121 1
gene 4 7 23 2.01497 0 366 2.01497 1
gene 4 3 89 -1.76189 0 375 -1.76189 1
gene 4 89 8 1.24104 0 376 1.24104 1
gene 6 53 64 -2.45012 0 399 -2.45012 1
gene 5 53 14 -0.860913 0 420 -0.860913 1
gene 4 53 102 1 0 425 1 1
gene 4 102 23 5.32447 0 426 5.32447 1
genomeend 17

/* Organism #18 Fitness: 31 Error: 0 */
genomestart 18
trait 1 0.1 0 0 0 0 0 0 0 
trait 2 0.2 0 0 0 0 0 0 0 
trait 3 0.3 0 0 0 0 0 0 0 
trait 4 0 0 0 0 0 0 0 0 
trait 5 0.5 0 0 0 0 0 0 0 
trait 6 0.378347 0 0 0.742295 0 0.359265 0 0.227462 
trait 7 0.7 0 0 0 0 0 0 0 
trait 8 0.8 0 0 0 0 0 0 0 
node 1 3 1 3
node 2 5 1 1
node 3 4 1 1
node 4 6 1 1
node 5 3 1 1
node 6 3 1 1
node 7 8 1 1
node 8 7 0 2
node 14 1 0 0
node 19 3 0 0
node 23 2 0 0
node 27 3 0 0
node 47 1 0 0
node 53 1 0 0
node 64 1 0 0
node 89 1 0 0
node 102 1 0 0
gene 7 1 8 -0.434977 0 1 -0.434977 1
gene 6 2 8 -1.58058 0 2 -1.58058 1
gene 4 3 8 -1.89591 0 3 -1.89591 0
gene 5 4 8 0.134229 0 4 0.134229 1
gene 5 5 8 -8 0 5 -8 1
gene 3 6 8 4.77297 0 6 4.77297 1
gene 7 7 8 -5.77241 0 7 -5.77241 1
gene 5 5 14 -2.07337 0 18 -2.07337 1
gene 5 14 8 -2.12199 0 19 -2.12199 0
gene 5 1 14 -2.18954 0 22 -2.18954 1
gene 7 3 14 2.49663 0 24 2.49663 1
gene 4 4 14 -5.09852 0 39 -5.09852 1
gene 4 3 19 3.33185 0 47 3.33185 1
gene 4 19 8 5.90313 0 48 5.90313 1
gene 4 6 14 -0.583923 0 50 -0.583923 1
gene 4 19 23 -2.40044 0 63 -2.40044 1
gene 4 23 8 -1.0925 0 64 -1.0925 1
gene 2 23 14 1.85265 0 70 1.85265 1
gene 4 23 27 5.06132 0 79 5.06132 1
gene 4 27 8 2.64265 0 80 2.64265 1
gene 7 1 19 -2.10479 0 83 -2.10479 1
gene 4 5 27 8 0 92 8 0
gene 2 2 19 3.075 0 108 3.075 1
gene 8 6 23 0.284666 0 115 0.284666 1
gene 4 2 23 -4.64946 0 124 -4.64946 1
gene 8 4 19 -0.67524 0 153 -0.67524 1
gene 4 5 47 0.140339 0 181 0.140339 1
gene 4 47 27 -0.0207059 0 182 -0.0207059 1
gene 7 27 14 -3.05941 0 193 -3.05941 1
gene 4 4 27 -2.33494 0 212 -2.33494 1
gene 1 2 27 3.72187 0 222 3.72187 1
gene 4 2 53 -4.41124 0 226 -4.41124 1
gene 4 53 23 8 0 227 8 1
gene 2 53 27 -1.7038 0 238 -1.7038 1
gene 4 5 64 2.63907 0 277 2.63907 1
gene 4 64 47 2.14389 0 278 2.14389 1
gene 7 19 47 0.962334 0 338 0.962334 1
gene 4 7 23 1.3238 0 366 1.3238 1
gene 4 3 89 -3.11757 0 375 -3.11757 1
gene 4 89 8 0.432478 0 376 0.432478 1
gene 6 53 64 0.143106 0 399 0.143106 1
gene 5 53 14 -3.63496 0 420 -3.63496 1
gene 4 53 102 2.01271 0 425 2.01271 1
gene 4 102 23 -1.8009 0 426 -1.8009 1
genomeend 18

/* Organism #19 Fitness: 42 Error: 0 */
genomestart 19
trait 1 0.1 0 0 0 0 0 0 0 
trait 2 0.2 0 0 0 0 0 0 0 
trait 3 0.3 0 0 0 0 0 0 0 
trait 4 0 0 0 0 0 0 0 0 
trait 5 0.5 0 0 0 0 0 0 0 
trait 6 0.378347 0 0 0.742295 0 0.359265 0 0.227462 
trait 7 0.7 0 0 0 0 0 0 0 
trait 8 0.8 0 0 0 0 0 0 0 
node 1 3 1 3
node 2 5 1 1
node 3 4 1 1
node 4 6 1 1
node 5 3 1 1
node 6 3 1 1
node 7 8 1 1
node 8 1 0 2
node 14 1 0 0
node 19 1 0 0
node 23 2 0 0
node 27 3 0 0
node 47 1 0 0
node 53 1 0 0
node 64 1 0 0
node 89 1 0 0
node 102 1 0 0
node 104 1 0 0
gene 7 1 8 -0.300578 0 1 -0.300578 1
gene 6 2 8 -2.1114 0 2 -2.1114 1
gene 4 3 8 -0.201626 0 3 -0.201626 0
gene 5 4 8 0.742571 0 4 0.742571 1
gene 5 5 8 -8 0 5 -8 1
gene 3 6 8 6.23827 0 6 6.23827 1
gene 7 7 8 -4.67998 0 7 -4.67998 1
gene 5 5 14 1.01295 0 18 1.01295 1
gene 5 14 8 -1.04166 0 19 -1.04166 1
gene 5 1 14 -1.67828 0 22 -1.67828 1
gene 7 3 14 3.14092 0 24 3.14092 1
gene 4 4 14 -6.83577 0 39 -6.83577 0
gene 4 3 19 2.19119 0 47 2.19119 1
gene 4 19 8 5.606 0 48 5.606 1
gene 4 6 14 0.994119 0 50 0.994119 1
gene 4 19 23 -1.0715 0 63 -1.0715 1
gene 4 23 8 -0.803505 0 64 -0.803505 1
gene 2 23 14 -0.882206 0 70 -0.882206 1
gene 4 23 27 4.61614 0 79 4.61614 1
gene 4 27 8 1.91196 0 80 1.91196 1
gene 7 1 19 1.37536 0 83 1.37536 1
gene 4 5 27 8 0 92 8 0
gene 2 2 19 1.49938 0 108 1.49938 1
gene 8 6 23 0.658066 0 115 0.658066 1
gene 4 2 23 -3.88852 0 124 -3.88852 0
gene 8 4 19 -1.64777 0 153 -1.64777 1
gene 4 5 47 -2.48356 0 181 -2.48356 1
gene 4 47 27 0.668333 0 182 0.668333 1
gene 7 27 14 -3.60958 0 193 -3.60958 1
gene 4 4 27 -1.80112 0 212 -1.80112 1
gene 1 2 27 3.68051 0 222 3.68051 1
gene 4 2 53 -3.13066 0 226 -3.13066 1
gene 4 53 23 5.0128 0 227 5.0128 0
gene 2 53 27 -2.64456 0 238 -2.64456 1
gene 4 5 64 2.73905 0 277 2.73905 1
gene 4 64 47 1.58782 0 278 1.58782 1
gene 7 19 47 -1.29707 0 338 -1.29707 1
gene 4 7 23 0.757289 0 366 0.757289 1
gene 4 3 89 -2.03131 0 375 -2.03131 1
gene 4 89 8 -0.365265 0 376 -0.365265 1
gene 6 53 64 0.663328 0 399 0 1
gene 5 53 14 -0.860913 0 420 -0.860913 1
gene 4 53 102 1 0 425 0 1
gene 4 102 23 5.0128 0 426 0 1
gene 4 4 104 1 0 432 0 1
gene 4 104 14 -6.83577 0 433 0 1
genomeend 19
