
/* Species #41 : (Size 7) (AF 41.5715) (Age 8)  */


/* Organism #0 Fitness: 102 Error: 0 */
/* ##------$ WINNER 0 SPECIES #41 $------## */
genomestart 0
trait 1 0.1 0 0 0 0 0 0 0 
trait 2 0.2 0 0 0 0 0 0 0 
trait 3 0.3 0 0 0 0 0 0 0 
trait 4 0 0 0 0 0 0 0 0 
trait 5 0.5 0 0 0 0 0 0 0 
trait 6 0.378347 0 0 0.742295 0 0.359265 0 0.227462 
trait 7 0.7 0 0 0 0 0 0 0 
trait 8 0.8 0 0 0 0 0 0 0 
node 1 3 1 3
node 2 5 1 1
node 3 4 1 1
node 4 6 1 1
node 5 3 1 1
node 6 3 1 1
node 7 8 1 1
node 8 1 0 2
node 14 1 0 0
node 19 1 0 0
node 23 2 0 0
node 27 3 0 0
node 47 1 0 0
node 53 1 0 0
node 64 1 0 0
node 89 1 0 0
node 98 1 0 0
node 110 1 0 0
gene 7 1 8 1.62237 0 1 1.62237 1
gene 6 2 8 -1.61442 0 2 -1.61442 1
gene 4 3 8 -0.944509 0 3 -0.944509 0
gene 5 4 8 1.93063 0 4 1.93063 1
gene 5 5 8 0.541364 0 5 0.541364 1
gene 3 6 8 -2.76364 0 6 -2.76364 1
gene 7 7 8 -8 0 7 -8 1
gene 5 5 14 0.698587 0 18 0.698587 1
gene 5 14 8 -1.98951 0 19 -1.98951 0
gene 5 1 14 -0.503059 0 22 -0.503059 1
gene 7 3 14 3.1006 0 24 3.1006 1
gene 4 4 14 -8 0 39 -8 1
gene 4 3 19 -4.89367 0 47 -4.89367 1
gene 4 19 8 8 0 48 8 1
gene 4 6 14 -1.08504 0 50 -1.08504 1
gene 4 19 23 -3.13045 0 63 -3.13045 1
gene 4 23 8 -3.09872 0 64 -3.09872 0
gene 2 23 14 1.31355 0 70 1.31355 1
gene 4 23 27 1.19169 0 79 1.19169 1
gene 4 27 8 2.46333 0 80 2.46333 1
gene 7 1 19 1.96932 0 83 1.96932 1
gene 4 5 27 2.44417 0 92 2.44417 0
gene 2 2 19 1.16287 0 108 1.16287 1
gene 8 6 23 1.8347 0 115 1.8347 1
gene 4 2 23 -0.126147 0 124 -0.126147 0
gene 8 4 19 3.21308 0 153 3.21308 1
gene 4 5 47 1.43674 0 181 1.43674 0
gene 4 47 27 -1.05393 0 182 -1.05393 1
gene 7 27 14 -4.75478 0 193 -4.75478 1
gene 4 4 27 -2.67022 0 212 -2.67022 1
gene 1 2 27 -0.027568 0 222 -0.027568 1
gene 4 2 53 -4.28202 0 226 -4.28202 1
gene 4 53 23 -0.260276 0 227 -0.260276 1
gene 2 53 27 -3.46772 0 238 -3.46772 1
gene 4 5 64 -3.42891 0 277 -3.42891 1
gene 4 64 47 1.85702 0 278 1.85702 1
gene 7 19 47 1.77311 0 338 1.77311 1
gene 4 7 23 -1.14987 0 366 -1.14987 1
gene 4 3 89 1.26098 0 375 1.26098 1
gene 4 89 8 1.5759 0 376 1.5759 1
gene 6 53 64 1.74198 0 399 1.74198 1
gene 5 14 98 1.0026 0 411 1.0026 1
gene 5 98 8 -0.310275 0 412 -0.310275 1
gene 3 23 89 2.14356 0 434 2.14356 1
gene 6 5 53 -2.82112 0 442 -2.82112 1
gene 4 23 110 0.453953 0 454 0.453953 1
gene 4 110 8 -1.64257 0 455 -1.64257 1
genomeend 0

/* Organism #1 Fitness: 23 Error: 0 */
genomestart 1
trait 1 0.1 0 0 0 0 0 0 0 
trait 2 0.2 0 0 0 0 0 0 0 
trait 3 0.3 0 0 0 0 0 0 0 
trait 4 0 0 0 0 0 0 0 0 
trait 5 0.5 0 0 0 0 0 0 0 
trait 6 0.378347 0 0 0.742295 0 0.359265 0 0.227462 
trait 7 0.7 0 0 0 0 0 0 0 
trait 8 0.8 0 0 0 0 0 0 0 
node 1 3 1 3
node 2 5 1 1
node 3 4 1 1
node 4 6 1 1
node 5 3 1 1
node 6 3 1 1
node 7 8 1 1
node 8 1 0 2
node 14 1 0 0
node 19 1 0 0
node 23 2 0 0
node 27 3 0 0
node 47 1 0 0
node 53 1 0 0
node 64 1 0 0
node 89 1 0 0
node 98 1 0 0
node 110 1 0 0
gene 7 1 8 1.62237 0 1 1.62237 1
gene 6 2 8 -1.61442 0 2 -1.61442 1
gene 4 3 8 -0.944509 0 3 -0.944509 0
gene 5 4 8 1.93063 0 4 1.93063 1
gene 5 5 8 0.541364 0 5 0.541364 1
gene 3 6 8 -2.76364 0 6 -2.76364 1
gene 7 7 8 -8 0 7 -8 1
gene 5 5 14 0.698587 0 18 0.698587 1
gene 5 14 8 -1.98951 0 19 -1.98951 0
gene 5 1 14 -0.503059 0 22 -0.503059 1
gene 7 3 14 3.1006 0 24 3.1006 1
gene 4 4 14 -8 0 39 -8 1
gene 4 3 19 -4.89367 0 47 -4.89367 1
gene 4 19 8 8 0 48 8 1
gene 4 6 14 -1.08504 0 50 -1.08504 1
gene 4 19 23 -3.13045 0 63 -3.13045 1
gene 4 23 8 -3.09872 0 64 -3.09872 0
gene 2 23 14 1.31355 0 70 1.31355 1
gene 4 23 27 1.19169 0 79 1.19169 1
gene 4 27 8 2.46333 0 80 2.46333 1
gene 7 1 19 1.96932 0 83 1.96932 1
gene 4 5 27 2.44417 0 92 2.44417 0
gene 2 2 19 1.16287 0 108 1.16287 1
gene 8 6 23 1.8347 0 115 1.8347 1
gene 4 2 23 -0.126147 0 124 -0.126147 0
gene 8 4 19 3.21308 0 153 3.21308 1
gene 4 5 47 1.43674 0 181 1.43674 0
gene 4 47 27 -1.05393 0 182 -1.05393 1
gene 7 27 14 -4.75478 0 193 -4.75478 1
gene 4 4 27 -2.67022 0 212 -2.67022 1
gene 1 2 27 -0.027568 0 222 -0.027568 1
gene 4 2 53 -4.28202 0 226 -4.28202 1
gene 4 53 23 -0.260276 0 227 -0.260276 1
gene 2 53 27 -3.46772 0 238 -3.46772 1
gene 4 5 64 -3.42891 0 277 -3.42891 1
gene 4 64 47 1.85702 0 278 1.85702 1
gene 7 19 47 1.77311 0 338 1.77311 1
gene 4 7 23 -1.14987 0 366 -1.14987 1
gene 4 3 89 1.26098 0 375 1.26098 1
gene 4 89 8 1.5759 0 376 1.5759 1
gene 6 53 64 1.74198 0 399 1.74198 1
gene 5 14 98 1.0026 0 411 1.0026 1
gene 5 98 8 -0.310275 0 412 -0.310275 1
gene 3 23 89 2.14356 0 434 2.14356 1
gene 6 5 53 -2.82112 0 442 -2.82112 1
gene 4 23 110 0.453953 0 454 0.453953 1
gene 4 110 8 -1.64257 0 455 -1.64257 1
gene 6 1 110 -0.107328 0 471 -0.107328 1
genomeend 1

/* Organism #2 Fitness: 22 Error: 0 */
genomestart 2
trait 1 0.1 0 0 0 0 0 0 0 
trait 2 0.2 0 0 0 0 0 0 0 
trait 3 0.3 0 0 0 0 0 0 0 
trait 4 0 0 0 0 0 0 0 0 
trait 5 0.5 0 0 0 0 0 0 0 
trait 6 0.378347 0 0 0.742295 0 0.359265 0 0.227462 
trait 7 0.7 0 0 0 0 0 0 0 
trait 8 0.8 0 0 0 0 0 0 0 
node 1 3 1 3
node 2 5 1 1
node 3 4 1 1
node 4 6 1 1
node 5 3 1 1
node 6 3 1 1
node 7 8 1 1
node 8 1 0 2
node 14 1 0 0
node 19 1 0 0
node 23 2 0 0
node 27 3 0 0
node 47 7 0 0
node 53 1 0 0
node 64 1 0 0
node 89 1 0 0
node 98 1 0 0
node 110 1 0 0
gene 7 1 8 1.94919 0 1 1.94919 1
gene 6 2 8 -1.61442 0 2 -1.61442 1
gene 4 3 8 2.4175 0 3 2.4175 0
gene 5 4 8 3.17267 0 4 3.17267 1
gene 5 5 8 -1.16479 0 5 -1.16479 1
gene 3 6 8 -1.82898 0 6 -1.82898 1
gene 7 7 8 -8 0 7 -8 1
gene 5 5 14 0.641895 0 18 0.641895 1
gene 5 14 8 0.0961757 0 19 0.0961757 0
gene 5 1 14 -0.503059 0 22 -0.503059 1
gene 7 3 14 -1.78462 0 24 -1.78462 1
gene 4 4 14 -8 0 39 -8 1
gene 4 3 19 -3.9327 0 47 -3.9327 1
gene 4 19 8 7.59508 0 48 7.59508 1
gene 4 6 14 -2.59413 0 50 -2.59413 1
gene 4 19 23 0.945562 0 63 0.945562 1
gene 4 23 8 -0.478619 0 64 -0.478619 0
gene 2 23 14 2.4139 0 70 2.4139 1
gene 4 23 27 3.65091 0 79 3.65091 1
gene 4 27 8 3.17682 0 80 3.17682 1
gene 7 1 19 2.35683 0 83 2.35683 1
gene 4 5 27 1.6194 0 92 1.6194 0
gene 2 2 19 1.16287 0 108 1.16287 1
gene 8 6 23 -2.46333 0 115 -2.46333 1
gene 4 2 23 -2.62493 0 124 -2.62493 0
gene 8 4 19 1.7145 0 153 1.7145 1
gene 4 5 47 -0.607247 0 181 -0.607247 0
gene 4 47 27 1.98846 0 182 1.98846 1
gene 7 27 14 -4.75478 0 193 -4.75478 1
gene 4 4 27 -4.06226 0 212 -4.06226 1
gene 1 2 27 1.94169 0 222 1.94169 1
gene 4 2 53 -4.7484 0 226 -4.7484 1
gene 4 53 23 0.807215 0 227 0.807215 1
gene 2 53 27 -3.21234 0 238 -3.21234 1
gene 4 5 64 -0.434597 0 277 -0.434597 1
gene 4 64 47 -2.39073 0 278 -2.39073 1
gene 7 19 47 -0.568202 0 338 -0.568202 1
gene 4 7 23 -0.0811616 0 366 -0.0811616 1
gene 4 3 89 1.44894 0 375 1.44894 1
gene 4 89 8 2.87049 0 376 2.87049 1
gene 6 53 64 -3.74714 0 399 -3.74714 1
gene 5 14 98 0.62043 0 411 0.62043 1
gene 5 98 8 0.278503 0 412 0.278503 1
gene 3 23 89 -1.95309 0 434 -1.95309 1
gene 6 5 53 -0.731077 0 442 -0.731077 1
gene 4 23 110 2.00432 0 454 2.00432 1
gene 4 110 8 -1.63052 0 455 -1.63052 1
genomeend 2

/* Organism #3 Fitness: 20 Error: 0 */
genomestart 3
trait 1 0.1 0 0 0 0 0 0 0 
trait 2 0.2 0 0 0 0 0 0 0 
trait 3 0.3 0 0 0 0 0 0 0 
trait 4 0 0 0 0 0 0 0 0 
trait 5 0.5 0 0 0 0 0 0 0 
trait 6 0.378347 0 0 0.742295 0 0.359265 0 0.227462 
trait 7 0.7 0 0 0 0 0 0 0 
trait 8 0.8 0 0 0 0 0 0 0 
node 1 3 1 3
node 2 5 1 1
node 3 4 1 1
node 4 6 1 1
node 5 3 1 1
node 6 3 1 1
node 7 8 1 1
node 8 1 0 2
node 14 1 0 0
node 19 1 0 0
node 23 2 0 0
node 27 3 0 0
node 47 1 0 0
node 53 1 0 0
node 64 1 0 0
node 89 1 0 0
node 98 1 0 0
node 110 1 0 0
gene 7 1 8 -2.37041 0 1 -2.37041 1
gene 6 2 8 -0.868651 0 2 -0.868651 1
gene 4 3 8 -1.4819 0 3 -1.4819 0
gene 5 4 8 1.04639 0 4 1.04639 1
gene 5 5 8 1.43505 0 5 1.43505 1
gene 3 6 8 -1.00894 0 6 -1.00894 1
gene 7 7 8 -7.03539 0 7 -7.03539 1
gene 5 5 14 3.59609 0 18 3.59609 1
gene 5 14 8 -2.389 0 19 -2.389 0
gene 5 1 14 -1.57614 0 22 -1.57614 1
gene 7 3 14 5.93988 0 24 5.93988 1
gene 4 4 14 -8 0 39 -8 1
gene 4 3 19 -4.64742 0 47 -4.64742 1
gene 4 19 8 8 0 48 8 1
gene 4 6 14 -1.35919 0 50 -1.35919 1
gene 4 19 23 -0.838792 0 63 -0.838792 1
gene 4 23 8 0.606619 0 64 0.606619 0
gene 2 23 14 -2.0998 0 70 -2.0998 1
gene 4 23 27 1.58879 0 79 1.58879 1
gene 4 27 8 3.41645 0 80 3.41645 1
gene 7 1 19 2.41351 0 83 2.41351 1
gene 4 5 27 1.72781 0 92 1.72781 0
gene 2 2 19 1.4412 0 108 1.4412 1
gene 8 6 23 1.19904 0 115 1.19904 1
gene 4 2 23 -2.84794 0 124 -2.84794 0
gene 8 4 19 2.02146 0 153 2.02146 1
gene 4 5 47 0.974781 0 181 0.974781 0
gene 4 47 27 1.23165 0 182 1.23165 1
gene 7 27 14 -4.85522 0 193 -4.85522 1
gene 4 4 27 -2.23526 0 212 -2.23526 1
gene 1 2 27 0.360793 0 222 0.360793 1
gene 4 2 53 -5.43027 0 226 -5.43027 1
gene 4 53 23 3.43904 0 227 3.43904 1
gene 2 53 27 -3.79169 0 238 -3.79169 1
gene 4 5 64 -1.82427 0 277 -1.82427 1
gene 4 64 47 0.469852 0 278 0.469852 1
gene 7 19 47 3.44275 0 338 3.44275 1
gene 4 7 23 -0.538851 0 366 -0.538851 1
gene 4 3 89 1.43178 0 375 1.43178 1
gene 4 89 8 0.456636 0 376 0.456636 1
gene 6 53 64 -2.82827 0 399 -2.82827 1
gene 5 14 98 4.98881 0 411 4.98881 1
gene 5 98 8 0.302861 0 412 0.302861 1
gene 3 23 89 0.464393 0 434 0.464393 1
gene 6 5 53 -0.751523 0 442 -0.751523 1
gene 4 23 110 0.470954 0 454 0.470954 1
gene 4 110 8 -1.64257 0 455 -1.64257 1
genomeend 3

/* Organism #4 Fitness: 52 Error: 0 */
/* ##------$ WINNER 4 SPECIES #41 $------## */
genomestart 4
trait 1 0.1 0 0 0 0 0 0 0 
trait 2 0.2 0 0 0 0 0 0 0 
trait 3 0.3 0 0 0 0 0 0 0 
trait 4 0 0 0 0 0 0 0 0 
trait 5 0.5 0 0 0 0 0 0 0 
trait 6 0.378347 0 0 0.742295 0 0.359265 0 0.227462 
trait 7 0.7 0 0 0 0 0 0 0 
trait 8 0.8 0 0 0 0 0 0 0 
node 1 3 1 3
node 2 5 1 1
node 3 4 1 1
node 4 6 1 1
node 5 3 1 1
node 6 3 1 1
node 7 8 1 1
node 8 1 0 2
node 14 1 0 0
node 19 1 0 0
node 23 2 0 0
node 27 3 0 0
node 47 1 0 0
node 53 1 0 0
node 64 1 0 0
node 89 1 0 0
node 98 1 0 0
node 110 1 0 0
gene 7 1 8 -1.21584 0 1 -1.21584 1
gene 6 2 8 -2.29015 0 2 -2.29015 1
gene 4 3 8 -0.356451 0 3 -0.356451 0
gene 5 4 8 0.739698 0 4 0.739698 1
gene 5 5 8 0.36187 0 5 0.36187 1
gene 3 6 8 -1.89784 0 6 -1.89784 1
gene 7 7 8 -8 0 7 -8 1
gene 5 5 14 2.08747 0 18 2.08747 1
gene 5 14 8 -1.3797 0 19 -1.3797 0
gene 5 1 14 -0.503059 0 22 -0.503059 1
gene 7 3 14 4.19571 0 24 4.19571 1
gene 4 4 14 -8 0 39 -8 1
gene 4 3 19 -3.25294 0 47 -3.25294 1
gene 4 19 8 8 0 48 8 1
gene 4 6 14 -0.0537416 0 50 -0.0537416 1
gene 4 19 23 -1.53019 0 63 -1.53019 1
gene 4 23 8 -1.64257 0 64 -1.64257 0
gene 2 23 14 -2.68931 0 70 -2.68931 1
gene 4 23 27 3.21145 0 79 3.21145 1
gene 4 27 8 2.3454 0 80 2.3454 1
gene 7 1 19 4.16125 0 83 4.16125 1
gene 4 5 27 0.511554 0 92 0.511554 0
gene 2 2 19 2.01058 0 108 2.01058 1
gene 8 6 23 2.91727 0 115 2.91727 1
gene 4 2 23 -2.02641 0 124 -2.02641 0
gene 8 4 19 3.21308 0 153 3.21308 1
gene 4 5 47 0.473014 0 181 0.473014 0
gene 4 47 27 -1.02785 0 182 -1.02785 1
gene 7 27 14 -3.16192 0 193 -3.16192 1
gene 4 4 27 -1.20372 0 212 -1.20372 1
gene 1 2 27 1.34445 0 222 1.34445 1
gene 4 2 53 -3.85021 0 226 -3.85021 1
gene 4 53 23 3.02292 0 227 3.02292 1
gene 2 53 27 -2.02224 0 238 -2.02224 1
gene 4 5 64 -2.51085 0 277 -2.51085 1
gene 4 64 47 0.137645 0 278 0.137645 1
gene 7 19 47 1.77311 0 338 1.77311 1
gene 4 7 23 -0.986965 0 366 -0.986965 1
gene 4 3 89 1.72659 0 375 1.72659 1
gene 4 89 8 0.456636 0 376 0.456636 1
gene 6 53 64 -2.82827 0 399 -2.82827 1
gene 5 14 98 2.72685 0 411 2.72685 1
gene 5 98 8 1.83426 0 412 1.83426 1
gene 3 23 89 -0.838225 0 434 -0.838225 1
gene 6 5 53 -0.751523 0 442 -0.751523 1
gene 4 23 110 1 0 454 0 1
gene 4 110 8 -1.64257 0 455 0 1
gene 7 47 8 0.897619 0 472 0.897619 1
genomeend 4

/* Organism #5 Fitness: 72 Error: 0 */
/* ##------$ WINNER 5 SPECIES #41 $------## */
genomestart 5
trait 1 0.1 0 0 0 0 0 0 0 
trait 2 0.2 0 0 0 0 0 0 0 
trait 3 0.3 0 0 0 0 0 0 0 
trait 4 0 0 0 0 0 0 0 0 
trait 5 0.5 0 0 0 0 0 0 0 
trait 6 0.378347 0 0 0.742295 0 0.359265 0 0.227462 
trait 7 0.7 0 0 0 0 0 0 0 
trait 8 0.8 0 0 0 0 0 0 0 
node 1 3 1 3
node 2 5 1 1
node 3 4 1 1
node 4 6 1 1
node 5 3 1 1
node 6 3 1 1
node 7 8 1 1
node 8 1 0 2
node 14 1 0 0
node 19 1 0 0
node 23 2 0 0
node 27 3 0 0
node 47 1 0 0
node 53 1 0 0
node 64 1 0 0
node 89 1 0 0
node 98 1 0 0
node 110 1 0 0
gene 7 1 8 0.203264 0 1 0.203264 1
gene 6 2 8 -1.95229 0 2 -1.95229 1
gene 4 3 8 -0.65048 0 3 -0.65048 0
gene 5 4 8 1.33517 0 4 1.33517 1
gene 5 5 8 0.451617 0 5 0.451617 1
gene 3 6 8 -2.33074 0 6 -2.33074 1
gene 7 7 8 -8 0 7 -8 1
gene 5 5 14 1.39303 0 18 1.39303 1
gene 5 14 8 -1.68461 0 19 -1.68461 0
gene 5 1 14 -0.503059 0 22 -0.503059 1
gene 7 3 14 3.64816 0 24 3.64816 1
gene 4 4 14 -8 0 39 -8 1
gene 4 3 19 -4.07331 0 47 -4.07331 1
gene 4 19 8 8 0 48 8 1
gene 4 6 14 -0.569393 0 50 -0.569393 1
gene 4 19 23 -2.33032 0 63 -2.33032 1
gene 4 23 8 -2.37064 0 64 -2.37064 0
gene 2 23 14 -0.687879 0 70 -0.687879 1
gene 4 23 27 2.20157 0 79 2.20157 1
gene 4 27 8 2.40437 0 80 2.40437 1
gene 7 1 19 3.06528 0 83 3.06528 1
gene 4 5 27 1.47786 0 92 1.47786 0
gene 2 2 19 1.58673 0 108 1.58673 1
gene 8 6 23 2.37598 0 115 2.37598 1
gene 4 2 23 -1.07628 0 124 -1.07628 1
gene 8 4 19 3.21308 0 153 3.21308 1
gene 4 5 47 0.954875 0 181 0.954875 1
gene 4 47 27 -1.04089 0 182 -1.04089 1
gene 7 27 14 -3.95835 0 193 -3.95835 1
gene 4 4 27 -1.93697 0 212 -1.93697 1
gene 1 2 27 0.658443 0 222 0.658443 1
gene 4 2 53 -4.06612 0 226 -4.06612 1
gene 4 53 23 1.38132 0 227 1.38132 1
gene 2 53 27 -2.74498 0 238 -2.74498 1
gene 4 5 64 -2.96988 0 277 -2.96988 1
gene 4 64 47 0.997332 0 278 0.997332 1
gene 7 19 47 1.77311 0 338 1.77311 1
gene 4 7 23 -1.06842 0 366 -1.06842 1
gene 4 3 89 1.49378 0 375 1.49378 1
gene 4 89 8 1.01627 0 376 1.01627 1
gene 6 53 64 -0.543141 0 399 -0.543141 1
gene 5 14 98 1.86473 0 411 1.86473 1
gene 5 98 8 0.761994 0 412 0.761994 1
gene 3 23 89 0.652668 0 434 0.652668 1
gene 6 5 53 -1.78632 0 442 -1.78632 1
gene 4 23 110 0.726977 0 454 0.226977 1
gene 4 110 8 -1.64257 0 455 -0.821283 1
genomeend 5

/* Organism #6 Fitness: 0.0002 Error: 0 */
genomestart 6
trait 1 0.1 0 0 0 0 0 0 0 
trait 2 0.2 0 0 0 0 0 0 0 
trait 3 0.3 0 0 0 0 0 0 0 
trait 4 0 0 0 0 0 0 0 0 
trait 5 0.5 0 0 0 0 0 0 0 
trait 6 0.378347 0 0 0.742295 0 0.359265 0 0.227462 
trait 7 0.7 0 0 0 0 0 0 0 
trait 8 0.8 0 0 0 0 0 0 0 
node 1 3 1 3
node 2 5 1 1
node 3 4 1 1
node 4 6 1 1
node 5 3 1 1
node 6 3 1 1
node 7 8 1 1
node 8 1 0 2
node 14 1 0 0
node 19 1 0 0
node 23 2 0 0
node 27 3 0 0
node 47 1 0 0
node 53 1 0 0
node 64 1 0 0
node 89 1 0 0
node 98 1 0 0
node 110 1 0 0
gene 7 1 8 1.62237 0 1 1.62237 1
gene 6 2 8 -1.61442 0 2 -1.61442 1
gene 4 3 8 -0.944509 0 3 -0.944509 0
gene 5 4 8 1.93063 0 4 1.93063 1
gene 5 5 8 0.541364 0 5 0.541364 1
gene 3 6 8 -2.76364 0 6 -2.76364 1
gene 7 7 8 -8 0 7 -8 1
gene 5 5 14 0.698587 0 18 0.698587 1
gene 5 14 8 -1.98951 0 19 -1.98951 0
gene 5 1 14 -0.503059 0 22 -0.503059 1
gene 7 3 14 3.1006 0 24 3.1006 1
gene 4 4 14 -8 0 39 -8 1
gene 4 3 19 -4.89367 0 47 -4.89367 1
gene 4 19 8 8 0 48 8 1
gene 4 6 14 -1.08504 0 50 -1.08504 1
gene 4 19 23 -3.13045 0 63 -3.13045 1
gene 4 23 8 -3.09872 0 64 -3.09872 0
gene 2 23 14 1.31355 0 70 1.31355 1
gene 4 23 27 1.19169 0 79 1.19169 1
gene 4 27 8 2.46333 0 80 2.46333 1
gene 7 1 19 1.96932 0 83 1.96932 1
gene 4 5 27 2.44417 0 92 2.44417 0
gene 2 2 19 1.16287 0 108 1.16287 1
gene 8 6 23 1.8347 0 115 1.8347 1
gene 4 2 23 -0.126147 0 124 -0.126147 0
gene 8 4 19 3.21308 0 153 3.21308 1
gene 4 5 47 1.43674 0 181 1.43674 0
gene 4 47 27 -1.05393 0 182 -1.05393 1
gene 7 27 14 -4.75478 0 193 -4.75478 1
gene 4 4 27 -2.67022 0 212 -2.67022 1
gene 1 2 27 -0.027568 0 222 -0.027568 1
gene 4 2 53 -4.28202 0 226 -4.28202 1
gene 4 53 23 -0.260276 0 227 -0.260276 1
gene 2 53 27 -3.46772 0 238 -3.46772 1
gene 4 5 64 -3.42891 0 277 -3.42891 1
gene 4 64 47 1.85702 0 278 1.85702 1
gene 7 19 47 1.77311 0 338 1.77311 1
gene 4 7 23 -1.14987 0 366 -1.14987 1
gene 4 3 89 1.26098 0 375 1.26098 1
gene 4 89 8 1.5759 0 376 1.5759 1
gene 6 53 64 1.74198 0 399 1.74198 1
gene 5 14 98 1.0026 0 411 1.0026 1
gene 5 98 8 -0.310275 0 412 -0.310275 1
gene 3 23 89 2.14356 0 434 2.14356 1
gene 6 5 53 -2.82112 0 442 -2.82112 1
gene 4 23 110 0.453953 0 454 0.453953 1
gene 4 110 8 -1.64257 0 455 -1.64257 1
gene 1 64 89 0.982343 0 473 0.982343 1
genomeend 6

/* Species #42 : (Size 4) (AF 5.00012) (Age 7)  */


/* Organism #7 Fitness: 0.0001 Error: 0 */
genomestart 7
trait 1 0.1 0 0 0 0 0 0 0 
trait 2 0.2 0 0 0 0 0 0 0 
trait 3 0.3 0 0 0 0 0 0 0 
trait 4 0 0 0 0 0 0 0 0 
trait 5 0.5 0 0 0 0 0 0 0 
trait 6 0.378347 0 0 0.742295 0 0.359265 0 0.227462 
trait 7 0.7 0 0 0 0 0 0 0 
trait 8 0.8 0 0 0 0 0 0 0 
node 1 3 1 3
node 2 5 1 1
node 3 4 1 1
node 4 6 1 1
node 5 3 1 1
node 6 3 1 1
node 7 8 1 1
node 8 1 0 2
node 14 1 0 0
node 19 1 0 0
node 23 2 0 0
node 27 3 0 0
node 47 1 0 0
node 53 1 0 0
node 64 1 0 0
node 89 1 0 0
node 102 1 0 0
gene 7 1 8 -0.728024 0 1 -0.728024 1
gene 6 2 8 -2.96265 0 2 -2.96265 1
gene 4 3 8 -0.128777 0 3 -0.128777 0
gene 5 4 8 0.971806 0 4 0.971806 1
gene 5 5 8 -8 0 5 -8 1
gene 3 6 8 2.15087 0 6 2.15087 1
gene 7 7 8 0.438524 0 7 0.438524 1
gene 5 5 14 -0.241837 0 18 -0.241837 1
gene 5 14 8 -1.51666 0 19 -1.51666 1
gene 5 1 14 1.35122 0 22 1.35122 1
gene 7 3 14 5.4963 0 24 5.4963 1
gene 4 4 14 -4.29879 0 39 -4.29879 1
gene 4 3 19 -2.05681 0 47 -2.05681 1
gene 4 19 8 5.05008 0 48 5.05008 1
gene 4 6 14 2.25625 0 50 2.25625 1
gene 4 19 23 0.326229 0 63 0.326229 1
gene 4 23 8 1.23871 0 64 1.23871 1
gene 2 23 14 2.11741 0 70 2.11741 1
gene 4 23 27 4.86384 0 79 4.86384 1
gene 4 27 8 4.75539 0 80 4.75539 1
gene 7 1 19 0.822946 0 83 0.822946 1
gene 4 5 27 3.65497 0 92 3.65497 0
gene 2 2 19 3.38831 0 108 3.38831 1
gene 8 6 23 1.57392 0 115 1.57392 1
gene 4 2 23 -2.02695 0 124 -2.02695 0
gene 8 4 19 2.05113 0 153 2.05113 1
gene 4 5 47 -3.22777 0 181 -3.22777 1
gene 4 47 27 5.28578 0 182 5.28578 1
gene 7 27 14 -0.368751 0 193 -0.368751 1
gene 4 4 27 0.240316 0 212 0.240316 1
gene 1 2 27 1.53492 0 222 1.53492 1
gene 4 2 53 -4.60287 0 226 -4.60287 1
gene 4 53 23 3.27088 0 227 3.27088 0
gene 2 53 27 -7.36421 0 238 -7.36421 1
gene 4 5 64 4.55893 0 277 4.55893 1
gene 4 64 47 0.910984 0 278 0.910984 1
gene 7 19 47 -0.208728 0 338 -0.208728 1
gene 4 7 23 1.97711 0 366 1.97711 1
gene 4 3 89 0.30855 0 375 0.30855 1
gene 4 89 8 1.24104 0 376 1.24104 1
gene 6 53 64 -4.49802 0 399 -4.49802 1
gene 5 53 14 1.36552 0 420 1.36552 1
gene 4 53 102 -0.895718 0 425 -0.895718 1
gene 4 102 23 4.7119 0 426 4.7119 1
gene 1 7 14 2.33667 0 439 2.33667 1
gene 4 4 23 -2.24343 0 452 -2.24343 1
gene 4 2 14 0.0961423 0 474 0.0961423 1
genomeend 7

/* Organism #8 Fitness: 0.0001 Error: 0 */
genomestart 8
trait 1 0.1 0 0 0 0 0 0 0 
trait 2 0.2 0 0 0 0 0 0 0 
trait 3 0.3 0 0 0 0 0 0 0 
trait 4 0 0 0 0 0 0 0 0 
trait 5 0.5 0 0 0 0 0 0 0 
trait 6 0.378347 0 0 0.742295 0 0.359265 0 0.227462 
trait 7 0.7 0 0 0 0 0 0 0 
trait 8 0.8 0 0 0 0 0 0 0 
node 1 3 1 3
node 2 5 1 1
node 3 4 1 1
node 4 6 1 1
node 5 3 1 1
node 6 3 1 1
node 7 8 1 1
node 8 1 0 2
node 14 1 0 0
node 19 1 0 0
node 23 2 0 0
node 27 3 0 0
node 47 1 0 0
node 53 1 0 0
node 64 1 0 0
node 89 1 0 0
node 102 1 0 0
node 114 1 0 0
gene 7 1 8 -0.728024 0 1 -0.728024 1
gene 6 2 8 -2.96265 0 2 -2.96265 1
gene 4 3 8 -0.128777 0 3 -0.128777 0
gene 5 4 8 0.971806 0 4 0.971806 1
gene 5 5 8 -8 0 5 -8 1
gene 3 6 8 2.15087 0 6 2.15087 1
gene 7 7 8 0.438524 0 7 0.438524 1
gene 5 5 14 -0.241837 0 18 -0.241837 1
gene 5 14 8 -1.51666 0 19 -1.51666 1
gene 5 1 14 1.35122 0 22 1.35122 1
gene 7 3 14 5.4963 0 24 5.4963 1
gene 4 4 14 -4.29879 0 39 -4.29879 1
gene 4 3 19 -2.05681 0 47 -2.05681 1
gene 4 19 8 5.05008 0 48 5.05008 1
gene 4 6 14 2.25625 0 50 2.25625 1
gene 4 19 23 0.326229 0 63 0.326229 0
gene 4 23 8 1.23871 0 64 1.23871 1
gene 2 23 14 2.11741 0 70 2.11741 1
gene 4 23 27 4.86384 0 79 4.86384 1
gene 4 27 8 4.75539 0 80 4.75539 1
gene 7 1 19 0.822946 0 83 0.822946 1
gene 4 5 27 3.65497 0 92 3.65497 0
gene 2 2 19 3.38831 0 108 3.38831 1
gene 8 6 23 1.57392 0 115 1.57392 1
gene 4 2 23 -2.02695 0 124 -2.02695 0
gene 8 4 19 2.05113 0 153 2.05113 1
gene 4 5 47 -3.22777 0 181 -3.22777 1
gene 4 47 27 5.28578 0 182 5.28578 1
gene 7 27 14 -0.368751 0 193 -0.368751 1
gene 4 4 27 0.240316 0 212 0.240316 1
gene 1 2 27 1.53492 0 222 1.53492 1
gene 4 2 53 -4.60287 0 226 -4.60287 1
gene 4 53 23 3.27088 0 227 3.27088 0
gene 2 53 27 -7.36421 0 238 -7.36421 1
gene 4 5 64 4.55893 0 277 4.55893 1
gene 4 64 47 0.910984 0 278 0.910984 1
gene 7 19 47 -0.208728 0 338 -0.208728 1
gene 4 7 23 1.97711 0 366 1.97711 1
gene 4 3 89 0.30855 0 375 0.30855 1
gene 4 89 8 1.24104 0 376 1.24104 1
gene 6 53 64 -4.49802 0 399 -4.49802 1
gene 5 53 14 1.36552 0 420 1.36552 1
gene 4 53 102 -0.895718 0 425 -0.895718 1
gene 4 102 23 4.7119 0 426 4.7119 1
gene 1 7 14 2.33667 0 439 2.33667 1
gene 4 4 23 -2.24343 0 452 -2.24343 1
gene 4 19 114 1 0 475 0 1
gene 4 114 23 0.326229 0 476 0 1
genomeend 8

/* Organism #9 Fitness: 0.0003 Error: 0 */
genomestart 9
trait 1 0.1 0 0 0 0 0 0 0 
trait 2 0.2 0 0 0 0 0 0 0 
trait 3 0.3 0 0 0 0 0 0 0 
trait 4 0 0 0 0 0 0 0 0 
trait 5 0.5 0 0 0 0 0 0 0 
trait 6 0.378347 0 0 0.742295 0 0.359265 0 0.227462 
trait 7 0.7 0 0 0 0 0 0 0 
trait 8 0.8 0 0 0 0 0 0 0 
node 1 3 1 3
node 2 5 1 1
node 3 4 1 1
node 4 6 1 1
node 5 3 1 1
node 6 3 1 1
node 7 8 1 1
node 8 1 0 2
node 14 1 0 0
node 19 1 0 0
node 23 2 0 0
node 27 3 0 0
node 47 1 0 0
node 53 1 0 0
node 64 1 0 0
node 89 1 0 0
node 102 1 0 0
node 115 1 0 0
gene 7 1 8 -0.728024 0 1 -0.728024 1
gene 6 2 8 -2.96265 0 2 -2.96265 1
gene 4 3 8 -0.128777 0 3 -0.128777 0
gene 5 4 8 0.971806 0 4 0.971806 1
gene 5 5 8 -8 0 5 -8 1
gene 3 6 8 2.15087 0 6 2.15087 1
gene 7 7 8 0.438524 0 7 0.438524 1
gene 5 5 14 -0.241837 0 18 -0.241837 1
gene 5 14 8 -1.51666 0 19 -1.51666 1
gene 5 1 14 1.35122 0 22 1.35122 1
gene 7 3 14 5.4963 0 24 5.4963 1
gene 4 4 14 -4.29879 0 39 -4.29879 1
gene 4 3 19 -2.05681 0 47 -2.05681 1
gene 4 19 8 5.05008 0 48 5.05008 1
gene 4 6 14 2.25625 0 50 2.25625 1
gene 4 19 23 0.326229 0 63 0.326229 1
gene 4 23 8 1.23871 0 64 1.23871 1
gene 2 23 14 2.11741 0 70 2.11741 1
gene 4 23 27 4.86384 0 79 4.86384 1
gene 4 27 8 4.75539 0 80 4.75539 1
gene 7 1 19 0.822946 0 83 0.822946 1
gene 4 5 27 3.65497 0 92 3.65497 0
gene 2 2 19 3.38831 0 108 3.38831 1
gene 8 6 23 1.57392 0 115 1.57392 1
gene 4 2 23 -2.02695 0 124 -2.02695 0
gene 8 4 19 2.05113 0 153 2.05113 1
gene 4 5 47 -3.22777 0 181 -3.22777 1
gene 4 47 27 5.28578 0 182 5.28578 1
gene 7 27 14 -0.368751 0 193 -0.368751 1
gene 4 4 27 0.240316 0 212 0.240316 1
gene 1 2 27 1.53492 0 222 1.53492 1
gene 4 2 53 -4.60287 0 226 -4.60287 0
gene 4 53 23 3.27088 0 227 3.27088 0
gene 2 53 27 -7.36421 0 238 -7.36421 1
gene 4 5 64 4.55893 0 277 4.55893 1
gene 4 64 47 0.910984 0 278 0.910984 1
gene 7 19 47 -0.208728 0 338 -0.208728 1
gene 4 7 23 1.97711 0 366 1.97711 1
gene 4 3 89 0.30855 0 375 0.30855 1
gene 4 89 8 1.24104 0 376 1.24104 1
gene 6 53 64 -4.49802 0 399 -4.49802 1
gene 5 53 14 1.36552 0 420 1.36552 1
gene 4 53 102 -0.895718 0 425 -0.895718 1
gene 4 102 23 4.7119 0 426 4.7119 1
gene 1 7 14 2.33667 0 439 2.33667 1
gene 4 4 23 -2.24343 0 452 -2.24343 1
gene 4 2 115 1 0 477 0 1
gene 4 115 53 -4.60287 0 478 0 1
genomeend 9

/* Organism #10 Fitness: 20 Error: 0 */
genomestart 10
trait 1 0.1 0 0 0 0 0 0 0 
trait 2 0.2 0 0 0 0 0 0 0 
trait 3 0.3 0 0 0 0 0 0 0 
trait 4 0 0 0 0 0 0 0 0 
trait 5 0.5 0 0 0 0 0 0 0 
trait 6 0.378347 0 0 0.742295 0 0.359265 0 0.227462 
trait 7 0.7 0 0 0 0 0 0 0 
trait 8 0.8 0 0 0 0 0 0 0 
node 1 3 1 3
node 2 5 1 1
node 3 4 1 1
node 4 6 1 1
node 5 3 1 1
node 6 3 1 1
node 7 8 1 1
node 8 1 0 2
node 14 1 0 0
node 19 1 0 0
node 23 2 0 0
node 27 3 0 0
node 47 1 0 0
node 53 1 0 0
node 64 1 0 0
node 89 1 0 0
node 102 1 0 0
gene 7 1 8 -0.728024 0 1 -0.728024 1
gene 6 2 8 -2.96265 0 2 -2.96265 1
gene 4 3 8 -0.128777 0 3 -0.128777 0
gene 5 4 8 0.971806 0 4 0.971806 1
gene 5 5 8 -8 0 5 -8 1
gene 3 6 8 2.15087 0 6 2.15087 1
gene 7 7 8 0.438524 0 7 0.438524 1
gene 5 5 14 -0.241837 0 18 -0.241837 1
gene 5 14 8 -1.51666 0 19 -1.51666 1
gene 5 1 14 1.35122 0 22 1.35122 1
gene 7 3 14 5.4963 0 24 5.4963 1
gene 4 4 14 -4.29879 0 39 -4.29879 1
gene 4 3 19 -2.05681 0 47 -2.05681 1
gene 4 19 8 5.05008 0 48 5.05008 1
gene 4 6 14 2.25625 0 50 2.25625 1
gene 4 19 23 0.326229 0 63 0.326229 1
gene 4 23 8 1.23871 0 64 1.23871 1
gene 2 23 14 2.11741 0 70 2.11741 1
gene 4 23 27 4.86384 0 79 4.86384 1
gene 4 27 8 4.75539 0 80 4.75539 1
gene 7 1 19 0.822946 0 83 0.822946 1
gene 4 5 27 3.65497 0 92 3.65497 0
gene 2 2 19 3.38831 0 108 3.38831 1
gene 8 6 23 1.57392 0 115 1.57392 1
gene 4 2 23 -2.02695 0 124 -2.02695 0
gene 8 4 19 2.05113 0 153 2.05113 1
gene 4 5 47 -3.22777 0 181 -3.22777 1
gene 4 47 27 5.28578 0 182 5.28578 1
gene 7 27 14 -0.368751 0 193 -0.368751 1
gene 4 4 27 0.240316 0 212 0.240316 1
gene 1 2 27 1.53492 0 222 1.53492 1
gene 4 2 53 -4.60287 0 226 -4.60287 1
gene 4 53 23 3.27088 0 227 3.27088 0
gene 2 53 27 -7.36421 0 238 -7.36421 1
gene 4 5 64 4.55893 0 277 4.55893 1
gene 4 64 47 0.910984 0 278 0.910984 1
gene 7 19 47 -0.208728 0 338 -0.208728 1
gene 4 7 23 1.97711 0 366 1.97711 1
gene 4 3 89 0.30855 0 375 0.30855 1
gene 4 89 8 1.24104 0 376 1.24104 1
gene 6 53 64 -4.49802 0 399 -4.49802 1
gene 5 53 14 1.36552 0 420 1.36552 1
gene 4 53 102 -0.895718 0 425 -0.895718 1
gene 4 102 23 4.7119 0 426 4.7119 1
gene 1 7 14 2.33667 0 439 2.33667 1
gene 4 4 23 -2.24343 0 452 -2.24343 1
gene 6 5 102 -0.175548 0 479 -0.175548 1
genomeend 10

/* Species #44 : (Size 4) (AF 24.7501) (Age 4)  */


/* Organism #11 Fitness: 0.0002 Error: 0 */
genomestart 11
trait 1 0.1 0 0 0 0 0 0 0 
trait 2 0.2 0 0 0 0 0 0 0 
trait 3 0.3 0 0 0 0 0 0 0 
trait 4 0 0 0 0 0 0 0 0 
trait 5 0.5 0 0 0 0 0 0 0 
trait 6 0.378347 0 0 0.742295 0 0.359265 0 0.227462 
trait 7 0.7 0 0 0 0 0 0 0 
trait 8 0.8 0 0 0 0 0 0 0 
node 1 3 1 3
node 2 5 1 1
node 3 4 1 1
node 4 6 1 1
node 5 3 1 1
node 6 3 1 1
node 7 8 1 1
node 8 1 0 2
node 14 1 0 0
node 19 1 0 0
node 23 2 0 0
node 27 3 0 0
node 47 1 0 0
node 53 1 0 0
node 64 1 0 0
node 89 1 0 0
node 98 1 0 0
node 106 1 0 0
gene 7 1 8 0.846065 0 1 0.846065 1
gene 6 2 8 1.94486 0 2 1.94486 0
gene 4 3 8 1.77165 0 3 1.77165 0
gene 5 4 8 -1.74503 0 4 -1.74503 1
gene 5 5 8 -0.0271479 0 5 -0.0271479 1
gene 3 6 8 -1.23644 0 6 -1.23644 1
gene 7 7 8 1.11584 0 7 1.11584 1
gene 5 5 14 2.17525 0 18 2.17525 1
gene 5 14 8 -3.38502 0 19 -3.38502 1
gene 5 1 14 -3.56438 0 22 -3.56438 1
gene 7 3 14 2.09744 0 24 2.09744 1
gene 4 4 14 -7.71715 0 39 -7.71715 1
gene 4 3 19 -3.29534 0 47 -3.29534 1
gene 4 19 8 8 0 48 8 1
gene 4 6 14 0.150149 0 50 0.150149 1
gene 4 19 23 2.44202 0 63 2.44202 1
gene 4 23 8 -1.99698 0 64 -1.99698 1
gene 2 23 14 -1.93799 0 70 -1.93799 1
gene 4 23 27 4.28876 0 79 4.28876 1
gene 4 27 8 1.8887 0 80 1.8887 1
gene 7 1 19 3.83546 0 83 3.83546 1
gene 4 5 27 -0.0838048 0 92 -0.0838048 1
gene 2 2 19 -0.322479 0 108 -0.322479 1
gene 8 6 23 5.38284 0 115 5.38284 1
gene 4 2 23 -1.83655 0 124 -1.83655 0
gene 8 4 19 4.65245 0 153 4.65245 1
gene 4 5 47 -1.59795 0 181 -1.59795 0
gene 4 47 27 1.01238 0 182 1.01238 1
gene 7 27 14 -1.95077 0 193 -1.95077 1
gene 4 4 27 -2.18956 0 212 -2.18956 1
gene 1 2 27 3.3608 0 222 3.3608 1
gene 4 2 53 -4.1609 0 226 -4.1609 1
gene 4 53 23 2.60632 0 227 2.60632 1
gene 2 53 27 -3.41768 0 238 -3.41768 1
gene 4 5 64 -3.49074 0 277 -3.49074 1
gene 4 64 47 0.856695 0 278 0.856695 1
gene 7 19 47 1.83255 0 338 1.83255 1
gene 4 7 23 -0.0416785 0 366 -0.0416785 1
gene 4 3 89 1.03639 0 375 1.03639 1
gene 4 89 8 2.81613 0 376 2.81613 1
gene 6 53 64 -0.773991 0 399 -0.773991 1
gene 5 14 98 1.94661 0 411 1.94661 1
gene 5 98 8 -1.29186 0 412 -1.29186 1
gene 4 89 23 1.00488 0 435 1.00488 1
gene 6 2 106 0.555551 0 443 0.555551 1
gene 6 106 8 0.435859 0 444 0.435859 1
gene 6 47 14 -0.350035 0 465 -0.350035 1
gene 3 5 23 0.429806 0 480 0.429806 1
genomeend 11

/* Organism #12 Fitness: 0.0001 Error: 0 */
genomestart 12
trait 1 0.1 0 0 0 0 0 0 0 
trait 2 0.2 0 0 0 0 0 0 0 
trait 3 0.3 0 0 0 0 0 0 0 
trait 4 0 0 0 0 0 0 0 0 
trait 5 0.5 0 0 0 0 0 0 0 
trait 6 0.378347 0 0 0.742295 0 0.359265 0 0.227462 
trait 7 0.7 0 0 0 0 0 0 0 
trait 8 0.8 0 0 0 0 0 0 0 
node 1 3 1 3
node 2 5 1 1
node 3 4 1 1
node 4 6 1 1
node 5 3 1 1
node 6 3 1 1
node 7 8 1 1
node 8 1 0 2
node 14 1 0 0
node 19 1 0 0
node 23 2 0 0
node 27 3 0 0
node 47 1 0 0
node 53 1 0 0
node 64 1 0 0
node 89 1 0 0
node 98 1 0 0
node 106 1 0 0
gene 7 1 8 0.846065 0 1 0.846065 1
gene 6 2 8 1.94486 0 2 1.94486 0
gene 4 3 8 1.77165 0 3 1.77165 0
gene 5 4 8 -1.74503 0 4 -1.74503 1
gene 5 5 8 -0.0271479 0 5 -0.0271479 1
gene 3 6 8 -1.23644 0 6 -1.23644 1
gene 7 7 8 1.11584 0 7 1.11584 1
gene 5 5 14 2.17525 0 18 2.17525 1
gene 5 14 8 -3.38502 0 19 -3.38502 1
gene 5 1 14 -3.56438 0 22 -3.56438 1
gene 7 3 14 2.09744 0 24 2.09744 1
gene 4 4 14 -7.71715 0 39 -7.71715 1
gene 4 3 19 -3.29534 0 47 -3.29534 1
gene 4 19 8 8 0 48 8 1
gene 4 6 14 0.150149 0 50 0.150149 1
gene 4 19 23 2.44202 0 63 2.44202 1
gene 4 23 8 -1.99698 0 64 -1.99698 1
gene 2 23 14 -1.93799 0 70 -1.93799 1
gene 4 23 27 4.28876 0 79 4.28876 1
gene 4 27 8 1.8887 0 80 1.8887 1
gene 7 1 19 3.83546 0 83 3.83546 1
gene 4 5 27 -0.0838048 0 92 -0.0838048 1
gene 2 2 19 -0.322479 0 108 -0.322479 1
gene 8 6 23 5.38284 0 115 5.38284 1
gene 4 2 23 -1.83655 0 124 -1.83655 0
gene 8 4 19 4.65245 0 153 4.65245 1
gene 4 5 47 -1.59795 0 181 -1.59795 0
gene 4 47 27 1.01238 0 182 1.01238 1
gene 7 27 14 -1.95077 0 193 -1.95077 1
gene 4 4 27 -2.18956 0 212 -2.18956 1
gene 1 2 27 3.3608 0 222 3.3608 1
gene 4 2 53 -4.1609 0 226 -4.1609 1
gene 4 53 23 2.60632 0 227 2.60632 1
gene 2 53 27 -3.41768 0 238 -3.41768 1
gene 4 5 64 -3.49074 0 277 -3.49074 1
gene 4 64 47 0.856695 0 278 0.856695 1
gene 7 19 47 1.83255 0 338 1.83255 1
gene 4 7 23 -0.0416785 0 366 -0.0416785 1
gene 4 3 89 1.03639 0 375 1.03639 1
gene 4 89 8 2.81613 0 376 2.81613 1
gene 6 53 64 -0.773991 0 399 -0.773991 1
gene 5 14 98 1.94661 0 411 1.94661 1
gene 5 98 8 -1.29186 0 412 -1.29186 1
gene 4 89 23 1.00488 0 435 1.00488 1
gene 6 2 106 0.555551 0 443 0.555551 1
gene 6 106 8 0.435859 0 444 0.435859 1
gene 6 47 14 -0.350035 0 465 -0.350035 1
gene 1 2 47 0.413892 0 481 0.413892 1
genomeend 12

/* Organism #13 Fitness: 63 Error: 0 */
/* ##------$ WINNER 13 SPECIES #44 $------## */
genomestart 13
trait 1 0.1 0 0 0 0 0 0 0 
trait 2 0.2 0 0 0 0 0 0 0 
trait 3 0.3 0 0 0 0 0 0 0 
trait 4 0 0 0 0 0 0 0 0 
trait 5 0.5 0 0 0 0 0 0 0 
trait 6 0.378347 0 0 0.742295 0 0.359265 0 0.227462 
trait 7 0.7 0 0 0 0 0 0 0 
trait 8 0.8 0 0 0 0 0 0 0 
node 1 3 1 3
node 2 5 1 1
node 3 4 1 1
node 4 6 1 1
node 5 3 1 1
node 6 3 1 1
node 7 8 1 1
node 8 1 0 2
node 14 1 0 0
node 19 1 0 0
node 23 2 0 0
node 27 3 0 0
node 47 1 0 0
node 53 1 0 0
node 64 1 0 0
node 89 1 0 0
node 98 1 0 0
node 106 1 0 0
node 116 1 0 0
gene 7 1 8 0.846065 0 1 0.846065 1
gene 6 2 8 1.94486 0 2 1.94486 0
gene 4 3 8 1.77165 0 3 1.77165 0
gene 5 4 8 -1.74503 0 4 -1.74503 1
gene 5 5 8 -0.0271479 0 5 -0.0271479 1
gene 3 6 8 -1.23644 0 6 -1.23644 1
gene 7 7 8 1.11584 0 7 1.11584 1
gene 5 5 14 2.17525 0 18 2.17525 1
gene 5 14 8 -3.38502 0 19 -3.38502 1
gene 5 1 14 -3.56438 0 22 -3.56438 1
gene 7 3 14 2.09744 0 24 2.09744 1
gene 4 4 14 -7.71715 0 39 -7.71715 1
gene 4 3 19 -3.29534 0 47 -3.29534 1
gene 4 19 8 8 0 48 8 1
gene 4 6 14 0.150149 0 50 0.150149 1
gene 4 19 23 2.44202 0 63 2.44202 1
gene 4 23 8 -1.99698 0 64 -1.99698 1
gene 2 23 14 -1.93799 0 70 -1.93799 1
gene 4 23 27 4.28876 0 79 4.28876 1
gene 4 27 8 1.8887 0 80 1.8887 1
gene 7 1 19 3.83546 0 83 3.83546 1
gene 4 5 27 -0.0838048 0 92 -0.0838048 1
gene 2 2 19 -0.322479 0 108 -0.322479 1
gene 8 6 23 5.38284 0 115 5.38284 1
gene 4 2 23 -1.83655 0 124 -1.83655 0
gene 8 4 19 4.65245 0 153 4.65245 1
gene 4 5 47 -1.59795 0 181 -1.59795 0
gene 4 47 27 1.01238 0 182 1.01238 1
gene 7 27 14 -1.95077 0 193 -1.95077 1
gene 4 4 27 -2.18956 0 212 -2.18956 1
gene 1 2 27 3.3608 0 222 3.3608 1
gene 4 2 53 -4.1609 0 226 -4.1609 1
gene 4 53 23 2.60632 0 227 2.60632 1
gene 2 53 27 -3.41768 0 238 -3.41768 1
gene 4 5 64 -3.49074 0 277 -3.49074 0
gene 4 64 47 0.856695 0 278 0.856695 1
gene 7 19 47 1.83255 0 338 1.83255 1
gene 4 7 23 -0.0416785 0 366 -0.0416785 1
gene 4 3 89 1.03639 0 375 1.03639 1
gene 4 89 8 2.81613 0 376 2.81613 1
gene 6 53 64 -0.773991 0 399 -0.773991 1
gene 5 14 98 1.94661 0 411 1.94661 1
gene 5 98 8 -1.29186 0 412 -1.29186 1
gene 4 89 23 1.00488 0 435 1.00488 1
gene 6 2 106 0.555551 0 443 0.555551 1
gene 6 106 8 0.435859 0 444 0.435859 1
gene 6 47 14 -0.350035 0 465 -0.350035 1
gene 4 5 116 1 0 482 0 1
gene 4 116 64 -3.49074 0 483 0 1
genomeend 13

/* Organism #14 Fitness: 36 Error: 0 */
/* ##------$ WINNER 14 SPECIES #44 $------## */
genomestart 14
trait 1 0.1 0 0 0 0 0 0 0 
trait 2 0.2 0 0 0 0 0 0 0 
trait 3 0.3 0 0 0 0 0 0 0 
trait 4 0 0 0 0 0 0 0 0 
trait 5 0.5 0 0 0 0 0 0 0 
trait 6 0.378347 0 0 0.742295 0 0.359265 0 0.227462 
trait 7 0.7 0 0 0 0 0 0 0 
trait 8 0.8 0 0 0 0 0 0 0 
node 1 3 1 3
node 2 5 1 1
node 3 4 1 1
node 4 6 1 1
node 5 3 1 1
node 6 3 1 1
node 7 8 1 1
node 8 1 0 2
node 14 1 0 0
node 19 1 0 0
node 23 2 0 0
node 27 3 0 0
node 47 1 0 0
node 53 1 0 0
node 64 1 0 0
node 89 1 0 0
node 98 1 0 0
node 106 1 0 0
gene 7 1 8 0.846065 0 1 0.846065 1
gene 6 2 8 1.94486 0 2 1.94486 0
gene 4 3 8 1.77165 0 3 1.77165 0
gene 5 4 8 -1.74503 0 4 -1.74503 1
gene 5 5 8 -0.0271479 0 5 -0.0271479 1
gene 3 6 8 -1.23644 0 6 -1.23644 1
gene 7 7 8 1.11584 0 7 1.11584 1
gene 5 5 14 2.17525 0 18 2.17525 1
gene 5 14 8 -3.38502 0 19 -3.38502 1
gene 5 1 14 -3.56438 0 22 -3.56438 1
gene 7 3 14 2.09744 0 24 2.09744 1
gene 4 4 14 -7.71715 0 39 -7.71715 1
gene 4 3 19 -3.29534 0 47 -3.29534 1
gene 4 19 8 8 0 48 8 1
gene 4 6 14 0.150149 0 50 0.150149 1
gene 4 19 23 2.44202 0 63 2.44202 1
gene 4 23 8 -1.99698 0 64 -1.99698 1
gene 2 23 14 -1.93799 0 70 -1.93799 1
gene 4 23 27 4.28876 0 79 4.28876 1
gene 4 27 8 1.8887 0 80 1.8887 1
gene 7 1 19 3.83546 0 83 3.83546 1
gene 4 5 27 -0.0838048 0 92 -0.0838048 1
gene 2 2 19 -0.322479 0 108 -0.322479 1
gene 8 6 23 5.38284 0 115 5.38284 1
gene 4 2 23 -1.83655 0 124 -1.83655 0
gene 8 4 19 4.65245 0 153 4.65245 1
gene 4 5 47 -1.59795 0 181 -1.59795 0
gene 4 47 27 1.01238 0 182 1.01238 1
gene 7 27 14 -1.95077 0 193 -1.95077 1
gene 4 4 27 -2.18956 0 212 -2.18956 1
gene 1 2 27 3.3608 0 222 3.3608 1
gene 4 2 53 -4.1609 0 226 -4.1609 1
gene 4 53 23 2.60632 0 227 2.60632 1
gene 2 53 27 -3.41768 0 238 -3.41768 1
gene 4 5 64 -3.49074 0 277 -3.49074 1
gene 4 64 47 0.856695 0 278 0.856695 1
gene 7 19 47 1.83255 0 338 1.83255 1
gene 4 7 23 -0.0416785 0 366 -0.0416785 1
gene 4 3 89 1.03639 0 375 1.03639 1
gene 4 89 8 2.81613 0 376 2.81613 1
gene 6 53 64 -0.773991 0 399 -0.773991 1
gene 5 14 98 1.94661 0 411 1.94661 1
gene 5 98 8 -1.29186 0 412 -1.29186 1
gene 4 89 23 1.00488 0 435 1.00488 1
gene 6 2 106 0.555551 0 443 0.555551 1
gene 6 106 8 0.435859 0 444 0.435859 1
gene 6 47 14 -0.350035 0 465 -0.350035 1
gene 8 7 98 -0.782493 0 484 -0.782493 1
genomeend 14

/* Species #45 : (Size 5) (AF 71.4) (Age 3)  */


/* Organism #15 Fitness: 131 Error: 0 */
/* ##------$ WINNER 15 SPECIES #45 $------## */
genomestart 15
trait 1 0.1 0 0 0 0 0 0 0 
trait 2 0.2 0 0 0 0 0 0 0 
trait 3 0.3 0 0 0 0 0 0 0 
trait 4 0 0 0 0 0 0 0 0 
trait 5 0.5 0 0 0 0 0 0 0 
trait 6 0.378347 0 0 0.742295 0 0.359265 0 0.227462 
trait 7 0.7 0 0 0 0 0 0 0 
trait 8 0.8 0 0 0 0 0 0 0 
node 1 3 1 3
node 2 5 1 1
node 3 4 1 1
node 4 6 1 1
node 5 3 1 1
node 6 3 1 1
node 7 8 1 1
node 8 1 0 2
node 14 1 0 0
node 19 1 0 0
node 23 2 0 0
node 27 3 0 0
node 47 1 0 0
node 53 1 0 0
node 64 1 0 0
node 89 1 0 0
node 102 1 0 0
node 109 1 0 0
gene 7 1 8 -0.577295 0 1 -0.577295 1
gene 6 2 8 -0.300609 0 2 -0.300609 1
gene 4 3 8 0.654007 0 3 0.654007 0
gene 5 4 8 1.34993 0 4 1.34993 1
gene 5 5 8 -0.012774 0 5 -0.012774 1
gene 3 6 8 7.58711 0 6 7.58711 1
gene 7 7 8 -7.6523 0 7 -7.6523 1
gene 5 5 14 -2.14191 0 18 -2.14191 1
gene 5 14 8 -2.50585 0 19 -2.50585 1
gene 5 1 14 0.409011 0 22 0.409011 1
gene 7 3 14 0.802668 0 24 0.802668 1
gene 4 4 14 -5.86793 0 39 -5.86793 1
gene 4 3 19 -0.743367 0 47 -0.743367 1
gene 4 19 8 5.58561 0 48 5.58561 1
gene 4 6 14 0.602727 0 50 0.602727 1
gene 4 19 23 0.347149 0 63 0.347149 1
gene 4 23 8 -0.47839 0 64 -0.47839 1
gene 2 23 14 -0.377991 0 70 -0.377991 1
gene 4 23 27 0.965403 0 79 0.965403 1
gene 4 27 8 2.50907 0 80 2.50907 1
gene 7 1 19 0.783816 0 83 0.783816 1
gene 4 5 27 3.48556 0 92 3.48556 0
gene 2 2 19 -2.35738 0 108 -2.35738 1
gene 8 6 23 -0.42294 0 115 -0.42294 1
gene 4 2 23 -3.4895 0 124 -3.4895 0
gene 8 4 19 1.96411 0 153 1.96411 1
gene 4 5 47 -2.74335 0 181 -2.74335 1
gene 4 47 27 3.16087 0 182 3.16087 1
gene 7 27 14 -3.68311 0 193 -3.68311 1
gene 4 4 27 -6.20418 0 212 -6.20418 1
gene 1 2 27 1.34973 0 222 1.34973 1
gene 4 2 53 -0.506544 0 226 -0.506544 1
gene 4 53 23 -1.03531 0 227 -1.03531 0
gene 2 53 27 -7.38683 0 238 -7.38683 1
gene 4 5 64 2.21933 0 277 2.21933 1
gene 4 64 47 0.00617992 0 278 0.00617992 0
gene 7 19 47 -0.613823 0 338 -0.613823 1
gene 4 7 23 0.127317 0 366 0.127317 1
gene 4 3 89 -1.76189 0 375 -1.76189 1
gene 4 89 8 1.93035 0 376 1.93035 1
gene 6 53 64 -3.98992 0 399 -3.98992 1
gene 5 53 14 -2.65664 0 420 -2.65664 1
gene 4 53 102 1.33149 0 425 1.33149 1
gene 4 102 23 7.08948 0 426 7.08948 1
gene 4 64 109 1 0 449 0 1
gene 4 109 47 0.00617992 0 450 0 1
gene 4 6 102 0.85771 0 462 0.85771 1
gene 8 3 23 0.114513 0 467 0.114513 1
gene 7 53 109 0.369713 0 485 0.369713 1
genomeend 15

/* Organism #16 Fitness: 194 Error: 0 */
/* ##------$ WINNER 16 SPECIES #45 $------## */
genomestart 16
trait 1 0.1 0 0 0 0 0 0 0 
trait 2 0.2 0 0 0 0 0 0 0 
trait 3 0.3 0 0 0 0 0 0 0 
trait 4 0 0 0 0 0 0 0 0 
trait 5 0.5 0 0 0 0 0 0 0 
trait 6 0.378347 0 0 0.742295 0 0.359265 0 0.227462 
trait 7 0.7 0 0 0 0 0 0 0 
trait 8 0.8 0 0 0 0 0 0 0 
node 1 3 1 3
node 2 5 1 1
node 3 4 1 1
node 4 6 1 1
node 5 3 1 1
node 6 3 1 1
node 7 8 1 1
node 8 1 0 2
node 14 1 0 0
node 19 1 0 0
node 23 2 0 0
node 27 3 0 0
node 47 1 0 0
node 53 1 0 0
node 64 1 0 0
node 89 1 0 0
node 102 1 0 0
node 109 1 0 0
gene 7 1 8 -0.577295 0 1 -0.577295 1
gene 6 2 8 -0.300609 0 2 -0.300609 1
gene 4 3 8 0.654007 0 3 0.654007 0
gene 5 4 8 1.34993 0 4 1.34993 1
gene 5 5 8 -0.012774 0 5 -0.012774 1
gene 3 6 8 7.58711 0 6 7.58711 1
gene 7 7 8 -7.6523 0 7 -7.6523 1
gene 5 5 14 -2.14191 0 18 -2.14191 1
gene 5 14 8 -2.50585 0 19 -2.50585 1
gene 5 1 14 0.409011 0 22 0.409011 1
gene 7 3 14 0.802668 0 24 0.802668 1
gene 4 4 14 -5.86793 0 39 -5.86793 1
gene 4 3 19 -0.743367 0 47 -0.743367 1
gene 4 19 8 5.58561 0 48 5.58561 1
gene 4 6 14 0.602727 0 50 0.602727 1
gene 4 19 23 0.347149 0 63 0.347149 1
gene 4 23 8 -0.47839 0 64 -0.47839 1
gene 2 23 14 -0.377991 0 70 -0.377991 1
gene 4 23 27 0.965403 0 79 0.965403 1
gene 4 27 8 2.50907 0 80 2.50907 1
gene 7 1 19 0.783816 0 83 0.783816 1
gene 4 5 27 3.48556 0 92 3.48556 0
gene 2 2 19 -2.35738 0 108 -2.35738 1
gene 8 6 23 -0.42294 0 115 -0.42294 1
gene 4 2 23 -3.4895 0 124 -3.4895 0
gene 8 4 19 1.96411 0 153 1.96411 1
gene 4 5 47 -2.74335 0 181 -2.74335 1
gene 4 47 27 3.16087 0 182 3.16087 1
gene 7 27 14 -3.68311 0 193 -3.68311 1
gene 4 4 27 -6.20418 0 212 -6.20418 1
gene 1 2 27 1.34973 0 222 1.34973 1
gene 4 2 53 -0.506544 0 226 -0.506544 1
gene 4 53 23 -1.03531 0 227 -1.03531 0
gene 2 53 27 -7.38683 0 238 -7.38683 1
gene 4 5 64 2.21933 0 277 2.21933 1
gene 4 64 47 0.00617992 0 278 0.00617992 0
gene 7 19 47 -0.613823 0 338 -0.613823 1
gene 4 7 23 0.127317 0 366 0.127317 1
gene 4 3 89 -1.76189 0 375 -1.76189 1
gene 4 89 8 1.93035 0 376 1.93035 1
gene 6 53 64 -3.98992 0 399 -3.98992 1
gene 5 53 14 -2.65664 0 420 -2.65664 1
gene 4 53 102 1.33149 0 425 1.33149 1
gene 4 102 23 7.08948 0 426 7.08948 1
gene 4 64 109 1 0 449 0 1
gene 4 109 47 0.00617992 0 450 0 1
gene 4 6 102 0.85771 0 462 0.85771 1
gene 8 89 23 -0.125555 0 466 -0.125555 1
genomeend 16

/* Organism #17 Fitness: 0 Error: 0 */
genomestart 17
trait 1 0.1 0 0 0 0 0 0 0 
trait 2 0.2 0 0 0 0 0 0 0 
trait 3 0.3 0 0 0 0 0 0 0 
trait 4 0 0 0 0 0 0 0 0 
trait 5 0.5 0 0 0 0 0 0 0 
trait 6 0.378347 0 0 0.742295 0 0.359265 0 0.227462 
trait 7 0.7 0 0 0 0 0 0 0 
trait 8 0.8 0 0 0 0 0 0 0 
node 1 3 1 3
node 2 5 1 1
node 3 4 1 1
node 4 6 1 1
node 5 3 1 1
node 6 3 1 1
node 7 8 1 1
node 8 1 0 2
node 14 1 0 0
node 19 1 0 0
node 23 2 0 0
node 27 3 0 0
node 47 1 0 0
node 53 1 0 0
node 64 1 0 0
node 89 1 0 0
node 102 1 0 0
node 109 1 0 0
gene 7 1 8 -2.27582 0 1 -2.27582 1
gene 6 2 8 0.970813 0 2 0.970813 1
gene 4 3 8 0.269877 0 3 0.269877 0
gene 5 4 8 0.599433 0 4 0.599433 1
gene 5 5 8 -0.742898 0 5 -0.742898 1
gene 3 6 8 5.45093 0 6 5.45093 1
gene 7 7 8 -8 0 7 -8 1
gene 5 5 14 -0.27209 0 18 -0.27209 1
gene 5 14 8 -4.0797 0 19 -4.0797 1
gene 5 1 14 -0.300879 0 22 -0.300879 1
gene 7 3 14 0.696453 0 24 0.696453 1
gene 4 4 14 -7.93296 0 39 -7.93296 1
gene 4 3 19 -2.72797 0 47 -2.72797 1
gene 4 19 8 6.8273 0 48 6.8273 1
gene 4 6 14 -0.595328 0 50 -0.595328 1
gene 4 19 23 1.60879 0 63 1.60879 1
gene 4 23 8 -0.882794 0 64 -0.882794 1
gene 2 23 14 1.04751 0 70 1.04751 1
gene 4 23 27 0.918162 0 79 0.918162 1
gene 4 27 8 0.950399 0 80 0.950399 1
gene 7 1 19 -1.63295 0 83 -1.63295 1
gene 4 5 27 3.95332 0 92 3.95332 0
gene 2 2 19 -1.78512 0 108 -1.78512 1
gene 8 6 23 1.67802 0 115 1.67802 1
gene 4 2 23 -2.15647 0 124 -2.15647 0
gene 8 4 19 1.90143 0 153 1.90143 1
gene 4 5 47 -3.98001 0 181 -3.98001 1
gene 4 47 27 5.40155 0 182 5.40155 1
gene 7 27 14 -3.88395 0 193 -3.88395 1
gene 4 4 27 -7.43432 0 212 -7.43432 1
gene 1 2 27 0.563993 0 222 0.563993 1
gene 4 2 53 0.431488 0 226 0.431488 1
gene 4 53 23 0.120539 0 227 0.120539 0
gene 2 53 27 -8 0 238 -8 1
gene 4 5 64 1.22078 0 277 1.22078 1
gene 4 64 47 0.686443 0 278 0.686443 0
gene 7 19 47 -2.32678 0 338 -2.32678 1
gene 4 7 23 1.75351 0 366 1.75351 1
gene 4 3 89 -2.7141 0 375 -2.7141 1
gene 4 89 8 3.82059 0 376 3.82059 1
gene 6 53 64 -3.98992 0 399 -3.98992 1
gene 5 53 14 -4.34757 0 420 -4.34757 1
gene 4 53 102 1.33149 0 425 1.33149 1
gene 4 102 23 8 0 426 8 1
gene 4 64 109 1.24857 0 449 1.24857 1
gene 4 109 47 0.00617992 0 450 0.00617992 1
gene 4 6 102 2.71558 0 462 2.71558 1
gene 8 89 23 -0.984065 0 466 -0.984065 1
genomeend 17

/* Organism #18 Fitness: 32 Error: 0 */
/* ##------$ WINNER 18 SPECIES #45 $------## */
genomestart 18
trait 1 0.1 0 0 0 0 0 0 0 
trait 2 0.2 0 0 0 0 0 0 0 
trait 3 0.3 0 0 0 0 0 0 0 
trait 4 0 0 0 0 0 0 0 0 
trait 5 0.5 0 0 0 0 0 0 0 
trait 6 0.378347 0 0 0.742295 0 0.359265 0 0.227462 
trait 7 0.7 0 0 0 0 0 0 0 
trait 8 0.8 0 0 0 0 0 0 0 
node 1 3 1 3
node 2 5 1 1
node 3 4 1 1
node 4 6 1 1
node 5 3 1 1
node 6 3 1 1
node 7 8 1 1
node 8 1 0 2
node 14 1 0 0
node 19 1 0 0
node 23 2 0 0
node 27 3 0 0
node 47 1 0 0
node 53 1 0 0
node 64 1 0 0
node 89 1 0 0
node 102 1 0 0
node 109 6 0 0
gene 7 1 8 -2.03887 0 1 -2.03887 1
gene 6 2 8 1.2485 0 2 1.2485 1
gene 4 3 8 -1.78168 0 3 -1.78168 0
gene 5 4 8 3.1208 0 4 3.1208 1
gene 5 5 8 -1.7523 0 5 -1.7523 1
gene 3 6 8 5.85956 0 6 5.85956 1
gene 7 7 8 -7.14298 0 7 -7.14298 1
gene 5 5 14 -1.2774 0 18 -1.2774 1
gene 5 14 8 -4.15865 0 19 -4.15865 1
gene 5 1 14 0.786512 0 22 0.786512 1
gene 7 3 14 -1.32113 0 24 -1.32113 1
gene 4 4 14 -6.13966 0 39 -6.13966 1
gene 4 3 19 -1.99088 0 47 -1.99088 1
gene 4 19 8 7.49108 0 48 7.49108 1
gene 4 6 14 -2.25988 0 50 -2.25988 1
gene 4 19 23 1.31428 0 63 1.31428 1
gene 4 23 8 1.57506 0 64 1.57506 1
gene 2 23 14 -1.66372 0 70 -1.66372 1
gene 4 23 27 -0.180312 0 79 -0.180312 1
gene 4 27 8 4.90839 0 80 4.90839 1
gene 7 1 19 -0.390198 0 83 -0.390198 1
gene 4 5 27 4.47733 0 92 4.47733 0
gene 2 2 19 0.103133 0 108 0.103133 1
gene 8 6 23 1.41504 0 115 1.41504 1
gene 4 2 23 1.67017 0 124 1.67017 0
gene 8 4 19 2.24032 0 153 2.24032 1
gene 6 5 47 2.21205 0 181 2.21205 1
gene 4 47 27 4.43961 0 182 4.43961 1
gene 7 27 14 -3.70602 0 193 -3.70602 1
gene 4 4 27 -7.22712 0 212 -7.22712 1
gene 1 2 27 -1.22727 0 222 -1.22727 1
gene 4 2 53 -2.60401 0 226 -2.60401 1
gene 4 53 23 -0.852656 0 227 -0.852656 1
gene 2 53 27 -7.38683 0 238 -7.38683 1
gene 4 5 64 0.14342 0 277 0.14342 1
gene 4 64 47 1.90056 0 278 1.90056 0
gene 7 19 47 0.987634 0 338 0.987634 1
gene 4 7 23 1.70647 0 366 1.70647 1
gene 4 3 89 -0.573938 0 375 -0.573938 1
gene 4 89 8 -0.426307 0 376 -0.426307 1
gene 6 53 64 -2.43212 0 399 -2.43212 1
gene 5 53 14 -2.65664 0 420 -2.65664 1
gene 4 53 102 1.33149 0 425 1.33149 1
gene 4 102 23 -2.40449 0 426 -2.40449 1
gene 4 64 109 1 0 449 1 1
gene 4 109 47 0.202451 0 450 0.202451 1
gene 4 6 102 0.350718 0 462 0.350718 1
genomeend 18

/* Organism #19 Fitness: 0 Error: 0 */
genomestart 19
trait 1 0.1 0 0 0 0 0 0 0 
trait 2 0.2 0 0 0 0 0 0 0 
trait 3 0.3 0 0 0 0 0 0 0 
trait 4 0 0 0 0 0 0 0 0 
trait 5 0.5 0 0 0 0 0 0 0 
trait 6 0.378347 0 0 0.742295 0 0.359265 0 0.227462 
trait 7 0.7 0 0 0 0 0 0 0 
trait 8 0.8 0 0 0 0 0 0 0 
node 1 3 1 3
node 2 5 1 1
node 3 4 1 1
node 4 6 1 1
node 5 3 1 1
node 6 3 1 1
node 7 8 1 1
node 8 1 0 2
node 14 1 0 0
node 19 1 0 0
node 23 2 0 0
node 27 3 0 0
node 47 1 0 0
node 53 1 0 0
node 64 1 0 0
node 89 1 0 0
node 102 1 0 0
node 109 1 0 0
gene 7 1 8 0.696691 0 1 0.696691 1
gene 6 2 8 0.597908 0 2 0.597908 1
gene 4 3 8 -0.0167004 0 3 -0.0167004 0
gene 5 4 8 3.37663 0 4 3.37663 1
gene 5 5 8 -1.94482 0 5 -1.94482 1
gene 3 6 8 8 0 6 8 1
gene 7 7 8 -8 0 7 -8 1
gene 5 5 14 -0.875352 0 18 -0.875352 1
gene 5 14 8 -3.31155 0 19 -3.31155 1
gene 5 1 14 1.32211 0 22 1.32211 1
gene 7 3 14 1.92309 0 24 1.92309 1
gene 4 4 14 -3.79022 0 39 -3.79022 1
gene 4 3 19 0.613735 0 47 0.613735 1
gene 1 19 8 3.29706 0 48 3.29706 1
gene 4 6 14 1.70209 0 50 1.70209 1
gene 4 19 23 -1.04952 0 63 -1.04952 1
gene 4 23 8 -2.86142 0 64 -2.86142 1
gene 2 23 14 -0.198974 0 70 -0.198974 1
gene 4 23 27 0.0495251 0 79 0.0495251 1
gene 4 27 8 3.66456 0 80 3.66456 1
gene 7 1 19 -0.155541 0 83 -0.155541 1
gene 4 5 27 5.80586 0 92 5.80586 0
gene 2 2 19 -3.12511 0 108 -3.12511 1
gene 8 6 23 -1.70255 0 115 -1.70255 1
gene 4 2 23 -1.33871 0 124 -1.33871 0
gene 8 4 19 0.559476 0 153 0.559476 1
gene 4 5 47 -1.0739 0 181 -1.0739 1
gene 4 47 27 1.73668 0 182 1.73668 1
gene 7 27 14 -4.76916 0 193 -4.76916 1
gene 4 4 27 -5.37561 0 212 -5.37561 1
gene 1 2 27 -0.610965 0 222 -0.610965 1
gene 4 2 53 -1.31018 0 226 -1.31018 1
gene 4 53 23 0.365539 0 227 0.365539 0
gene 2 53 27 -8 0 238 -8 1
gene 4 5 64 0.230015 0 277 0.230015 1
gene 4 64 47 0.263699 0 278 0.263699 0
gene 7 19 47 0.0942498 0 338 0.0942498 1
gene 4 7 23 0.666396 0 366 0.666396 1
gene 4 3 89 0.737882 0 375 0.737882 1
gene 4 89 8 1.19027 0 376 1.19027 1
gene 6 53 64 -3.98992 0 399 -3.98992 1
gene 5 53 14 -2.65664 0 420 -2.65664 1
gene 4 53 102 3.5367 0 425 3.5367 1
gene 4 102 23 5.01437 0 426 5.01437 1
gene 4 64 109 1 0 449 1 1
gene 4 109 47 0.302316 0 450 0.302316 1
gene 4 6 102 -0.152679 0 462 -0.152679 1
genomeend 19
